Concept	0	1	2	3	4	5	6	7	8	9	10	11	12	13	14	15	16	17	18	19	20	21	22	23	24	25	26	27	28	29	30	31	32	33	34	35	36	37	38	39	40	41	42	43	44	45	46	47	48	49	50	51	52	53	54	55	56	57	58	59	60	61	62	63	64	65	66	67	68	69	70	71	72	73	74	75	76	77	78	79	80	81	82	83	84	85	86	87	88	89	90	91	92	93	94	95	96	97	98	99	100	101	102	103	104	105	106	107	108	109	110	111	112	113	114	115	116	117	118	119	120	121	122	123	124	125	126	127	128	129	130	131	132	133	134	135	136	137	138	139	140	141	142	143	144	145	146	147	148	149	150	151	152	153	154	155	156	157	158	159	160	161	162	163	164	165	166	167	168	169	170	171	172	173	174	175	176	177	178	179	180	181	182	183	184	185	186	187	188	189	190	191	192	193	194	195	196	197	198	199	200	201	202	203	204	205	206	207	208	209	210	211	212	213	214	215	216	217	218	219	220	221	222	223	224	225	226	227	228	229	230	231	232	233	234	235	236	237	238	239	240	241	242	243	244	245	246	247	248	249	250	251	252	253	254	255	256	257	258	259	260	261	262	263	264	265	266	267	268	269	270	271	272	273	274	275	276	277	278	279	280	281	282	283	284	285	286	287	288	289	290	291	292	293	294	295	296	297	298	299
accordion	-0.697679384687	1.07170284512	-0.180012577334	0.183607794445	-0.369026519477	0.462270736746	-0.435660730286	-0.515548476715	-1.44863908384	1.04347847388	0.665090113219	0.0259819088138	-0.452122806289	0.0380714670318	-0.0791304150184	-0.0865157554546	0.427877266158	-0.12554824703	-0.0591621339718	0.146312605608	-0.280925117657	-0.0139088793269	-0.0201529357666	0.164257853482	0.0110577806859	0.0105345844298	0.0399901055728	-0.203213350391	0.184049105172	0.0223832942965	-0.0711026948984	-0.103395389322	-0.0301958575922	0.0108206609971	0.151053976966	0.0508386784021	-0.15504449099	0.167603819686	0.0249569700392	-0.015214255419	0.079197439709	-0.100894217334	-0.136209543749	-0.197745904159	0.133129637924	0.0235113497012	0.0650863528562	-0.0176567083782	0.000370714648842	0.0677432440022	-0.187015898354	0.227690302765	-0.0517665213175	-0.120922860348	-0.0490311846288	-0.0619450509578	0.0210017186539	-0.0497622419273	0.0862180378386	-0.0353983703608	0.0172923421702	-0.0251866417744	-0.0232325664394	0.192687952928	0.0836769270523	-0.12034266041	0.101755254917	-0.162724027769	0.0159077612252	0.121940550296	0.0199078274652	-0.0812473872947	-0.00587550116317	-0.0209064685872	0.147965650556	0.24149033982	-0.00844919259493	0.00981127451644	0.00773862081036	0.020294221246	0.0767062007444	-0.0393788353657	0.0635776280226	0.107182576717	-0.051079045064	0.00990859331421	-0.0719531930529	-0.00682813818399	-0.102415091221	0.0573292979793	0.118768755103	-0.0179317996881	-0.0812520064042	0.0163290290729	-0.0212285771818	-0.0925649765986	-0.032707816318	0.0281032849895	0.036841264141	-0.0664041688161	0.0118466217977	0.0747439422725	-0.043157062916	-0.00348523620021	0.0235239005099	-0.155778297255	0.0202881731606	0.0926946997381	-0.0514858280082	0.0289886041535	-0.154774632093	0.0275469043587	0.0212501124089	0.0532543184513	-0.0694205880075	-0.0414904212763	-0.0502999746616	-0.0748388528446	-0.100280683887	-0.061359954544	0.0279698136098	0.117698765724	0.066341948745	0.0507911027809	0.0427037198023	-0.0684332743654	-0.0831826365073	0.0800398308764	-0.0473188239397	-0.219744114358	0.0370813466768	0.164203589934	-0.133985695222	-0.115569478114	-0.0842369059053	0.024772173354	-0.0285929572636	-0.121220839549	-0.18706423787	-0.102192180763	0.0948254867121	0.106226549924	-0.15733924424	-0.0180088213102	0.025976522952	0.111683261507	-0.226195988178	0.114505151184	0.0619711843704	-0.092412485734	-0.13022355307	-0.125546519623	-0.0814448208581	-0.111134162485	0.0244504524458	-0.182237253911	0.0112282777049	0.115081329237	-0.0712909351393	0.0151534961873	-0.0656454653493	0.178915069963	0.120241101656	0.247141370176	-0.114435049314	-0.0380112818918	0.157692840534	-0.0262744074357	0.0386824743299	0.0461887712172	0.0161834302932	0.174252920226	0.198560145301	-0.282801057293	0.00710275931046	0.0694764792882	0.0358983220965	0.0651476735499	0.0407001144797	0.109330504046	0.0938811018681	0.0121221071978	-0.164617043237	-0.10299103134	-0.0340742462699	0.0164043532771	0.0346230936438	0.283248446358	-0.0570404898669	0.0986424220082	-0.161240030498	-0.00307048406158	0.0905528411405	-0.183338931841	0.0482569840346	0.196925543083	-0.0218794828761	0.121810969815	-0.00251133161514	0.0298051431626	0.161163326288	0.0155819811321	0.0330544797341	-0.121649940265	-0.0723304177386	0.191156645896	-0.160072479604	0.00955248110567	0.113629815973	-0.122634009399	0.0708963501443	-0.17971984677	0.204575124166	-0.0806614761178	-0.0825078021607	-0.0480732568511	-0.163585489002	-0.0897431805799	-0.00352903343303	-0.0536878483824	0.0470245620721	-0.111193269261	0.0594090619866	0.0517611345784	-0.0722609364837	0.00782297335844	-0.0840068325436	-0.160025164589	-0.0392825649697	-0.0269658865582	0.0319951087386	0.0619925770242	0.0414452053453	0.0141975213437	0.00755478387375	-0.0327679184565	-0.138870542847	-0.0436426686552	-0.0295526391073	-0.12213632426	-0.0484515231458	0.0588608635553	-0.0543130648582	-0.0523014105994	0.0915401347542	0.00364955950966	-0.109221225968	0.0138669939121	-0.0586482569061	0.0400213176925	-0.103843367263	0.0495900630222	-0.0442648834544	0.0661958093554	0.0219224079899	-0.092045446654	0.0478416046854	-0.0452004928801	-0.133182657486	0.0700348909362	0.0138483623859	-0.047987048899	-0.0282581194242	-0.0851503463062	0.0834871797891	-0.0410574618495	-0.0127450186399	0.0791165317384	0.0428695865626	0.0201692686821	0.0447650952477	-0.103886481832	0.0113900854913	-0.0921304487741	-0.107724621314	0.0313681898567	0.0789477964053	0.0385584947101	0.0376264814935	-0.00973248650042	-0.0762265807639	-0.123481502034	-0.00113887569761	-0.0801168337468	-0.0248002028142	-0.0431941029242	0.0530910353967	0.0432018599072	-0.103902135458	-0.128694475927	0.0439145932385	0.149168449802	0.102833946349	-0.0860421290256	-0.102845205713	-0.108809544129	-0.073248322563	0.0305304580503	-0.0561515200472	0.00263484887642
aeroplane	-0.944909011122	0.697722459339	-0.416776275806	0.0152734784783	-1.00803588216	0.772604839887	-1.25587358969	0.747227769992	0.0987524001247	-0.965138888534	-0.25591252677	0.125337027061	0.192497255526	-0.0134654964548	-0.106436986104	-0.0249828081207	0.234865661118	-0.0499568961206	-0.0349862765012	0.247276180084	0.070541805607	-0.0778790203945	-0.173249633557	-0.0581287045193	-0.10363043356	0.280755166803	0.112907988181	-0.130618840403	-0.063524489723	-0.00674892674742	0.432267676923	0.113299452579	-0.0139411103889	0.0723930035901	0.105213446517	-0.0692227801062	-0.177868561759	-0.372328472437	0.192162245698	-0.00353782591029	-0.00644021590659	-0.0417083177381	0.128221748093	0.172330316354	-0.372355675857	-0.0743744177019	0.0176845981528	0.32258582435	0.115900382734	-0.0986260465189	-0.218843174329	-0.241078283293	-0.0905332215419	-0.324831294508	0.168135783682	-0.198757008235	0.0632939920625	-0.0115868447649	-0.210399152621	0.201385898619	0.0610139446154	0.482196495312	0.101729701322	-0.22936509633	0.214761801405	0.0910689664901	0.101377888987	0.139263956312	0.195005870772	0.125418319983	-0.288567690805	-0.422942118083	0.000294755495441	-0.173435291358	-0.0610965358019	0.104595295384	0.0276693233401	0.0797698649291	-0.0603937736001	0.0286549067677	-0.397974911489	-0.0334175579504	0.177193948868	-0.0662330020236	0.118102378567	-0.00273260192788	-0.193261440408	0.413206504804	-0.200585713377	0.169791525223	-0.131853544128	0.32934095107	0.199343798731	-0.116157627731	0.0512445811298	0.282162882635	0.0164334155501	0.154555083542	0.0548531002096	0.187431092328	-0.298912290439	0.14027954789	-0.139342881914	0.178131909484	0.0583751479925	0.382672414164	-0.161858750436	0.176785569561	0.179045442314	-0.0402741667096	-0.181816381688	-0.207308977655	0.0591983474358	-0.206280171062	0.0522313907298	0.056572322324	-0.0207373372689	0.02204735766	-0.133608941722	-0.0438492806885	-0.222306242871	-0.142031092403	-0.0358784833919	0.162544215321	-0.0783711625403	-0.0729266695079	0.0317147572769	0.206908948022	-0.230738539781	-0.0147536787152	-0.0123960498532	0.0990995344155	-0.153886846742	-0.0135169900928	-0.0540663159168	-0.124984366028	-0.166061007027	-0.0161403488164	0.0551289669145	-0.122084833041	0.155548360296	0.0983697067485	0.0228707355876	-0.0404827954308	-0.0823626285232	-0.106051718189	-0.10081696626	-0.0242665314959	0.0265350081294	0.00897803902859	0.016031331638	0.117622282179	0.012408524398	0.136331193932	-0.0350611577925	-0.0644908368977	-0.0897112397325	0.117038149761	-0.107875191068	-0.228560813514	-0.160297845955	0.100242044851	0.00417895020237	0.0575471360033	-0.0680108421769	0.032498471708	-0.0471238398102	-0.0952937314458	0.0944058469166	0.0794330997565	-0.0966687970756	-0.00278389231829	-0.0347680348723	-0.107403882565	-0.00105019753634	0.0663490596304	0.067866893506	0.0805639344709	0.0442633518754	0.0573415401115	-0.104596469239	0.0120315377444	0.0595768234172	-0.135790859045	0.0479119749831	-0.0478799098825	0.0617360726995	-0.097903550392	0.151692955737	-0.0138058978218	0.0276334800879	0.0761713766824	-0.095051382026	0.120901002292	-0.0345387594653	-0.0134268755987	-0.0122380984688	0.0351739595227	0.0499502393858	0.0424607466521	-0.0215490582398	-0.170495596826	0.12066909887	-0.0152045782612	0.0272028626862	0.0353723465774	-0.138124026221	0.0445464541358	-0.0408440740337	0.211365601605	-0.0268060789796	-0.00480585118757	-0.0937475294673	0.109650868246	-0.165112285242	0.225933349481	-0.0270048079868	0.043685038247	-0.0640040860841	-0.111521527402	-0.00508255661503	0.015046681695	-0.0316804967976	0.0888040799229	-0.0221827958789	0.0227981489	-0.0550748700839	0.0072053542399	-0.0785692558961	0.27579865182	-0.0768234952004	0.0720435998019	-0.027625145106	0.0639328601765	-0.03509841602	-0.0572471887803	-0.0913940070335	-0.0720924000128	-0.00176919040656	0.0787917923426	0.0826197066538	-0.0117916809249	-0.0129818370073	-0.0401061945524	0.0373395450721	0.0389297219791	-0.0134062771823	-0.0123359796463	-0.0536197129127	-0.0465707197549	-0.0796139480017	-0.066046309414	-0.0683424102948	0.0405062594221	-0.139126629749	0.00115858646849	0.0693107208254	-0.0725800369183	0.00517940792359	0.0397863690713	0.00861775738825	-0.122362031052	0.0976255266128	0.0823003929931	0.067899786444	-0.0565973986379	-0.057796474885	-0.0243956621556	-0.00161312849027	-0.0427880385493	-0.0128804983006	0.120242500558	0.0959042939894	0.0199127091589	-0.0269801758386	0.00555349385144	-0.0484442266339	-0.012687879758	0.021310552205	0.0847643079978	0.0409763807699	0.0385106434773	0.102491396237	-0.0103053960713	0.00255526157467	-0.0743471097216	-0.102141382356	0.0633779881787	0.0575102047335	-0.105799850574	-0.105492564611	-0.0731584558411	-0.046286367582	-0.0283332876629	0.0857894686886	-0.0286712677129	0.0436951421192	0.0681859601478	0.0172512084252	0.0383821081616
alligator	-2.01616845155	-1.30910631651	-1.06378160378	0.620538970766	0.388599901546	0.544053570439	-0.199714904403	-0.87709292721	0.561366545163	-0.26958140227	0.3324351574	-1.59482992318	0.379853499756	0.39719562189	0.785691486916	-0.80760910009	-0.604591861119	-0.395681926443	0.994553967443	0.35071311647	-0.56969782208	0.337182161849	0.110363544996	-0.687918247641	0.0245375341331	0.0668853310847	-0.0436069425622	-0.467683135348	-0.498351765701	1.30844550394	-0.280021722942	0.144526497131	-0.534374664225	-0.12112834892	0.203972072742	0.434227700071	0.144529161373	0.137879822214	-0.567255944163	0.406411736308	-0.0152101930967	-0.206066073489	-0.361620749617	0.436254240566	-0.461226727704	0.0337595125193	0.746858435977	-0.627677227856	-0.564853147418	-0.33749599314	-0.130267991084	-0.01126738552	-0.674484716794	-0.10743274921	0.321021098058	0.576653194571	-0.0845759664271	-0.219945466316	-0.467952859199	0.272817577653	-0.191355178856	0.157121985659	0.647751995241	-0.163745496767	0.114537816711	-0.161255507603	0.079870998603	-0.421108383282	0.456004336416	0.505471897803	-0.112504541531	-0.336234447219	0.0742831645492	-0.363853576189	0.0210459201778	-0.300311383385	-0.177308854309	0.0586524391222	0.435889821731	0.545208162555	0.536281612673	0.631132833024	0.370315115957	-0.114133524556	-0.487224856628	-0.0526847183758	-0.308443324492	-0.139016369496	0.172441463404	-0.171929099567	-0.00227320126463	-0.0197154769021	-0.269041852841	-0.0158601819145	0.336676751095	-0.546783617444	-0.715185467543	-0.0198861582043	0.106854138733	0.0823665319675	-0.257939999435	-0.0766258376244	-0.195909566559	0.0900654086984	-0.00538963259068	-0.364229888338	0.305161709184	-0.268749849967	0.316171680696	-0.0214806439271	0.50908841374	0.115213637674	-0.0217250826581	-0.155351045848	-0.428839672533	-0.401151183762	-0.0809121653002	-0.224106988816	-0.167079768584	-0.144121313123	-0.240914891194	-0.109860492857	0.0392059053919	0.332402792473	-0.00629277940803	0.0681755557395	0.216141826472	-0.00421337688275	0.00686645992596	-0.200146244119	-0.142126867313	0.30826362949	0.0369194364317	-0.184858875066	0.37164308452	0.14235378002	-0.117933552975	0.294057679488	-0.141742712178	0.131022981169	-0.0609591842964	-0.0303902108494	-0.17072941539	-0.14396076761	0.028507080699	-0.0824158863382	-0.00931192012467	-0.323802938954	-0.0202484192741	-0.148165752586	0.256318088372	0.11247375384	0.200125272663	0.0125725490796	0.10430614291	-0.246053948269	0.0897373216313	-0.0797626146673	-0.260951183865	0.0975905342104	-0.0275662554344	-0.122770383565	-0.12727098364	-0.127697191027	0.0261338018751	-0.109443798033	0.0217795986877	0.22729581841	0.269579800474	0.14449956821	-0.24794224283	0.0970625646464	-0.123126173238	0.0878793033005	0.0201888318608	0.0888988458298	0.119307922034	-0.0838693153545	-0.195130384029	-0.140212040023	-0.0536337488677	-0.132016919789	-0.261635499249	-0.166750459043	-0.155068013876	0.0857312946328	-0.013757249525	0.0240223281661	0.145573899459	0.0532104153608	0.166077121327	0.0907711006046	-0.0108847100921	0.102422312104	0.0532937698146	0.0907620486477	-0.222205996099	0.12698972512	0.00596999108283	0.0632676233641	-0.0968187451866	-0.023565428582	-0.0728704396862	-0.285507278834	-2.7694708032e-05	-0.0411408759276	0.302298373248	0.0932137434236	0.233175072129	0.134773320342	-0.209190575916	0.178234826602	0.137989026533	0.0535758258213	-0.165282482684	-0.12495731749	0.25512134508	-0.0328068972267	0.0408812544862	0.00209114046329	-0.0310149527816	0.244975244671	0.175851665526	0.0204733772736	0.0818612063038	-0.114604960041	-0.0912021209268	-0.0974863323122	0.00954685287107	-0.00176964270701	0.154200123098	0.0695833896393	0.174815610154	-0.108256133286	-0.0768060847974	-0.030669307441	-0.0217327239221	0.016341856907	0.133810068608	0.104031714137	-0.141544166607	0.109767965157	-0.0764224183688	-0.100696556418	-0.0602795040478	-0.00767656475942	0.00333196290297	-0.0149116715999	-0.0686851321561	0.0119518170629	-0.0704564597884	0.134953509986	-0.0566620643956	0.0491127276896	-0.0647932284819	0.0584131169738	0.0346989016988	0.0934719642145	-0.0495806211414	0.0712545499636	-0.0750363996513	0.0670270386143	-0.0310595221579	0.00847138821569	0.0452825216188	-0.0921171516757	-0.119644251778	-0.144043979318	-0.0219768063491	0.0567352721707	-0.0317350071724	-0.0712633275891	0.030295430408	-0.0583554969805	0.129045878667	0.0428420540247	0.150270510807	-0.120196825853	-0.0471089688428	-0.00220199213179	0.0689308849624	0.00974319276694	0.0695810344912	-0.0186543941004	-0.040120228269	0.0432876881358	-0.0898744055102	0.0778578308958	-0.0456335077047	0.0509294303488	0.0225932084511	-0.0167388296278	0.0414599052445	-0.047670669892	-0.044977030084	0.017600612392	-0.0478713420966	-0.00333762555437	-0.0612880210192	-0.0243474494918
ambulance	-0.728244567819	0.781949820107	-0.198615046395	0.307853652151	-0.40300343253	0.667400875974	-1.02006590716	0.935904309745	-0.0271387001885	-0.856900422833	0.0716206170843	0.300172245045	-0.69776609455	0.168081895633	-0.428601721026	-0.292779043769	0.063537738292	0.200816898424	-0.297549095682	-0.158841889082	-0.759110510023	0.126862644742	-0.608364324739	-0.0534426826727	0.109794956262	-0.057036851648	-0.0686815776183	-0.143137536908	0.237235582553	-0.297736854022	-0.0275675159087	-0.66709965948	-0.306790614905	-0.0781292047214	0.0413232583863	0.348549919118	-0.197162422931	0.428563957276	-0.117334995907	0.435679831976	0.101956921642	0.0481041430028	0.111993912175	-0.17977787	0.188513769681	0.0384206401452	-0.377463869954	-0.31472674362	-0.0992141827853	0.280172837913	0.140914849208	0.304959974771	0.0839039053235	-0.0955092902865	-0.0334633622984	-0.328864953774	-0.151863711762	-0.238330209949	0.108462828746	0.0671377582775	-0.438092139872	-0.388301165887	0.412960275881	0.333893807787	-0.433737679864	-0.330895435143	-0.00207095432587	-0.0384583527464	0.0350396759809	0.0452687165772	0.243704657199	-0.148787742261	0.362474029081	-0.0246046045349	0.19162516904	-0.392789198386	-0.0902062704718	-0.00228746765517	-0.102005379949	-0.188349067996	0.222133251908	0.155104424161	-0.200830292595	0.112259276078	-0.271302444255	0.168888218198	0.358932853067	-0.850420228185	0.0244605505366	-0.270567640443	0.26824992142	-0.370675356546	-0.114019616613	-0.0647007940619	-0.500081239372	-0.534490622354	0.351459654813	-0.234752189933	-0.0633557865494	0.176123006052	0.545034923323	-0.484602807209	-0.104169961547	-0.301569683578	0.0589045035131	-0.440247561857	0.170001869892	0.169785404126	0.191056796575	-0.0344633884926	0.11599759082	-0.0669347708574	0.203602657818	-0.146626608297	-0.112489255599	-0.374710059143	-0.209653415842	0.304646830747	0.571842058898	-0.162629353381	0.289541135013	0.0571766145597	0.162521439599	-0.122087140813	-0.186059451406	0.234577078816	-0.0902505486302	0.110724186394	0.374127603621	0.0846781506014	0.159951762558	0.307814263809	0.597115053925	0.302116844924	-0.102481916549	0.561665630384	0.0274239291787	0.027004043266	-0.242369636543	-0.0940140430213	-0.394784643534	0.866111704949	-0.369213516003	0.158697448209	-0.383229634959	0.322283943613	-0.220087537218	0.154127202912	-0.0232995565103	-0.592906406156	0.131165920785	-0.0970043322901	-0.296351386482	0.243468936532	0.262996788797	-0.0390699618895	-0.0876677987808	-0.445044491367	0.0787455995196	-0.125981294432	-0.077325631899	0.154415480565	0.213718518769	-0.421393059716	0.0455805438886	-0.0107278558643	0.133426772702	-0.334737245096	-0.195540624594	-0.0189772407904	-0.255252738746	-0.310845020471	0.232570846233	-0.264403789698	-0.00351074296604	0.212881648603	-0.0969857724891	0.1217443721	-0.0974749169091	0.163354612301	-0.1722195533	0.0679295005033	0.585754187884	0.0215832303518	0.28649289718	0.328603236908	0.393518540645	-0.0600134701109	0.052864811454	-0.198655332203	-0.0634317735428	0.180671431837	-0.535262023095	0.438992054756	-0.0790351665882	-0.306235157328	-0.231955735581	-0.133867520402	0.477024138697	0.175397792607	0.209123642555	-0.0860069759451	0.121806070629	-0.188526786243	0.13008627591	-0.0658421954117	-0.124169511084	0.0582098656283	-0.111360653788	0.103340743958	-0.202860478315	-0.219786122895	0.0478753543898	0.298389019599	-0.13232622241	0.392177239457	-0.00468222211116	-0.102434613944	0.0762434369598	-0.0572783549401	-0.129271289252	0.0501493721103	0.0317439501428	0.0408740700187	0.305614820574	0.1725071038	-0.128465672908	0.0964968774932	-0.0663392587696	-0.00579866447026	0.0440196530315	-0.193690303538	-0.381292107151	-0.0775313282357	-0.0981367458189	-0.111876243506	-0.224267432246	0.0494004795518	0.150809643432	0.0674377114031	0.0590016969444	0.173254628765	-0.0186452905027	0.0307642390867	-0.000290556533208	0.16818810805	0.164345135051	-0.22128582425	0.145619634372	0.213546236797	-0.0630514110181	0.203812965458	-0.128029593554	-0.00442084362904	0.039212752572	-0.00668334924179	-0.0920913314168	-0.147486570446	-0.290812862042	-0.113519584884	-0.0722834801148	-0.14875558276	-0.10804710527	-0.262418169625	-0.071749397904	0.121314995666	0.0806064280606	-0.254017330218	0.0173995849826	-0.0383095003929	0.0360875468651	0.0243654414127	0.0140465353791	0.143820255571	0.025094813301	-0.145784486075	0.0323552874379	-0.0209442932761	0.0108974659541	-0.0110450548971	-0.0724790150647	-0.0919525485105	-0.0739846105015	-0.145332627611	0.0831104561411	-0.0640298958991	-0.0656749139346	-0.063227850539	-0.132757854701	0.00109318614502	-0.0160465133158	-0.120089392292	-0.0578364692712	0.0399036838107	0.125331180367	0.0855974765942	0.0675167257747	0.0398449129815	-0.0635484832313	-0.0286405986779
anchor	-0.480700953308	0.610888035339	-0.105754777107	0.244496282617	-0.0792887404585	0.0763349739778	-0.204336162388	-0.175623843269	0.0267125012829	-0.302368663028	0.231917247375	-0.230327292746	-0.165338169275	-0.114802153445	0.16033879295	0.240501292518	-0.0643652913806	0.1667624223	-0.0831066437447	-0.260939377117	0.371779019845	-0.0226199993992	0.21988156758	0.0687045989612	-0.238865549862	-0.14830568751	0.0489972604541	0.150095277784	0.199796456322	-0.1607912124	-0.0394290371633	0.149730605093	0.105643025047	0.0190104698487	0.255053003809	-0.134673326989	-0.432916265401	0.382580310702	0.22272742524	0.0972064068908	-0.0338491411539	-0.147004668779	0.21681562202	0.0291679369972	-0.161708190126	0.0255880060621	-0.363403754375	0.165758227059	0.188179852637	-0.35287936687	-0.072518242781	0.0980318755522	0.273342421182	0.0892251640545	-0.158259803969	0.124061173018	-0.0934032868023	0.0354859411772	0.0146985311382	-0.224510344002	-0.143602086932	-0.0154326616634	0.00147013027668	0.282326085797	-0.125989429734	-0.00201423697597	0.0813739966945	-0.178633432401	0.0417772416766	-0.106960192198	0.0636336647246	0.142192381344	-0.107026367114	0.0832284887036	0.347747953614	-0.0111488768783	0.081387091866	0.125120770508	0.185820245772	0.159088976736	0.0472279670844	0.116629832813	-0.192939793545	-0.140082626153	0.0126255412196	0.208689555992	0.124045643727	-0.100773887231	-0.133251697157	0.064959529873	-0.0466782646593	0.251138437991	-0.449847283963	-0.198589589622	0.145676863603	-0.15290674926	-0.0113971392567	0.0428666769474	-0.0618905623249	0.201578224466	-0.21108661145	0.0451983742504	0.102936754236	-0.0593522379145	-0.0114037510327	0.137841738011	0.0906612370513	0.0146479427334	0.0424972199937	0.0227234520906	-0.0107694750932	-0.0493044145886	-0.0619041351967	-0.0419255084444	0.240418613359	-0.0758247308628	0.128289159961	-0.141523879881	-0.111419108507	-0.0655752272425	0.125010334712	-0.122121841422	-0.0366153416007	-0.130538562385	0.0684126008384	-0.122118321823	0.0988375324208	0.0074628903211	-0.15546663043	0.092193900714	-0.0980184713981	0.0597410930432	0.0047149292478	0.167101429523	-0.0879832687436	-0.0712847414799	-0.00407364883787	0.160518587826	0.185084238237	0.159026103287	0.189369340272	0.10383097471	-0.049518099442	0.0116143445173	0.0561687326511	0.107502497176	0.0152225976261	-0.0944746626506	-0.089492386298	-0.0827013340808	-0.0828423454943	0.173731559702	0.198439121344	0.00393529659802	0.0671313506703	0.0780841444513	-0.0415625364634	0.103670555323	-0.00961652708217	-0.149565579933	0.0975094567848	-0.0348075623208	-0.0761451119669	0.162161075749	0.0709993293056	-0.117590938841	-0.0103799953642	0.0644427377148	0.225476540683	0.198722346115	-0.062223378242	-0.312912131677	-0.118268899425	0.156436226582	0.116259238296	-0.0473408350329	-0.126889277137	0.100794162185	0.0167814379749	-0.0128819806981	0.00403460755743	-0.0278695638566	0.0206249036721	-0.182876837889	-0.00611771419055	-0.162242690948	-0.159776313272	0.148391093373	0.0363801684213	-0.159394578909	0.232148836579	0.0744543342872	0.0343983490978	-0.107963222278	0.229496088212	-0.175700769035	-0.13578715772	-0.00813712902173	0.130685180689	0.342356823769	0.233992569014	0.237792156257	-0.14152830615	0.033252317398	-0.204241620646	-0.0380236761862	-0.0993406547157	-0.0273189212043	-0.205059737704	0.00456905719502	0.129709746449	-0.0959694993717	-0.00110683647204	0.133038627535	-0.025090300703	0.159667880001	0.210444834652	-0.292640249614	0.0308276107717	0.0127919896426	0.0171808140453	0.160844336364	0.00406379210687	-0.148729943541	0.025105769812	-0.111057763475	-0.0082426873054	-0.110847691528	-0.124183977582	-0.152416884802	0.0469637886901	0.0584790679445	0.171880462275	-0.293889315151	0.234735534307	0.247214917814	0.179294776371	-0.0721625539764	0.153400051995	-0.197190972437	0.139878639665	0.0630712246777	-0.148563525518	0.0268958554316	-0.0600480132947	0.123059080164	-0.123736788607	0.157646172196	0.122845735769	0.184035593565	0.117445773275	0.0695293703034	0.128168966262	-0.0945239301628	0.291749005784	-0.00468440898992	-0.115819506532	-0.168398028901	-0.0882875354189	0.0863379900414	-0.209383166861	0.0425811337234	-0.00502400500422	-0.221803627521	-0.109508850218	0.133483479859	-0.121485191875	0.0629783888038	-0.0967712087943	0.109069678873	0.110223207785	-0.337126874857	-0.0763639062892	-0.11839659717	-0.0329508044115	0.0103066137916	-0.0523905866693	0.0900249654561	-0.0140626298697	0.179349882467	-0.0917735074698	-0.0400938768537	0.0643420063416	0.0696002685665	0.145881196094	0.0693981241949	-0.03641442356	0.0922492116009	-0.103533010418	0.0938100449155	0.0756857524698	-0.0564636877384	-0.101025855182	-0.219427330711	0.193725273953	-0.005296526418	-0.020206747121	-0.0927101299895	0.166221086333	0.0927839689458
ant	-1.54736527385	-0.837899871832	-0.512067113236	-0.313424363671	-0.0646591475575	-0.483612223971	0.282078922039	0.363443287944	-0.958673891129	-0.738712690682	-0.154612899903	0.889751868484	0.404342253708	0.0373903352369	1.24141581838	-0.162208291986	-0.276020856407	-0.551461922675	-0.0924931018314	0.0399282797278	0.448934363228	-0.276901791949	-0.567576893648	0.129289111295	0.0875291068288	-0.00884402488718	0.189644677853	-0.289339326515	0.345633090409	-0.227768378722	-0.248447437588	0.277222138751	-0.528527682252	0.227279833847	0.557675851286	0.794466794824	-0.0201209603891	-0.214930765959	0.314805592558	0.527853209405	0.0183402971101	0.181598082232	0.250587658748	0.166129484499	0.507141347245	-0.0525055806179	0.391419542686	-0.490350559001	0.126867817905	0.199815034561	-0.430935880975	-0.382667148442	-0.00434081084706	0.359788799714	-0.065543176059	0.15461906141	0.162789631993	-0.0859736189014	-0.334784323572	0.347547155051	-0.518728172006	-0.289172470912	0.0212752754855	0.129091802743	-0.098383231952	0.0147438649625	0.248767306004	-0.0783474516975	0.0225552808113	-0.257025606498	0.164727396594	0.208845710744	0.114998888222	0.383820899332	0.216236552251	-0.038527460524	0.0201978795712	0.10031108018	-0.0123712198176	-0.109177237754	-0.132890234499	-0.098853063317	0.25072129927	-0.350625586551	-0.0438917385533	-0.149549071831	-0.187223133598	-0.169333721335	-0.27094222942	-0.186165200464	-0.223778547836	-0.127457589374	-0.0238385607343	-0.00955314365015	-0.0996725041741	-0.101785637483	-0.22981281085	-0.30804688602	0.00812690478743	-0.0531967489722	0.0243841674224	0.136983513859	0.212794895902	0.154749639996	0.245115671461	0.116267374202	-0.00585507681273	0.0172067950973	-0.0336364508528	-0.433859326602	0.12191833759	-0.375607137067	-0.0959412961303	-0.065597622179	-0.0353059363205	0.105971919373	0.0259257304128	-0.153301550964	0.038003402958	0.131183942929	0.15524369782	0.0457626488829	0.0172279495868	0.212619949164	-0.116196335861	0.262039509219	0.365585614309	-0.0995324212889	0.0891508077255	0.0837202086798	0.174244845835	0.0240442062891	0.0625853386669	0.200855967216	-0.276060097746	0.107284299679	0.15220067461	-0.445277907668	0.0713548046737	0.0548107798946	-0.334320398229	-0.282971615512	-0.289719285947	0.14651946211	-0.00305120674123	0.0825188006283	-0.027503197823	-0.0425147394644	0.137889375772	-0.212030271066	-0.078576933321	0.378511318407	-0.0918660647528	-0.0530316448515	0.00524443897013	-0.0891310566666	0.115441726983	-0.113990740444	0.267564319092	0.00850256917374	0.092271177864	-0.180623007119	0.0444656134366	0.0436021866323	-0.0699058595275	0.133185295574	-0.098313735898	0.00402277557932	-0.0697144887772	-0.121353662195	0.170027101422	0.0898982654497	0.0550520799245	0.20090604167	0.0677237007807	-0.107053956596	0.0514783184261	-0.0934265284044	0.0165067881624	0.223891888407	0.200844272324	-0.286698731656	-0.128903167814	-0.0424158210428	0.0179045158468	0.0441029576391	-0.0796952102094	0.262916324568	0.0265459124763	0.137145918003	0.0491395757963	-0.0379089243524	-0.151890212493	-0.010068334175	0.0586573063783	0.0282458830992	-0.20314324346	-0.00911965467633	-0.155936707974	0.053261304369	-0.19202145986	-0.030089149339	0.112919033409	0.102139197993	-0.00931598364619	0.180101702525	0.043664990187	-0.225594842124	0.12681941104	0.131387774474	-0.150701729309	-0.19717518302	-0.189857571024	0.0477824400111	0.0357247051993	0.0076561766032	-0.151414593137	0.189965194137	-0.26414972887	0.104968326454	-0.00186715445098	0.0853734494423	-0.062925905874	-0.14391192458	0.00334087502846	-0.167841093555	-0.0365051528956	-0.0277839612894	0.11484911663	0.0194400760629	0.0592825942695	0.0452359466232	0.0646516306652	0.172497645929	-0.262577926985	-0.0267430028268	-0.0719361462709	0.0936682415197	0.0645964936054	-0.159229714484	-0.00894382783759	-0.0137668168259	0.0648877876837	-0.164108642889	-0.0508912228876	0.0282217345588	0.0110320570053	0.021062517086	0.0627835214435	0.0307833878119	0.1784485094	-0.121265677742	0.155531056067	0.138747372383	0.0209131065455	0.21583652004	0.0714757954178	-0.0872859814756	0.143260831556	0.0244015930937	-0.00365124231496	0.121696277492	0.145272970264	0.112906353414	0.0444556820229	-0.0841286898189	0.0437179387993	-0.00432615672488	-0.0594586230881	-0.116539716248	0.195851171624	0.0743506936324	0.00909119503096	0.172146321671	0.0887060039333	-0.0364139303952	-0.0933924809959	-0.148148614991	-0.040324906338	-0.10351941595	0.0155404803099	-0.0633898981603	0.0821724993115	0.0407620732126	0.195750082166	-0.0959686886401	0.217796664952	0.191345799745	-0.0359208449387	0.131843519662	0.0674984642798	-0.0593472023374	0.147330599249	-0.14468560919	-0.162146856531	-0.0808389848692	-0.158346503421	-0.117011428719	0.159100571454	0.0528883194757
apple	-1.06659913815	-0.448341864498	2.65953677286	0.314949123034	-0.0367683959897	-0.0855947766704	-0.505893293314	-0.0817541458238	-0.100634531895	0.380173351214	-1.06959107526	-0.592578674838	0.157944930137	0.407466283826	0.0307217956467	-0.162740487108	-0.00443160717871	-0.36629383858	-0.243736857609	-0.316920626203	-0.025475422156	-0.176227882377	-0.257672500674	0.031804872386	-0.0814798674345	-0.241607103021	0.163187718163	-0.227762131582	-0.0167913952369	0.0882181454012	-0.0367160440502	0.10555716068	-0.12558120252	-0.0392600321396	0.386949549143	0.33525152994	0.113395883823	0.149826835891	0.164049807027	-0.109437239948	0.0680266681207	-0.228182849121	-0.000840316866214	-0.249623318036	-0.162375408634	-0.224946502707	-0.0777306320755	0.11152440271	-0.121265053914	-0.159496146029	-0.0766238177719	-0.0576148040991	0.0356010472897	0.0116835341969	-0.0176246512387	-0.0474065934907	0.24733357472	-0.128448076062	0.0205342724195	0.100345949209	0.0269649513572	-0.038391664671	-0.104386680332	-0.000988006953056	0.131537608143	0.12823686089	0.0537324710129	-0.0803255633892	0.0788632918938	0.0421328508661	-0.266637656387	0.278711183415	-0.0239408884423	0.0386222142643	-0.122656527245	-0.121949441451	-0.105993436933	0.0826125440873	0.215000864648	0.0413924425235	-0.125630282098	-0.0271519099195	0.0382351370567	0.0604530576818	0.176201231485	-0.0754573212513	0.191859560285	0.0743351209957	-0.0267101496162	0.0621057388293	-0.199075728327	-0.0839865799372	0.122974447956	0.0485553315756	-0.117007201812	-0.185555535674	0.0140118375066	-0.00536495237797	0.0492748894915	0.000834904998772	0.19006815446	-0.0813559438243	-0.129512041562	0.0325056380628	0.0549737492227	0.168351085002	0.187218171653	-0.044610890846	-0.118853985231	0.108909856749	0.00155663286035	-0.157539455453	0.0137256779248	-0.14176761803	-0.159429227952	-0.0857497954833	0.0146768066418	-0.117657249824	0.135828010564	-0.0678367361099	0.364570013696	-0.0961884964466	-0.0585699361581	-0.143611191369	-0.0580763705562	0.177522058554	-0.0902208217131	-0.0529964076766	-0.146646121301	-0.0474387039751	-0.0561313281589	-0.126877460801	0.0599202030775	-0.19739329716	0.00408613932986	-0.0233102759859	-0.107282930568	-0.0967768815176	0.0023184294389	-0.0714834976977	-0.106199588348	0.137577513676	0.0811850083166	-0.161716929533	0.0122471423844	0.0101416035807	-0.0535598727511	0.0112982052536	0.154844649337	-0.0127039969705	0.0462683754755	0.0829933019124	0.023566220588	-0.0881846485441	0.151003627181	0.0160687385349	0.0256034022735	-0.139285146879	-0.0647500260554	-0.030733068707	0.0222434459251	-0.0127022706478	-0.12969429328	0.1590712719	-0.0639495769728	-0.129130197074	0.125229193436	0.0967510355676	0.0434592588161	0.182161965603	0.0376740974931	0.0848618489163	-0.246165034044	-0.0227418026871	0.013860137277	-0.0757421565815	0.0379377928798	-0.00861268900351	-0.0775602719965	0.0847401628145	0.135314194539	0.00457420707018	0.131012031832	0.0453116143646	-0.0137169330111	0.0504153661043	-0.0351960791313	0.0681040755683	0.000537371360352	0.0973734102897	-0.105303055645	0.0220013925152	0.0678508530809	0.0764265432086	0.217853348968	0.0585144460868	-0.0824584788396	-0.194025103682	-0.0203108060352	0.0686774578076	-0.0132872179757	0.0912706117707	0.0671200333514	0.0437013621339	0.0328575554518	0.0809788091857	0.146696873185	-0.0544240366267	0.0938068644181	0.0756097884354	-0.0248854225443	0.0909867144716	-0.0428245840605	-0.0555599879896	-0.0402727592746	0.0866627245975	-0.00338399767878	-0.124175724096	-0.138737625558	-0.0386606556972	0.0885911489066	-0.148860143263	-0.0686347363094	-0.335648778323	-0.0602920540971	0.10844987438	0.0158781747164	-0.0360876839962	0.0424674242882	-0.0717621352061	0.033336144273	-0.0539527597255	0.134524606863	-0.0638779712917	-0.0215273050525	0.124320070203	0.060397320003	-0.0437834443184	-0.0392269921144	0.0312954553739	0.127709693608	0.00309100910023	-0.0733089098108	-0.0369433383552	-0.0212679029493	0.0364587101348	0.16665037531	-0.0177223208449	0.024224309609	-0.00100549109633	-0.0537149918048	-0.0355322276246	0.00772187648261	0.0865126494987	-0.098395158156	-0.0811794222474	-0.141673684772	0.127319776792	-0.0194553990248	-0.0888894532619	-0.131320989052	-0.0459434349659	-0.035387229202	-0.00494220940579	0.0942967500924	0.161682216713	0.162297383878	-0.00605936210044	-0.000278139041884	0.00662172482315	-0.0686184606717	0.0208121188548	0.075566411073	0.102237567635	-0.151006484427	0.00931913281344	-0.0619653374967	0.0601414284429	0.0977257446661	0.0958710476526	-0.0908270446374	0.0538554936507	0.0141393101198	-0.142518008133	-0.00404317051284	0.18321813848	0.00970814724896	0.0563292964431	-0.0604853783082	0.0188897669104	0.0898985918542	-0.0662786859534	0.000667556901741	0.0354880992491	-0.0624572080636	-0.0536530230754	0.0627883494335	-0.00145255278026	-0.0790450199415	-0.054366435671
apricot	-1.05800948653	-0.440808464866	1.98812191659	0.163110606786	-0.039969261101	-0.597241373729	-0.289055260865	0.17286831764	-0.464193627343	-0.08876790981	-0.644484786359	-0.491543739832	0.0527909779349	-0.194271794714	-0.0719122241458	0.31281532393	0.00481182256067	-0.416369076894	-0.384031005115	0.466145319635	-0.238988888216	-0.0530723143494	0.136131407878	0.45830925589	0.0288058898542	-0.129218997669	-0.246459053702	0.24048156771	0.0323754120789	0.013903962626	0.0322895363874	0.0032884942941	0.12140026501	-0.00583148491463	-0.311343209206	-0.441850885682	-0.0562093285862	0.0759599677098	-0.364048938281	0.16866156991	0.11372771615	0.230027007376	-0.0745963076484	0.0335439496439	0.0793469051909	0.0987502226243	-0.0413532346276	-0.200773944105	0.301343073524	0.157288893986	0.0674162113244	0.0461649801217	-0.00168584606428	-0.204723860909	-0.184032410108	0.270825161155	-0.10748495687	-0.0173001906612	-0.142294756626	-0.0537473572455	-0.372866448202	0.220566200498	-0.142284496392	0.093927185065	-0.0495630070747	0.230342141623	0.00199180669315	0.45922904613	-0.343520297064	0.325220219726	-0.28879453631	0.0947592057281	-0.10617950124	-0.102435407068	0.188899947659	0.168396849488	-0.395965285565	0.0367380784472	0.00466265260725	-0.224321154194	0.0582507306838	0.309462129206	0.0397477096365	-0.145951312602	-0.407271182008	-0.04073723284	0.0426483545972	-0.00970870756139	0.0181927638831	-0.213429683636	0.244210891564	0.0643089281629	-0.0482692590306	-0.198350995753	-0.0483548489164	0.0575904360863	-0.0528622342995	-0.245434844376	0.0872999325161	0.00735350892179	-0.148854615779	-0.0751668176784	0.158259589452	-0.0514568972457	-0.025736965149	-0.148968087415	-0.176628347404	0.0533664260193	0.206323073381	-0.164160324637	-0.0975159090837	-0.00662489649107	0.0639162567724	0.151180495761	0.0750534218278	-0.0467996946477	0.0920033277263	0.0147041544734	-0.0991181045417	0.132079407872	0.0530124722865	-0.0664122601773	0.133699961134	-0.0640338115128	0.0190267802797	0.00872562060186	0.0655335451568	0.107195959765	-0.0859667146967	-0.0186203893237	0.0557960072527	0.0260896555604	-0.107528892087	-0.0544032523739	0.0124821950736	-0.123633808138	-0.0770543102314	-0.0769559476783	0.0604375757566	-0.0273067761052	-0.014729309134	-0.0239988752002	0.101766485583	0.0451157670869	0.0862777844442	-0.115777588826	0.0438078792587	0.0042530252049	0.0878430648071	-0.0219126740059	-0.0468607073936	0.102810212031	-0.105754644036	-0.0728406305244	0.122071329195	-0.0218305300337	0.0250555711746	0.0835767023978	-0.0717710993735	-0.0394704830584	-0.0172767123925	0.031000223937	-0.103618273951	-0.152203684737	0.0149834689297	-0.0876150615263	0.0308021120682	0.117910542842	-0.00254727172419	-0.0814935847198	-0.152473508968	-0.0488156553502	0.0413827322366	0.0112431192645	-0.0353001776186	-0.0279673898089	-0.0144294507921	-0.0902856687741	0.0441731530912	0.0404845101153	0.0638939458169	0.0230206737604	-0.0158753439593	0.0208128966783	0.14034212764	0.0287450700264	0.060877319925	-0.0249932341147	0.00702122115265	0.0598829178624	-0.119216299769	-0.124634873436	-0.0655245327349	-0.211363418565	-0.140343481311	-0.0226467566368	0.0116516368345	0.00727189102547	0.0205197736969	-0.0793828057862	0.101594542202	0.0319571918226	0.154473966603	0.0750280065704	-0.0270748758241	0.0181280556553	-0.0809926908023	-0.0690405397556	-0.0150292995822	0.0689710628684	-0.018548283738	0.0774843499339	-0.158102865561	0.10202682332	-0.0592426602175	0.0365880819208	0.0256285763996	-0.0771708268285	0.058968370092	0.0730774171675	0.0944375179601	0.120019350985	-0.00363532210369	-0.0214311666547	-0.124020132872	0.0472288549118	-0.0237333156345	-0.034459033479	-0.032895454473	0.00272313292164	0.0165089260945	0.0499556657445	-0.0191475713117	0.0105021285765	-0.026560314451	0.00224945285872	0.026912198562	-0.0504377137133	0.0421411621258	0.142823793554	-0.0516274528801	-0.00458193484256	-0.035591689964	0.03596699298	-0.0664626062156	0.0657234427786	0.0281654477015	-0.054145321597	0.111010898631	0.0489886337405	-0.0989995425138	0.0271546211143	0.0164430391434	0.136313497173	-0.0902188992366	-0.0412474275532	0.0697614307175	0.175777732236	0.0160732690521	-0.0806023783961	-0.0038437193489	0.0121816783314	-0.0879304707529	-0.0205628223488	0.0207634173221	0.0866245648761	0.0433846970503	0.0271887956798	0.0113402333342	-0.00211556620796	0.048102676691	-0.105435956961	0.012813446567	-0.00385781160582	-0.0151602996101	-0.0560405006233	0.0409804709613	-0.0601144057227	0.163268048897	0.0833549684113	-0.0885199123207	-0.00276085453412	0.0211478306742	-0.0776326829993	-0.0226407791607	0.016392436903	0.00889175511876	0.0781066618362	0.0120709174856	-0.0431894253322	0.0136967556213	-0.0443003790748	-0.0133250220182	0.0169697874811	0.0827248034906	-0.0719781440441	-0.0755545187109	-0.0308907664598	0.0831111762724	0.0950529846048
apron	-0.466565777608	0.594449688876	0.101620569934	-1.50907348139	1.06990906854	-0.000777131433358	-0.269017020795	0.217041108213	0.502259701713	0.498771460788	0.140022654413	-0.156955152776	-0.207577619211	0.0686284512786	0.274444611451	-0.303166616408	0.343116764278	0.209458799578	0.376475964497	0.413582797084	-0.00995844277605	-0.176432793801	-0.0679948699125	0.46342630899	-0.0257140187657	0.232775790748	0.153651699918	-0.138869447275	0.223788481255	-0.136188524807	-0.182203938383	-0.0470421427984	0.179124444075	0.0920680338587	0.00882313470632	-0.0419937633736	0.274399735169	-0.283070391708	-0.264377052087	0.668366066949	0.0319762932917	-0.152779507395	0.209262744349	-0.0756636290547	-0.209317956197	0.0602691200033	0.156204250755	0.44978006616	-0.181739757543	0.31291395678	-0.245505165887	0.100052800851	0.18587099231	0.0824219079379	-0.299077555253	0.418647096796	0.108561179611	0.169888153158	-0.128669119319	-0.243835020945	0.321266755862	-0.127120885242	0.223250556226	0.201200088172	-0.145796141878	-0.12192710032	0.16200043708	0.107112647818	-0.190567366393	-0.115732853126	-0.0933499229635	-0.219665221073	0.235584448768	0.153414356087	-0.0998286106688	0.00515187982372	0.050622100339	0.0332817307742	0.227295085214	0.247577553409	-0.177781361453	0.0515722789926	-0.126044429466	-0.143189658792	0.210288438231	-0.138527906621	0.0105162594315	0.058162080145	-0.0538876676528	0.0227815192706	0.0392728362578	0.0323041113076	-0.0237889285912	-0.505940504971	-0.149824062097	0.0407736777905	-0.19496941335	-0.201847584484	-0.300376102477	0.239019953744	-0.0461650001964	-0.264642962299	0.0851844757725	0.016306714385	-0.00732681746343	0.2206112472	-0.245866109881	-0.0862405462792	-0.0249106336932	0.068582176938	-0.0247484632064	0.0927236289177	0.109806123367	0.0095305812505	-0.264281949974	0.12597910485	-0.0358995002492	-0.102061172244	-0.181759704193	-0.189178493354	-0.0541422451236	0.33054906923	0.207909023228	-0.27310976853	-0.0618271796562	0.107831168312	0.149251355107	-0.156368899978	0.104766264508	-0.00959554936774	0.160224556298	0.041642689785	-0.0314786227599	-0.218194385149	0.0477155026454	0.0328823656878	-0.0209473327157	0.256127278915	0.0195568041906	-0.12617892301	-0.518226031712	0.238537630411	0.397726764095	-0.141134374187	0.0373780075133	-0.354386047407	-0.160560487958	0.0750902731577	-0.213607794094	0.359529739173	-0.0692211353251	0.038441145292	-0.0137243719496	0.0200439643859	0.00761943753753	0.0807803305984	0.101492673002	-0.250714561989	0.287308598711	0.299590726072	0.0107637246354	0.119599708527	0.198799989714	0.0268679783808	0.0354579663251	-0.236936534044	-0.103129904148	0.00019059829156	0.0733894972625	0.0635777717248	-0.302880620749	-0.370603060526	-0.0802987935458	-0.181525655906	0.412121554501	-0.0884197817586	-0.0294188852315	0.368781692698	-0.0176475240142	-0.0260976473074	-0.185566483365	-0.115963439892	0.126429644379	-0.00500963630162	-0.250490803054	0.278099998163	0.213001436912	-0.214942329343	-0.000249672523644	0.036737407411	0.44161551653	0.138262883844	0.21942124667	0.102679791609	-0.0114376800527	0.109382853702	0.311703268376	-0.122846127523	-0.271680378654	-0.0586950503869	0.0420489259354	0.0548412343964	0.253301621677	0.519389984246	-0.00489974113076	-0.0928705320755	0.0908010345542	0.284114395222	0.232451917635	-0.214161473764	-0.162493631069	0.0292191081462	-0.482325646663	0.32783553062	-0.2308569578	0.132773388508	0.190589191365	0.124741437443	0.0639473820106	-0.220303951758	0.0847019202618	0.0928139758118	0.274733406172	-0.305471994119	-0.115255510896	-0.210540315202	0.0719284701592	0.308574775274	-0.0750697176308	0.225911062206	-0.182070604309	-0.0880506874583	0.0663733449158	0.135325287016	0.147875973001	0.0754058873947	0.0948489796396	0.0194776083465	-0.0964970329055	-0.0273574707059	-0.278604626202	-0.0910081471217	0.127548308331	0.0865282082072	-0.26066186132	0.202220027159	-0.0709374442555	-0.327892221261	0.0412797135474	0.207946649518	0.17865046528	0.0377806573732	0.33256802374	0.10100746807	0.367302736309	0.0496983844716	0.120936159711	-0.0552060151451	0.120700512938	-0.193283522377	-0.178584563628	-0.0890552456346	-0.0265255265043	-0.0613875551163	0.316720657096	-0.125819028287	-0.0236097014863	-0.0292274934165	-0.173278655144	-0.135116339039	-0.00628394630001	0.384970462992	-0.226576627209	0.122965352571	0.0712003389658	0.0138610285829	-0.0377891596547	0.0538118109504	-0.0102103346445	-0.17347636083	0.28087952924	-0.190083504987	0.0119744269185	-0.233070963356	-0.0214490020678	0.0409022068105	-0.16063996736	0.123808726637	0.127129658843	0.301117363361	0.0990102551775	0.203087036478	-0.00586602157026	0.0197883005365	-0.165056019521	0.0296392678991	0.113247733784	0.167756219474	-0.000767911648232	0.102582578038
arm	-0.35788054806	0.282518709566	0.104151621647	-0.168393401806	0.296160629989	-0.0318900026776	0.0574801233169	-0.38012860237	0.0720524931147	-0.173320539876	-0.104516381404	0.224649645888	0.233429292203	0.949997294746	-0.041219594248	0.804701473339	-0.787353977087	-0.475002189662	-0.120331089133	-0.551830326177	-0.233430355791	0.505136604618	0.418803311749	-0.423410514754	1.19048780623	1.32962880717	-0.373103879054	-0.604156881685	0.916855255621	-0.531957204977	0.202770514073	0.00183942714362	0.313604157647	0.0538891205915	-0.0759342377448	-0.228745144587	-0.263442457491	-0.0844473592077	0.169899628517	-0.284907665086	-0.151531541462	0.417642258039	0.223333142107	-0.315042661016	-0.268703305825	-0.305482910379	0.262315327871	-0.374924324248	0.105256023292	0.350897523395	-0.188912387378	-0.217014158142	-0.0357874553061	-0.0499335088581	-0.00124702601299	0.214278790689	0.355579643445	0.211524454439	-0.0329746294766	-0.111058457008	0.0709776821951	-0.165491163613	-0.154393282198	0.0366197352974	-0.0279207948373	-0.045157792373	0.0594704553682	0.03266575245	0.219916195085	-0.120998603189	0.0323354109324	-0.0374482628852	0.0997914042517	0.0154152836015	-0.00469184601744	-0.282095940201	0.112047401172	-0.103554938191	-0.0683749275631	-0.0448115396501	0.16132603696	-0.0101463021115	0.052502056344	-0.0278565122069	0.0705660959694	-0.0496103198051	-0.0321838274379	-0.183847727859	-0.061535008919	0.0708907570251	0.124492578334	-0.0383628447516	-0.300477749674	0.0915941911508	0.0270193885314	0.178644744102	-0.133399208756	-0.0224452416176	0.207751936634	0.214736304239	-0.148178883952	0.196601926737	-0.177749125078	0.151693636131	-0.118003610008	-0.150990550159	-0.171368653604	0.142535098038	-0.00427926521331	-0.077904473337	0.0107000259505	0.144369739977	-0.041390489596	-0.0447372518025	0.0745307677882	-0.100390096588	-0.128998569595	-0.0315661242938	-0.0525172560218	0.0378823236049	-0.191995611961	-0.120168188196	0.128261697003	-0.0846240957197	0.0230112567687	-0.174058587985	0.0900148097269	-0.0891566206195	0.252679571299	-0.118611918724	0.00240574253951	-0.0311567338902	0.176641388199	0.0577133782554	-0.134763749892	-0.00615814826656	0.145045556579	-0.0621825350647	0.0270632296016	0.0926440316125	-0.0384177639683	-0.117548605786	0.161622141013	-0.373437927108	0.105497221926	-0.0748823717518	-0.071103567091	-0.032125473159	0.0318351010194	0.0779305863492	0.0437239654384	0.0346202763299	-0.0376902727687	0.00899371633839	-0.00588917864918	0.0132267861013	-0.154323146616	0.0415350758637	-0.00442733283927	-0.0849459892102	-0.0344197558806	-0.089998132227	0.14361119034	0.0274165346924	0.146180035643	0.046383475338	-0.224355818221	0.0782906857945	-0.0953424171328	-0.3024372594	0.202372947512	0.0515982092308	0.200058819185	-0.0458037772166	0.14596683995	0.0557473735315	-0.0617431022485	0.0184219462316	0.0498520427358	-0.100617684108	-0.0950646913395	0.0711978798903	0.000549399690308	-0.109512788598	-0.160563622306	0.0346841602504	-0.139699702238	0.0835163895516	-0.216768599943	0.0676737824598	-0.0325168757098	0.0210367800627	-0.189299528654	0.0580994328375	0.122253093041	-0.267339411602	-0.0790699603467	0.0229889929565	0.0962033161207	0.212975522166	0.0217437954086	-0.0404231939665	0.0241977854294	-0.176176066791	0.0101242176482	0.0523505464583	0.124372783165	0.00792189164648	0.136558006295	0.0276240002594	-0.0184244561096	0.0340268992749	0.227026177122	-0.0949979316912	-0.180290592624	-0.1063519673	0.137060305641	0.0751912765372	-0.0717934113908	0.0495609749143	-0.150578873389	-0.147237647139	-0.15941370041	0.180399122106	0.107177445598	0.0592828525871	0.0281095774399	-0.0883147848188	0.205919187703	-0.144463488594	0.0270673713127	0.13049634117	-0.172601763996	0.0748759225638	0.19898092073	-0.1509801787	-0.0846093597565	-0.0417830222272	0.0592330632774	0.0843711038735	0.0594351757877	-0.0790082242616	-0.0788798359628	0.0734216913304	0.0563288605726	-0.0819111880904	-0.0468088010595	0.0205314564768	-0.0222295585591	0.06514080354	0.16765605359	-0.191807445175	-0.031743020883	-0.141471489042	-0.0282815112943	-0.0635582862741	0.0858757900766	-0.0963877871901	-0.0139669971695	-0.145510734457	-0.0560711992249	-0.0621513385539	-0.210859973163	0.0174702009437	0.0991027146702	0.00536991156617	0.0365962025999	0.108888873613	-0.0925115418704	-0.0420264601883	-0.128258012812	0.203586353961	0.153552122112	0.0159886961757	0.0786893977099	0.276600847276	-0.0968489526137	0.00358770104046	0.224870404716	0.0525463685196	0.108608036169	0.270075050586	-0.0479882483366	-0.218789004418	-0.190008564828	-0.0530374897723	-0.172084847553	0.189259247127	-0.022982295995	-0.0720054791429	0.355506893467	0.145002165974	-0.0768407569759	0.296599954185	0.130024424549	0.123651523128	-0.0778695871074	0.177484363338	0.164656467243	0.118072107696
armchair	-0.930826640053	0.357205111129	-0.334677784093	-0.342240725637	0.302660884598	0.736421909244	-0.558107294144	-0.196884404376	-0.0595236624477	0.328239518089	-0.403589746089	0.0884457330287	1.26024555415	-0.925494912893	0.702665895128	0.120149464917	0.663705832744	0.268988076379	-0.64265060353	-0.451679648964	-0.31100510416	0.706139712083	0.846724388222	0.109186877235	-0.900097606251	0.95208037578	-0.474717538813	0.282788733742	-0.662895574888	0.156899321532	-0.453697449081	0.0941833643659	-0.318972202258	0.227482565597	-0.258735929205	0.185587008911	-0.138667180649	0.315938069217	0.45515917466	-0.485721999634	-0.486054881523	-0.101444852588	-0.127174110827	0.651110359885	-0.140974504001	0.179782290069	-0.0703342444899	0.0375899643248	0.183006368392	0.332285850062	-0.0722106670701	-0.223446391257	-0.101912294881	0.460744592206	-0.314241514681	-0.0563748205659	0.176040774773	-0.0629280951656	-0.360411663434	-0.079377358671	0.243416560419	-0.0253179289024	0.0355567832948	-0.103352418336	-0.215513532281	-0.0196114888786	-0.0197874605098	0.0409517470763	-0.138718866907	-0.190211963894	0.11911697815	-0.190196506864	-0.00804828646724	0.180827653724	0.0839960569837	-0.0783150926501	-0.238314682036	-0.212867348877	0.173334993871	0.317043107224	-0.0972438506449	0.261325294859	0.0315891943473	-0.118073763198	0.0733583953805	-0.0167284855501	0.0606029786411	-0.230894742381	-0.0172161220885	-0.0994109734283	0.0824448080183	0.246073594117	0.010173134796	0.115591181277	-0.161875797442	0.128989226881	0.131495405273	0.044357964005	0.137002329604	0.0540720952567	-0.0540456278728	-0.0729993122902	-0.156632156912	-0.0569962810119	-0.176867128657	-0.0270156689189	0.0926055206662	0.105755658223	0.0609811601825	0.0239523655869	-0.05577579865	-0.078729342303	0.0153843184055	0.183383836861	0.0521186235058	-0.0343186738374	0.0101310563754	0.182281112295	0.109037021074	-0.0714039647863	0.201393726215	-0.0589743285604	-0.141806656177	-0.278456287533	-0.00321464164409	0.153119346329	0.0562748367108	0.0728185137945	0.0859686993026	0.168822000742	-0.0708781621662	-0.0673233893873	0.131141837478	0.124652838034	0.141971375224	0.122589406702	0.062914017739	-0.150303149313	0.126070682705	-0.0821062866071	0.13593007461	-0.0500301723021	0.147346157545	0.108586308232	-0.12792502211	-0.167862740991	-0.103715577853	0.00621951727917	0.0451629382939	-0.164754589881	-0.00941629352612	0.121613690312	0.0327063654392	-0.0728418988569	-0.111181874591	0.0101454309689	0.0813260560983	0.0962829645265	-0.182297177934	0.0396796842351	0.0653805760937	0.101518972407	-0.118216339329	-0.153208139105	-0.0207047903771	0.0887367735603	-0.0233435792903	-0.023814841677	-0.00739017910117	0.0599673411841	0.0237784823035	0.283705835068	0.0488733188324	-0.233499165155	0.0892860156648	-0.0176414821133	-0.0342100736342	0.0857171032855	0.0225238676278	0.0367889922346	-0.0592481567504	-0.0627832175553	0.0230502291475	-0.0112932060453	-0.0274855015025	0.15055579492	0.0190404284456	0.0128507055922	0.00795465975314	0.0901086676218	0.0153875170935	0.0416424302219	-0.0211642425331	0.0425049291684	0.00941314153721	0.0301025490209	-0.0242062463836	0.0237226102096	-0.140617921852	0.0794551115784	-0.0204285250059	0.0154657256163	0.0446054243598	-0.0893209914299	-0.145896546236	0.0481381459562	-0.136885287099	0.0477798449796	0.0148738975796	0.0230924280066	0.0913455080931	-0.0267414081718	0.0227477643499	-0.0511309160763	-0.0370044204054	0.0941795173803	0.0715820183743	0.00596581607813	-0.170363659976	-0.0100366340412	0.0660373983971	0.0400948833823	0.129610407955	0.0500057827208	0.0696815887382	0.00834822616405	-0.0199902579343	0.0785016539245	0.000518457636037	0.0670014776271	0.0168448110134	-0.0306762573651	0.0675694196227	-0.0680403173632	-0.0112063865909	-0.000689273612741	0.0419784356555	0.0810215157222	0.0117362839183	-0.0303637543811	-0.0514301718017	-0.0796225561022	0.0552696321248	-0.0106464006709	0.0224699016656	-0.0142932600743	0.0457910012148	0.0879986292449	0.0890958924013	-0.205282498676	0.0272782201548	-0.00815518528776	0.0647755101663	-0.0468225422594	0.0685456091797	-0.0365709432188	0.0583773786638	0.00285502200713	-0.0181681891282	-0.126678296278	0.0220867526229	-0.0147053983854	0.139448690686	-0.0404739801192	0.0704961801909	-0.0109964721511	-0.0561338943364	-0.0321663324037	0.0690343908239	0.0333641243963	-0.0108551830295	-0.0915661006459	0.00652084686482	-0.0800678392118	0.144454222057	0.0502449940779	0.0235885589136	0.0486309508616	0.165737519611	-0.0070869145544	-0.0283101111862	0.0774181343962	-0.181461817165	0.122637250702	0.0247608926474	-0.00194370093183	-0.0754676043285	0.0367073409092	-0.0558922678553	0.0645416184468	0.00812521470806	-0.0850952789275	-0.0402849071823	-0.067629737796	-0.00490757092737	-0.0590210269921	-0.000933042268213	-0.0265208833821	-0.124064771279	-0.0184184016196
armour	-0.561345388071	0.787108266838	-0.0904386929797	-0.256201508219	0.237415634584	0.230200401462	-0.307959864111	-0.144772499515	-0.107948094881	-0.0923623483146	-0.0924314409413	-0.207989519583	-0.346002824767	-0.306913115577	0.207794164742	0.238875557674	-0.144596157502	0.290930960017	0.164292418656	-0.486523215926	0.279681187881	0.121561017713	0.304718664566	-0.0210607895029	-0.438129912189	-0.134278839114	0.0517764661746	0.322350552905	0.849368054089	-0.531833204977	0.255289518757	0.721419489263	0.138165343781	0.174314778233	0.510281893479	0.275701671224	-0.208541547567	0.688777510401	-0.610715825719	0.554572454723	0.009742417533	-0.106476938333	0.689080276266	-0.0861032463578	-0.189624036158	-0.18849338174	0.382474169709	-0.0130205567444	0.262780713314	-0.18066269261	-0.000539526953069	-0.0658402140399	-0.119125475708	0.218733799126	-0.293881367142	0.272466250935	0.250560891276	0.127461655696	-0.176547810075	0.0322015949922	-0.104845864232	-0.0193293883364	0.10480460245	-0.323204034721	-0.219205377565	-0.0298290620785	-0.253113974749	0.0236351269717	-0.163352284704	-0.0400691714239	0.109454076816	-0.23005267013	0.0456436721424	0.298127532154	-0.428657736792	0.0689295671943	0.012943655885	0.375945797913	-0.00149983435851	-0.084007679109	0.212012840786	-0.156806548647	0.0353433547564	0.0919259513004	0.107631590516	0.229348004824	0.235238913904	0.000522521358414	-0.125121102642	0.0423164741624	-0.0206963997353	0.0840690876929	-0.0971594911905	-0.0172668073765	0.24245405354	0.120464582713	0.0731913675452	-0.0223581266469	0.0949281173792	-0.273180252861	-0.160869499162	-0.0751526211129	0.351527219655	0.0936164573028	0.0139932404393	-0.0614282222529	0.02684507759	-0.000409198718039	0.152321741048	-0.206206854868	-0.0156148431433	-0.00901828154864	-0.102605311986	-0.26764260208	-0.346591246193	-0.198407774418	0.259165886882	0.145098395989	0.103326919359	-0.0746913347752	-0.23726907405	0.194496401692	0.0720758819965	-0.117750118008	-0.0612966222799	0.0041078408658	-0.195932880446	-0.112826783458	-0.0633357779048	-0.0660814407762	-0.058740917005	-0.210862980596	-0.0704208930925	0.111826603123	0.0807746268864	-0.218845490712	-0.0313593157224	0.0778920519839	0.196496498277	0.161730432327	-0.359145666136	-0.342453761442	-0.0596785295817	-0.117006429396	-0.021762594893	-0.0500052916857	-0.0220090419228	-0.00065699252852	-0.144029035357	0.191946528971	0.0598199320174	-0.0372226930191	0.0762747037114	0.0347073106161	0.00969208738484	0.0142722815654	-0.0748066424382	-0.122406016494	-0.13807832458	-0.152117407017	0.184866107669	0.0358489430385	-0.104833279613	0.0999522560089	0.0304978344291	0.0929407179537	-0.118201129478	-0.0618953051762	0.025372305228	-0.112785933113	-0.0690773234492	0.0574229761866	0.038876102469	-0.0623104246546	0.157939434891	0.049431592798	-0.177564486462	-0.0864566382283	0.0636924306724	0.0837265194264	-0.0830253553902	-0.0155628126884	0.199075941461	0.000432599166434	0.00982487935409	0.116875482231	0.0594148903828	0.109421973943	0.0206966627213	-0.177006602294	0.0287613789581	-0.0682032909964	-0.136035870141	-0.102360693099	-0.0626154735148	0.0837565695255	-0.0682128690181	-0.107008621588	0.0622105742914	-0.197127729131	0.0214198180665	-0.0568596896802	0.0443903243325	-0.122364292548	-0.0534761049769	-0.0296683446151	0.0700946671529	-0.00679430110401	-0.0650682061469	-0.0997150013201	-0.135311206834	-0.0469299164249	0.0764221468881	0.00149097765432	-0.0675906825863	-0.104600344477	0.00937315292577	0.0225975327095	0.0178994628748	0.085412441343	0.0262911614267	0.138017679403	0.00449092946242	0.0815733846325	0.0148246452184	-0.0559013647517	-0.104405750991	-0.131082019261	0.0409583622276	-0.0492357733276	0.120293138804	-0.242713353896	-0.228171568416	-0.0439930185071	0.0284834868231	-0.0267100239142	-0.0660995635256	-0.0346154953499	-0.0254867027811	0.194068672394	-0.106901408902	-0.0529368410804	0.0581829974347	-0.0176061441702	0.0318223147797	0.138932715825	-0.0124803048791	-0.0821735302778	0.112582662369	-0.0504505107909	-0.102339822435	0.08663692895	-0.232214642845	-0.141867634121	-0.14670680204	-0.231413626043	-0.116716704999	0.0822484694402	-0.0386913752095	-0.0534391054398	0.13279361581	-0.011567836964	0.116992016081	0.00723964338462	-0.110837021631	-0.163847550884	-0.082597992031	-0.165211404024	0.00813763846239	-0.134052047807	-0.105222046002	0.0644565986386	-0.0589734626331	0.0689711802613	-0.0936121871475	0.0312495568501	-0.0331707915571	0.159180842163	0.136361855392	0.087876450257	0.159363406361	0.0393866178549	-0.0880486100234	-0.0273029481061	-0.123360204175	-0.0500297048894	-0.246678452558	0.130670568592	0.112131769544	0.135466448031	-0.0338873761154	-0.215093394157	0.164827532449	0.117750407186	0.10067670897	-0.131007456971	-0.129523437739	-0.113961754667	-0.0827738933602	-0.0235836982145
arrow	-1.12925924276	1.18266543313	-0.283262792477	-0.199204667571	-0.490761980378	0.0150864938195	0.31669237104	-1.81448162293	-0.189145766559	-0.962363856823	-0.426511544919	0.178275147574	-0.0807925367509	-0.0610398287228	-0.661381133359	-0.435533231342	-0.51038756613	0.224689304617	-0.119056255732	-0.227157290388	-0.223279280952	-0.156490434333	0.732275352616	0.169303291526	-0.157811914991	-0.307995913873	-0.363290581076	0.116233815798	0.0975577646443	-0.201918448983	0.190510166106	-0.114110402709	0.0792270180038	-0.489307333717	0.402366009296	-0.262466193394	-0.176479469337	-0.509419127514	0.350505211196	0.00927601560384	-0.141343914678	-0.532208053891	0.0177396809034	0.0665936079123	-0.0941965560642	0.193171788236	-0.310422996269	0.44700460804	-0.155323440498	0.0536437660422	-0.139947859118	0.501404483842	-0.0215572505468	-0.262816893137	-0.209198356699	0.188441826262	0.133597529869	-0.158858968191	-0.101201138773	0.231347099582	-0.236614559548	0.20568635638	0.183347224851	0.24157088996	-0.00587117103999	-0.159609386599	-0.174642615083	-0.0279948475984	-0.0834741001765	-0.30962611849	-0.0457069260791	-0.247650558042	-0.129333830071	0.0302405940785	-0.159690651086	0.052454598028	-0.293909560734	0.377840536349	0.224539162656	0.110791827232	-0.130232205388	-0.27524096956	-0.0198440554224	0.360486921943	-0.101327246001	0.212237656606	0.232418024763	0.207066947026	-0.152726450903	-0.0559684432029	-0.133682618156	0.0320073708216	0.0250601281204	0.256437631392	-0.106940057817	0.157106440989	-0.127878543228	-0.0214279522216	0.0326526966683	-0.0255144605543	-0.00848108986332	0.0414604085462	-0.0403434004313	-0.055768773489	-0.0418051833342	-0.0478460953534	0.0290994352655	0.0680349973531	-0.0856466455002	-0.0928036952489	0.131880806543	0.0657646528065	0.0369250019159	-0.0498170725852	0.0702911191287	-0.0422663844813	-0.042604218072	-0.137069699599	-0.110327539952	0.093527867029	0.0757538949177	0.00208248986541	-0.0955194543065	-0.00490984262649	0.16940365777	-0.0726787782268	0.0505128292702	0.00455269847484	0.0363052836833	-0.0562958619872	0.125087902187	-0.160046472115	0.0331653582243	0.0501512910671	-0.0374325439788	-0.024263274249	0.109684578007	0.148648534928	-0.0278415002727	-0.0245270126913	-0.181925704964	0.107503883961	-0.0183164836293	0.012154288476	0.108661346549	-0.106584552521	-0.150154447131	-0.0240384542087	0.077302776693	0.0475540217066	0.0310952688428	0.137439764732	-0.0781709864822	0.188440161626	-0.0496803766286	-0.131826462563	-0.14742573581	0.0694795652231	0.0781455617439	-0.13839779644	0.0812848033619	-0.0322084864267	0.0726489891355	-0.119495975838	0.0478914474022	0.0831355395659	-0.0506710656293	0.0206779240093	-0.0721281340488	-0.159382328503	0.0693895349059	-0.153238277022	0.2273814734	0.0343969621567	-0.0374375760233	-0.0651563045779	0.0451914913491	-0.219549631556	-0.151992867566	-0.0498456540457	0.295059935219	-0.0259098944128	0.0338439911707	0.269306426562	-0.0161919190405	0.0598958303083	-0.150072382914	-0.00550603083333	-0.0734569726555	0.0260038453727	0.0426758268037	0.0443812666332	-0.13263251693	0.173829281085	0.0969396922987	0.0470488500376	0.0418680166647	0.189796978925	-0.0425624554139	0.0856640076716	-0.0906170565175	0.113980958648	0.0567602317868	0.0957339473956	0.168961597555	-0.0984844133827	0.027175649135	0.0781266022127	0.0744053126382	0.0246444099859	-0.0225742169778	0.135473440674	-0.335533729953	0.156812852481	0.0536671865316	-0.0632769380144	0.0585419750057	-0.0876653260356	0.00952569162319	0.0540749783874	0.107484692157	-0.108489463715	-0.0556055329993	-0.145800806364	-0.0918690506422	0.00178539974379	0.0241713656938	-0.00158514244524	0.0458820902896	-0.0847147739502	-0.140723289345	-0.0661325210477	0.0260687581461	0.143782810867	-0.144831878972	-0.104328192873	0.0708909750821	0.00148960855589	0.0682981558911	0.105574758612	-0.128772341201	0.0428864913448	0.0369768140243	-0.0782696644475	-0.0727168314056	0.130779790729	-0.0019770895603	0.022933390253	-0.0185860161631	0.0432331749558	-0.112333925231	0.160775828893	-0.105434008388	-0.0335711197103	0.0265956287266	-0.182185751145	-0.0974393367017	0.0646545384851	0.11407583035	0.114632614508	0.185111859183	-0.0717737831	0.113400824612	0.0276759741427	0.101192279272	0.0279816356694	0.097016557155	-0.0506649089063	-0.0417417208	-0.144263082796	0.0909510390378	0.165268574132	0.133163823728	-0.169067222367	-0.0915596089727	-0.0461834676481	0.0759747128019	-0.0223664356964	-0.0519509539483	-0.136957493133	-0.0374397139352	-0.0756953746245	0.0276552580177	0.140935120475	0.00222840525366	0.12214395755	0.0858384897168	-0.124973667443	0.159964827724	0.0477566525735	-0.15702644766	-0.0103606588388	0.0321802106688	-0.0441143090866	-0.156581070164	0.0340066160069	0.143254622528	-0.0451461618131	0.0895990235079	0.115086832499
artichoke	-0.703532168958	-0.33306546885	1.62220916039	0.135269609645	-0.0219825728372	0.460707777382	0.142290149865	-0.27487687849	0.558536418157	-0.0397893189702	0.512148808048	0.536281676044	-0.259446898438	0.28596902669	0.252321479788	-0.572638593901	0.688404153157	0.324609368978	0.453437068785	0.141719492725	0.139557216073	0.417279533548	0.185130915944	-0.215882203357	0.0318084695408	0.112194487328	0.251489673342	-0.100802321131	-0.0251295159174	-0.00198443963995	0.0787481740175	0.243939564869	-0.0896138074402	0.163990462141	0.0787007075272	-0.134103245429	0.0257995396236	-0.133105675827	-0.111996920275	0.0152361491757	-0.0811334580846	0.00148933599353	0.0857807653643	-0.0824280357032	0.134189585571	0.0713591583273	-0.0382679205905	0.00891280031946	-0.050075024339	-0.0611702020079	-0.0548898337017	0.139935239566	0.149006867666	0.13066937624	0.0284656406457	0.0770770339821	0.164354095769	-0.0686489204236	-0.00400580011545	0.0511372788929	0.151642247445	-0.0657973237485	0.236012305516	0.0390060096099	0.0674490164743	0.102705131048	0.0341918809607	0.11733812189	0.0889499895376	-0.221949755698	-0.0817817229685	-0.0542102384189	-0.0516827642577	-0.120142919272	-0.00588748288374	-0.0154028269733	0.15861510587	0.00341045574953	-0.0861509742826	0.0989243554145	0.122379208195	-0.137831060986	-0.174881260202	-0.0929835142055	0.0558971396992	-0.0547986045475	0.0851131515111	-0.0154580042573	-0.069654682332	0.186992019553	0.0932967166215	-0.107991147132	0.00646781635077	0.0942473243112	-0.0171755737302	0.0602910977657	-0.0808497546961	0.0299109055813	0.14230473059	0.0974516253728	-0.0778907847096	0.275495711336	-0.0632742428733	-0.115924289282	0.0719209904624	0.0431455469053	0.0536771874928	0.129477490502	0.103041238829	-0.122111128262	-0.117559437947	-0.0174452451816	0.00718395823757	0.0621136739075	-0.0761223371319	-0.0380024304937	-0.103168652236	0.142399594715	-0.0150024734138	0.128920141826	0.145955611311	-0.082152612975	0.165545607264	0.147150539388	0.140598151871	-0.0506003395655	-0.0614473378043	0.0207120671584	-0.014922932129	0.146969444639	-0.0254219795982	-0.208974880148	0.0692452144382	0.0510319247698	-0.00930211557874	0.0910475451196	0.0639613711192	-0.0798470329344	-0.027079427287	0.107709409938	-0.0834441013009	0.00574836832959	0.156950977015	0.00525392966048	0.0361819724948	0.00522764235222	-0.0753167579943	0.101232688666	-0.0304266406398	0.100127978002	-0.0175586616197	-0.077221074186	-0.0905076917859	-0.0234110903539	0.00427887272282	-0.19926606431	0.050498328094	-0.027280036979	-0.0513037740008	0.0953888846534	0.089970848393	-0.0848044575897	-0.0676181382947	-0.00872410502418	-0.00407867181887	-0.0758477987239	0.258037491585	0.00743052011206	0.0208171413966	0.100616864198	-0.131967710951	-0.0199245681497	0.0649692229859	0.0762093517292	-0.0781696408439	-0.000327080659347	0.111888280014	0.168195904257	0.0527365685795	-0.0159958104815	0.00537000351244	0.0897410779985	0.0260557896488	0.0523716966265	0.00434155238616	-0.0863221748579	0.117397718293	0.0263466996684	0.0947396420767	0.00859675658255	-0.0185974060484	-0.00480495172789	0.0344304874352	-0.0318343065695	-0.0290200481925	-0.110721869949	0.00605305247248	0.00202899118615	-0.0389587555107	0.103077945495	0.15839674301	0.0395347180382	-0.127856936614	-0.233955651807	0.111243148797	-0.00788836974997	0.0620820474243	-0.0141460858668	-0.0248112037429	0.0583600530088	-0.149550741249	0.0321720571635	0.0561880285049	0.154477641828	-0.0982573422637	-0.0898927941823	0.0147366992205	0.0174548138417	-0.0585156277714	-0.0245041400387	-0.0161759575981	0.0565246046086	0.00721370999139	0.00941654671942	-0.112501838601	-0.102648197959	0.204447844908	0.0695892045738	0.0829167710861	-0.0500504300063	-0.034108160373	-0.12642731208	0.0230872557571	0.0208197644634	-0.0590624475017	-0.0835647877668	0.013879339608	-0.104520432515	-0.0347543749179	-0.027004638412	0.0109011431193	0.0147382349163	-0.077321709379	0.00973323582359	-0.0137596928886	0.00038298081224	0.0202452805321	0.0748620269829	-0.0447498099892	-0.141656729851	-0.132700766849	-0.0645301301618	0.00836718253736	-0.0158236784801	0.0945786942199	-0.0770412495085	0.0681945188805	-0.094830440591	0.0145584843487	0.0769952058699	-0.00924635834469	0.131533994648	0.106872950032	-0.0395909504181	-0.0165512701898	-0.0097323260178	0.0215291677672	0.0812718704736	0.0327664920614	-0.0181488707046	-0.0384143996483	0.0252448446703	0.0628116891655	0.0986233943208	-0.00601166291812	-0.0313672539595	-0.103766797768	-0.00579982148322	-0.0127901033869	0.0585794070006	-0.079249481521	-0.0258940265194	0.00504784091058	0.0885855837586	0.0460881289926	-0.0721689584704	0.0356237131787	0.0146224789085	-0.0214464007619	0.0531288904236	-0.0617711233858	0.0131262740928	0.0231957448819	0.0517223747866	0.0167282740966	0.0742007085036	-0.0516417114423	0.0110365267244	0.0273196957884	0.044604274092
ashtray	-0.80045949282	1.06935824674	0.111534138627	0.0739231890444	0.0116074464117	-0.154506598382	0.0977352556323	0.563024414508	0.270018612859	0.490510733279	0.00145149707431	-0.209882735288	-0.145240721225	-0.11216547196	0.17301795167	-0.104301408317	-0.654246685614	0.227630638245	0.258244565668	-0.617596554155	0.483501544333	-0.25529640001	-0.0396661090962	-0.382851146395	-0.471451979536	-0.132549350762	-0.0424066212558	-0.231796060064	-0.103124790805	-0.14010438444	0.406670287395	0.316701182762	-0.105271607985	0.222567296837	-0.484878424064	-0.0371309990642	-0.439337436045	0.436896173593	0.342927054214	-0.0306042473587	0.622496299089	-0.46492321796	0.160698495904	-0.0938276578647	0.0474978936387	0.556399707417	0.0436172652306	-0.0585338550705	0.324086678902	0.0268857422126	-0.170887778275	0.0923846342203	0.0035923306605	0.0757354054555	-0.13358328741	0.131130051534	-0.28011299515	0.0875942329795	-0.0363734529421	0.0308283276489	0.0501618282023	-0.0302536060635	0.171462548677	0.150774473344	-0.162239092677	0.293018306838	0.121897853224	-0.198026341544	0.0312560626378	-0.159909513013	0.0205799252477	0.0973533611401	-0.0750092055033	-0.108698675809	0.0713536473121	-0.0500016581233	-0.0139002872046	-0.105375239737	0.237758666519	0.111059408553	-0.216039403824	0.245631316948	-0.0363556789537	0.225952163639	0.0824280343802	0.078848304423	-0.211882825818	0.120539690448	-0.0930307783569	0.0240874103844	-0.247755325823	0.263633827662	-0.285176062437	-0.0913432284913	-0.147919081679	0.185374077463	0.00469005997453	-0.0831084125513	-0.210568243636	-0.206030694882	0.0709521213252	0.0359106936213	-0.295335286527	0.00301624693875	0.0606363001809	-0.170001634804	0.014860077194	0.0331036721739	0.208476741652	0.134888696237	0.0626519618946	0.106218799919	0.102344127443	0.0450880805451	-0.0917922167953	-0.0198220108787	0.195608578048	-0.0149996302169	-0.131061195476	0.021325481818	0.0764482865706	-0.095201990898	0.0368203258742	-0.1306830652	-0.123906263354	0.00309278149114	0.027290109381	0.0104621525678	0.0579425027615	0.195826264842	-0.0208298896354	-0.162921232283	-0.054711105048	0.00927753418136	-0.364744594345	-0.0955024358376	-0.243528273518	0.151169696511	0.203349667795	-0.203476069714	-0.127358371918	0.201808072828	0.152621238696	-0.127897454604	-0.142175249963	0.0711657043138	-0.00692948319128	-0.0126567013762	0.122832171891	-0.00634149804232	-0.0151299920316	-0.216919263262	0.04336294559	-0.14634957122	0.0855576601289	0.148330457015	-0.0866648199388	0.0384545521486	0.0344855178455	0.0545063672024	-0.0070837575329	0.0175720489016	0.0696065000594	-0.146607669479	0.313668454672	-0.167505669538	0.112618882722	-0.134756966747	-0.0886393213876	0.0821967236778	0.240721297956	-0.0364688620292	0.0465302643764	-0.068423836283	-0.0812155428932	0.177154577527	0.0594986646079	0.0200496825535	-0.00925374462525	-0.176326016134	-0.0348909502181	-0.187923290174	0.10154166705	-0.107505320611	0.079706787997	-0.244968063154	-0.028865167009	-0.059157741808	0.151156678853	-0.146512742565	-0.0172161229896	0.0592822699763	-0.00417522382186	0.0642446911348	0.00277093271845	0.0286586226217	0.00611100959198	0.120557864585	0.0474768519045	0.00485373796271	0.117374866713	0.070294223339	0.047056128957	-0.208231645151	-0.0268684418606	-0.00564740736252	0.287447870008	-0.165204240048	0.0544234461831	-0.0958488877783	0.219239178798	0.163781871651	0.126273165098	-0.0904394668372	0.0638427024564	-0.159621723545	-0.0605917866363	0.236767888719	-0.169052951725	0.0712986829462	-0.135585370147	-0.134755712974	0.0162222010561	-0.0848579440932	0.0400076350384	-0.16135127189	-0.0359090405498	0.0205957414589	0.0604271553104	0.05927666193	0.0430405137145	-0.256347883929	0.272205959655	-0.283808176017	-0.0194711872558	-0.0856987140558	0.0285760259565	0.132040557225	-0.0144040332096	0.202667944215	0.167033195503	-0.113165344618	0.525194702398	0.142204739466	-0.0796167923165	-0.0281929265988	-0.0693892293391	0.179136346513	-0.137657688518	0.171382481663	-0.312077345798	0.0332767994315	-0.186545621972	0.237398293153	-0.0770662276806	-0.0603262481555	-0.0491781280187	-0.126677022289	-0.146345163268	-0.205090283949	-0.00781163763311	0.0785554082093	-0.283317887468	0.168499969655	0.0459830517191	-0.305616433341	-0.04297407687	0.0797174612541	-0.134737037066	0.0496027950637	0.0203967446242	0.125174548285	0.0133072462534	-0.0769140667683	0.0250338848483	-0.0550506285165	0.151329554082	-0.151603712134	-0.0431348306721	-0.0367939334664	-0.0575277150382	-0.0707970092596	0.0807997269709	0.0758462302521	0.151613857401	0.160566429702	0.32840282949	0.077859196874	0.0536761966654	0.183155658505	-0.00768992824193	-0.178754390438	-0.149756712432	0.0159565813302	-0.0190552677077	0.190132787	-0.184004009459	0.00944738343352	0.15480024657	0.163227773473
asparagus	-0.903194045014	-0.180446179051	1.80231288628	-0.0642941165901	0.0829688845747	0.75645340659	0.128031795061	-0.604259925749	0.298635216941	-0.342362938933	0.19081912233	0.722681731306	0.0230276601567	1.06440304844	-0.0946241445277	-0.389957616443	6.5000068428e-05	-0.0754442752837	0.231446517033	-0.0518297187344	-0.0456157994857	0.310902554429	0.25604553	-0.161152234752	-0.193327782711	-0.232225507122	0.295577977663	0.338660853688	-0.216303710564	0.0764652329043	0.0534353568175	0.260269501493	-0.131057272071	0.0213579622874	-0.08712318983	0.0264679893279	0.0263497481794	0.0757564349837	-0.0405631656936	-0.608168578679	-0.0363815001977	-0.0128229664967	-0.20807160707	-0.489321493058	0.125497685566	-0.140313783382	0.00404202409986	0.209356606233	0.0424052257184	-0.0542162238335	0.0713080649621	-0.150457831143	-0.075721033197	-0.170043519481	-0.364776882685	0.120475912483	0.30004675007	-0.265536139197	-0.217575171436	0.177104907621	-0.124937202169	0.191794400146	-0.171211840663	0.053844434042	-0.0132024296803	0.412800272655	0.00713806818973	0.114550013517	-0.00893846156374	0.13537190179	-0.0203356941093	0.190394636734	-0.0319676649095	0.128313252441	0.0840020137728	0.181340454767	0.0369672155722	-0.0318385930769	0.155489914099	-0.0264462903645	-0.150291898445	-0.160284946226	0.0656437482207	0.0521582755716	-0.0956821641432	0.11589751176	0.0540526485499	0.0025938341898	0.481252241889	0.0497662900951	-0.0340162422022	-0.0385675096616	0.00864256373504	-0.160067756516	-0.0303324239695	-0.259431253927	0.00411124795653	0.148356683667	-0.018063158109	-0.0565399327512	0.0132539991581	-0.18270856203	0.0990682739022	-0.0413093997736	-0.171105463377	0.0489196284882	0.145376767402	-0.0218848353107	-0.200628297802	-0.0334579964455	0.0491130679357	-0.00228890626384	0.0310318366778	-0.225083336829	-0.142453498083	0.126608267563	-0.0774075973076	-0.130563665501	0.000505328829326	0.00816120687629	0.0562760746281	0.0126151333899	-0.0591616140043	-0.0864218874609	-0.0870254387738	0.0544061552861	-0.0263070753927	0.0655192722832	0.238561292352	0.0158709749558	0.00380825203651	0.0846421390809	0.0729465529986	7.64479918856e-05	-0.034545413971	0.0467187062773	-0.0853058685956	0.148243238073	-0.0813494780743	-0.104960570294	0.0773401294832	-0.0873582404182	-0.0610061207782	-0.0316460774682	0.0583497763121	0.0707413117439	-0.186244322212	-0.184098681314	-0.000506168000466	0.160427763436	-0.0137391684845	0.0653528152863	0.00240466107452	-0.0208825672	-0.0614463021279	0.0725780461148	0.146163743032	-0.000540628383157	-0.00682616962483	0.00355638458875	0.112197215021	0.082843051647	0.16109146736	0.0533235274624	0.0162320910375	0.0611094053074	-0.239519196948	-0.00637304689573	-0.0350512698771	-0.0734029390882	0.0419001633226	-0.0612337872906	-0.0114320232841	-0.0547650785079	-0.0560065257915	-0.0439404366355	-0.0383414619426	-0.154873065256	-0.0385715782713	-0.167709113487	-0.0141844390312	0.00287411261367	0.0384249347706	-0.0534202381567	0.0153741521249	0.0083981631638	-0.0381332648122	-0.00935053166586	0.0134638714869	0.0141452427801	0.0587008500941	0.0522250893219	-0.0358242701771	-0.0843373834069	-0.0943548899868	0.12438455248	0.0983205943037	0.040579001336	0.0199016948477	-0.0465310293596	-0.00435676622259	0.0794520175	-0.023021203858	0.118509848855	-0.0181729854589	-0.00100892814328	0.026760039791	-0.0112664343335	-0.0677810667619	-0.0277960214537	0.109918959034	0.0690327667622	0.0870044044677	-0.0202796846807	0.0657815741098	0.158091628116	0.0625957421528	-0.0488226042653	-0.0283136146073	0.108131408618	-0.00428685551518	-0.0568817715631	0.00131432514139	-0.0144183911947	0.14497455325	0.0857549779146	-0.189745108411	-0.0899241675271	-0.00407765704437	0.0593536889803	-0.0438779856319	-0.00265806905807	0.0383311307353	0.0143527279169	-0.0366642464833	0.0438030931034	-0.0154084156017	0.0820614498312	0.0474113545795	-0.0292014940073	-0.0120442981226	0.0399652768835	-0.0313017410464	-0.00739700761438	0.098956369209	-0.0307033052436	0.108887211759	-0.0643580589637	0.142165428364	0.176493547504	0.0994210104759	-0.0200799640407	0.0225527185038	0.0950180823941	-0.196444964715	-0.00479455019146	-0.00983222346103	0.136732547905	-0.0105963004463	-0.0245230447957	-0.0527154505078	-0.0253691209561	-0.082846449437	-0.0345861072129	0.0279193385651	-0.0159516380825	-0.00806993570583	-0.0299696797908	-0.0385481943314	-0.00721091756099	-0.0259469513113	0.0821958905825	-0.0742844166164	0.0119002713193	-0.074033213417	-0.0283456035691	-0.0487585265897	0.0417461585505	0.107582270301	0.0270892360659	-0.0953894754717	0.0381989728865	-0.0686502760396	-0.111606369015	-0.0105529586568	0.0816755633396	-0.0275635970129	0.0022915926996	-0.0213015725115	-0.0583078178035	0.0104865679839	-0.00888330073621	0.107503942476	-0.0326761842861	-0.0343708763526	0.0273160023125	-0.0792727987746	-0.00916324928732	0.0139394182788	-0.0257727665866
aspirin	-0.540676893382	-0.013219821738	0.344915467236	-0.170672140219	-0.0709323262367	-0.482076092135	0.195323390753	0.504600970021	-0.384993471927	-0.11008650662	0.15977175569	-0.00768135239644	-0.15800256586	-0.30097670993	-0.179935758835	0.199423845647	-0.701967511128	1.06778465456	-0.169031740066	-0.148368580285	-0.364526126753	-0.143983242662	0.0512420679569	-0.294483100751	0.315171355043	0.117704626867	0.180389836829	0.117908625011	-0.177573053359	0.215362082427	-0.253136246862	-0.411213471565	-0.415936737334	0.0353442593683	-0.277433866083	0.6072883814	0.0328010931993	0.0690307075875	-0.176044831441	0.180291946429	0.178222315848	0.0189194389477	0.0214032161478	0.358823022641	0.0214397910498	-0.283438156136	0.31542530821	-0.13872570767	0.143241329627	0.164410335404	0.0281940241375	-0.247522243249	0.419045478246	-0.239002195014	0.211513167567	-0.482228949293	0.832736242533	-0.868926174828	0.0762874387614	-0.868241202644	-0.0482224276183	0.302079169041	0.0053940642401	0.190283998946	0.345291815852	0.160877285538	-0.285483201044	-0.30077141279	-0.584092094928	-0.503093353204	0.0151536405409	-0.0471309192464	-0.245579288919	-0.609800351377	0.0737673571643	0.110743180493	0.189313773355	-0.0073333985523	0.158135337371	0.124815899833	-0.0643029673462	0.201691980905	-0.0753821876096	0.0919141213292	0.139669382991	-0.0243077244298	0.00289527856802	0.284638191794	0.0302454019385	-0.0256452875942	-0.11727857875	0.0863863269644	-0.155755883467	-0.130360214941	-0.0317187853069	0.109117214403	-0.0919920667358	-0.00813455521514	0.0315615615132	-0.00188249222362	0.068005753067	0.0332315007171	0.0564391379268	0.0621201138177	0.00845697532205	-0.028587488762	-0.0320219963254	-0.0779152329147	-0.00937914298128	0.00843614406387	-0.0424556976654	-0.0515145596841	-0.101489742855	-0.151608049139	0.0100040954374	0.0186926253089	-0.0279988964204	-0.123416140681	0.0628463312614	0.00999973810837	-0.0239244832545	0.0934302962548	0.0135229474259	-0.0132569011176	-0.0809660195939	0.00780694640463	0.0335365357954	0.0203821144481	0.00683006329886	-0.0638286661796	-0.112047859065	-0.0178120811438	-0.0601613195173	-0.0592092852197	0.0537268713316	0.0453871131323	0.0371327486165	0.0742410974723	-0.0866223571121	-0.13832629281	-0.0152947247791	0.0912506904134	-0.0466932664784	0.0642275993629	-0.0385339470844	0.0643375270038	-0.0244811573098	-0.0108007811161	0.0164661530448	0.119993271748	0.0047854646946	0.121949396556	0.0865356842842	0.10134092867	0.105336235098	0.0642471587461	0.0955108091821	0.00336655710609	0.0788038020975	-0.130067228666	0.00896683660539	-0.0796343179659	0.150560756194	-0.00235861314962	-0.000502349030359	-0.0907554308633	0.0246037193824	-0.0681931592778	-0.162195426991	0.102533252072	0.192141136551	-0.260493832165	0.0592820805222	0.0194369566677	-0.0686523093552	-0.0866985386682	-0.0369361374109	-0.106519655583	-0.112078197056	-0.128771382843	-0.134476056794	0.0189681145529	-0.197852359854	0.232225254283	-0.127294285243	0.080682238244	0.176452007212	-0.0333574201581	0.354979877065	-0.205363233622	-0.0531959578206	-0.381077462691	-0.0566194192187	-0.212343103351	0.290284454474	-0.255375541205	-0.0994728940123	-0.217877448528	-0.244474121971	-0.00759666254551	-0.19650278633	-0.158217395644	-0.124976341856	-0.307865913023	0.0529597611586	0.0331862384414	-0.0587469260109	0.0266863078406	0.162424818352	-0.193794291791	0.0533041881757	0.0344660886053	0.0616554488416	0.00682742180527	-0.0303831756433	0.254888799635	0.121991828966	-0.063343634635	-0.179997613874	0.022354644653	-0.0937784388642	0.103753558282	-0.0432430024218	-0.0495140932328	-0.105977745091	0.136560594386	0.0217971850642	0.117572377164	-0.0372731336566	-0.121443102289	0.194981222449	-0.109463917751	0.00219291461012	-0.0167085722341	-0.00517130834463	-0.183145689749	0.0608819058597	-0.0314241514449	-0.0249942209866	-0.0837905435999	-0.0315065408168	-0.240433887144	0.0942204316298	0.00213123430462	0.137591683781	0.0590352317479	-0.000193254484025	-0.138669856452	0.0692994415594	0.0160858634141	0.0241492333097	0.0112430034536	0.0952838618235	-0.0555487873408	0.0173384475646	-0.087806915111	-0.0331421200967	0.120298631127	-0.0680889330588	0.152458580464	-0.0962224899598	-0.0198558969194	0.0675689522442	-0.11619744362	-0.0557967846832	-0.079364748951	0.0318557512165	0.0477227903568	-0.0159768315347	-0.120508308173	0.0829365039047	-0.00017054514366	-0.00969773796447	0.00879333978841	0.074658701416	-0.0309418436998	-0.044942507226	0.10017441802	-0.10166262686	0.0132591428	-0.0393291042964	0.0660038100223	-0.0172770376004	0.133850754528	-0.154547774521	-0.0132146588733	-0.0913503837061	0.109445499938	0.0452708417997	-0.0652421607052	-0.0418119117576	-0.0341168383984	0.0749591684863	-0.03125277776	-0.0389519059519	-0.013757814253	-0.00327332178718	0.0545527670974	0.104912037512	-0.0435638959574
aubergine	-0.907608501026	-0.224734228856	1.94413061515	0.0705232510404	0.0797654530181	0.428568996265	-0.117452064566	-0.592345206457	0.252407540479	-0.0548618063992	-0.120706572257	0.374970732191	-0.0586844052	1.09569451933	0.109701493436	-0.37145626264	0.229568857312	0.151585216187	0.139124260366	0.112256814427	-0.0315119014419	0.174462185779	0.158925120703	0.0653874149385	-0.380166789882	0.171267368784	0.396795583017	0.116799461687	0.00233124434163	-0.039288919852	-0.00358324047484	0.165910355925	0.044293234759	0.105661952396	0.0483190524995	-0.0524716690327	0.246046862717	-0.0306349487968	-0.217450698782	-0.288659124921	0.0884079004387	0.0117654754731	0.205784912684	-0.0982582839717	-0.0130441411013	-0.117155487062	0.125469397821	-0.108423201084	0.312299546399	-0.108858531959	0.0130220803546	0.0974726687259	0.256301138528	-0.141272052351	0.182705905766	0.426405425144	-0.0355622168186	0.184917852214	0.0659957384387	-0.123775308689	-0.0473095804105	-0.304966191931	0.302397664782	-0.25221827771	0.0815229896926	-0.0763810043229	-0.346078461634	0.0613626528863	0.085400724056	-0.280579880203	-0.201089048069	-0.216708631291	-0.0191349123821	0.0055976612432	0.129998920386	-0.0974805006072	-0.0176523647612	-0.0173898616455	0.084576101164	-0.404899053148	-0.0609425345113	0.060180488359	0.0106796789881	0.079408713127	0.205845991603	-0.341173073049	0.375244764499	0.0401033701773	0.199455869031	0.080985926742	-0.216639619846	-0.162934841017	0.154904146463	-0.0663913286719	0.0441079416682	-0.0344253784575	-0.106090003006	0.166352246485	-0.0412041696899	0.134698071948	0.17390231875	0.0443589673635	-0.104127726064	0.23410334245	-0.0247216259845	0.272483552511	0.209120365995	-0.131794382594	-0.0583258616833	-0.0269872292432	0.047129556743	-0.0777911853662	0.028612842681	-0.162285888438	-0.215923223103	-0.292091344913	0.416479620989	-0.00796788811876	0.0162243774185	0.12762799501	0.279913542425	0.155713833626	0.0545204784989	-0.151335578391	-0.116078444378	0.134218306771	-0.267323867456	0.039478641118	-0.198806364771	0.0173607046887	-0.0913418405963	0.0346379594871	-0.0304872201505	0.161650625425	0.0552925164076	-0.0798423789229	-0.077356840731	0.22312479609	-0.00638329389816	0.30139553205	-0.0151448505796	-0.155483318401	-0.178917833479	-0.102706527575	-0.117920105524	-0.035172527141	-0.24829620286	0.0660863781361	-0.00640050853674	0.143030525738	-0.0474178007397	0.0307241691151	-0.0531139586039	0.00550544925259	0.102703026507	0.237156132596	0.11422204079	-0.14121927568	-0.116920990894	-0.0404689765931	0.157558294943	0.204222667104	-0.0638142325108	-0.134102418326	-0.0602705028012	0.122130382181	0.167437018939	0.203814385654	-0.0532651319416	-0.0273236221966	0.088210894412	0.232349043267	-0.0445549514634	-0.0949303339144	0.0164692228726	-0.25556360873	0.036623067908	0.0760340051327	0.0898561325168	-0.10850626003	-0.0333806168442	0.10099917232	0.171550653313	0.156053560102	0.0174443300178	-0.0699423261634	0.0948371016308	-0.0575138618999	-0.0916344176424	0.0255847701833	-0.0453649249625	0.0308772185351	0.12891188517	0.0151279294864	0.0477038965729	0.0640685974379	-0.0237681885563	0.106892170802	-0.0910114416526	-0.0835528344177	-0.128257841019	0.0157319210062	-0.0738118175033	-0.202698645495	-0.0330783814874	-0.053843049982	-0.0523192658362	0.066009059662	-0.163277226424	0.0763123128585	0.0106338951606	-0.159246799777	0.00266210988899	0.135211770806	-0.198139929321	0.176614317763	0.075288492868	0.0109328254251	0.0552979355121	0.178761063755	0.0626495857566	-0.0263632507246	-0.0912051720962	-0.240353410107	-0.0438789340078	0.1923877993	0.0809520668726	-0.112212356354	-0.0230293249776	-0.0649339367137	0.0318177402651	0.0233529508692	0.00227749890746	0.00946871916623	0.0670193790612	-0.0768658950385	-0.0361196892218	-0.116692595821	-0.0818292318117	0.21238324046	-0.275605947574	0.117432929306	-0.0797761418204	0.100553456062	0.0625899026596	0.0135495754997	-0.0523900003898	0.0361105615818	-0.0657172011316	-0.0200592307744	0.0493320511757	-0.206172248334	0.060716600915	-0.00601231992392	0.234580865989	0.0170229886457	-0.210200693348	0.152582582115	-0.0263548653226	0.0565001338383	-0.00507988550036	0.0827633975245	-0.0894458448899	0.101949431381	-0.00158693696351	-0.171572611648	-0.132043660921	0.0144939745957	0.0216215507504	-0.0401361738235	-0.0751070723325	-0.0591899169205	-0.0462778629951	-0.116473335935	-0.085628569945	-0.0155647822328	-0.0839598638343	0.0154491712732	-0.0139633988771	-0.148593381204	0.181867018955	-0.116689297912	-0.0850453975945	-0.123636550023	0.0869904218641	-0.204305678737	0.0857272087967	0.0710256189553	-0.0593208356549	-0.0448391035377	-0.161860412339	-0.0121356368477	0.0569257233928	0.0366955551033	0.173474117083	-0.0813579358524	-0.0860262441856	-0.115438595018	0.178446310701	0.148317422301
avocado	-0.823724006448	-0.42018128233	2.07831519232	0.245845607041	0.0402170154227	0.0370019040424	-0.479897977043	-0.384852858061	0.173028856429	0.169972478654	-0.592820059796	-0.133267468156	0.186363194743	0.612741379296	0.152081948298	-0.189062158217	0.395778045069	-0.0220793382053	0.0261987800376	-0.0208670342905	-0.501155751034	0.269173908095	0.062159739619	0.157254621453	-0.0318004589988	0.0250424938939	0.263286360949	0.0445156567819	-0.105686791019	0.145922575419	0.0715374955703	0.0766525731643	-0.114249905169	-0.0897843816236	0.00761954863401	0.0327467749744	-0.368399802559	-0.00259117730304	-0.12116963878	-0.639922971742	-0.0240528502153	0.0201985667083	0.623404204982	-0.392077046677	0.142653341476	0.0933120940151	-0.0965204995029	-0.120459408355	-0.0472695452533	-0.17773356775	0.048422644032	-0.298173420469	0.12783064895	0.24454334256	-0.449123937297	0.113901374682	0.117347487437	0.0885835654934	-0.17726968354	-0.0673293192211	-0.411412796943	0.066048381001	-0.339084132219	0.12159805042	-0.0924377240075	-0.178232963496	0.140531788663	0.138110405374	-0.0712946226853	0.447364874344	-0.0847302858537	-0.0658002508207	-0.0936218908145	-0.128980848022	0.0578564712165	0.226815163861	-0.0758478146742	0.0664961379589	0.0487277888208	-0.344806198518	-0.00044735098286	0.297454817314	0.268996408097	0.0510083335763	-0.0607268842509	-0.255656422231	-0.0449737893459	-0.135958571673	0.188837306895	-0.218510233603	-0.136853880266	-0.00273764715042	-0.358934731491	-0.0116999310888	0.282111061725	0.555842446653	-0.259699573132	-0.243366713748	0.240619818718	0.302472328043	0.235637296976	-0.209504002814	0.0339468975061	-0.0312946786767	0.135755001541	-0.118545447753	-0.12013957067	0.317740779948	-0.0853874615792	0.131428486083	-0.114261472002	0.0234143000769	0.257063856941	-0.112157186113	0.210094713634	-0.0320685490922	-0.245663274914	-0.162193008119	-0.0363366207048	-0.00769693657735	-0.204826642667	0.0558253075806	-0.0416232399915	-0.0394910578087	0.00297079655083	-0.0582248611612	0.00596256486096	0.0353971201673	-0.155087251852	0.084494300602	-0.199981275877	-0.0539270056591	0.0231968610975	0.0588667093368	-0.0777017331958	-0.0520245443339	0.123642259298	0.155098887105	-0.153038919464	-0.159847598194	0.0726738796152	-0.0767193399601	-0.102221453967	-0.0815125088493	-0.176628673495	0.117606574391	0.271463073916	-0.26825293552	-0.157786695913	-0.194252212444	-0.0452460881272	0.00672420814651	0.101393314504	0.097873212655	-0.176364716127	-0.0258566758681	0.19268530704	0.206813909092	0.268613500446	0.0816283929985	0.117728600785	0.151635061547	-0.0909792122585	0.0300252248343	0.100702123444	0.18770884215	0.0752370193289	-0.188551636549	0.218723159301	-0.14272539728	0.0922902402477	-0.0713333978107	0.092235539324	-0.0211015819246	-0.0962454440645	-0.132053086911	0.0061560720885	0.111867119887	-0.169990080308	0.0122871299919	0.0107304150262	-0.0462793999218	-0.0399845782865	0.0430608477055	-0.0227602336896	0.126012568179	0.0609098713602	-0.106979772427	-0.0355301172017	-0.169727134008	0.242583648773	-0.1072709527	-0.066564419523	0.0160162776722	-0.0802606474048	0.051177783989	0.0264316702232	0.116339753538	0.00730650770861	-0.0808283124314	-0.0495323286486	0.0104466049379	0.0104136932271	0.102247667798	0.0811530307664	-0.00977786925675	-0.282259361474	-0.134429272764	0.0634902434482	-0.0935231167268	-0.0159609809414	-0.195430362589	-0.0298729028778	-0.0112571117551	0.241636601879	-0.0788823675274	-0.0419729275657	0.0963615566878	0.158931484141	-0.0258332115521	-0.0924284666226	0.133897153767	0.0244085501011	0.219716359619	0.0294519641731	-0.102591390816	-0.0897269916588	0.065633914071	-0.0802648032439	0.0735517514693	-0.000293193425708	-0.0744073359926	-0.155008213162	0.0559474900972	0.0561737415392	-0.0128965067102	-0.015346133039	0.0540918219716	0.0111472343077	-0.0858179650411	-0.00822770977206	0.00899829813793	0.174762570711	-0.115649714019	0.0237420281087	0.0554322161638	-0.146559529318	-0.0956386724988	-0.143996499723	0.0657058415304	0.10184361576	0.179779183522	-0.0492529268174	-0.0020291538721	-0.0417550596587	0.012066299966	0.163459665571	-0.207017290898	0.0760379692546	-0.0815824382882	0.272582407206	-0.0658732479316	0.0770149468773	-0.0150290754342	-0.151890147524	-0.18345665507	-0.12648367917	-0.0896636471737	-0.0894225214537	0.0685166138863	0.13694557972	0.0128675276186	-0.0228299485098	-0.154109167333	0.276520464596	0.0480974122662	0.00936714966417	-0.0407864021991	-0.173570902274	-0.0763154473489	-0.0627867975346	-0.0301962871361	0.0773104128814	0.108527679005	0.00994369614188	-0.042934619002	0.00355773240788	0.0149224595022	0.209109683501	0.0294608249607	-0.10819621184	-0.0323056674344	0.0043155371353	0.062854321883	0.129943196115	0.0328767022371	-0.0538090563608	0.077041290278	-0.0502219338502	0.00782286529476
axe	-1.00173554716	1.56199941479	-0.278528464842	0.499048206251	-0.0667609773987	-0.159615322903	0.625969745358	-1.46500036783	0.114621442106	-0.730317083619	-0.571084961233	-0.46066282291	-0.471245353017	-0.77735842983	0.0404728343782	0.117607143268	0.556584221519	0.245754504591	-0.225611803094	-0.245453730854	0.0794668437907	0.185298486663	-0.541257950167	-0.0519753742143	0.0996190609051	0.187985542015	0.509828447025	0.141204926865	-0.236106558658	0.0259136584585	-0.347388637628	-0.10825906085	0.460163234449	0.2721627105	0.0930107479513	0.0423640655878	-0.205390001601	0.217018333412	0.00836034609207	0.0802798741252	0.19202765095	-0.227467204568	-0.0854113547122	-0.21452911324	-0.0879903224692	0.409913258824	0.146555797185	-0.0828310543263	0.180759608681	0.0663368898296	-0.16331654402	-0.19768854635	-0.226055548694	0.0707293320225	-0.293836660301	-0.0411373932019	0.0314168831655	0.00242404865316	-0.0865861732912	0.0401975290346	0.200922870964	0.0564479580544	-0.0419631635533	0.162880247975	-0.100754076102	0.0985390162907	-0.320040034344	0.0166192264612	0.263078515062	-0.223582481262	0.184188571102	0.292580880287	0.00652559434738	0.137265371035	-0.203087108026	0.156258333856	-0.243622788049	-0.0992045299444	0.0813850291123	-0.247981532091	-0.0257943344804	0.114072378228	-0.23628626197	0.0179868015923	-0.232883364705	-0.0825970954155	-0.26345490235	0.170755944573	-0.0638104409585	0.111589447264	-0.172178644521	0.254303139576	0.306942653661	0.182532807757	-0.331359764586	0.0960771005855	-0.237051187889	0.123176853613	-0.0356930108009	0.070742975201	0.248638635671	-0.0224882324543	-0.140073429074	-0.129025417746	0.0353006710689	-0.0260155350046	0.0995588920392	0.0193060303777	0.118427576456	-0.156913403609	-0.0578994086967	-0.00794890887821	0.193037560154	0.0488289312972	0.290182445982	0.0256439033385	-0.13055098988	0.0754729087137	-0.133366303743	0.0321732481108	0.0691041517475	0.0268916345257	0.220419089337	0.0554863169767	0.134454132958	0.113798694587	0.0226661760829	0.0911071997315	0.0791782092321	0.00627528864875	-0.149644129928	0.0296727971032	0.115619048097	0.0735679830486	0.015703775316	-0.0279083111393	-0.199276936358	0.170221999231	-0.0743737620978	0.0669282756105	0.0106740652137	0.0902927993097	-0.126241068675	0.0786872278722	0.204265162249	0.0290197384996	0.0484628890702	0.0464621734482	0.0380984163007	-0.0364445440433	-0.0516602480329	-0.017310635739	-0.0126092523718	0.132059977855	-0.0460134457904	0.0771377640776	0.0503981852279	0.00339681331107	-0.020925322573	0.0421360957735	-0.0310985705344	-0.160818183936	-0.049980940209	-0.0189004177703	0.106685934004	0.0182302944929	-0.0470647945291	-0.00338455448922	0.0663238260007	-0.103677367245	-0.064191292472	-0.0248038441208	-0.121450067737	0.00796087533489	0.0976588020455	0.0346822948973	-0.0689007188539	-0.0331344909885	0.0908574954152	-0.0933679540431	-0.0276850916345	-0.113870287023	-0.162139138962	0.138059242252	-0.00557884743347	-0.0231162980354	0.0617710265065	0.183293441702	0.0492019287662	-0.0394641593503	0.233559898675	0.13899119619	0.113659159069	-0.00116602831152	0.143056516731	-0.0831355330011	0.0714551142736	0.0722018648736	-0.135950760735	0.108101075869	-0.0181916751684	-0.0451290690395	0.0764372456767	-0.00135805669517	0.0351960288621	0.155995964943	0.0300523647241	0.0719744601531	-0.0154697196151	0.19617623031	0.111495097838	0.0331424909882	0.0969209776006	0.0857114978656	0.103713385213	0.0564050012179	0.116587604365	-0.163028343331	0.0233733998236	-0.241074360084	0.00271284374114	-0.0628478214494	-0.142987750077	-0.157585876401	-0.0297214936341	0.0371968707616	-0.00707582214415	0.186032566396	0.0674042981829	0.0735694254302	0.0546770105792	0.0399490144042	-0.138230954434	-0.0847909193453	-0.0335153616769	-0.116152050434	-0.108158702194	0.0124479021351	0.279629758592	0.0456111253424	-0.0624510127846	0.0068576551023	0.0758591095139	0.0158877763797	-0.061900158088	-0.043752917888	0.184230621535	-0.0745499292263	0.0582897019605	-0.0274861878355	0.15791857418	-0.0249065981002	-0.0206670256665	-0.0348486501922	0.0340738166844	-0.246332613643	-0.00735369616976	0.0212509340839	0.149300819249	0.0223618206666	0.0874255660978	0.0658697602046	0.0159492760856	-0.0133459613922	0.0115073894779	-0.0189662932395	0.0992920239654	0.0772537314553	0.114302724453	0.0427993644699	0.0463277248877	0.0261371975703	-0.101042272434	-0.0457982583702	-0.0425833344421	-0.0578024485478	0.0548193236471	-0.00636910705047	-0.0312820434598	0.0504186596522	0.0064168053713	0.0193445826622	0.0720164126454	-0.0758985480787	-0.0374556214286	-0.0942939956658	-0.0586540371336	-0.0754075431514	-0.00781289369269	0.0179650640517	0.0919413127626	0.0283048089295	0.0184276780589	0.190948651815	-0.116465892032	0.030916959828	0.0101025742083	0.0455231231178	0.00564339578774	-0.0512950405731
