Concept	0	1	2	3	4	5	6	7	8	9	10	11	12	13	14	15	16	17	18	19	20	21	22	23	24	25	26	27	28	29	30	31	32	33	34	35	36	37	38	39	40	41	42	43	44	45	46	47	48	49	50	51	52	53	54	55	56	57	58	59	60	61	62	63	64	65	66	67	68	69	70	71	72	73	74	75	76	77	78	79	80	81	82	83	84	85	86	87	88	89	90	91	92	93	94	95	96	97	98	99	100	101	102	103	104	105	106	107	108	109	110	111	112	113	114	115	116	117	118	119	120	121	122	123	124	125	126	127	128	129	130	131	132	133	134	135	136	137	138	139	140	141	142	143	144	145	146	147	148	149	150	151	152	153	154	155	156	157	158	159	160	161	162	163	164	165	166	167	168	169	170	171	172	173	174	175	176	177	178	179	180	181	182	183	184	185	186	187	188	189	190	191	192	193	194	195	196	197	198	199	200	201	202	203	204	205	206	207	208	209	210	211	212	213	214	215	216	217	218	219	220	221	222	223	224	225	226	227	228	229	230	231	232	233	234	235	236	237	238	239	240	241	242	243	244	245	246	247	248	249	250	251	252	253	254	255	256	257	258	259	260	261	262	263	264	265	266	267	268	269	270	271	272	273	274	275	276	277	278	279	280	281	282	283	284	285	286	287	288	289	290	291	292	293	294	295	296	297	298	299
accordion	-0.616705170177	1.10961705038	-0.210719818536	-0.0188072387148	-0.287421736654	0.35106296755	0.713908228779	-0.374486522981	-1.09711893247	-0.656803713413	1.2300010382	-0.0223249598143	0.697244872829	0.05589519375	0.0488087536829	-0.0463946054168	-0.490020592999	0.108540132942	0.0615329990055	0.0944408113754	0.314388578175	-0.0547829591969	-0.00483875489902	0.10469643399	-0.125803748654	0.0907175830315	0.0508437264662	-0.246250936954	0.0318839405167	0.046800145756	-0.0212473607961	0.0894348782792	-0.0676778710481	-0.0976699100417	0.126741573706	0.0594922380438	0.226147481996	0.160303632955	0.113549634689	0.149093694357	-0.175207631142	0.0869252394154	-0.0515792742047	0.1045497999	0.250889204922	-0.0354040122463	-0.134264614274	-0.10460309526	-0.0213322390753	0.182100720061	-0.0324256296874	-0.149786872399	-0.0649395609166	0.0829908344165	0.0896047229155	0.0301312369984	0.0348206643003	-0.0273940104269	0.0255313973895	0.0132795272054	0.0567700972113	-0.15647007122	-0.0945692075734	-0.104950527163	0.0904894717394	-0.0630534179185	0.121502535158	0.0548521649963	0.0971665437831	0.0991514230392	-0.025958491301	-0.15344101739	-0.0583529828118	-0.00235960033721	-0.166548810792	0.0187131198164	0.0186293902019	0.0296737786009	0.0388482008483	-0.108552531936	-0.041010882454	-0.0406925337783	0.0318784988719	0.00304737851584	-0.0239090433341	0.102502051475	-0.0159262533671	0.00307839206081	0.0482044416765	-0.0368501976694	-0.0599679235366	0.0375016183215	0.167337862985	0.0381620091281	0.0791033432667	-0.0499433448235	-0.0975996276456	0.0189685977017	0.0843633649124	-0.0174545869276	0.0329523568001	0.0469738680325	-0.0560907801382	0.0785950130538	-0.0593000160971	0.0524425463146	-0.0839903274717	0.153729984724	-0.105436087006	0.0314778646183	-0.0904728624628	0.0799422392126	0.0350028328238	0.0537062557156	0.0154009647448	-0.0391275605302	-0.0219715584478	-0.0385221308534	-0.0410162651475	0.119871012718	0.124617312706	-0.0101495954199	0.023411954308	-0.0806420486657	-0.119821948189	-0.0444709221147	-0.0228163156559	0.0666606904955	-0.109659401417	0.105409253293	0.153190135192	0.0178506024161	0.015182433897	0.103285650142	-0.0693718524409	0.13501931109	-0.0732537174727	-0.0581206276285	0.260573108425	0.10974232259	0.0553875250886	-0.103338322655	-0.103033838342	-0.105814034922	-0.00577520782877	0.118445926304	0.0152109794372	0.115704009324	0.0246096615604	0.00110637014862	0.132778487448	0.0395004514251	-0.0364003112829	-0.162109838316	0.0533830191998	-0.0413759697337	-0.0739660820139	-0.118128488519	0.160178774612	-0.0816922480427	-0.00308992643989	0.0449667465588	0.0701210563164	0.0605587288473	0.186330383839	-0.10080935011	0.0842769243328	-0.0108012418292	0.031667382046	-0.107606095611	0.0542179357623	-0.136358930525	-0.154135271613	-0.0128284046822	0.182113714193	-0.0803156200394	0.118043727663	-0.0310332498995	-0.164639201977	0.161229667182	0.00700609779616	-0.09878050299	0.0438997128647	-0.0371037322808	-0.10831311448	0.071557576137	0.0643747662693	0.303530580719	0.0922410283619	0.0907472087094	-0.0130732292147	0.0685926241053	-0.00905757171251	0.0209289977663	-0.171042985798	0.134949954857	0.0120918986167	-0.119139269041	0.207849495022	0.0817894443232	0.00807758265338	0.0408763723725	-0.105090463277	0.00869349331952	0.0687545834836	0.156158350377	-0.153720039401	-0.115316972205	-0.0504248871829	0.181066479111	-0.0403522446803	0.150987815602	-0.20419136769	0.0173294843921	0.161610485674	0.206526537557	-0.120990883297	-0.133064657084	-0.128383815234	-0.023339450463	0.1747674175	0.0825236915931	0.0959144618071	-0.10386638368	0.374524691104	0.127699361351	0.137964662834	0.044249038747	0.0115125832655	-0.0659103804503	-0.116615120818	0.164673898613	0.129799153896	-0.127943792746	-0.102863058566	-0.0830072867728	0.125171356931	0.177686422482	-0.101675070209	-0.0776551904675	0.129855596971	0.0284561218508	-0.12403660417	-0.0486194823345	-0.0197026874095	-0.0508726341416	-0.104645130321	-0.166804912505	0.0239187674812	0.0322601595716	0.0415085316809	0.048450630456	0.0193418526568	-0.0445884746531	0.121445216837	0.0855033866899	0.00730573367508	0.016641189985	0.029052197956	0.0658862781516	-0.0547278086738	0.0153661036545	-0.14015369674	-0.11227908464	-0.0201963759646	-0.140384513896	-0.0356379326934	-0.0131994716664	0.0614810207381	0.200200041707	0.0301065518425	-0.00555559840217	-0.245092095874	-0.22898018389	-0.101964981312	0.233289388825	-0.227264522977	-0.139287845784	0.112746439249	0.0804361168913	0.0432013757472	0.0637116343009	-0.136203868834	-0.0277651075593	0.0211804951223	-0.124237214142	-0.176877691178	-0.176599176791	-0.0420026684618	-0.0473955070689	-0.0966121754716	-0.0999311411764	0.0816688624062	-0.0725297757387	0.00618345761266	-0.0659832374503	0.118449567295	-0.174227103979	-0.0150139594463	0.114693629705
aeroplane	-0.86776459901	0.714016868393	-0.408250957927	0.434151592393	-0.707175865327	0.418357629265	1.13231334774	-0.648013050051	-0.0309923613311	-0.290199590084	-1.48670352462	-0.151121937402	-0.235667882488	0.0446591731676	0.0507465676905	0.0463722710928	-0.221941267606	0.0812193640132	0.0482451950184	0.157300884978	0.0461994828608	0.0783883974222	-0.135034469021	-0.149794072753	-0.00252550234035	-0.144678397979	0.357568689462	0.103391818454	0.0357325502556	-0.173667935737	-0.283620616941	-0.14522308691	-0.00963603977331	-0.0645207803929	0.132474146751	0.0482821791533	-0.0759446065751	-0.377544498775	0.137517935664	-0.0119794853364	0.0424436089836	-0.068754827479	-2.38009572844e-05	-0.358223607838	-0.239200187828	-0.0803091293971	-0.162232522765	0.383613203445	-0.0560764813475	-0.199325022981	-0.192846460531	0.0731138406769	-0.0555698010373	0.22295241719	0.22264040155	-0.176243094056	-0.0313955863966	-0.00668527446999	-0.111517807335	-0.0641472323247	-0.495632986518	0.136262299921	0.111646393017	-0.126170277679	0.128871929923	0.262017052033	0.0369171250664	-0.179487891079	-0.0168444614463	0.092881873139	-0.176727455836	-0.250074091799	-0.268912418724	0.191021522636	0.00128911292091	0.297156055068	-0.0434053116652	0.139961079527	-0.409640399502	-0.0662339795555	0.261626762673	0.30527890065	0.110554512522	-0.27924691706	0.0255112593553	0.048847532012	-0.228063607513	0.0697564445175	0.228344667208	0.11012310729	-0.0940456684824	0.0378981428909	-0.199747914877	-0.0599254161789	-0.138131652423	0.13038079493	0.0446121434286	0.0437596618571	-0.186894266293	-0.226683499248	-0.0207316219807	0.352379180256	-0.245095292558	0.0397745320289	0.237162994257	0.00798045070878	-0.0331511471799	-0.171341623704	0.161054223523	-0.0643844137517	0.182029277041	0.214118622608	0.1507461461	-0.0670132145171	-0.343959584005	0.0964250811171	-0.113352707558	-0.0433762805604	0.158306246915	-0.0533024597193	-0.0180776461799	0.215503400785	-0.151074246144	-0.205681289547	-0.0474920006502	0.109864619831	0.0821417417984	-0.0403050031498	-0.0831422534791	0.319254595595	0.0640984926555	0.104399234283	0.0924273465546	-0.244120747065	-0.129490277501	0.0473864999468	-0.246548434628	0.0747638444429	0.194791813933	0.0207105400928	-0.0823073496395	-0.00879845296233	0.0106172459436	0.0280835091973	0.0997394335426	0.0665602544696	0.0466545720791	0.012239596169	0.071118259883	-0.186160557323	0.0482800279835	0.211373110237	-0.0490526319365	0.0614832695525	-0.140146053601	-0.0191593920011	-0.183427517402	-0.11626897016	0.223554858426	0.0290687559153	-0.00257344089136	-0.0256585341029	-0.0358088024841	0.242283818216	0.155777279966	-0.00933699835065	0.00535682971398	-0.148762390246	0.0305631181831	0.0832823756801	0.0638412999634	0.0596676927299	0.0733292219628	-0.0869463400996	-0.0868051512028	0.0782750938306	-0.00344304764087	-0.00301723432575	-0.0142576313195	0.0717840448693	0.293678931104	-0.0392339726729	-0.0256319865556	0.0523762312188	-0.0458099630273	0.00112155962118	-0.13766965542	-0.107171124749	-0.133827346851	-0.100177752115	-0.0530566087848	-0.00351608474585	-0.130074864497	-0.138296372051	-0.00839146940741	0.0718043271262	-0.0686160841358	-0.0729270921928	-0.0522922368652	-0.0185012113855	0.00625591481245	-0.0484984012322	-0.145261124644	0.0203714289418	0.189525311849	-0.189914130884	0.222801370107	0.0668252829987	0.0411651009561	0.0861396747109	-0.0538222800284	0.126844479575	0.0591587941729	0.104056163523	-0.00299451235723	-0.0771052117395	-0.211967374527	-0.200813564444	-0.035975515549	0.0646046726103	-0.132895358453	-0.131808610901	-0.101786956068	0.0846822262945	0.0739607050107	-0.0336226082301	0.0692017716962	0.0102581397679	0.096055104955	0.0314712443319	0.0776076311341	0.0814197977544	-0.0789044757018	-0.00437479097569	0.0693826640687	-0.0772718870296	-0.0442906186787	0.0625750077144	0.0906024806759	0.0903642951628	0.0256895972874	-0.0474687119826	-0.0540829011012	-0.0507232992274	-0.141862302426	0.0159491253549	-0.00673875043545	-0.10302044075	0.0460137856686	-0.00351737123984	0.0724860650424	0.0149116730876	0.00467448111158	0.073607453211	0.122933663755	0.074109254519	0.113310051482	-0.0363012702185	-0.128190211552	-0.020256779598	-0.0343556290187	0.0440720388971	-0.0671658329155	-0.0270342678773	0.0502559123128	0.0303360110597	0.0218470541824	-0.0125935546103	0.0445702807754	-0.115790300577	0.116463736396	-0.0603365580498	0.0128597274271	0.0161033009794	0.0505452459062	0.149494522218	0.0108505045436	-0.0714206830564	0.0131409270712	-0.0596391790645	0.0854206165031	0.119770576404	0.0793942356579	0.0486038085251	0.0616596044348	0.0597762445626	0.093269858642	0.0561882138113	-0.00661500430084	-0.130971604811	-0.10869056025	0.00831172076368	-0.0214851785	0.0385292960991	-0.127533581939	0.0553002069823	-0.016714400557	-0.00869120823393	0.0728230604535	-0.0806556093392
alligator	-2.13040869764	-1.21851208231	-1.02024805861	-0.735719351902	0.146462144334	0.431707703118	0.582314393972	1.0462735129	0.150282824936	-0.14046322604	-0.130243391618	1.69928859537	-0.226932179379	-0.700194281507	0.619255841257	-0.555007079161	0.636491636867	0.439379168419	-1.13466323273	0.336438060495	0.349593948031	-0.377382589389	0.0894319544854	-0.410539561666	0.0976130567919	-0.135161875431	-0.0674359301562	0.0872399588716	0.589413773844	1.48703281266	-0.429896134194	-0.0298588658302	-0.539314922503	0.104042665464	0.114775958898	0.227671364771	-0.0716180994503	0.231472715159	-0.386565848323	0.180076301133	-0.242995766706	-0.42413482435	-0.12276200696	-0.0932761781127	-0.798132420813	-0.360156030255	-0.534841073577	-0.84807047833	0.0661795435843	-0.181962964882	-0.457666456041	-0.184956142402	0.332394377755	0.612766161716	-0.507213728898	-0.287642542811	0.314630176479	-0.25385005981	-0.37551774715	-0.297333259955	-0.0191767593779	0.0659546817075	0.367675554056	0.0283716068192	0.552202017455	-0.304332569369	0.0140522474142	-0.546540178194	-0.0191937631978	0.173002021232	-0.343250747831	-0.170699022981	0.0999141180658	0.252215581801	-0.222896172597	0.585138419005	-0.545467957774	0.0089849363679	0.450983484416	0.317538940427	-0.78616080462	0.0047885035164	0.254042373384	0.173808885809	0.290916358441	0.170757286691	-0.332147118066	0.339002914267	-0.0560875239543	-0.151468826338	0.425470798513	0.170712704369	0.299179801798	-0.314158909546	-0.275976940482	-0.607289399744	-0.141527622792	0.26738260989	0.14158962015	0.196002232081	0.0841692539099	0.164412232691	-0.224441054259	0.421439131328	-0.464408056706	0.0598482317032	0.218981925493	0.164769433076	0.134987470668	-0.0965022694799	-0.291879612955	-0.317172176211	-0.420894055681	-0.0582725195829	0.0814122632527	-0.218122346045	-0.107929617814	0.257981381287	0.034436833184	-0.219035331925	-0.152312851191	0.140237549426	0.230711458266	-0.292261178796	0.187451875798	0.00947970452083	0.0538683070155	-0.104290810818	-0.0387078337432	0.203896398247	0.358394187311	-0.244617708191	-0.0136974499291	-0.0474328514522	0.074070825646	-0.157408981639	0.07461169808	-0.131777698601	0.330718107479	-0.103095971259	0.333261736594	-0.082614955718	0.196397980677	0.208786595111	0.266198907597	-0.101375594185	0.001665543495	-0.0473759083511	-0.101501400517	0.0735937032007	-0.290060603793	0.0524256967946	-0.0192180687269	-0.00271561957349	-0.133577731902	0.191286803049	-0.00753302151687	0.00148096634533	0.110544047595	-0.109337664069	0.170264260395	0.186395243468	-0.130417759347	-0.200259984356	0.11319937165	0.203285050983	-0.0391333935313	-0.253311350015	0.0285913001753	0.0133697849239	-0.0892628229077	0.111796044592	0.13552442685	-0.127198472318	0.0587658896512	0.0467718819899	0.00530089336287	-0.0698811781987	-0.237593285546	-0.0444156249757	-0.0341595857199	-0.158844378275	-0.238198885267	-0.153819507717	-0.0868332718914	-0.0781510886044	-0.0132829537791	-0.179023167867	0.0847328624375	0.00100047869231	-0.0157791897488	0.116396546798	0.23108803601	-0.173621223369	-0.220583142414	0.222295742799	-0.0798962303879	-0.0541321510274	0.21641503105	0.274045702733	0.0322617240189	-0.0856907612984	0.0867375425896	0.0245517206144	-0.0274742975233	0.209311961875	0.111032031811	0.0833350576881	0.149175647233	0.0797186352356	-0.156453503594	0.103558015103	-0.0175370382959	-0.0665661497259	0.0128461706371	-0.222835678286	0.129424479491	0.321925107733	0.109847572993	0.0456324665794	-0.265421285862	0.087204801709	0.0334464328062	-0.103428005805	0.0658848917538	0.00853679801611	0.0351211158458	0.130823119744	-0.0916133236439	-0.106161770317	-0.0678920335355	-0.04185849306	0.127003429046	0.171581419554	0.0423771324338	0.0364474886645	-0.0965345411006	-0.100047200596	-0.000336432714384	-0.0165352616379	-0.00988556845714	0.144425145573	-0.0427374332926	0.0397608476514	-0.0281327463064	-0.00581052186425	0.0220277118422	0.0135747591114	-0.00283691193225	0.0374618249828	0.0914823715528	-0.0324761620333	0.017032915862	-0.0930698005888	-0.120431719966	0.0161441066264	0.146063925512	0.149284639968	0.0363926553124	0.00126269465486	0.0175406900746	-0.062842746551	0.108638206495	-0.00745885871047	-0.0608117176336	0.0322446346647	-0.101712876391	0.0345221284893	-0.0488376231426	-0.0706161447002	0.0394644636009	-0.14411631419	0.0412697680604	-0.0453616725323	0.00960609686524	0.0231623206365	-0.0484227316111	-0.0079262340221	0.128780524342	-0.0144813348859	-0.0260587159546	0.0886457629458	0.0486569905828	-0.00250340918659	0.0861221785046	0.0400492589119	-0.0616804995494	-0.0450550687023	-0.0623373988668	0.0640437556032	0.01788444898	0.0805990516125	-0.0686921479284	0.102814419877	-0.0416937566909	0.0767874445697	0.190690000564	-0.0635242819515	0.0407178971154	-0.010029485596
ambulance	-0.661400709261	0.790831181098	-0.207353700771	-0.084558885571	-0.316123174729	0.332907059088	0.808196421751	-0.741824697852	0.0760474695072	-0.502541108113	-1.42373059412	-0.453844292871	0.723184663172	0.375543377198	0.263858889644	-0.202066509111	-0.0326253027363	-0.244071435424	0.172266729644	-0.251459302516	0.852962478628	-0.280295668004	-0.505114100011	-0.201845319431	0.192406959522	0.25469988869	-0.114989053047	-0.0233213911192	-0.262653890458	-0.184571336981	0.150649361061	0.375482763025	-0.55793827029	-0.114834166375	-0.162019924715	0.160830087386	0.110159509233	0.160308959035	-0.223941020036	0.355360380854	0.116512402299	-0.14492641547	0.0278165683021	0.232572952598	0.407938365187	0.161210270666	0.219060409518	-0.518835109903	-0.0507369789968	0.354144444043	-0.0375462544017	0.115757082996	-0.0774610892537	-0.084952094867	0.266175534559	0.240955916155	0.142538095687	-0.479770219757	-0.217272241869	0.000513610369198	0.603662282121	-0.292897209733	-0.0286240661758	0.271798512785	-0.0350254568017	-0.362493295361	-0.294038951273	0.0648990884606	-0.0553671255144	0.152563247793	0.213880508656	-0.0949235157885	0.190716208092	-0.348127446747	0.0654601677132	-0.173888700995	-0.04961273137	0.106766409002	0.183664200184	0.317145176733	-0.476840229296	-0.23830306725	-0.26252865866	0.29965033261	0.165305121802	0.0870499168371	0.360409156114	-0.54252086068	-0.28993269855	0.00476176689347	-0.0337522608196	-0.166775990358	0.163384271529	0.280522827042	0.185247298761	-0.321660527469	-0.346608240045	-0.218175635056	0.100112757424	0.671135246604	-0.330882224633	-0.33105724779	0.53093143786	0.134660829564	-0.197344433919	0.0918594086428	-0.246588434246	0.0512317309422	0.0253608839518	0.113344221795	-0.27239900063	-0.0576641610306	-0.274421554576	0.401377083795	0.249933796379	0.424171473055	0.18138824855	-0.0880507557574	-0.245337728999	-0.207161382247	-0.0731359139273	0.402443231355	0.222832791501	0.0739022552789	0.316776454479	-0.163891267207	0.248407394691	-0.424431815977	0.0809248300737	-0.51149596909	0.0198110596819	-0.282352333122	0.345357923471	0.494499956833	-0.91349126839	-0.156692372876	0.466268287438	-0.773979790404	0.353328744629	0.0573167595841	-0.191126089162	-0.309920951952	0.0700160296709	-0.598853953332	0.128246702061	0.300404611876	-0.34166969366	0.202882000307	0.0369864572447	0.0125979396511	0.226190906231	-0.0072695191403	0.096718006796	-0.128664972629	-0.138449263743	0.0744016619143	0.0260528360989	-0.23939962462	-0.139481286572	0.413316636977	-0.0358947357823	-0.0945606486506	-0.290989267419	0.149242478349	0.250962306837	-0.0878151607906	0.651342273628	-0.188676106802	0.0662951861217	-0.230825306468	0.158937170894	-0.0524594636401	0.00755731603461	-0.207483451801	-0.183598683063	0.179970704843	-0.0428053429361	0.167630473386	-0.192453747466	-0.288877946257	0.250438883585	0.273202867555	0.290125708604	0.681307589269	0.00441998156381	-0.0300359891966	0.237550727643	-0.376073946913	-0.383884503242	-0.150881080797	-0.216532653132	-0.451602665585	-0.0673802792694	-0.0736431476665	0.324599615318	0.183062938304	0.0111362084355	0.202023009599	-0.000791251153207	0.0414012420555	-0.00359600233351	0.0536556456536	-0.0589539446089	-0.153550182085	-0.0348809596036	-0.370027850074	0.04876865991	0.124813643995	0.200824441943	0.0817852697105	-0.132635557451	0.185956284279	-0.123626467712	0.00183670347679	0.282962555178	-0.0501704753623	-0.152382513051	-0.0442419155764	0.164698393162	-0.0320361484043	-0.118024869158	0.0172605980209	0.0737163012604	-0.0226654147797	-0.0478982391471	-0.117446051254	0.0800015610061	0.0446085245746	0.304676304813	0.0764474317854	-0.19876505114	-0.126287759617	-0.0841525368166	0.0967056140467	-0.00655651307291	0.0918117475396	0.186706352183	-0.0259362364762	0.0678788952321	0.115728282433	-0.187568580329	-0.0868870702289	-0.0976889075965	0.260176570776	0.105839342296	0.0163092625434	-0.239310131915	-0.0552336479291	0.0712527246484	-0.0962874246699	0.00515720479381	0.254317577795	-0.129584987012	-0.184240804869	-0.210164248829	0.184269424639	0.180358277979	0.0501560111596	-0.105212261308	0.14158888998	0.0613506870494	-0.0967631249444	0.126567894018	0.0601650071224	0.205682801837	0.00329489914882	0.0183245757818	0.0177081441938	-0.0216504830893	-0.11430019289	-0.0580342035392	0.0671359122847	0.0105094721587	-0.0415586251135	-0.0681728463716	0.0874552618826	0.0539909628839	0.0259473426714	-0.11111705694	0.00416039120992	0.171664462318	0.0208076118308	0.0179012726565	0.109701806071	0.103393812012	0.0662918121271	0.0819018093347	-0.0356860879792	-0.140094033551	-0.0811882414829	0.0190642421211	-0.0424169404987	-0.0273674263181	-0.101465678587	0.0115924701521	0.00389585310358	-0.0967018467495	0.011621447102	0.0458059357118	0.0532868683138
anchor	-0.434974546495	0.641857819698	-0.121852491791	-0.182062352138	-0.151340712128	0.0189302417563	0.234915314511	0.257017380158	-0.0732727252195	-0.262030608171	-0.256842057683	0.146174369984	0.188242013109	-0.128803823278	-0.0922329501891	0.268094716416	0.0639535731702	-0.149035508733	0.09038748535	-0.225607667801	-0.384517805024	0.0659584124144	0.173079278123	0.222439364157	0.304918041403	-0.0960596508907	-0.0156661967199	-0.131746097882	-0.219147720687	-0.0647123512409	0.135623674271	-0.0420163559822	0.31985678352	-0.0923033812918	0.0395602725271	0.0373752278162	0.415128233758	0.0912810259801	0.230832382805	0.186707496563	0.077278535253	-0.323304994155	0.0582221127936	-0.101584890523	0.107810991622	-0.00374614765645	0.15960325026	0.380990821249	0.196964055285	-0.0243428468574	0.139734411099	-0.280857539549	-0.254119752563	-0.168072478697	-0.120668322259	-0.00925239066598	-0.0452606200384	0.00553673686937	-0.00113749707001	0.152432809801	0.223797101639	-0.0964322197308	-0.138603357905	0.284052707318	0.0334178560667	0.0591180805503	0.20369037508	0.0719079545688	0.0380261592051	-0.0297880418711	-0.0360053493895	-0.0759145982446	0.304951164616	-0.094322009035	-0.201818873309	0.23403892928	0.136611033876	0.0174523324058	0.26811509	0.196605875147	-0.0872962235119	-0.013917759132	-0.108274765672	-0.304317413595	0.194279516566	-0.0940067662558	0.206125057508	0.0874443881438	0.164213910654	0.127423112582	0.0469561707537	-0.342007806514	0.315678762371	-0.0924160394464	-0.145294383868	-0.159531188049	0.0628041557313	-0.220100903057	0.0866002251683	0.0704169336357	-0.0239518794296	0.234080931705	-0.0340745098702	-0.156345817963	-0.0187586659722	-0.0219852034039	0.09534900243	-0.0498409483695	-0.0508978725353	-0.0963085443079	0.0502414283113	0.197189122361	-0.0550473790734	0.0882109549898	-0.1288450556	0.0233216979051	-0.150730948548	0.129200554374	0.00862513691705	-0.0812068462741	-0.106021029879	-0.00902398417179	0.0402575306284	0.175517070125	-0.233965034191	0.0269108850161	-0.0710674815319	0.191503746425	-0.0297490588645	-0.0789366666904	-0.0203914835252	-0.177422316136	0.245529406906	-0.115492052029	0.0225830463726	-0.198345846724	-0.0472684311945	0.0799675342412	-0.0221271970736	-0.0404498116042	-0.0311477876906	0.0780077481177	-0.0907156305875	0.0577172606982	-0.0471825090702	0.0912218013193	-0.122909877402	-0.124344437114	0.0189543401401	0.0840430241446	0.125157755642	0.13841278429	-0.169733697383	0.242803279836	-0.112615660457	0.0637652405478	-0.140208182043	0.0518481181057	0.174352528118	-0.156444110003	0.101292585159	-0.00874727277584	-0.0599962990393	0.0368583709037	0.166710379318	0.215591277446	-0.00258037367732	0.0689765797743	-0.0402948014086	0.125140850356	-0.0763153359545	-0.259883770454	0.0746195704331	0.0728275200449	-0.172338377312	0.393983055374	-0.21454218848	-0.0404831831458	-0.017454782552	0.163412367156	-0.0531872003129	0.0260476640661	-0.0229552834859	-0.0181326141739	0.112189751802	-0.0452767159025	-0.263095484072	-0.0775463189606	-0.0339743641764	-0.110896053965	-0.0394506377204	-0.108704827546	0.338883503098	0.135717330129	0.0216716844457	-0.0574699506684	-0.0339046206392	0.16280801786	0.0460878666547	-0.117464483214	-0.0690713411606	-0.0267235265356	0.288924499224	0.0380815154678	0.257806153342	-0.00144915126926	0.0405925708492	-0.0618680798456	-0.0646823097869	-0.0360392107631	-0.201636459599	-0.278952689639	0.132138189952	-0.15210479434	0.13397145462	-0.116334554996	0.0785020448797	0.0286509023058	-0.16504691328	-0.312385514929	-0.152602947434	-0.0971127949964	-0.094126608208	-0.350398983318	0.202981708082	0.0991514652241	-0.0946908288883	-0.0459975839552	-0.116794092902	-0.0466762518921	-0.00632246736343	-0.358724967902	-0.105872295103	0.00856509948597	0.066011875765	-0.0336468103038	0.0797086752772	-0.00379029566368	-0.13363713778	-0.0588886411121	0.0671937168381	-0.114295960445	-0.218936596175	0.107370583426	0.139352796598	0.0521622885396	-0.259677972236	0.127677103592	-0.125376573446	-0.257188128038	0.0244511933322	-0.060686620799	-0.0118660548829	-0.123065489103	-0.268588084074	0.0119143251211	-0.324470066277	0.171534369198	0.297824241235	-0.0402781612827	-0.157977284511	-0.0384025378078	0.0468963601637	-0.259315747408	-0.0439308101315	0.0128734981688	0.0040958534602	-0.0782632466661	-0.224776761584	0.109855226913	-0.140859490634	-0.267747471219	0.156351438379	-0.10699573415	-0.138679947452	0.180510641571	-0.0465766932109	0.0652659990616	0.0473026376846	-0.0696775081875	0.0813529763688	0.0038867655693	0.0257690152238	0.0495053268305	0.0443994207549	-0.162141565372	0.0891745027894	0.173896019652	-0.142141915243	0.0711247430232	0.0631493078556	-0.267004713408	-0.210114495716	0.130616050935	-0.107582424094	0.138918899844	-0.0284710050719	0.0233179497866	-0.0459925986281	-0.187608117381
ant	-1.60845931083	-0.722646291895	-0.465955615575	0.332094817807	-0.00165661495165	-0.429202518851	-0.704909232393	-0.365806420091	-0.948938124106	-0.316440871098	-0.456943475695	-0.81559928364	-0.594328394492	-1.00740175817	0.499122337681	0.0950501651646	0.194057727085	0.584771693931	0.135124370451	-0.0275960710923	-0.24445726607	0.453344799835	-0.568669528114	-0.0842535884854	0.0497007076657	-0.158417421975	-0.0288741562366	-0.408120799354	0.192786578179	0.107003017135	0.676743573189	-0.458316324788	-0.57547108756	-0.330480808775	0.37350239695	0.5856656702	0.17966487158	-0.280564599993	-0.0700552435044	0.0291425281989	0.356527055699	-0.031734215285	0.305573580305	0.423788260209	0.00763736794149	0.15632927438	-0.451394282056	-0.288808297663	-0.671878005677	-0.329194411732	0.345633993614	-0.0969852564361	0.21128990659	-0.0871835599661	-0.188672352182	-0.0777552185023	0.43059344044	-0.322394365217	-0.131224941687	-0.302673803034	0.29072751266	0.153654691962	-0.184970469837	0.128110220086	0.142308405281	0.250339734533	0.146048849386	0.106701831492	0.0266286623835	-0.193775951489	0.165114402849	-0.121385023795	0.328452960717	-0.41052175908	-0.0403481880276	0.0780028911756	0.0226276724815	-0.0480501109444	-0.0930162715923	0.248664650165	0.130518191944	-0.105573864776	0.202381524576	0.0896874803762	-0.0150122784389	-0.0508262924726	-0.21456578623	-0.424490498338	0.132531330218	-0.0803807132122	0.229063707911	-0.153161355744	0.101844253557	-0.0100073070956	-0.0477379368955	-0.197618878631	0.0872605899044	0.313294362578	0.171596632041	-0.342816923865	0.0103669823006	-0.0711301135744	0.101908670575	-0.151141100363	-0.0193026027314	-0.156363125828	-0.211644657397	0.0308417618108	0.206815420261	-0.42952377146	0.0751820426393	0.0225311276589	-0.103535595418	-0.190677121155	0.0150890808517	0.0457333392686	-0.00831034828595	0.169025818778	-0.115393586717	0.0915479972556	0.0888012683911	-0.319431233172	0.0421038884188	-0.211867530639	0.424449833429	0.102690541698	0.0560838237067	0.0587737318515	-0.234725298762	-0.15613278754	-0.194487304447	0.132657388086	0.176455426441	0.0475712822744	-0.265121384484	0.201506856705	0.325521791419	-0.231621696561	-0.238883050105	0.156888971241	-0.00339148041566	-0.00688569209379	0.320384714702	0.0959242395185	-0.504297068774	0.267679241156	-0.152723225605	-0.165031055907	0.366616999553	0.244030745097	-0.215072865979	0.136109072581	-0.0623254944162	0.106806375708	0.0457774965618	0.195318782918	0.0175265349001	0.0133928535168	-0.127349153669	-0.0794104019717	0.115659733614	-0.157049152222	-0.18076901495	-0.0164463179438	-0.0226061287642	-0.177608505347	-0.240787024746	0.164402831707	0.0696192617927	0.101095922473	0.0038088071147	0.0387089818531	0.0550338036002	0.0815901084415	0.0609322213086	-0.0214969348468	-0.133267575763	0.0133217658324	-0.113779859418	-0.0763443482051	-0.0834973829898	-0.106689050368	-0.216984748525	0.0873644984457	-0.172494224754	0.0086298082577	0.21956675225	0.2101177028	-0.0297723278519	-0.0347403118549	-0.000502700762218	-0.00948983208379	0.0927726093258	-0.0903360359436	-0.119033568294	-0.248541197853	-0.29145067349	-0.296166577798	0.0143118062085	-0.0975601616137	-0.165869854891	-0.011358940735	-0.0982146873985	-0.171771127198	-0.126486889621	0.0957652983853	0.269146360099	0.229168420305	-0.00523949339119	-0.10470783912	-0.0610954694328	-0.0756486216802	-0.218979727362	0.182631606322	-0.0235339937087	0.0725574351921	-0.0896277267932	-0.099859172453	-0.0667972401739	0.0126130286861	0.0398592170631	0.0581777376115	0.080627912709	0.000179015969597	-0.0438446641016	-0.00214211539613	-0.0120725398406	-0.146227586019	-0.144597745543	-0.0111157374559	-0.213461959031	0.0971481026495	0.148695516661	0.0397910666839	-0.231642956447	-0.0141193544795	-0.0875459184034	-0.142891289411	-0.00102165792284	0.0987402010675	-0.077430456437	-0.158724183077	0.0717461562013	-0.0321946544556	-0.0400312802459	0.00840685555337	0.0972149685959	-0.0363923745558	-0.043539196199	-0.138496451721	0.0289911787503	-0.0627038040691	0.0755427150672	0.107389024511	0.229311982724	-0.118086610608	-0.018390829416	-0.0578033320373	0.00377665989757	-0.0846466526838	-0.192610844138	0.0521410796294	0.0355266371259	0.0880150723198	-0.0562795421268	0.0601512849826	0.122878624253	0.00748588215804	0.0857816972359	-0.0556324399406	0.0597888276002	-0.0631145818846	0.0754912489999	-0.0311089253725	-0.164164717903	0.00527163773331	-0.0253805327034	0.0106640795744	0.0749976500346	0.0212973692742	0.0467320078358	0.0578892138633	-0.0396921748606	0.160997623656	-0.0702875793657	-0.00378856442079	-0.0919755119962	0.0260213052711	0.0483305218018	0.2067822376	-0.0867799785744	-0.133573213148	0.0106262052131	0.157842270076	0.221738224645	-0.00585790882736	0.059613399132	-0.0058441179208	0.0796392059414	0.0633312907768
apple	-1.08019364013	-0.267177782141	2.68781772509	-0.294502693508	-0.125582161269	-0.209663583958	0.536328807978	-0.317933396987	-0.304603315081	1.03988277561	0.00729768525863	0.577238576351	-0.153670140844	0.112201028219	0.404294050631	-0.0999597440252	-0.0283942304314	0.288351751397	0.214562137697	-0.329596027571	0.113704202145	0.143069793472	-0.249460859754	0.129834326742	0.174396450725	-0.230424383773	-0.0824317440088	-0.102190063538	0.226630458884	0.119754324634	0.0940321171289	-0.07191997785	-0.097730740959	-0.0490342539493	0.303323069619	0.315919050708	-0.0516222614887	0.235579708221	0.041626090129	0.0360657186776	-0.198278771301	-0.120259982741	0.143019389048	-0.155139429077	0.266070067643	-0.116641282024	0.0531563811526	0.0721895301357	0.0758112521921	-0.142912347653	-0.17278259566	-0.0913013624931	0.022054649849	-0.103398495107	0.10350775075	-0.153984203987	0.190737734062	0.0271474822896	0.013327863672	-0.0929457408035	-0.122681295642	-0.0105434955091	-0.0644379464604	-0.0657095286934	-0.0933390072061	0.0926497653245	0.13850606513	-0.094814190734	0.0991741636795	-0.147831677515	-0.294411068587	0.253567581948	0.129472325382	-0.0851018875965	-0.0807045982299	0.0156417384624	-0.0506344933566	-0.234430037775	-0.111542882612	0.0119337713261	0.0662209572598	0.12054753407	-0.0622722449075	0.000783584035479	-0.109564875735	-0.0092729856214	0.175302288769	-0.0735622688822	0.067696116245	-0.0674456493618	-0.000471875247941	0.109504460404	-0.300035776147	0.0218650637377	-0.0355907670331	-0.163086073843	-0.0950434587304	-0.111550165036	0.175705961128	-0.0214212237061	-0.0731176689622	-0.204040726323	-0.0209065479498	0.0983348592079	0.0828721058847	-0.0901071970097	0.130881267142	0.0663974997365	-0.0456845576042	-0.028287036591	0.00255469691067	0.156669791766	-0.190763132547	0.0768438263815	-0.0192975545699	0.359493249646	-0.167002448695	-0.0622758030836	-0.0487828256215	0.218931606296	-0.125304250275	-0.0559964783569	0.0608335538086	0.123713414588	0.124019827781	0.125572427364	0.20677380833	0.0658837963762	0.00413592188274	-0.0237322815213	0.076816771694	0.151590727645	-0.166607594077	0.0411570609684	-0.0909239661348	-0.0183027027649	0.0817691648497	-0.0275648341775	0.0259959533792	-0.22665981548	0.0302474882757	-0.0515249192014	0.0178447178534	-0.104533903058	0.0448034554359	0.0714612698651	0.00502167511903	0.121112949299	-0.0675890818055	0.194496458696	-0.0738034989856	0.148994533768	0.0656875732367	0.157373083459	-0.161075886102	0.0172232323895	0.090481813178	-0.0808480680325	0.199024690506	-0.0401644060555	0.0260810429693	0.120192875658	0.193581951123	-0.0463192277492	-0.0817894135191	0.0857219483467	-0.128883191858	-0.0825160010421	0.0539372337438	-0.0782028896145	-0.0672182509865	-0.0170641713309	-0.0781601473019	0.102352837522	-0.0455132488227	0.0148929289752	-0.0680640823838	0.092542385153	-0.0394391055397	-0.0176772704159	-0.0787233383872	-0.0828470852632	0.0121313380482	-0.0510766751772	-0.141023995911	-0.0804840157938	0.114175878039	0.0667064814938	0.0140616686101	0.10919014424	0.0270616447057	-0.155023680932	0.146209711133	0.0719189818068	-0.0565688707228	0.0244828331044	-0.0559519873874	-0.101172103981	0.0154015206142	0.0170024913282	0.0675103666353	-0.00453595448061	0.0458529702211	-0.0642347312267	-0.0162480412611	0.059512934563	0.199402698469	-0.0347773740509	0.0512125713095	-0.160410379942	-0.00303369764911	-0.137086904281	-0.032130669737	-0.160286350363	-0.0904155248299	0.0929620068305	-0.111354380133	-0.0713002510647	-0.0438003113191	0.108039070278	0.0545617020085	0.108367165588	0.0318774328359	-0.124481216429	0.126435659793	-0.165585394157	-0.114004062488	-0.220258763268	0.0111507194515	-0.0474259983827	0.09313973331	-0.0129078206796	0.0244034345639	-0.0906495416606	0.0889105428162	-0.0617646605675	0.0879480201661	0.0230509207685	-0.198334659049	0.0039680297073	-0.0413319648341	0.00357254379619	0.0880568644336	0.0268389468803	-0.0202673597495	0.00947486252132	-0.129806516592	0.11355200459	-0.0316838511299	0.129488593614	-0.0002696656603	0.0360644174459	-0.128556753491	-0.0261262973878	0.0312150028439	-0.0161324123414	0.0344018105563	0.0474518932564	-0.0201289789025	0.105597014952	0.0957793047489	0.0944334570022	-0.0485970491979	-0.0408396270674	0.0712295665094	-0.0963171004878	-0.0237555136088	-0.112780091217	-0.00152596078417	0.00539482113617	0.0410256168865	0.00574827435072	-0.0936138205387	0.0932616625359	-0.125113252247	-0.00229531606449	-0.0523661724189	0.133428755289	0.0524330565828	-0.0649419651962	-0.049640375039	0.0603927609146	-0.0343862822996	-0.00583441627187	0.0645799509855	0.0335705842823	-0.0465287781228	0.140790078753	-0.0297986449823	-0.0472864208641	0.00177267709807	0.0918647818454	0.01216731991	-0.0578212767826	-0.0459659876037	0.0335902565706	-0.0240978892716	0.0265841445445	-0.0613288868657	-0.00545116879858
apricot	-1.07877033808	-0.279860811198	2.00659984716	-0.123564319499	-0.147981105912	-0.66652053327	-0.0310916040266	-0.340183728144	-0.559213445878	0.485942238799	-0.260753035275	0.426778484814	-0.0347761947865	0.107872848888	-0.311918255451	0.23116699226	-0.0342840986982	0.461920281862	0.419809102906	0.360164398242	0.259376285299	0.012975170139	0.106494272062	0.420665460327	-0.216088539609	0.464572055695	-0.107536993938	0.210962369442	-0.136546623399	0.0422972224419	-0.15225438874	0.0470351849336	0.204794620454	0.180139216491	-0.289526566768	-0.357955716967	0.12082674791	-0.0469980961533	-0.22467779191	0.14132359458	0.149903982054	0.0798780181049	-0.169525481309	0.028569498774	0.0387724085041	0.0268226438162	0.0366843650405	-0.0526984977094	-0.0481691121474	0.0174149955922	0.295379359319	0.00506656981905	-0.201360215763	0.250981150685	-0.201544273386	0.162996614005	0.175194589779	-0.179551177987	-0.0258401380879	0.0988956744395	-0.0930375273037	0.186395351882	-0.075715487843	0.166944953412	0.0495731427905	0.258751799783	-0.197899224856	0.548804419561	0.0430666799775	0.0355962441492	-0.301163494157	0.0566411672323	0.095336043098	0.42611043769	-0.129780842394	-0.158065152912	-0.187902310978	0.210184689862	-0.192108730636	-0.0639538120653	-0.251881015159	0.020502026919	0.117265508307	0.210157345977	0.298101774659	-0.232175150817	-0.0447699599535	-0.0611142625622	-0.0996445226768	0.147985614123	-0.132396272336	-0.0577958658431	0.26828872346	0.24698214806	-0.12185549503	-0.12045266652	0.0192502526169	0.0747335190193	-0.121035853882	0.0839374895377	0.111275685531	0.244569268279	0.156881154416	-0.0231307533471	-0.101485343515	0.0579396425549	-0.157213071343	-0.0914736999494	0.205541519718	0.0596271290429	0.0421304071009	-0.0997543572062	-0.0534188330468	0.0494987183536	0.035227290345	-0.181162405337	0.0117548941691	-0.0449955996681	0.0188552911243	0.155375610883	0.124094814895	0.0211609562855	0.10835868997	0.124576492274	0.102340348155	0.205013257606	-0.0747118789913	0.00667488734981	-0.0589570803093	0.159371476487	-0.0404093807665	0.126157832514	0.0383974268608	-0.0312930971498	0.00654434957979	0.0444313103938	-0.0568621974106	0.217162247726	-0.0391761432583	0.0471078660854	0.0255982428353	0.11976791736	0.0979359349393	-0.0857597714247	0.0346673785045	0.11124352372	0.141771988128	-0.0443895069229	0.0257492425509	0.152334915545	0.0521703828613	0.0747487395873	-0.00202278728203	0.00318088711683	-0.0327389417675	0.0440767237883	-0.0997164991714	0.108393138304	0.0209077492187	0.0493893734773	0.0488030658435	0.0241881764068	-0.0310694465696	-0.106169059559	0.0309997083347	0.124408275286	0.0403874190028	0.0107166479959	0.0035556836781	0.0803627844706	0.127703855866	0.0457026729997	-0.129520393918	0.0782897142478	0.110068740838	-0.0541686705516	-0.0469627726028	0.048991182601	-0.0652211223783	0.0737498070339	-0.050632560028	0.0864355604911	-0.0676094475571	0.175940206878	0.0742444362506	0.00379554349578	0.138245503583	-0.0180044168241	0.0482794352075	-0.0809191416082	-0.095258684643	-0.0467518630104	-0.177905798641	-0.00240931508306	-0.0511614137885	-0.14465983919	-0.0587287944268	0.0378285911534	-0.0439142926375	0.0758259374615	-0.0542437992576	-0.0948565324311	-0.0976593204733	0.102140446361	0.0724303000849	-0.0285247016077	0.0197981069584	-0.0325454444391	0.0404686567463	0.0433839300928	-0.0672647877993	-0.0533876211601	0.185660772191	-0.049586494912	0.0150614210806	0.0675238984823	0.142118834855	-0.0412587521562	0.0403786683945	-0.0508743818836	-0.0339024133151	0.0319179714113	-0.092120788201	0.0512813425889	0.0355420911348	-0.0309544931265	-0.0381858193559	0.12802179848	-0.0139679676928	-0.066645226492	-0.0242293649669	-0.0347338413721	-0.0116265471135	0.0438246140044	-0.0669007317613	0.0613128224072	0.0533098509251	-0.0758173317968	-0.0817756807861	-0.0185903817787	-0.0823908307753	-0.00286371019512	-0.0831636069446	0.0723817401681	-0.00276271587349	0.0186939090473	-0.0671864947293	0.00431512895713	0.111367963981	0.0371057057321	0.0265073500723	-0.0025321226189	-0.00860572045355	0.0163759752856	-0.0118978747835	-0.0550308267515	-0.029111521575	0.0644455503896	-0.0767008493642	0.01033091464	0.0161225453131	-0.029438107335	-0.0759760581911	-0.00719150611377	0.0268198082202	-0.0589125165199	-0.00709251025764	-0.0712606658006	0.0279744516486	0.0309799123479	0.0860260525725	0.0863829618194	0.0149234199738	-0.0452465134467	-0.0556292194321	-0.0277651266223	0.000446128239302	0.0953635314637	0.0102839356811	-0.026787298535	-0.043218478109	0.105396175853	-0.0467646332725	0.0835807953396	-0.111232268677	-0.0890864975333	0.00453047863893	-0.01414872595	-0.00281469500426	-0.094083774952	-0.0442051763016	0.0551299734139	-0.00143493584088	-0.0114229133478	-0.0555392343693	-0.0126074972064	0.114472366626	0.0482338868146	-0.0405839544818	-0.0384401000209
apron	-0.415745209804	0.615659613516	0.0685191993415	0.922435470373	1.61693371824	-0.227630677196	0.175766812754	-0.179621736673	0.643252442106	0.0810873350973	0.260334516371	0.212654837209	0.240498549523	-0.317342290538	0.194926295719	-0.186307918215	-0.349898278552	-0.182357601316	-0.317878789315	0.372601203116	0.0568071748162	0.255872398377	-0.00358057396116	0.271645992927	-0.48055757227	0.00638952412288	0.19926323914	-0.245120865917	0.0122461604788	-0.0614160987753	0.199577346616	0.121611928877	0.0697332708108	-0.202359936481	0.187197906744	-0.128544871484	-0.155200704493	-0.320052712523	-0.528505123755	0.251968328373	0.152255272088	-0.483554067133	0.00686382513501	0.0238431582702	0.136915217371	0.240784552099	-0.265627054022	0.236804573907	-0.230472383638	0.321586418068	-0.184391578102	0.135312776243	-0.265507679251	0.0558984902763	-0.513685322544	0.104730878472	0.0851310877852	0.309148785672	0.0615088772516	-0.0164355060502	0.11760216333	-0.325269562506	0.0857434229535	0.0934558241359	-0.267221496162	-0.0368652068648	0.118989672255	0.228298139511	0.0400038673041	0.0379616469555	0.0102462804053	-0.332541245594	-0.223834241638	-0.147555362319	0.172688691898	0.153077405224	-0.380056189328	-0.309618497686	-0.0632301224459	0.282513358735	0.0824459433977	0.142293169138	0.0291557291833	-0.171623098573	-0.256067051598	-0.074247077532	-0.0231445131841	-0.0755785768123	0.142958505636	0.0473508829318	-0.166499368177	0.0390689216773	0.0603480118562	-0.008780337662	-0.297735213886	-0.301088535194	0.236020871116	0.0551798891117	-0.246218808628	0.0821591060879	-0.183509282349	-0.0205740358684	0.221635675928	-0.094540558369	0.201128731236	-0.162419040428	0.226517528333	0.00812557209902	0.068555937408	0.335089927975	0.0859852949801	-0.16720636548	0.128781660295	-0.178817792451	0.0115516645162	-0.0849000556663	-0.0610952527505	0.146060749133	-0.120945014283	0.116347782597	0.0794212082745	0.2801318687	-0.0245705557682	-0.0916265573316	0.231740949953	0.055900022524	-0.173295153739	0.245018219449	0.0328540822717	-0.163158487994	0.0945526371133	0.106096282521	-0.0997774303834	-0.163740118716	0.0520216198351	0.044500895396	0.425256714906	0.256700851119	0.196373026769	-0.399164449877	-0.31597123626	0.172254337913	0.0471679434045	0.00898388656129	0.319067277111	-0.109346276472	0.136522395389	0.170478652548	0.0634423961116	0.112449829883	-0.133372034173	-0.0658783324534	-0.0277746110575	0.0490095265914	0.19412541337	0.0156776976443	0.28769571307	-0.144496601242	-0.102168530691	-0.0906605511468	-0.501562092803	-0.136328812148	0.065647005031	0.0939947944025	0.232894034366	0.0774181959914	0.47213648239	-0.166759290718	0.16403952485	0.0453805711089	-0.296944068496	-0.073222456326	0.0813868989059	0.361180367435	-0.0420912947444	0.190931947356	0.261507078056	-0.212406787767	-0.00607379280681	-0.175267650502	-0.0353114177192	0.413048483342	-0.0774458590782	-0.00549761828627	-0.0624504159852	-0.352462947307	-0.399784018276	-0.189933819789	-0.396887525529	0.2535530899	0.424568236928	0.0847839053995	-0.247849830226	0.0334667481325	-0.306904062834	-0.220554419256	-0.217349621013	0.0490814271185	-0.12445766997	0.293768165712	0.0825888868121	0.147428536613	-0.0718221156612	-0.16054692267	-0.157597524379	-0.0334131531081	-0.0449932553921	0.223271971117	-0.0494506720311	0.126031300002	-0.104310672067	-0.49477814908	0.321593626156	0.0854800349597	-0.363003442839	-0.133991418428	-0.297840760387	-0.118949003596	-0.164163676142	-0.0529738693142	-0.0358671081347	0.329655019691	-0.266898406953	0.0601565108686	-0.188677804614	-0.13485488026	0.10008557168	0.0633896695027	-0.0517373980246	0.217205565737	0.190490203798	-0.113390444732	0.0227000194118	0.187410426154	0.142626163876	-0.136658084157	-0.0243366805626	-0.309037528713	0.126732719353	0.243566880191	-0.226516656166	-0.0890610935437	0.0348059563129	-0.0479391118197	0.238706315081	-0.0450904971696	-0.0660860606491	0.169768359767	-0.0941558570721	-0.0602603312095	-0.0762767638035	-0.00989313042016	0.226179245575	0.0968193595104	-0.145949039098	-0.120047743262	-0.00298368988358	-0.230078636398	0.217892667641	-0.1958537605	-0.0458703292082	0.139195185289	0.0393154901404	0.220347250266	-0.0507695464166	-0.0120016472594	0.170466779622	-0.082035827273	0.196810330352	-0.264587671383	0.0357214049396	0.125405740784	-0.399834137477	-0.0889481259019	-0.116497464288	-0.210751023618	0.234389719558	0.0752853284635	-0.0159585888995	0.254642397171	-0.278894286566	-0.0819813349333	-0.0503971958281	0.0406192746197	-0.0712475892873	-0.0256837840004	0.229783154988	-0.0496844778341	-0.246862127338	0.109343849129	0.0409564750997	0.131706307995	-0.101865653324	-0.0974059218646	0.109295061114	0.181259950646	0.102624656752	0.0764368085689	0.0844670644245	0.0450576054613
arm	-0.332111781344	0.311911960306	0.0936604789673	0.033337874025	0.33013490995	-0.0550055046088	-0.0215479303774	0.392816227102	-0.127289746117	0.105264568754	0.0522275124627	-0.197865396053	-0.393484034536	0.698925785404	0.733633178692	0.78981448819	0.940164357621	0.607051829722	-0.114345237809	-0.669227135889	-0.113808571239	-0.524185453687	0.362192808554	-1.331838913	-0.910971379094	0.748007479296	0.589162010429	-0.775694179249	-0.259740348969	-0.664444712335	0.0393685766246	-0.0758511055402	0.193969378289	-0.0505577519997	0.0918772235058	-0.149333702038	0.222360660475	0.17644634693	0.116997196717	-0.219679545818	0.269115063188	0.0404959518812	0.12728367938	-0.386744692326	0.2153586601	-0.28291870306	-0.159992845234	-0.224726969356	-0.513866526976	-0.0866085701116	0.236103574149	0.118196972134	-0.0040445957484	0.249705515769	-0.059801953616	-0.178116249085	0.1282550937	0.249321666285	0.0695863821366	0.0400573518633	0.149446844259	0.00821314825652	-0.138989135174	-0.170818223212	-0.176212142598	0.11393312006	-0.189804721411	-0.150842104273	-0.0639981657547	-0.0546665346467	0.075917982972	0.0140250454569	0.0176660865297	-0.0632680374055	0.178385524001	0.0202390962555	0.0668205083034	0.0500861610005	0.0249330230894	0.124978272447	-0.171153441234	-0.123236601438	0.159442611572	-0.088817456246	-0.201499015934	0.124750025693	0.0976645634153	-0.00635380725976	-0.153241660534	-0.0973254023649	0.131159140162	-0.202925762131	0.219165190077	-0.162595773903	-0.0715195357324	0.0418614872357	-0.233277364221	0.291034884625	-0.212621336393	0.0581935315047	0.0205639206158	0.227642236504	-0.175391652943	-0.0263575746955	0.101909370839	0.0924113251776	-0.0797295376718	0.0740863438397	-0.00977830341565	-0.0558012572631	-0.153738655247	0.0820856830473	0.233964564282	0.0656461900074	-0.0854886237407	-0.0485527967707	0.0887924131778	0.152324569573	0.109926288939	-0.0575928501983	0.0940116180085	-0.0782211772149	0.105097020362	-0.0563159868369	-0.120479785597	0.101510672303	-0.265972074329	-0.158643294651	-0.0140780903322	-0.145917379731	-0.00721826422989	0.0815430243309	0.0835223889268	0.0180909547822	0.158236754249	-0.0882003510036	0.0751245137265	0.0369304071587	0.000456284988149	-0.331649284999	0.156763687698	-0.029791330569	0.14677491883	-0.0191496983802	-0.159870074674	0.00159200365223	0.00185676555757	0.120430750232	-0.0543966002757	-0.129479113974	-0.0233599790778	-0.0522783536632	0.14048335861	-0.0226755021626	-0.125078476821	-0.100984515744	-0.0563754441259	0.0350974614407	-0.294146506665	-0.123830616419	-0.0634133747724	-0.262775869998	-0.0979974992612	0.0900205958778	-0.0464982238843	-0.0961596459208	0.0311194347048	0.178820344336	0.00942070380951	0.0494783881409	0.0747120265414	-0.00666559122357	-0.246334523925	-0.211968727707	0.0164462718276	0.0824124839974	0.12167818412	-0.157029723591	0.142124567599	-0.0233048775295	-0.119589782374	0.212993562845	0.0481552454746	-0.158430551778	-0.00441253318279	0.0154898155505	0.0224406120946	-0.131917667315	0.0569931850496	-0.0720737442807	-0.0862238096249	-0.132220228619	0.245202493889	-0.211359677741	0.0763358509048	0.285177361869	-0.0814440125844	-0.136677942713	-0.0195434794932	0.0585603792954	-0.156923312969	0.118830902159	0.10744261488	-0.120799478624	0.173227205908	0.135892475919	-0.0169492917419	-0.0124269549999	0.0482505521272	0.0566951042143	0.082089188257	0.17045311345	-0.159985135648	0.0283625318662	-0.0559737405896	-0.0452333377229	0.0542998517429	-0.0389237166958	0.118323397177	0.163263972138	-0.00645254152142	-0.0378249040157	0.104223392106	0.198026163782	-0.00850810130974	0.102931549704	-0.0322244811959	0.0916972359768	0.0417296094476	-0.107390223409	0.00201381743336	0.0561170818821	0.0151859120876	0.0425616459283	-0.0972946710338	0.0783310296955	-0.0654870972084	0.117730429669	-0.0531250882236	0.218648103903	0.0703572631039	-0.0966037978858	0.0336044462171	-0.196315670631	-0.0472947703737	0.0479276165264	-0.165302973428	0.0960192858962	-0.244922170857	0.106539184814	-0.15694674291	0.250074042271	0.0442344894867	0.134485166156	-0.135773506511	0.105391134116	0.18071807816	-0.0381423467805	-0.138411495689	0.0315446644609	0.0746882176473	0.0398357139749	-0.12652615437	0.166582857519	0.168929018604	-0.0840936162382	0.0604038837407	-0.0407603115364	-0.0261645479409	0.0865287686896	0.161869276568	-0.135711883211	-0.211070249128	-0.122291489599	0.131171527927	0.0957628814838	0.210362378966	0.100549304066	-0.0660057346309	-0.159131051009	-0.371157910747	-0.114195463316	-0.0229598887181	-0.036540196891	0.33906739725	-0.274124853245	9.27153743869e-06	-0.163134623256	0.0518087791751	-0.00775600298975	-0.121637242069	-0.065207057326	0.193806339836	-0.0562492075505	-0.0250359594625	0.201964730466	-0.00815983541505	0.112442260465	-0.0790427878072	0.0577086667486
armchair	-0.888077829913	0.392681892395	-0.340172759424	0.16436432792	0.531002896954	0.462728551111	0.760236201704	-0.249627605893	-0.165963134913	0.181960990516	0.159295525591	0.105839940943	-1.12293233114	-0.89250174473	-0.574745928357	0.260424863568	-0.471278355422	-0.30263032142	0.544356468135	-0.460312815558	-0.0935221502793	-0.908070295357	0.711242838117	0.283066716716	-0.113194058416	0.0503243178704	1.1568304859	0.790505207435	-0.331564832524	0.572776244526	0.350377873506	-0.100376708748	-0.255114518877	-0.128751266063	-0.340883245723	-0.00469890069621	-0.0167098350347	0.363249017356	0.766362840213	-0.406777449464	-0.198880246889	-0.195131373676	-0.139279873446	0.186514684719	-0.686683516678	0.219935771745	0.26832848852	0.274782606434	-0.479375979632	0.219812045371	0.112323374675	-0.175003812844	0.240749314947	-0.125427735887	-0.091432439656	0.0427314352893	0.208328729603	0.176930191637	0.375340883972	-0.139058722121	-0.20821275206	0.0392661464108	0.0705510371866	0.186558505517	-0.0859541535256	-0.0351753044289	0.0466984526105	-0.0337609704191	-0.0898645036408	-0.0975839301849	0.32881083106	-0.185896147554	0.126553641733	0.016608487844	-0.0315092540631	-0.0831946897747	-0.253750816803	-0.126268698804	0.265695726202	0.407945809484	-0.0559403901411	0.207172161103	0.0949243768677	0.0777332890086	-0.000199027962303	-0.0728406204572	-0.133753040182	-0.144337748024	-0.0874174059814	0.228529441018	-0.0584564701885	-0.246540200189	-0.0512437130798	-0.0140333958143	0.030924469752	0.229378234314	-0.204594044411	-0.0306910542578	-0.0977878808207	0.1673969227	0.0211108357831	0.0678884728183	-0.0274252908478	-0.032980962663	0.0927114373012	0.243566577536	0.0938669195699	-0.0415175165099	-0.0186800806101	0.0406956299443	0.0600190969446	0.188530035058	-0.0786616538739	0.0856406958931	0.222024005737	0.0190575506698	-0.124128832966	-0.175121407846	0.051634663865	0.0314301825507	-0.0351379893189	0.000204260387007	-0.0111103806862	0.17262004671	0.00087163019957	0.149276787877	0.157560212253	0.0781359708579	0.0268746138169	-0.0445614717367	-0.241087877366	-0.0235467645672	0.156818125173	0.0217155461549	0.00856108017612	0.0144828321029	-0.152350402445	-0.239277044775	-0.247267883275	-0.156734047624	-0.0122622318833	0.0742012060224	0.110080148206	0.0160946180301	0.229922561596	0.0294813085355	0.00375789074258	0.135645370699	0.221734952417	0.0463081748822	-0.130346343323	-0.0279370931131	-0.0658445605088	-0.0224142193442	-0.208388595306	-0.214889421111	-0.0529343537487	0.0909348260411	0.0718528193708	0.0894162592402	0.0253391407812	0.09234798395	-0.132884780282	0.152351117227	-0.262185433264	-0.0402215836896	0.000616102796676	-0.0755752499579	0.0544330695029	-0.0836019464281	0.0534821521354	-0.0343669149768	-0.0088424126707	-0.221190690475	0.0639861180095	0.0471076797831	0.0100035197201	0.0125382609813	-0.00170033959474	-0.10546711842	-0.0622185276702	0.116374694758	-0.0476062924764	0.0640925484646	-0.00446471275795	-0.191281643983	0.076055550464	0.0636623025123	-0.195871015873	-0.0555758958161	0.0715204611626	0.0680562504666	-0.011320088027	-0.0330106873989	-0.136250828058	0.0445952218936	0.0446302612887	0.0161113619123	0.118669824408	-0.130372035104	0.103317215261	0.0694504202783	-0.132844746212	0.0253128097592	0.0572519224681	0.0575339373897	0.0185313002138	-0.0719664214245	0.147859077943	0.161190695283	-0.00905218977103	0.0218418893854	-0.164152311678	0.0284204768959	-0.10855624269	-0.00107490173386	-0.0247636762234	-0.0722893311783	-0.189704269892	-0.0831226175861	0.0181059144386	0.0502774091672	0.0501307579642	0.0684006971143	0.041963952783	0.065855460379	-0.0159753882149	0.0796966650744	-0.0422921762857	0.0177138937294	0.0255769578644	-0.118381164178	0.0639254970152	-0.00422347297317	0.133818541263	-0.043385273692	-0.063929540152	-0.0671459687666	0.0146791911846	0.0571091022015	0.177942218526	0.0872983455396	0.0545032377247	0.0800591470028	-0.054598814716	-0.0230378541139	-0.0479915454236	-0.127765471382	-0.0690424529339	-0.0835510396288	0.10234291463	-0.128241641189	-0.0236214976497	0.070369083618	-0.0448156723568	-0.0954453968001	-0.0790539799729	-0.0561672444702	-0.00101561835573	0.0808166161504	0.0203472391494	0.173843064209	0.0699751513538	0.00145275884681	-0.204834538134	0.0425311305013	-0.139094928339	-0.0731124073339	-0.120935624386	0.0560192668603	-0.053141297312	-0.0126711135572	0.00139432047156	-0.139095896013	0.0985096225085	-0.13263874796	-0.12469945205	0.23036225829	-0.186495943738	-0.0462123014922	-0.0605393724965	0.0350825789184	-0.0305981956903	-0.0160923924211	0.0118644098438	0.124804477549	-0.0857883661567	0.0453252302747	-0.0500908425754	0.144073075719	0.0750334085532	0.0784642826699	0.0362016062118	0.133709148086	0.00786773183683	-0.0539392574823	-0.0701597059665	0.0888669239064	0.0231344570213	-0.187756138043
armour	-0.493424316752	0.802439234024	-0.115011555097	0.12461774056	0.365433275888	0.0812857059727	0.360289423264	0.0638138815658	-0.22636770585	0.0520683946467	-0.205124557456	0.0916712154783	0.381001854908	-0.244009867549	-0.189945118579	0.33359689778	0.117383995779	-0.313243211403	-0.18301171005	-0.403728931565	-0.337037922058	-0.0545766696228	0.293020520581	0.312621594487	0.512031784877	-0.111876581756	0.114057557753	-0.462487150294	-0.425782425734	-0.242845967805	0.269365312467	-0.783306360654	0.600953146444	0.0304419577053	0.0995456732432	0.267154686368	0.610757066944	0.420113478737	-0.774661209262	0.362251942962	0.39876693065	-0.680570545624	0.41235968552	0.0317517317519	0.141663990107	0.0114315988427	-0.435976888478	0.117038057603	0.0550036436775	-0.205958537156	0.404012604523	-0.00697448828883	0.0497464589105	0.183743247234	-0.147798642584	0.15326559308	0.296987825883	0.12494411972	0.15610189738	-0.209529254001	-0.034143430084	0.166240545935	0.0488228064581	0.202990720839	-0.0160114280742	-0.280212779513	-0.0207330415365	-0.0305794423081	-0.0204667868653	0.0861455859919	0.300014646939	-0.064890731484	0.0381343643078	-0.0266336889043	0.201858953505	0.148221379879	-0.355267667317	-0.24614043287	-0.194537730614	-0.257918874029	0.12147374553	-0.22239177871	0.11028953401	-0.310330155686	0.0665546460768	0.173129748842	0.296615930856	0.000316515179824	-0.178698210043	0.00711504691762	-0.146787824714	-0.138860480533	0.0592379411471	-0.0136331226505	0.253664731582	0.0261281318958	0.270115987617	0.142569821311	0.099110583007	-0.233572282454	0.312767503909	0.0220332695169	0.0250605801272	0.04369561314	-0.0612923440602	-0.0573202272138	0.00917779718129	0.0467163138392	0.38250026139	-0.0032557452891	-0.265243737335	-0.0652976842772	-0.35004810913	-0.244161832757	-0.183694937988	-0.0636137042854	0.0771727515689	-0.193946008767	0.0657198937314	0.00789330237199	0.0602132139575	0.0899004554049	-0.191473113297	0.0269275472232	-0.0370912325489	-0.138241749415	-0.00501121200913	-0.111438372745	-0.000456486385811	-0.118957601643	-0.128968106817	-0.134577408076	-0.152912346891	-0.266703881224	0.193570850333	-0.0885304826593	0.290839853818	0.107758469102	-0.303016442442	0.051037783154	-0.0145217590172	-0.0694783853918	0.006342365127	-0.0494749461608	0.0715078087587	-0.0614039278648	0.175105249067	0.031311557379	-0.0239373070948	-0.0615064673394	0.0361881654061	-0.105870753244	0.161119097492	0.135413392971	-0.323559011788	0.159916608331	-0.0830827883971	0.142329109054	-0.0147100580158	-0.0798642011252	-0.0684802544197	0.0118023095684	0.0783353549413	0.089966648595	-0.12210419034	-0.166939547866	-0.0808642568691	0.0788314133021	0.040812682188	-0.0524504251583	-0.0254101281534	-0.043805353025	-0.0359806476979	-0.144101284023	0.0580237644517	-0.0717567786816	0.0170939769239	0.0235416370529	-0.0274007156723	-0.102266178867	-0.0483881500519	0.316810579537	0.0178548456162	0.235807907934	-0.0584641206735	0.0400252042673	-0.0598954694495	-0.0942605664934	0.0411402215599	-0.00762383701356	0.0590485814555	0.16352804215	0.00816101454649	-0.130236547956	-0.0523440604542	0.133693892713	-0.0273069139601	0.0299573271573	-0.0274484887877	0.115118600577	0.0475018302516	-0.17328945119	0.250738478899	-0.00278961286154	-0.103966882637	-0.0270378679254	-0.00336417820012	0.143205745781	0.107942119584	-0.0199054959446	0.0157819020836	0.050750093273	-0.0456969382276	-0.0157532616481	0.0529554990203	-0.0120472309372	0.137021183362	0.16446958899	-0.00152428436677	-0.0399158808232	-0.0484887119131	-0.0190156955355	0.0959003185919	0.031376410265	-0.0185564243362	-0.0102310277876	0.232259735694	0.071766108259	0.257301414187	0.127268525222	0.116941398439	-0.0138736141057	-0.252560582824	0.00146761999961	-0.0355449234445	-0.00920708092134	-0.117452464334	0.0271105555893	-0.054714839397	-0.00364502134046	-0.0681645701567	-0.15524661923	-0.130346987074	0.108815729929	-0.180350995872	-0.0618418775497	-0.069602772311	-0.0554372347945	0.0990996742091	0.0687887913143	-0.0378834462961	0.219192720385	-0.124217099136	0.0483502041812	0.132445638723	-0.124347129286	0.161240430072	-0.198837625725	-0.15690595761	0.0478433443708	-0.045391719763	0.0428450270588	-0.0700618127585	0.182104336043	0.00938952377047	0.210969602384	-0.111606125163	0.0371400134948	-0.106919168636	-0.0806516448296	-0.00207010475199	0.0124545661721	-0.0199680391159	-0.0292507905491	0.0489712902364	-0.205072479499	0.00194108344915	0.333797998876	0.0439749305508	-0.0944993141522	0.0449590399902	0.179426822333	0.132074820159	0.05054510625	0.00649869914242	-0.01467654994	0.184159602784	-0.0799454634385	0.131184952354	0.162360066241	0.16785516828	0.059202896453	-0.036998086827	0.146701580803	-0.0520922038165	-0.0346809546528	0.0344630912786	-0.044632594478	0.134594270985	0.200982359692
arrow	-1.05525015064	1.29697106731	-0.337360575454	0.368691216808	-0.404505391912	0.178092126593	0.12503033349	1.7499491004	-0.90808871108	0.45136260909	-0.214276191188	-0.361570113692	-0.115525157278	0.552756084301	-0.204142699381	-0.689619541167	0.482481414499	-0.236210461044	0.0805358373748	-0.271236956225	0.050046066334	0.0502073382772	0.71390885973	0.374132856858	0.405429485441	0.292655598942	0.0226510437828	0.079867928006	-0.0670691787067	-0.306116168555	-0.0881617745873	0.329351841749	0.109380458745	0.158836081989	0.680784415111	-0.0133948969308	0.12039926288	-0.593391146707	0.278765463759	-0.0672237141852	-0.18334524372	-0.358557465515	-0.0549557186767	-0.0672419626918	0.114007914885	0.179327741956	0.149740962987	0.229462018063	0.188956738278	0.447445080089	-0.264567470082	-0.219813121443	-0.305565931333	0.242219629673	0.0239665317957	0.0374773732705	0.119753926594	-0.278038807318	-0.318170513422	-0.0711100768933	-0.162442938756	-0.209898689027	-0.181576489739	0.118491855026	0.0560356792959	0.0794728055909	0.234630302496	-0.147515840868	-0.132163118902	-0.096098556073	0.279987849698	-0.0547743827752	0.0406768505001	0.17578650358	-0.339749712261	0.210025366049	-0.342628798198	0.00802955140797	-0.259073473951	-0.229765871044	0.178990528918	0.0481110263642	-0.319656356019	-0.0213804655334	0.0321809213033	0.110413248851	0.18265848361	-0.142661551136	-0.182136607515	-0.0717083962644	-0.28565069262	0.0591024658508	-0.177839976858	-0.166699903847	0.0456739264314	0.013936084514	-0.0878504934343	0.104805154004	0.00394713313509	-0.0980992516329	0.107091221497	0.050348176195	-0.023574067404	0.0834715049699	0.00692889085831	0.122174771042	0.0481141347214	0.230426110098	-0.00914916208485	-0.0795641474823	0.176529437986	0.00215458163774	-0.00638779167162	-0.0120015766924	0.0534684280077	-0.062781716544	0.0461316893361	0.0581116456786	0.0247434913749	-0.0349952720722	-0.0502713407093	-0.0877380788149	-0.0294529631774	0.0589801081676	-0.132313154979	-0.0326610782756	-0.117480917641	-0.0362254387838	0.013397418153	-0.104542858713	-0.0416461788787	0.0409120072601	-0.0751603364983	0.122286943034	-0.0979158236449	-0.0698248978522	0.200299538294	0.0405191567127	0.0620445709862	-0.0240045946204	0.102651637379	0.0673947033683	0.0686832973555	0.0485860904641	0.11513513079	0.250348698237	0.172149087976	0.0904217489246	0.187999534607	-0.151981034851	0.0474146377401	0.0650959310078	0.0220587646663	0.031688200864	0.063122799803	0.0253734251066	-0.127460010172	0.0515364445549	-0.10849709405	0.00280577680511	0.00506638774575	-0.23668476658	-0.123484452532	-0.137043276585	-0.078938488753	-0.193592975118	0.114084076159	0.108095072389	-0.233049167258	0.163427964815	-0.0232125755496	0.123769928372	-0.111671442392	0.1652560195	0.0840986777714	0.00948000620842	-0.315035773917	0.147001305132	0.103795987916	-0.0928299115779	-0.0047309593891	-0.118979317583	-0.000555632975696	-0.128360291065	0.000302980741051	-0.0132363115775	0.109717583293	-0.00786197813146	-0.13651706757	-0.0150505468765	0.0162952739619	0.0653431440703	0.2097071963	-0.119673785139	-0.100914414842	-0.105595826284	-0.090113651212	0.102787048228	-0.111520996912	0.00344089454138	-0.0745542795593	-0.00581456319081	-0.184920166304	-0.0889546271999	-0.0377141193767	-0.0341266700092	-0.0987160798011	0.160160527722	0.134275539649	-0.0875327404423	0.0272946383181	-0.214280015456	0.0625486385655	-0.167531986698	-0.14585646877	0.0469002944017	0.0147958208983	-0.0128961679587	0.146652383621	0.190885447105	-0.109346881092	0.187610130547	0.0716158027363	0.00855280235989	-0.0421001630789	-0.132735263279	-0.13056934133	-0.0149099208269	0.00309055999802	0.147033141801	-0.0794173363057	0.0509492504827	-7.45662311314e-05	0.0580720307153	-0.0243055822336	0.051249254432	-0.091777853698	0.0128526424057	0.00742017297282	-0.156397412627	-0.0297937854784	0.0202461869874	-0.0585944625678	0.0412959399362	-0.016341471068	-0.140562728322	0.0323889319461	-0.108326132962	0.0683950604291	0.0451771142104	0.0477874658018	0.114669455103	0.0204922621762	-0.141484741372	0.0571751002295	-0.0918623664339	0.0596939548573	-0.0337850415924	0.00340394307283	-0.0832035650822	-0.11801900659	-0.0348078761057	0.0241500514143	-0.218494208246	0.0885997791254	-0.0848635816829	0.185077628444	-0.0249885665923	0.0277121771206	-0.0326732400156	-0.0798446118164	0.120195611788	-0.0816706966891	0.108659586373	0.0484649617017	-0.154796572037	0.177348442721	-0.0846456956366	0.0351092608616	0.225425504622	0.0780822560481	-0.0610375814928	0.072633894482	-0.0413287343546	-0.0901085508073	-0.0261032910846	-0.159671833759	0.13640172255	0.161268015913	-0.115247487927	0.141797570529	-0.0417984427027	0.0155847518074	-0.109028296857	0.129928471198	0.0116505760267	0.117562332523	0.205919544851	-0.0586650627673	-0.102786236766
artichoke	-0.707045350672	-0.223309169786	1.61568466641	-0.124568441527	-0.00424941824024	0.471510585953	0.127569836328	0.491475535235	0.548976148568	-0.32125275312	0.086464855572	-0.517099132892	0.155569486333	-0.26664443774	0.617984057046	-0.348436659936	-0.656405163972	-0.341261066397	-0.468417709956	0.234617845283	-0.189059089417	-0.403197737418	0.137154088117	-0.135826425896	-0.0949470470212	-0.300872109074	0.0567249725865	-0.0678289641005	0.102169828323	0.0221276235996	-0.068149094658	-0.306655527551	0.0635658005353	-0.0360293836097	0.085640051996	-0.215562602036	0.0393293294276	-0.131788421085	-0.0741175284222	-0.12549219931	0.0585338486694	-0.00587689869438	-0.00811708193803	0.0809800526765	0.0597077137009	0.14464620333	-0.0289668403986	-0.0389919389324	0.090379093186	0.129640291989	0.0706363793336	-0.0747229224191	-0.0570775880097	-0.074225345345	-0.0769051370251	-0.20941045633	0.0106746859158	0.104538590569	-0.109431927298	-0.129553006187	-0.0110464179924	-0.201816513386	0.186115752811	0.0216835225833	-0.139332972235	0.202512277742	-0.00169107935238	-0.115800885318	-0.0198628167773	-0.0869176479308	0.110206717001	-0.0144008880055	-0.155044414118	-0.0402020461129	0.0436447312761	0.0761202693317	0.0567347810225	0.115519108901	0.095114341657	0.00531029883491	0.0348147447704	-0.170754427158	-0.00602858835344	-0.0707411866954	-0.0989364517191	-0.100287439798	0.209879990972	0.0475056450692	0.0588751924182	0.0193664990414	0.113101821519	0.162874504283	0.0780490898409	-0.0323078123932	0.0296621821124	0.162073903858	-0.243694378141	0.127434881491	-0.0406170182242	-0.208524073814	-0.119480284985	0.193822465627	0.102790265779	-0.034692652572	0.00551366751709	0.0213116676968	-0.0379064512458	-0.0356712166088	0.0705327974352	-0.017797985639	-0.00561856785635	0.29789018566	0.0380553641829	-0.0106560612512	0.0366942624974	-0.0709315056027	0.105308282088	-0.0082490061778	-0.0732186568854	-0.0740151293938	-0.0505162357138	0.0263214633266	0.118804669085	0.0894682402013	-0.0888901337458	0.0931471516426	0.0907092633764	-0.0968468860787	0.121598740603	0.105885872612	-0.0884950910048	-0.0456135765475	-0.0610213801736	0.0886240146071	-0.0979861864829	0.0464886732297	0.11598297488	0.0285277249795	-0.157003110681	-0.0374589577229	-0.0395922599049	0.123037644679	0.0215793874772	-0.0829336596113	-0.0693150907131	-0.0332617410506	0.158784082135	0.241787638807	-0.025407925752	0.0346119258352	-0.0363204823036	-0.0835493775885	-0.0288136857626	-0.0432297648865	0.063512586069	0.101617335557	-0.00849417431931	-0.0169509484136	0.0899696953437	0.0765647099059	0.0895742243166	0.162880641243	0.080555004617	-0.0904243628665	0.106772091626	0.0813781135705	0.0749120307586	-0.0596327863474	-0.00146398538402	0.0229505910471	0.00500066803148	-0.0716022350819	0.0546640997619	0.0667796942542	-0.0244723009561	-0.124752036625	0.175971028069	0.0884020111652	-0.0392629183009	0.0736108348909	0.172336096955	-0.0191866187191	0.0465008784159	-0.0346313666215	-0.0563861793038	-0.00755926925656	0.0390324234954	-0.0833305435392	0.0351167206115	-0.215547018554	-0.00112360081829	-0.0558960609797	0.117231482637	0.17271156998	-0.0238047010674	0.0532023764958	0.0502196839746	-0.0492839131887	0.112971410273	0.0429271060374	-0.143896217641	0.0556650502882	0.0867272533309	0.113624596034	0.0022366443944	0.00612159555513	0.0211563658936	0.209671081525	0.000869467437413	0.0449452611933	-0.109889803225	-0.00751978811885	0.0235910625388	0.0338234493632	-0.0340860693981	0.0516908835553	0.069286637119	0.0344891447944	0.0945996166135	-0.127183907783	-0.0280400329266	0.139626592549	0.00518972142929	0.038129647059	0.0964797812147	-0.146186364821	-0.037346486865	-0.0670806394287	0.065418039092	0.0475614023078	0.00201329802986	0.0328794175273	0.0511411477021	0.0414553170965	-0.00666555335078	-0.0869759989895	0.0464451220209	0.0227926692339	-0.012377516427	0.0700001340012	0.110820605206	0.0511409668484	0.0635192413441	-0.174989483484	-0.0775391286581	-0.0220213506384	0.010643966591	-0.0488789079974	0.0916382713667	0.0283731576739	-0.0255475236903	0.00211843961975	0.0264785345858	-0.0207219687065	0.0191035840176	0.0145242505551	-0.0647597699308	-0.00203461553617	0.0525075344134	0.0520234359326	-0.0955121362261	0.0860625844714	0.0377237192096	-0.0432796218629	-0.0529784940436	0.0381484967164	0.0413084560798	-0.0242855008601	-0.0103938410095	-0.0623553174931	-0.0157254324145	0.0174210706896	0.0746903264682	0.000466948817356	0.00622830033045	0.0258360794489	-0.0268711401039	0.0127373475743	0.0154864747609	-0.0722597901105	-0.0257173590392	-0.0151375973908	0.0131981441124	0.0958434531149	0.0711562247298	0.0491278790794	0.00742100262336	0.000218709773923	0.0107794411814	0.0531213388408	0.0431216661382	0.0238695677991	0.0568323641512	0.0372639187595	0.20530251262	0.0485390643953	-0.0107901022991	0.0318369035258	0.0642461381734	-0.0541525011977
ashtray	-0.715199187907	1.11565118347	0.0773104422333	-0.0848183066569	-0.0507915223696	-0.091838842829	-0.11642111185	-0.573464247907	0.52227524266	0.110476000673	0.200056524893	0.23135483363	0.250920547384	-0.267365377484	-0.0529802236193	-0.0839554860492	0.640196105302	-0.194781213814	-0.278301931035	-0.53404498959	-0.465202508814	0.26918781948	-0.00761182662371	0.0202017652454	0.559890011581	-0.264537779895	0.16188853298	-0.133038585793	0.214856488129	-0.217501448806	-0.172992971709	-0.32178260997	0.131295414859	0.0756146651995	-0.739664755354	0.190047140095	0.277171266534	-0.118718843996	0.483103012891	0.511235390083	-0.561980715364	0.0140044028199	0.0370914442455	-0.139598294318	0.087770538442	0.445449644801	-0.274173191849	0.0972057125917	0.0500865387676	0.0624779424164	0.446360193576	-0.15161733353	-0.070683039033	0.0399249138501	-0.249240983464	0.17535197596	-0.223029687117	-0.0119840576582	-0.120331690711	-0.119423413095	0.0700147423164	0.0307092636279	0.0989537777738	0.360857524532	-0.0103247547832	0.0426713781019	0.12994249174	-0.0356863494685	0.0273568396967	-0.0366807971207	-0.040975265521	0.0895410104193	-0.00323786957025	-0.075869233795	-0.242229678596	0.0423793401226	-0.0304965149962	0.0215664582005	0.0335966907414	0.205277963903	-0.120310311369	0.342735116424	-0.222072445962	-0.262422428131	-0.143381116352	0.0649838452034	-0.192819350931	0.0150543986631	0.15769491901	0.039824953609	-0.170102295067	-0.277102324754	-0.115602588506	-0.0809226458968	-0.162539335128	0.0971232950925	0.0748890024935	0.235160149915	0.082964043295	0.21521991781	-0.301832416124	-0.0461885451316	-0.212199050715	0.214971546583	-0.0781230604132	0.0572476974567	-0.104505787499	-0.0544808773326	-0.151868224951	0.274991402291	0.0383903248972	0.0333251269472	-0.0897719949799	0.0456299943959	-0.0540369027335	-0.0829562572226	-0.0103928006844	0.0825569204775	0.0533721127731	0.139107797788	-0.0280384733177	-0.0354457136168	0.00704075653674	0.222293373816	0.053146928151	0.259013987361	0.0485432849812	0.0506973012959	0.070696659059	-0.233297399182	-0.0992742768664	-0.0601230158175	-0.00944342565993	-0.223279460668	-0.333404856055	0.0292512200628	-0.154898448825	0.306113688644	-0.0439066756077	-0.0772546560969	-0.0144243278633	-0.21361111995	-0.0823097761268	-0.0478093612063	-0.0168911229745	-0.0755899516452	-0.0287679699276	0.124379399224	-0.104152505207	0.0385657241568	0.19598945348	-0.0551443880463	0.132298226367	-0.0328033507846	-0.134967987829	-0.133921011554	-0.0337994247557	0.0115962816516	-0.189715258483	0.090582640178	-0.0777141993977	-0.00270973517273	0.0683195163463	-0.122014446895	0.200607205283	-0.0269906493629	0.0162131546973	0.285529904132	-0.213599674642	-0.172192180381	0.00174969612296	0.0956529327154	0.170334091539	0.0548176133647	-0.177938442792	0.22429446214	0.16489356122	-0.135491650919	-0.119108391235	0.00442396708335	0.0822434695559	-0.177616039904	0.0499875402539	0.0885537410304	0.107061751991	0.1038874715	0.104267880498	-0.10783088871	0.0339798362321	0.00708215003717	0.138203465551	-0.0119220534431	0.225547478695	-0.00184990304663	-0.0596206789744	0.275814469701	0.123228767006	-0.0822429164846	-0.164977616759	-0.0716169104059	0.184707832028	0.00706099666588	0.0462570565319	0.0761237660094	-0.0586819608775	0.0897877153858	0.0443537689721	0.0405240087088	0.0418336139003	-0.0779918586968	-0.0151544616767	0.0939011085011	0.0495538830879	0.0521631149652	-0.0547843670996	0.202042519647	0.153746978926	0.288473597528	-0.1853941902	0.131861147103	-0.151436963599	-0.161916877357	0.0363083786954	-0.126265337966	-0.0522599591248	-0.151640592586	-0.00602922525868	-0.212819385647	0.0915725697871	-0.0158169192968	-0.129214966176	0.197255088544	0.216325837302	-0.273912340592	-0.063759839621	-0.0591797556601	-0.202367118267	-0.251619360179	0.194930714687	-0.320321147241	0.4003193222	0.285267427089	0.327732940666	0.315711286028	-0.141841174587	0.0447936538433	-0.161216839619	-0.0507257489448	0.07437857007	-0.172595452374	-0.11326004924	0.103631607359	0.225883936722	0.0676947617996	-0.216766503473	0.00489592065507	0.0826838281132	-0.176851778517	-0.248012674166	0.0490407598311	0.0590480575878	0.0282916262104	0.252953222057	-0.17559815004	-0.138522565926	-0.156577054847	0.242071893523	0.00533241936027	0.0340941765563	-0.00596602580986	0.105968241112	-0.103341757026	0.148163095581	0.0966101898524	-0.258888425701	-0.322199074912	-0.00070646641822	-0.227082936825	0.0997763575672	-0.0958635379011	-0.182707748897	0.114722330218	0.0914388883969	0.257674005892	0.139271879962	0.00983776355164	0.0934966645707	0.114104710888	-0.0194262488178	0.0778696842484	-0.0567938902189	0.159081320928	0.271627172661	0.0363361593043	-0.0567125588833	-0.0803977027746	0.260840911548	-0.0593805132433	0.114338994335	0.00383944306944
asparagus	-0.886292708489	-0.0501265427188	1.79372342249	0.000959439979474	0.210577604196	0.709747648749	0.22761406251	0.727760374387	0.0757491853031	-0.139237163714	0.000663380430116	-0.666478081142	-0.220346864375	0.452920775231	1.05540480786	-0.296807037072	0.036840309705	0.0985447445519	-0.31337254555	0.0468250052403	-0.0363515651191	-0.316961214339	0.169591567091	0.257671936282	0.124912892884	-0.487012573281	-0.149524374327	0.288104115758	-0.16961879772	0.0674610720121	-0.103480743013	-0.261093297637	0.0628765755353	0.135077923052	-0.13659431133	0.0604086861199	0.0214248141218	0.220897768425	0.103480038124	-0.416381958448	-0.240466446865	0.337148790811	-0.120576782054	-0.16162163187	0.279304377378	-0.0282537531864	0.0634101829363	0.139862327955	0.0703517528048	-0.128518205673	-0.0648924842807	0.0265544916344	-0.124368284404	0.172092871797	-0.0635719446917	0.087252662364	0.461314902951	-0.107360631	0.0546188372208	-0.108696001686	-0.485278203657	0.049462567262	-0.0686169267957	0.117344683297	-0.0391801710266	0.230292614096	-0.148504219704	0.166905688493	0.0293895819711	0.024639886733	-0.195445814211	0.0351053709862	0.0523093863341	-0.153545517277	-0.14636073079	-0.183909702297	0.104415709467	-0.305941359658	0.112913055533	-0.11301499255	0.250665461178	-0.0127865056103	-0.113330928328	0.27785772512	0.0899907490331	0.182156570717	0.0586887909786	0.247973381704	-0.0025772508045	-0.0106647430624	0.0602674361417	0.0708665476113	-0.161189648692	0.0311477917774	-0.258760433584	-0.11313998432	0.180471906315	-0.234130151817	0.116544986868	0.165272186635	0.122565422718	-0.0472341160563	0.102616236103	-0.00982793670987	-0.0903940475604	0.00394421643711	0.135393644939	0.248408473023	0.0276552795194	0.00747419053589	-0.0587564814865	-0.0855801894476	0.0366754291357	-0.171395649334	-0.122767431133	0.155087200307	-0.065688453127	0.0200791392657	-0.0408929354277	0.108046266932	0.0109121263495	-0.177783097473	-0.0201451664964	0.0962423526272	0.0316728958409	-0.0223376837909	-0.0626117537869	-0.0679427497232	0.0347922629647	-0.155168206692	0.0710551688234	-0.138421993968	0.0496226076634	-0.0687623265076	-0.0527186185567	0.107789305505	-0.0685004801225	-0.0758114684265	0.116021499805	-0.0169363175159	-0.021062964725	-0.020822468578	0.0384007994956	0.210497008819	-0.0125296405211	0.22127263976	0.0181203556361	-0.0486458971536	-0.0347285032642	0.0146443085681	-0.14821132516	-0.194626930384	-0.0651963675833	-0.0361169969796	-0.0135103868461	-0.046045143398	0.0542078961705	-0.101325919739	-0.125370266113	-0.152747667487	-0.0759513256375	-0.113347640721	0.154273267081	0.0478359479018	-0.0027229200145	-0.037736547958	-0.0184350113582	0.00793703363479	-0.199095056346	0.124693457348	0.0512130583808	-0.0382820985068	-0.0380699540049	-0.101801235875	0.0133936573084	0.0802374674306	-0.0181084195281	-0.00966462025837	0.0159912132779	-0.0200785467912	-0.167434826835	-0.107752259691	-0.013849893264	0.17843514942	0.129772355351	-0.0611535452817	-0.0437439822735	-0.109886826877	0.0377387108497	0.145975976468	0.101739281464	0.0949732698475	-0.0299923265298	0.0485161104567	0.0556028282865	-0.0367675240931	-0.0563883834164	0.189031466849	-0.0516070516388	-0.045209672048	0.103331811448	-0.04169510556	0.0245545719612	-0.0562251689972	-0.0562053636078	-0.0308760984384	0.058045536146	-0.0831920622957	0.192049911823	0.046495948314	-0.0309471833679	0.0770049753075	0.0206393866017	-0.161623859691	0.0519576459556	0.120403912065	0.00292011882407	-0.0936096642948	-0.0882915648291	0.0375413239969	-0.0497198101456	-0.121579005277	0.0620733545228	-0.0272575322534	-0.0197120380075	0.0113995841791	0.0293852657566	0.0449630776897	-0.0721941947079	-0.0463595193055	0.0946641004386	0.0316957337949	0.0194588533331	-0.0599170766283	-0.154800626076	0.109387925548	0.0392576238572	-0.0621669128022	-0.0928358468434	0.0683950311153	-0.095120227686	0.0514853272213	-0.00282955294528	-0.00951731302956	0.0240557536553	0.00759351023065	-0.011765530793	-0.0580264765125	-0.0584708764753	-0.000536811715283	-0.032918259417	-0.0212872612756	-0.0321173306629	0.0167634967617	0.0184689067742	0.00156941361994	0.113935302801	-0.074024189497	-0.0144779232109	0.0123413796264	0.0203854114674	-0.0953440465668	-0.0571570930259	0.0916559447156	0.0858654105137	-0.0264600894	0.00670031181387	-0.0514600885159	0.0545801169222	-0.0140812047821	-0.0222042376463	-0.0506905265971	-0.00918091278256	0.0381721212261	-0.0277793629618	-0.0168613185507	-0.0238217520305	0.019796824336	0.0640786913559	0.00796588958713	-0.086632088229	0.0406889584148	0.0215618158018	-0.036626171384	0.0904424199099	0.00115931127035	-0.0582210386361	0.0695787702234	0.0392164123236	-0.0504161196805	0.0569425329045	-0.103054310685	-0.0205339926133	-0.00149464620103	0.0241938646127	0.0520510501247	-0.0715243824375	0.0560323752951	-0.0378810258037	-0.0229941149726
aspirin	-0.549691560273	0.0494333039463	0.352585661625	0.189686402865	-0.067123559607	-0.421783432242	-0.486946476364	-0.408744832101	-0.162902906171	-0.249181943081	-0.0949994039099	-0.0822203531637	0.232160428888	0.0995215632108	-0.403948198288	0.0986115563971	0.781576559438	-1.03645085471	0.039221892385	-0.0407793433498	0.356144489228	0.00478013103202	0.236136643373	-0.384687781367	-0.175014466603	-0.102442636948	-0.29355410314	0.0804342267352	-0.0494966744163	0.280206590403	0.0664993581464	0.194132476333	-0.630539174624	-0.119491237811	-0.303284598432	0.273923034455	-0.122316256896	0.139409336282	-0.160885686952	0.230705539821	-0.0491929028095	0.119794936543	0.186826293942	0.243122155928	-0.259991559168	-0.233114546497	-0.192462627512	-0.1184232133	-0.179774822998	-0.162460267248	0.105229167732	0.279246353309	-0.326761040599	-0.226519152377	0.490846330088	-0.518547248575	0.686917592635	0.017293098217	0.592039489526	0.682339831423	-0.339680466331	-0.486317830765	0.0281076657991	0.289249850719	-0.210097666433	-0.120690570003	0.107272567446	0.0862241841015	0.272410621032	-0.558431542886	0.657643734925	0.393702321774	-0.569420855308	0.48383401476	-0.471549207503	0.480221725279	0.279337054473	-0.022597062596	0.122218884504	-0.0739913418443	-0.0412583517948	0.501614871537	-0.146053695519	-0.0804290652811	-0.0597845394976	-0.278317228617	0.0500093989107	0.15741063377	0.266213426996	-0.103743776086	-0.0741343369623	-0.0427828439847	-0.0150989673173	0.03173996064	-0.386836621957	-0.00755369437769	-0.0122466689303	0.021431632265	-0.0195741914566	-0.111312298813	0.149120680366	-0.148905977118	0.0430939657777	0.0907777658279	-0.103971729133	-0.0437316985461	-0.0492406403063	-0.129104418988	0.0567036247231	-0.0634104513426	-0.0925989611221	0.0111205173284	-0.102715932402	-0.0620712126597	-0.184475959476	0.142919981486	-0.0236226969749	0.111953442574	-0.0713272526535	0.0297116385492	0.119534003936	0.0261671299139	-0.024296575477	-0.0883477878408	-0.0317946759467	0.067156214184	0.0312150989331	0.0311281982376	-0.00549768933203	-0.180309573519	0.0296464886375	-0.0678691864881	-0.046212793298	-0.122939936062	0.0316786761789	0.000184947051129	-0.00486929521228	-0.135369596072	0.163009048932	0.0243848693369	-0.0179599267736	0.0654475999553	-0.092767193695	-0.0265495333017	0.0662769258945	0.0545472733844	-0.0652066152383	-0.0604910274552	-0.0879711375725	-0.0191172608897	0.0695048808264	-0.0294785375308	-0.0216156232611	-0.0830451767956	0.0629613394198	-0.00542779558015	0.078959659417	-0.0596714535189	-0.0354603735042	0.136366838705	0.0184553688941	-0.0853967644888	0.0253284374068	-0.019625515993	0.0134247287714	-0.0476043689685	-0.0348748654116	-0.0551390088839	0.0141782766495	0.0619820183216	-0.107053743975	0.0622112762803	-0.0123298047676	0.13202784049	-0.126086120597	-0.0210307783166	-0.115176452431	0.0232330972689	0.0939615363315	0.0735031041815	0.0197260045478	0.0383836606202	0.109279536029	-0.0228972854157	0.0771236583672	-0.0688917557472	0.149880945517	-0.1638130127	0.159656291258	-0.171139492366	0.117355127404	-0.0753420458875	0.0209474792082	0.0548410835915	-0.0462745785993	-0.0455153178801	0.0416428217117	-0.135334997835	-0.00860122005566	0.111821686971	-0.0306913519189	-0.0936235886794	0.0776549371266	0.113474102053	-0.119302399071	0.101166592613	-0.0713452232464	0.020029628122	0.050905971278	-0.073181446154	0.0940043889005	0.288815974198	-0.168057472248	0.093034935613	-0.112622549013	0.0939880212437	-0.0834865395644	0.0649369893922	-0.0922746440191	-0.0867135738125	0.0181179753611	0.0170581627069	-0.153093012482	-0.117593721818	-0.0297750379347	0.0654474884876	-0.079631387602	-0.0499918281333	-0.0749950253111	0.312204313612	-0.00800605341932	-0.134620291313	0.016173430976	0.155778878006	0.0466521094175	0.300143605	0.117643292731	-0.000739923043434	-0.0696554385435	-0.281231612589	-0.116987139566	-0.113034273228	-0.141834105229	-0.11465279192	-0.261583426285	0.00192555319606	-0.0614463028833	0.15591879248	0.133095434931	0.0284367153908	-0.0974509667607	0.027796914234	0.0554198054291	0.0794792949329	-0.0432440606009	0.0685310851042	0.0629278234856	-0.0874594279105	0.086340341632	-0.017739386199	-0.130670241508	-0.00788557584535	0.0932078399876	0.0161787064754	-0.0566504564867	0.0621573485544	0.132266217004	-0.0125824434723	-0.0985706228944	0.205649551266	0.0441110211231	0.0730509827986	0.0636253217753	-0.0611371903616	0.0567817667777	0.0939203769454	-0.0295312334524	0.102173712063	-0.00697906282203	0.0683670961262	-0.074242656434	0.0312479707401	-0.0440750865552	0.00199569186007	0.0306931563434	0.0287978257386	-0.0120602977971	-0.0452276450728	0.0314532945832	-0.0274103074567	-0.0290637755003	-0.00309605139929	0.0356842083585	0.0782441161392	0.0376439133238	-0.000195445421362	-0.0427355022042	0.0354987409499	-0.00937408822747	0.043498991722
aubergine	-0.894827834592	-0.08731534203	1.92995989497	-0.121085022022	0.114347424366	0.337277819034	0.394895480442	0.526341037601	0.0206808683932	0.214216979477	0.0859851278166	-0.314390386615	-0.119958222094	0.248952896699	1.15181159661	-0.169830433048	-0.157886916298	-0.12939708452	-0.191478409131	0.204927012807	0.0385574396805	-0.108537765758	0.122899320581	0.310122666769	-0.12083103697	-0.50090697953	0.243926215966	0.0391664829599	-0.156784528485	-0.00883048680567	0.0831489897905	-0.138793158226	0.126802482386	-0.0300750338441	0.00400570099915	-0.185932340411	-0.110887548333	0.185685295999	-0.177335969547	-0.154791415979	-0.0815461985408	0.126220161059	0.176189515778	-0.0798571187923	0.0654864393526	-0.100982932793	-0.151019890675	0.0456484357022	0.142995054259	-0.00788573093067	0.284953640168	0.0168611195724	-0.267173081461	0.176447895856	-0.286019968209	-0.26334122622	-0.136379831944	0.071664654756	-0.171528757836	-0.0733842635884	0.416768109056	0.0520882689119	0.261676410265	-0.0337240360536	-0.130757019545	-0.0597953644161	-0.259981292726	-0.205953196706	0.0539780953541	-0.162219499401	0.285155809119	-0.17775029516	0.161489204318	0.26742061076	0.000236005030091	-0.126227591448	0.139499138606	-0.265681448371	-0.401666112043	-0.0629191521475	-0.127448396687	0.0533044614776	0.12695303851	0.114087781719	-0.159698443531	-0.183410357974	0.396043842334	0.0284894160893	0.0971920657082	-0.092477168755	0.127826102654	0.22491577692	-0.307090046793	-0.145513558088	-0.0626349950444	-0.0656665765728	0.0209587674302	-0.10755124547	-0.0403133765069	-0.0777554121182	-0.0711619388142	-0.266729627435	-0.229581580681	-0.0893372634119	0.173849810802	-0.251799524762	0.195326981254	0.0211047726981	0.232264863151	0.0711478727775	0.135801063727	0.24025332414	-0.53551328528	-0.0580712612393	-0.190820966199	0.0854406414268	0.0964593837772	-0.0507855512432	-0.0972449549174	0.274119353024	-0.00881291324187	0.182644333986	0.050611389697	0.270548864733	-0.0599751845208	-0.0693338706365	0.209685687038	-0.0401640150975	-0.0695911117178	0.0883398256923	-0.0959626063274	-0.320696744678	-0.0741504451486	-0.159283046435	0.0560885984814	-0.122740253086	-0.00500408570907	-0.039755814035	0.0868072758405	0.184834104405	-0.0277807332053	-0.0392104317883	0.0614295345414	-0.102585905497	-0.0398699622611	0.155576462973	0.148702402732	-0.104513421702	-0.0406342616839	0.156011837166	-0.0837682488721	-0.235911865533	0.113381444216	0.251037053589	-0.159270978869	-0.121367157033	0.0655086886059	-0.12068763189	0.117972714	0.0411131869293	-0.10568379188	0.0603852104274	0.0660593903879	-0.0561839286999	-0.311857045336	0.00930586134225	-0.0619376917822	-0.10796330186	0.0495421100119	-0.0355077135301	-0.0351197193277	-0.0929216961633	-0.162608844718	-0.0286739626126	-0.0461822068127	-0.0399856190426	0.197361207499	0.180891483304	0.119741627884	-0.0608979244056	0.0669982965531	0.0828904482052	-0.0375225412982	0.0314725694544	-0.0109102848311	-0.156985711096	0.0783178725832	0.0658988974892	-0.016704864273	-0.0389473958315	-0.015691773045	0.168284954177	0.103690022867	-0.035456976648	-0.0999306273829	-0.034555562866	0.259740359339	0.189303772556	0.0161287539502	-0.0365119866884	-0.0624728722215	0.0855168092923	0.00495019747667	-0.0594064080923	0.112330782938	-0.0880458684127	-0.042466749909	0.0745552954249	-0.0665855604292	0.0494388949359	-0.107219288935	0.132331895321	0.125946526751	-0.168383189587	0.116973220769	-0.124105320965	-0.000495329414604	-0.132150218723	-0.138402877128	0.129084956035	0.0323050093341	0.0296002627028	-0.0374525135271	-0.0933829816486	0.0343645356637	0.0332402142862	-0.00108463611642	0.00217734360386	0.0622597384608	-0.00615911949248	0.0450989952535	0.201781167606	-0.0345454789973	0.314239845853	-0.0241699570042	-0.0123763308141	-0.0981476376635	0.102283604213	-0.0103056569474	-0.0283657498489	-0.178238379744	-0.105815273792	-0.0871864047132	0.11436484475	0.176370198886	-0.100146937363	-0.0193731868941	0.0439018187886	0.128094246233	0.073491600864	-0.206259001712	-0.120753244209	-0.0915954739191	0.0962017946483	-0.0749075753973	-0.1417127115	0.111614551563	-0.0337282837079	-0.0754345240622	0.0812233470743	-0.0251546224645	-0.0538630917729	-0.203259961282	0.0598030973893	-0.277505909911	-0.131394957802	0.110886477315	-0.162797073193	0.0244933062502	0.011697690504	-0.0717542971121	-0.111733634938	0.192874505759	-0.184887711728	0.126938691229	-0.0494527977099	-0.072056373853	-0.0832577497647	-0.027205750342	-0.0596856292189	-0.00557488248064	0.0399936134111	0.00276240839229	0.203282402235	-0.123575003943	-0.0357228336839	-0.0485925041012	-0.23357335474	-0.0324977967678	-0.066033631688	0.0596599154612	-0.101637464646	0.0979328535646	-0.0234110557513	0.179148163769	0.0319941882179	0.0663902043693	0.0614749006754	0.0472185667941	-0.04733027645
avocado	-0.831215459122	-0.280418529822	2.08333599066	-0.259948377559	-0.0301233727897	-0.109582944438	0.596280397958	0.144944313978	-0.050226696628	0.617032344207	0.0294493000508	0.154225842467	-0.278963443562	0.0662029380132	0.68565241281	-0.0188607181203	-0.339991992143	-0.0176869066226	-0.0874880929353	0.00716444020014	0.425558351913	-0.363735274103	0.0536653270057	0.211209540145	-0.253792341461	-0.165314566483	0.0545567236231	0.158810075034	-0.108450911298	0.0973719976177	-0.193010434297	-0.0465793053081	-0.0138569010316	0.0682291744658	-0.0366113343334	0.0583482627702	0.460115172753	0.147183280248	0.195022447008	-0.53476830976	-0.0542293670088	0.106740169697	0.478634823314	-0.383630408255	0.270196883422	0.341944708176	0.0629369597424	-0.012192012547	0.124944444917	-0.217859194314	0.197259561681	-0.0651160409743	-0.0391262176457	-0.167135891923	-0.238455714259	0.217271668447	0.569638623551	0.104385160974	0.0636107869229	0.138199679375	0.17215498253	0.317911327494	-0.368733725501	0.0840651489248	0.210844239722	0.0597673901851	-0.0917889560664	0.311113899716	-0.271112262986	0.236276473612	-0.300055056171	-0.177917150502	0.0606243632614	0.218437241026	-0.102167155761	-0.0377670905848	0.113931810214	-0.00375835338567	-0.246045358667	-0.322077756999	-0.266736036406	0.266930210076	0.26068724667	0.0918357387057	0.0673921510336	-0.111423423536	0.0107160957571	-0.0610598609715	-0.215297416003	-0.0605388986833	0.209016013753	-0.40450414546	0.359315659563	-0.283630097073	-0.258552310928	0.0286235060906	-0.0717964136746	0.272736753551	-0.285703500148	-0.041449072329	0.192390438731	-0.234836648338	0.367540638358	0.195197187675	0.139467235841	0.153466604316	-0.13086572365	0.186270879634	-0.196545432555	-0.0192867373998	0.161303330168	0.00264088171126	0.127666080599	0.0608460358431	-0.182009298877	0.108545371447	0.0953699398073	0.074764646723	0.121637989929	-0.0895150548766	-0.0215306216486	0.111735350883	-0.165717381501	-0.0442023761753	-0.28253683475	-0.013377528999	0.0695414580243	-0.0257331377895	0.135295211247	-0.0409596870214	-0.0476766777854	-0.0752681668722	0.064636520799	-0.143535318406	0.0189509495255	0.11466744189	-0.043626195047	-0.0481895789567	0.0533539327822	-0.0379805758834	0.0477435172753	-0.316563134743	-0.120529338983	0.0105380379374	0.0228296936953	-0.176258609284	-0.0602454845774	-0.378120900431	0.0333192001985	-0.0403148428496	0.00296462581641	0.165887779123	-0.178113947571	-0.231942764363	0.231094753721	-0.0193370726488	-0.0845048256911	0.175894658224	0.0528938651543	0.0731290379213	-0.194453036345	0.041297122491	-0.14190480992	-0.0901220433043	-0.111251431452	-0.209546969809	0.106201281832	0.125263391736	0.0229358064483	0.0635268363394	-0.165041696703	-0.11925998893	0.193466730076	-0.0398282877696	0.108964490674	0.0341365891592	-0.0579379120337	-0.146912599222	0.0572609009219	-0.248688539733	0.0233506961468	-0.135690619288	0.129299287563	-0.0323309130653	0.232309861865	0.176775940841	-0.0899925170264	0.0224346398375	-0.192894206268	0.0667579307901	-0.0624473943077	0.107595686847	-0.13432140253	-0.106757558863	0.0993788900382	-0.223934361581	-0.1778350905	0.0469370444254	0.0747720308677	-0.00593253418201	0.102704619797	-0.0579070358352	-0.106920517062	0.103107712123	-0.151263588785	-0.0507498085687	-0.178443799257	0.0687413405887	-0.00676769979585	0.0467474091872	0.0128548242983	0.0776039107988	-0.0413205489701	0.114072499427	0.0662381375127	-0.0791206025045	-0.0243882710777	0.0937133659212	0.023462180185	-0.145366950481	0.0352309692002	-0.133496201656	0.0309557133795	0.0213074042208	-0.0485195306337	0.110849165039	0.0932230796034	-0.00605216079138	0.0564572452626	0.0887754748408	-0.0806693550218	-0.0265402817144	-0.115713605246	0.0426709342667	0.00340318625461	-0.00527623389954	0.0193594627739	0.0436797812503	0.167071929956	-0.101041735073	0.138277558312	0.0459161377212	0.0424300917234	-0.0284602076988	-0.0547098982709	-0.0938698151958	0.197799159045	-0.0366278936681	-0.0421143015759	-0.172531910727	0.11403763569	0.0947925446409	0.321033295978	0.0653380003508	-0.00905556609998	-0.0635443510019	-0.0781990625848	-0.111780454588	0.0331435889612	-0.139375608092	0.0328102820061	-0.104326320943	0.167088181806	-0.0613736191232	0.170633907397	0.137442594012	-0.0375917971332	0.199158413983	-0.139769414794	-0.0257048299178	0.0815644227406	0.0386933152704	0.165765181999	-0.0339432638982	-0.0573768837425	0.00676792146185	0.0791803905405	0.0468857550431	0.0165896549946	0.15266872726	0.171334090236	0.0167239989472	0.0996550884746	-0.0441496439172	-0.0349702267787	0.0588429819304	0.0141588185589	-0.063435223086	-0.0947469666112	0.0772340214654	-0.127062922092	0.112259702715	0.0288894926437	-0.00112499711607	-0.128192102787	0.0699242146605	-0.0952708172339	-0.085376990987	-0.0304008967726	0.0142970996602
axe	-0.908233585326	1.66413728068	-0.351280168777	-0.443660351116	-0.353216681338	0.0971520286084	-0.275176902189	1.59106165912	-0.523220250963	0.758755273405	-0.265309750681	0.182183647891	0.328127152035	-0.348722056769	-0.674078054869	0.101793806124	-0.559054225678	-0.346964059718	0.293434085152	-0.216611953845	0.055279544707	-0.168724073557	-0.507333565615	-0.252735762691	-0.271460925203	-0.501444077032	-0.0831784000661	0.0404512689375	-0.0614779155339	0.106226372182	0.131480866347	0.214991177052	0.390060499625	-0.422059784989	-0.178229043942	0.102501941173	0.200173591029	0.0698222677861	0.0168191127943	0.195480780069	-0.313317752652	-0.100320492558	-0.274524933984	-0.122152532052	0.0536009686771	0.290984982102	-0.188352536415	-0.0254914748055	-0.175590046566	-0.121382113326	0.217531208019	-0.12657459042	0.105740660709	0.112220690693	-0.0129388391923	0.222234147042	-0.0475908718255	0.174222311572	0.16202369065	-0.0238411047306	-0.18501228763	-0.172655524915	-0.158571677527	0.174695094211	0.0213836089393	-0.0675057650969	-0.0702603400738	-0.217555048312	-0.254842339315	-0.310984129055	0.0291702689856	0.144064955879	0.135360776556	-0.208924398504	-0.137710115494	-0.4573510116	-0.232209582142	-0.032898168985	-0.165767120647	-0.203588046222	0.0268062973622	-0.140738413308	-0.12596548556	0.0760790456698	0.104772661185	-0.115331302779	-0.40718443374	-0.155878286552	0.255306718523	0.193352607305	-0.0694359586363	0.116829785224	-0.183144543773	-0.280559456847	-0.136618357657	0.0982954319265	-0.222008443092	0.037221310555	0.095285141179	0.0270100271133	-0.150432760243	-0.0291737381	0.133171097354	0.0373716749601	-0.0960723835501	0.136804208303	-0.0483525882537	0.0736826909062	0.0566409686232	-0.00829156092153	0.278375461758	0.0362179292083	0.18209413169	0.143366369449	-0.0386181996522	-0.160606098218	0.0562234708563	0.0590052285793	-0.108085884198	-0.0513710113398	0.0500600939623	0.0438644800806	0.251982594704	0.0769842311415	-0.126097326696	0.0957347383621	0.151550741849	-0.0278047982803	0.0883615764708	-0.0477616767941	0.103891721792	-0.0610254780727	-0.0156033469004	-0.172211111502	-0.0414031897528	-0.113352453058	0.0144259071856	-0.00181945074173	0.0667266212421	0.144634362613	0.113902985579	0.164513005465	-0.022676368352	-0.0558226522296	-0.0524876166965	-0.0273739341499	-0.0421850793842	-0.021035483626	-0.0121319159267	-0.0449055731801	0.0291879039068	-0.0470525076608	-0.0712183036263	0.00112913401747	0.00568855330702	0.0488188746828	0.146217032842	0.0427437394261	-0.0435664428311	-0.0103291779951	0.0849896702091	-0.109776936781	-0.0693252558702	-0.136197937505	0.083855012861	-0.00255903812909	-0.118281155521	-0.0356025549627	0.288633016575	0.123791945313	-0.00657835073896	-0.00485915280795	0.0813867272621	0.0157419602735	-0.0152373648992	0.163824672039	-0.106162606184	0.103941759104	0.095651851435	-0.0036829058519	-0.0121149133808	-0.0107694404064	-0.0900062964636	0.0746310881886	0.082133003702	-0.176065723205	-0.222347501157	0.0898202381571	-0.155916263575	-0.0556971359454	0.0694395111301	-0.122865195957	0.0182570698832	0.100108757105	-0.115643326153	-0.0588750287632	-0.0525168648994	-0.0484393122342	0.0259894917528	0.043022758802	0.0781442284747	-0.0538605395646	-0.132564961635	0.0276062093973	0.189333435205	0.182900876497	0.0121720684041	-0.0182348826539	-0.106102678324	-0.0329420886978	0.0443274872451	0.334275819027	0.0207300505304	-0.262606325357	-0.147674642936	-0.0236185553653	-0.129981763974	0.0406788526532	0.104715467375	0.00305909490536	-0.0180518282916	0.0118957515812	0.142475930268	-0.146014931911	-0.169772847704	-0.0454494551619	-0.0962757134711	0.0685752175899	0.048812584623	0.0104876210477	-0.168308038094	-0.0431317474407	0.05253524839	0.0986247424056	-0.0555266393572	0.0667212873995	-0.0354176491546	-0.0623859520545	0.0409611574175	0.0489872191284	-0.0895222883233	-0.0757047162778	0.15272384343	-0.0396774286327	-0.0808807898839	-0.192106299232	-0.0292179091753	-0.077203101149	-0.0682578780265	0.053425698495	-0.158227948634	0.111753214258	-0.0167761691908	-0.0501326076387	0.126955464016	0.0505325092774	-0.0650150159267	0.0370486288645	-0.0229349422751	0.0611343001251	-0.0962746977627	-0.0604521783897	-0.136390552463	-0.0600415531367	-0.0517274276464	0.0524872273812	0.0367734056904	-0.00052466831978	0.0682932562278	-0.150719026945	-0.016982286194	0.0659227719084	-0.145818178004	0.0144321911517	0.0784196787772	0.121685111158	0.132971744403	0.0246209571289	-0.0241857520268	-0.0696807360384	-0.0251511812676	0.0363099010468	0.0531156502699	0.0328792575947	0.0944349757442	-0.0210262428134	0.0736925235442	-0.0244503323691	-0.0767521122711	-0.0139550481227	-0.111390317132	0.104661838371	-0.0293683033334	-0.0389443170777	-0.0431077320036	-0.104305151726	0.0379916876215	-0.000461095065053	-0.0804245825703	0.104877210582
