Concept	0	1	2	3	4	5	6	7	8	9	10	11	12	13	14	15	16	17	18	19	20	21	22	23	24	25	26	27	28	29	30	31	32	33	34	35	36	37	38	39	40	41	42	43	44	45	46	47	48	49	50	51	52	53	54	55	56	57	58	59	60	61	62	63	64	65	66	67	68	69	70	71	72	73	74	75	76	77	78	79	80	81	82	83	84	85	86	87	88	89	90	91	92	93	94	95	96	97	98	99	100	101	102	103	104	105	106	107	108	109	110	111	112	113	114	115	116	117	118	119	120	121	122	123	124	125	126	127	128	129	130	131	132	133	134	135	136	137	138	139	140	141	142	143	144	145	146	147	148	149	150	151	152	153	154	155	156	157	158	159	160	161	162	163	164	165	166	167	168	169	170	171	172	173	174	175	176	177	178	179	180	181	182	183	184	185	186	187	188	189	190	191	192	193	194	195	196	197	198	199	200	201	202	203	204	205	206	207	208	209	210	211	212	213	214	215	216	217	218	219	220	221	222	223	224	225	226	227	228	229	230	231	232	233	234	235	236	237	238	239	240	241	242	243	244	245	246	247	248	249	250	251	252	253	254	255	256	257	258	259	260	261	262	263	264	265	266	267	268	269	270	271	272	273	274	275	276	277	278	279	280	281	282	283	284	285	286	287	288	289	290	291	292	293	294	295	296	297	298	299	300	301	302	303	304	305	306	307	308	309	310	311	312	313	314	315	316	317	318	319	320	321	322	323	324	325	326	327	328	329	330	331	332	333	334	335	336	337	338	339	340	341	342	343	344	345	346	347	348	349	350	351	352	353	354	355	356	357	358	359	360	361	362	363	364	365	366	367	368	369	370	371	372	373	374	375	376	377	378	379	380	381	382	383	384	385	386	387	388	389	390	391	392	393	394	395	396	397	398	399
accordion	-0.998603425882	1.66767287953	0.540231753132	0.216593695486	0.13066256333	-0.330926070579	-0.248615361007	-0.166045059833	0.835603245367	0.420762720538	2.02652198891	0.624452652315	-0.161231296452	0.722628790285	-0.0296412749768	0.121734691608	-0.436997369418	-0.310778031707	-0.270271107785	0.159249261206	0.212279859203	0.310314758583	0.267131715743	0.0741832519591	-0.0888925523777	-0.17735586019	-0.249883902985	0.483362614276	0.0334144803569	0.42514444537	-0.144593140609	0.126023487779	-0.0342469858245	0.169803033182	-0.126212331679	-0.191320052023	-0.437402747936	-0.281096019593	-0.0898855332892	-0.0333944835823	-0.0978921522998	-0.110345512548	-0.288548205089	-0.0806915571046	-0.208339939445	0.13060107399	-0.112985777913	0.0695339435821	0.243933236392	0.247742352962	0.0612955369076	-0.0931773119893	0.121479310211	-0.0470965896263	0.125209790087	0.014125416684	-0.0118859398804	-0.177832102483	-0.158058337718	0.1861766277	-0.112391292412	0.183037876837	0.211186267663	-0.00256384336494	-0.166279312909	-0.0148177060274	-0.0133377507209	0.228285507001	0.187670782504	-0.203082125404	0.385603552767	0.0310727062836	0.04567602961	0.077258054735	-0.16045227046	0.316599002068	-0.134864985652	-0.0553850823159	-0.121568459763	-0.232272997649	0.497738144355	-0.0568833649923	-0.0268747310165	-0.593955771831	0.24204100348	0.14278026737	0.121835359189	-0.1060213983	0.155176749793	-0.17078841733	-0.146714083753	-0.0624141825534	-0.0644865300288	0.025502865706	-0.349854876619	-0.131930085348	0.0692654252278	-0.0909912428577	-0.162076373996	0.0287809973057	0.200652380346	-0.0649354529328	0.402490244224	0.360220213217	0.0862745298048	0.0102593912695	0.111689295833	0.157835401928	-0.00309857389499	0.182441154383	-0.132059691148	0.344837566771	-0.240191702933	-0.159153553851	0.242442333541	0.0857844030605	0.237373265056	-0.0202238919696	-0.091305284183	-0.281246613931	0.205266888139	0.0131241673019	0.241802023612	-0.176557929246	-0.107536896757	0.0119002976219	0.0783387270709	0.127173647024	-0.156704077248	-0.100217062784	-0.40085885484	0.271661391227	0.182658574119	-0.149446571426	-0.158833979704	-0.17835776533	0.09625595059	-0.0439970648231	-0.0652263542198	-0.193993952751	-0.0826851325908	0.256763678075	-0.0194741375193	-0.0964307522024	-0.2235077278	-0.128320401956	0.157488454354	0.0066747654979	0.307162577186	-0.181210586525	0.071109492729	0.139242436569	-0.0824003041214	-0.0560031255005	-0.032213005572	-0.0551705057706	-0.0169406793679	0.148699339271	-0.0880118175779	0.0205336142691	0.00774364906611	-0.0866595887171	0.132093726607	-0.00826925028764	0.17809962035	0.157002463058	0.0574017062171	0.132906759378	0.0680648359175	0.202123451109	0.0653387355796	-0.0824819498397	0.0624488871654	0.0490912801605	-0.0720910641855	-0.0234582221249	-0.187051125497	0.152579812302	0.0202432345144	-0.133747384448	-0.0219839595826	-0.271389994658	0.316631454065	0.130024295242	-0.109494330083	-0.0193544478058	0.316401515006	0.0462541992993	0.031940979441	-0.087516045503	0.144697546543	0.0404968463798	-0.0578611826529	-0.103855117199	0.0883281814955	0.0703873988467	0.161328688325	-0.03025974004	0.0261432083786	-0.169385410809	0.0119338095395	-0.0593330009832	0.0154064521569	-0.11301511416	-0.00213275391865	-0.0221937031056	-0.0248693921348	0.0526162714903	0.197807973043	-0.00442575855291	-0.188019848104	-0.0692466693032	-0.0626040796273	-0.169204102135	-0.0550360084587	-0.0707097675898	-0.105335332139	0.0873348256147	0.187626734384	0.063575344994	-0.201990735415	-0.0847845802595	-0.0919638733067	0.111769366166	0.0572782514686	-0.122850603057	0.132881452699	0.075066015425	0.0159178423145	-0.119379579569	0.0324020420487	-0.0553668174756	0.345877041299	0.0463811358822	-0.127790582726	0.163588292621	0.0255547515237	0.270866519979	0.289824594592	0.000964685067139	0.00829710350733	0.292825375551	-0.348805924979	-0.0866860225536	0.00611857751906	0.128841542686	-0.192497697382	0.244140669292	-0.190095167819	0.206785201428	0.0349934074635	-0.041251390321	-0.085795288723	-0.0156511201998	0.0428290881615	-0.0228838909588	0.201320403695	-0.122337851259	-0.0418325151386	0.030523437194	0.13674215681	-0.173719688329	0.0824567443564	0.306555430305	0.191629765109	0.113811200043	0.0804996884634	0.0130018174667	0.00107524980097	0.15240123194	-0.108893824595	-0.039550644969	-0.0400125006952	-0.0088726276863	-0.151702586507	-0.169516897853	-0.0823452313651	0.0717547982358	0.0632221294997	0.0975625084238	-0.112244384032	-0.253887022325	-0.0333119395382	-0.235057603049	0.0798942995127	-0.0756043054939	-0.28558017163	0.108359509203	-0.256617264072	-0.108555590778	-0.177578141091	0.0453475014578	0.0949737136808	-0.157134240207	-0.00144459740124	0.0153112074933	-0.14310296944	0.0971812042071	0.0817308647715	-0.144326649902	-0.0560827791332	-0.0954799559593	0.335214776782	0.072611933762	-0.0815694415277	-0.197148867657	0.0727883829547	0.128232729996	-0.167028330896	0.0643448132031	0.0171541279212	-0.34401330433	0.103483727882	0.174455242856	0.174476427061	-0.168079846809	-0.0315335477225	0.238207584848	0.0857008246375	0.123778756124	0.189149614684	0.114829445562	-0.251445358266	-0.0697407918036	0.0608583553029	-0.130378559494	0.247130840466	0.298422837234	-0.262757964737	-0.0161564109604	0.211010589327	-0.0131735749001	-0.0708957729876	-0.133311784883	0.136557785036	-0.114343240058	-0.125614365555	-0.00122670352839	0.213687705711	0.16487343721	0.211703700382	0.111356428464	-0.0961625018719	-0.0369615321394	0.0492610355211	0.0239093177392	0.219670660055	-0.370532339004	-0.13586084961	0.0767931448739	0.154379743085	0.123028893884	-0.161958529779	-0.149750667819	-0.528191398158	-0.085902230216	-0.177220146358	0.149292183141	-0.0772608032964	0.0963054733696	0.0273293028373	-0.438582422664	-0.395561616914	-0.0419969634026	0.106617353207	0.0743686428445	-0.00540048514874	0.228570794114	-0.1369555616	0.0285903764729	-0.0222864511509	-0.0644306411927	0.142663188798	-0.035046974998	0.231463373869	0.158306604971	-0.0144327431038	0.149510933038	0.189204457231	-0.00728400696203	-0.0556157567563	0.466248779645	0.109066182803	-0.0512961957911	0.124477285737	-0.132555782	0.0315502304067	0.360687497668	0.191334238602	0.204202609475	-0.13014282392	-0.0112012277545	-0.196845272802	0.0322874829909	-0.248992670498	-0.289642329476	-0.180256673098	-0.205213206301	-0.11253547272	-0.173752450594
aeroplane	-1.57201517456	0.849968101325	0.840721540412	0.518728298583	1.13881168668	1.17483215098	-2.41151980187	-0.518610965131	-0.0913783341405	-0.494186932197	-0.331327240958	0.271218846737	0.598997614563	0.0935121677096	-0.031666231072	0.668603853774	-0.0847784472469	0.66037806647	-0.068009466684	-0.555870951713	-0.0585368681561	-0.265734541108	-0.00748808668064	-0.373916866359	-0.0697464095472	0.124622965045	0.363216419552	-0.247561782012	0.230728981056	-0.214089474696	-0.259715548417	-0.124112065637	0.487176352074	-0.233660959644	-0.93563552808	0.075500424662	-0.236966362134	-0.0931286692924	0.265644770305	-0.118728700659	0.471007708198	-0.149772441743	0.331632108806	0.308549951642	-0.537522717144	0.670991241065	0.12676660053	0.572665139039	0.419003433431	0.207132228695	0.562475149489	-0.000970152762136	0.115003021267	-0.251722015602	-0.058674940161	-0.0909104786732	0.0867596338338	0.484578685767	0.3434157329	-0.310058560819	-0.0491222758493	0.103329269623	0.128508290696	-0.322367012692	-0.326673791539	-0.814167917983	0.786543102269	0.295452517261	-0.25327578463	-0.346896812394	0.414041097978	0.267255837405	-0.23096043037	0.395393128512	0.336580967835	-0.16995028922	0.0159671128693	0.102098321647	0.785722874084	0.15488778071	-0.147878964186	-0.474485329213	-0.538302950576	0.423511043649	0.285910176298	0.162765826241	-0.077257904867	0.163188653879	0.321705404363	-0.590064248624	0.0204485623975	-0.212973785642	-0.0370337343546	-0.112478799369	-0.162300974207	0.320251149243	0.193913978546	0.0910541282906	0.0322743859268	-0.311879366564	-0.150944886127	0.208542019895	0.205785082398	-0.336765772165	-0.135022956183	0.513773093561	-0.224254634434	-0.0433807353322	-0.203275131043	0.200005255973	-0.462665765109	-0.133182785443	0.09128048039	0.453978167851	0.157175208126	-0.280058168135	-0.204605196689	0.0286106519623	-0.0128298826433	0.290998949102	0.0229462592554	0.0989971513453	0.76413295294	0.53491361545	0.33097327859	0.461664869303	-0.13775087128	-0.636004185282	-0.230204073515	0.433712669161	-0.181989788366	0.200067534218	0.00337777818781	0.443411538682	-0.0734191293363	0.0751198067694	-0.00168940870701	-0.141626137554	-0.119677207309	0.319180476374	-0.0210563105177	-0.139870730027	-0.0905032720048	-0.0506876169954	-0.304352605368	0.501359410884	0.118994587957	0.0960629793532	0.461221268237	-0.172473373747	0.249010436451	-0.173001129629	-0.00417211167492	0.161973333049	0.0330510926622	-0.227624902656	0.232466159086	-0.36584216272	-0.224772868078	0.0227793495731	0.191777860171	0.229381928343	0.00237523309717	-0.281495810236	0.175472046796	0.575544597764	0.192375160491	0.379737134957	0.368802562666	-0.0744627340675	0.0513618243123	-0.0541374644477	0.195585312453	0.438483810725	-0.201865724735	-0.0982280722138	0.072695773197	0.0450703332092	0.127009934302	0.220792283061	-0.0497329051326	0.214641059285	-0.257742133062	-0.359506894845	-0.0270745280666	0.00583710778253	0.164025857121	-0.28952808568	-0.422012636934	0.146351678269	-0.0798980908616	-0.0170663426976	-0.0198768884165	0.0535565542184	-0.140121421517	-0.255452063218	-0.00287137118928	-0.0208922473923	0.0618182017934	-0.21869900012	-0.0217247136579	-0.0309255733477	-0.0659082828833	0.169021611354	0.378018280126	0.120107581116	0.0105657217348	-0.22080963359	0.0329014183782	0.261126574566	0.0258309416693	-0.213819336282	-0.0302146268251	-0.00795952557752	0.0127504139573	0.549234152787	-0.215247301829	0.139195858087	-0.0447421179881	0.303952874204	-0.0208304975527	-0.275039219536	-0.162673451856	0.0889813249363	0.138288830795	0.244675608423	-0.043441566011	0.120507870264	0.00083922062507	0.317334915293	0.0716507685221	-0.0283079489138	0.105494370766	0.0976093350029	0.0926432509336	-0.14487170231	0.00548860297542	0.127911177468	0.222754092209	0.266481290386	-0.102283269178	0.188977616815	-0.0709712485547	-0.0275338626262	-0.174254176998	-0.0398470859329	0.124614959056	0.0839825437332	0.0687107619045	-0.148838889987	-0.242909169378	0.328292725884	-0.115917746821	-0.296387470331	0.021173203227	-0.00229822762759	-0.00981056566171	-0.0974351167679	-0.105297230292	0.075640508022	0.0253378784497	-0.0294130911222	0.177421831333	-0.2537133766	0.090944828093	0.371560918795	-0.292535758433	-0.222120390944	0.119963456098	0.0309094079796	0.269923444517	0.132624288772	-0.0105523674094	0.303895160401	0.307699222234	0.160347737128	-0.0272607418678	0.148829287154	-0.0300681288603	0.104746048272	0.0736237507337	0.194394099914	0.0946097654243	-0.510851958845	-0.0879033704734	0.317219457088	0.132851683541	-0.0030529575135	0.0935758645587	-0.158838040836	0.0554178879474	-0.533832818336	-0.0674594083211	-0.0786982781588	0.00443516681816	-0.0666487165602	0.135901274281	0.113825344595	0.204329751718	0.234086668212	-0.229134325982	0.0791393016668	-0.167577604325	0.125931530889	-0.0780158247773	-0.149085056379	0.0885616960324	0.259149707784	-0.0192909917031	-0.0136289173014	0.0493253801107	-0.293333779369	-0.0451758106901	-0.197170320173	-0.024377698745	-0.0857839412329	-0.0120637863193	0.255207021108	-0.0166982979759	0.0470273129293	0.2603007492	-0.0843635938237	0.397481151015	-0.113219928591	-0.0423167497855	-0.101149853987	-0.170383187033	0.133534867251	-0.389814134782	0.408628978243	0.0632836913753	-0.0844404324252	0.0169424683957	-0.101958410328	0.198933276109	0.228505112012	0.0538748999064	-0.119949605783	0.144137684148	0.147289166164	0.0848151501057	0.103436815851	-0.238503250828	0.0799346311923	-0.0931453340038	0.00203212112967	-0.181022875831	0.00239093735767	-0.245405881938	-0.16712690566	0.0300162530104	-0.234055298234	0.0393842288082	-0.353668066531	-0.206627772035	-0.100542817295	0.0662950489284	0.32869071172	0.181630735857	-0.0205183989616	0.162301790529	0.292281618906	-0.190006491098	0.0915883556262	0.0807010627134	0.0809596785314	0.169703594467	-0.0682547235693	-0.0163012791778	-0.00283236448135	0.172694036468	0.19995808242	0.037024285963	-0.0101572503119	0.275527373916	-0.0550126162736	-0.122294948234	-0.255450704545	0.17830020879	0.0987965235915	0.184937207175	-0.397962113696	0.239255617384	-0.0545650077325	-0.296423419258	-0.288766779792	-0.0674339903722	-0.0889841803893	-0.0244157414621	-0.134366228467	-0.279611628708	-0.00924117945403	0.236058951319	-0.172040405427	-0.00718895327214	-0.0858447601142	-0.105948615469	0.345792402687	-0.0589090801924	-0.28437111652
alligator	-3.32428239252	-1.94353243224	1.9060401191	0.584183210678	-0.0627233012025	1.72506404804	0.410642929614	1.91015856945	0.267854837795	-0.60614241263	-0.116444993114	-1.57746219224	0.475288985359	0.650015499169	-0.692774369041	-1.22014672232	1.48478729479	-2.60096701838	-1.02036572177	-0.616814703337	0.684655820438	-0.0304901604321	-1.37151920282	0.381466582992	0.240050891834	-0.713536536411	0.450097035637	1.2586738001	-0.231432417968	0.387951957401	1.66468013913	0.147584037426	-0.321050388463	0.299087673949	0.210657134762	0.500486343076	-1.00878804571	-0.658958599674	0.0798378097741	-0.133897034834	0.249094593523	0.152411930444	0.147882748611	0.238361636077	0.969164304332	0.721569865022	-0.0785430133121	-0.255675583402	0.345917660462	-0.248502839708	0.220122808526	0.548417122556	0.0315954980395	-0.232390784005	-0.271520987397	-0.548009143653	1.26899872022	-0.659432581878	0.745311303251	-1.38465258718	0.433634600787	-0.864766748501	-0.482650410788	-0.0849104563021	-0.345680360128	-0.159067520355	0.225264221974	0.420060087254	-0.104827456467	0.312133782364	0.757763022499	-0.0845433783604	-0.119289461139	-0.258898409647	0.117733676061	0.201924436118	-0.257968983294	0.0868138304497	-0.0573230673782	0.346650230158	0.666743895056	-0.088416049718	-0.482253879726	0.618063698823	-0.419683688659	-0.0193225533498	-0.208667172667	0.323799446204	0.150409857375	-0.233233363241	-0.643064224697	-0.269000664326	0.200027562305	0.335126846427	0.174812695477	0.673490105144	-0.0369708082102	-0.27068262747	0.0410665942078	0.673902024794	-0.252913009153	-0.297400726649	0.0388920163227	-0.0543450512948	-0.165013599448	-0.0959306630414	0.0669743967064	0.316150808047	-0.31051116711	-0.155148768635	-0.0285576104957	-0.0975482705178	-0.128842584882	0.147882533589	0.483570232298	0.28454268916	-0.220753720443	-0.360818558825	0.450167712172	0.000422663476439	-0.2670173655	0.233435594911	-0.252021367372	0.308217018297	0.017418592765	-0.335701891211	0.198863221959	0.0938687892214	-0.0147023224159	-0.201228603234	-0.106601008645	-0.0930618291118	-0.0492518734566	0.139351873594	-0.0538154959805	-0.0244309663589	-0.122671291569	-0.228771319905	0.0565797318771	0.0531385165413	-0.133031807752	0.0158598285468	0.0142644804705	-0.316304525285	0.181898913782	0.426904456175	-0.0255306256112	-0.135536381385	0.0810022533852	0.195228767345	0.234983511441	0.14243480116	0.133041255651	-0.351519149582	0.222794561009	0.309807090695	-0.157112071125	-0.220732751352	-0.372541672631	-0.221747422532	0.212235025741	-0.223788759269	0.198610615017	0.295075753804	-0.151072446752	-0.299790114651	0.200216443822	0.179786796559	0.276193117752	0.0515861985624	0.182151931316	-0.234408439358	0.345195720496	0.512245913188	0.169277341629	-0.0908549893571	0.280033251593	0.379286598124	0.148772984896	-0.125015358012	0.0565919814017	-0.17763229209	-0.226263576805	-0.228668125156	0.270185300558	0.157817439927	0.239774876705	-0.0186677036883	0.43500361082	0.410520063345	0.115848127143	-0.120817327068	-0.0520194806682	-0.0969550351937	0.0346548187496	0.387399926462	-0.0377813557217	-0.0718096698211	0.0703346046564	-0.187828965158	-0.106789471454	-0.093760630269	-0.263428112804	-0.0689827899913	0.0288241974451	-0.398582730261	-0.0238306566237	0.167412874883	-0.0311158613488	-0.0147896782254	0.221412179383	-0.311127515422	0.0179416514267	-0.0169780752491	0.283111864962	-0.143218774643	0.0917350950601	0.134760753742	0.67144711724	-0.0191332344361	0.068864432571	-0.0516672840691	-0.113144442643	-0.232381645824	0.281133301881	-0.0200813134024	0.274062069634	0.0268881379316	-0.0387553252258	-0.253095459231	-0.0241008555538	-0.2518080793	-0.273004500119	-0.219381995345	-0.115431757185	-0.108692473463	0.193671455443	0.118816091255	0.00351267890611	-0.260260072171	-0.374981206178	0.105990037654	-0.140130930649	0.512505818001	0.161249129901	-0.200808765681	-0.142112595795	0.175758822535	-0.451428957857	0.15300104211	0.327952874273	0.088718982309	0.17306894422	0.267488653534	-0.159025735398	0.219195051575	-0.119343309426	0.299297371226	-0.290577710005	-0.16685420101	0.0170526494701	-0.233866335405	-0.133736563384	-0.0312158823025	-0.155090919227	-0.167656740642	-0.110459038884	0.344174320394	-0.210377093602	-0.370870909601	0.0898728135526	0.0858675733813	0.0404362407652	0.114430952878	0.176881775381	0.095303958331	0.0908004253807	-0.0273879320836	-0.124729337103	0.109497322889	-0.0658239616141	-0.156596847431	-0.0895908560462	0.0635818718504	-0.0243761165728	0.247028998605	0.0750409948774	-0.251381155559	0.0558679783813	-0.000419250585304	0.123047244414	0.473417819149	0.147235053644	0.0488729481057	-0.0603643913434	0.206017781844	-0.0211146312259	0.189333952762	0.200846730877	0.173665576622	0.116327648371	-0.0173446326891	0.090262578808	-0.176216423363	-0.00521470417472	0.303461419094	0.113281944424	0.144922941764	0.0561841787269	0.371984957778	-0.103697384696	0.080351548396	-0.12160451865	0.302653346163	-0.257252234763	0.0755162702528	0.0401539543573	0.17910565196	-0.221979096377	-0.159135981564	-0.302629045111	-0.0455602130829	-0.0743365322906	-0.0553437967241	-0.067756074531	0.0743865255417	0.115771876354	-0.11341738095	-0.153300702915	-0.10293100883	0.220518649558	-0.0300379460663	-0.172149014283	-0.0287678208572	-0.180149363518	-0.105582067386	-0.092200397359	0.0310556869079	-0.011149247	0.208070220443	0.029977245004	-0.114178834818	-0.0351933576366	-0.0975407512361	-0.164557161802	-0.048707396407	0.0402929607701	0.100464070256	-0.208877291249	0.0452869011752	-0.00276018375544	-0.134270506525	0.102781407185	-0.102760724879	-0.0808830162122	0.235931414556	-0.0482021631836	0.0721632989824	-0.240837535135	-0.0377431885773	-0.0915603861875	0.0295953662042	-0.14542442782	-0.0832358354153	0.190579630917	0.189293947576	0.0235455173315	-0.223634160857	-0.11040762272	0.174607770906	0.000806317171073	0.181378425819	-0.0859452420279	0.0918813234236	0.357178714615	0.0107055154108	0.089725161265	0.0182195369797	0.0441501989136	-0.107940029937	-0.0535032044769	-0.102000828938	-0.046346187815	0.112746367851	0.13306365331	-0.147099070026	-0.210670801528	-0.056119747086	0.168820627735	-0.139954669084	-0.0196332056737	-0.117358527686	-0.0236088463046	-0.0548554853051	0.0825730573448	0.113334618548	0.0484237757146	0.176287265941	0.0127455753356	0.0402857423394
ambulance	-0.971189315159	1.04281565716	0.316051717997	0.325759830135	0.581998012748	0.802993568736	-1.27667011841	-0.750207083256	-0.542971106317	-0.603383210728	-0.419571791066	0.400534619029	0.306821830707	0.577290523442	0.117562555302	0.722125221666	0.105501588608	-0.588757962444	0.0208775141918	-0.22616762543	0.929210090716	0.52878393071	-0.077001090117	-0.0797296240464	-0.360284176402	-0.309396773556	0.529544046476	0.0250507568833	0.00629718755227	0.101881288706	-0.349383033331	-0.698957448419	-0.17172282461	-0.0941554985157	0.21884756005	0.225897253616	-0.499209131734	-0.43531651195	-0.20797748596	0.352888137242	-0.078217417058	-0.15739799674	-0.0603889140228	0.108756476377	0.247571009716	-0.257273186605	0.0320791284988	0.175870129909	-0.153769346975	-0.197222026599	0.359379555337	0.110007929967	-0.0550054102238	0.296232678669	0.317248896786	0.0181608285156	-0.000143709004976	-0.224799702626	-0.405899798162	0.164436387552	-0.102739162748	0.246801703717	-0.233813311909	0.181381952317	0.250732174361	0.0637858471515	-0.194497511369	0.224671250972	-0.0901587574435	-0.0695288541657	0.269548931946	-0.00938897481821	0.266234779632	-0.01958275363	-0.00236387955454	-0.178629814493	-0.0357872326729	-0.42830484533	0.197187854526	-0.0588819880669	-0.163042347546	0.424080070284	0.0495137018382	-0.0580943852499	-0.259527973467	0.0821260434895	-0.600517095402	-0.37640851667	0.161412404878	0.473127242756	-0.380177047211	-0.116509094302	-0.60878988958	0.0795126638781	0.200320796276	-0.160052222257	-0.233791099806	-0.40430848438	-0.484211932506	-0.00427057528902	-0.301234030709	0.0839392429318	-0.164622310862	0.262157653427	0.255233060416	-0.598605282024	-0.10194502311	0.274784704987	0.139869145136	-0.179668599185	-0.344211441002	-0.0738687180318	0.443593220583	-0.507365407793	-0.0904445520366	0.39054883877	-0.139428860057	0.37498273047	-0.148332019606	-0.014038704048	0.503158109444	-0.436764114703	-0.646490378324	-0.494928722157	0.201881888895	0.158774149666	0.111721545013	0.208628913853	0.0268908488779	0.151868479536	0.106567636136	-0.209214006931	0.709353925022	-0.635363701319	-0.0132582694625	-0.09941437979	-0.431271599888	0.273185234453	0.231419915465	-0.0879976259526	0.26141313296	-0.539515397728	-0.374926060325	-0.380265795671	-0.447298279305	0.359032145822	0.211923294849	0.215091515087	0.187518139457	-0.0344763265457	0.341505253105	-0.320120768218	-0.397753619646	-0.744553781203	-0.438159782262	0.363552334208	-0.58694825141	0.124556139295	0.143989640544	0.0583271781762	-0.637013279846	0.127159876694	0.0274991689794	0.328598619955	0.307782164564	0.0627675927111	-0.0697436648013	0.0889806794797	0.136553530579	0.158656368705	0.238449750536	-0.0919479590764	0.715950863223	0.523900181668	-0.159985570289	0.147603667652	0.233043814731	-0.599192167947	-0.029764045993	0.103877479681	0.0764214191281	0.160461989787	0.0274288841695	0.215361715476	0.452194631624	0.158046473238	0.123125999259	-0.50046398559	0.259922364365	0.113934667297	0.185377811836	-0.743434785096	-0.0216784017068	0.707226277272	-0.450754990973	0.179811135166	0.453939525182	-0.559829908695	-0.0821243733036	0.0339955969514	-0.132526539749	0.00617316513308	0.166094398547	0.289916124258	-0.462737926656	-0.142340068	0.585340699043	-0.090196099804	0.212183117501	-0.270182001597	0.00847095774943	0.325517321004	-0.06356505873	0.264689998315	0.0356826555007	0.362362904041	-0.153326655884	0.347988518107	-0.601365226627	0.621671314556	0.193236399504	-0.22293008751	-0.190463854961	0.195976606003	0.343802790475	0.109298113813	-0.435638318711	0.385567435177	-0.252058952642	0.392932087684	-0.28257430022	-0.372435908157	0.111597852298	-0.286967285429	-0.127370812445	-0.0279971395734	0.00730066150631	-0.0350963885647	-0.229945349031	0.155933840906	0.0440262332775	-0.0548078725593	-0.183126192225	0.0440718897339	-0.210708030642	-0.0200073181316	-0.380332923542	-0.158301305229	0.286376021325	0.0694282196815	0.227876162621	-0.203011631098	0.0268559271559	-0.0735965242438	-0.120360363995	-0.0565112506051	-0.0847265885096	0.504016667956	0.348789892888	0.46358842927	-0.112286449949	-0.0633757361521	-0.176932592646	0.214188064674	0.2135173639	0.450816330602	0.0238630242926	-0.133207105349	-0.358518240785	0.337528294587	0.216282525772	0.333673023745	0.165388522269	-0.166262588003	0.0692469738475	-0.1327952504	-0.53458352335	-0.15688843953	-0.168380201118	-0.0512062722116	0.145206757689	0.0282638541328	-0.563577172738	0.486952741034	-0.101617261873	-0.122359409801	-0.0277256886211	-0.0801326953709	-0.190393110953	0.249282334664	0.35144154669	-0.0515256944207	0.165038270444	-0.148299448923	-0.0669058163897	0.0222339147404	0.0360008901171	0.0308737390312	-0.472314766417	-0.142789689855	-0.326348361996	0.278708108638	0.113230561357	0.16308197697	0.123971768407	-0.376951242713	-0.0630612420551	-0.322936892817	-0.139312251538	0.23940021358	0.00846860038207	0.057215474432	-0.33358701319	0.407496736767	0.140139544051	-0.205972345366	-0.0949137792076	-0.381068198587	-0.0687824384957	-0.172559665263	-0.292675767195	0.219172250581	0.255898645391	-0.213046948844	0.0618328336496	0.086837915318	-0.189562443103	0.127931378132	-0.248708412177	0.0928235992203	0.214731232766	-0.0772234227845	-0.241728542946	0.105885488228	0.000682836778285	0.164696575304	-0.0692544607665	-0.0746074414138	0.0116473712046	0.0243346204159	-0.139403643359	-0.378973787928	-0.0248679467203	-0.145740804657	0.251472664612	-0.190513067302	-0.0194183608112	0.112584639846	0.180330649242	0.163351588014	0.0395459876709	-0.00829054607312	0.0826575902159	-0.0758075729003	0.0875800712676	0.0539283415023	0.0797300223911	-0.021985418732	-0.0646728405816	0.0754850442808	0.143602728738	-0.215731649209	0.19829006915	0.0225447269403	0.0402779461544	0.0995523023912	0.0126255059454	0.334166516984	0.145440882513	-0.0702102299058	0.12557200481	0.0597731622915	0.0872627563477	0.0471617351684	0.109629831649	-0.181266579975	-0.296369896349	-0.0528427432473	-0.143318927439	-0.0435567288856	0.102903037743	0.069292480979	0.0295331300797	0.000602742313585	-0.101352555216	-0.169594785625	0.0129931426043	0.147886416683	-0.0278906370294	-0.0818015855467	-0.203534147181	0.0195918936448	0.101366764416	0.0781939635792	-0.0325831678102	0.0224050897601	0.0653327526676	-0.112695663242	-0.041907441504	0.0905319896383
anchor	-0.863684474621	1.01751802722	0.346303620669	0.373538318161	0.196665830253	0.265134711146	-0.194082780926	0.510043567415	0.2032655722	0.548315431227	-0.0340772220478	-0.540454791179	0.222361266385	-0.570776981821	0.0734442989096	0.164666595309	-0.241211568303	0.389960666511	0.0379654709127	-0.029108115241	-0.15621042188	-0.304921589486	0.387582791428	-0.27225305412	0.161968338298	-0.181537879367	-0.136214199537	0.0975208581868	-0.0823461804584	-0.103742843289	0.0570945642731	0.082122823553	0.0148414509167	-0.398495649872	0.0595556320069	-0.196276527336	0.201514757753	0.153634542416	0.424223319786	0.00715653682666	0.240453009463	0.266013166675	-0.0679152482691	0.177246788756	0.224342361051	-0.166200119709	-0.0752552558092	0.0857361409826	-0.0785525190912	0.136624127856	-0.0575666451047	-0.245780721018	0.316400843738	-0.0803207403914	-0.0394818591993	-0.0191581509082	0.122790313793	-0.024404378992	-0.109833531497	-0.0839070491391	0.140803390275	0.264370252824	-0.162703118167	0.0913150785287	0.227847968262	0.0247851032643	0.181320557455	0.0695272464238	-0.262638542121	0.0247201944756	0.230406024255	-0.0820842723754	0.00101653013949	-0.311747011993	-0.159508401603	-0.158976214451	-0.0716282451045	-0.105961252585	0.211783579311	0.0840418671586	-0.252728402376	0.0941721926364	-0.0111326975461	-0.128499174729	-0.0191848604586	-0.445682572528	-0.352023324339	-0.147126274417	0.11604760971	0.425644154978	0.245618982679	-0.00506548961995	-0.274780060405	-0.0197719183969	0.0198745737051	0.347800095534	-0.138725078419	0.328891125233	0.0988588378427	-0.340612769634	-0.145837658997	0.12431496578	-0.0483510780559	0.326564995352	-0.21867089124	-0.169229850841	0.374601272784	0.0403795665768	0.28000299329	-0.119883924456	-0.168057940389	-0.0536818835481	0.074539238667	-0.00768673567642	-0.0668887035936	0.0536581765076	0.075361081517	-0.469951371973	0.0184238417559	-0.12050372727	0.121903394255	-0.219523552872	0.117348567033	0.215936341264	-0.39566454609	0.0874761372172	-0.0705590699747	0.274998975946	0.168080939461	0.105940743628	0.0330701989981	-0.0503221173621	-0.131350300068	-0.0367781352417	0.162492366405	0.0394273311737	-0.208232376788	-0.0192141796113	0.0298199351229	-0.0366953891054	0.0231410243501	0.0782722620042	0.148327005306	0.189808487641	0.0336254062015	-0.0990522727366	-0.115394332424	0.0920334825066	-0.0350907632124	-0.0135884600913	0.23359854394	0.191804949692	-0.165469860221	0.0182636296488	-0.0227949606588	0.125967273888	-0.0685760163505	-0.0631670413472	0.0383005060757	0.249804483719	-0.0767522906625	-0.0223936800588	0.0838593633566	0.113687991674	0.168813649443	-0.169921551401	-0.128179763588	0.0146899991319	-0.178430937207	-0.192119885624	-0.239770094725	-0.19583295397	-0.150441486838	0.0454863969734	0.22037919054	0.270479370269	-0.099606546111	0.144067059543	-0.0565681090759	0.00835351350095	0.0582733464599	0.141726034863	-0.190193491726	0.0257059888409	-0.231509953211	-0.0654434755549	-0.0645681010425	0.130599716951	0.089924048456	-0.146771877103	0.310038738131	-0.320127867601	0.188816703141	0.0146954037903	-0.0461931371927	-0.01443054733	0.00600196891359	-0.174310901412	-0.104697284813	-0.0291483000359	-0.0942062423417	-0.155299557406	-0.212339316849	0.052169898268	-0.160632428106	-0.232552464928	-0.0638156730688	0.190659667349	0.171467428286	0.468313057725	0.00333536763195	0.144355111232	-0.0540543751434	-0.0486809225357	0.138793487982	-0.450286042311	-0.0897045584245	0.166793164545	-0.119057066878	-0.0392013643749	-0.218520399549	-0.121837992705	-0.198152311437	0.0687805605384	-0.0666059380224	0.17309255672	-0.122940370935	-0.0905449536658	0.112183244419	-0.295353953155	-0.283621711478	0.0488614334293	0.0291270188576	-0.2597459906	-0.227664218522	0.229118792968	0.0511338836509	-0.127796657267	0.177284529817	-0.145883749867	-0.270975801512	0.117202439172	0.0593103693535	-0.20532325009	-0.0551692800243	0.0665532547313	0.0822274768902	0.309204346286	0.116538935941	-0.0615487437968	-0.0619687973018	-0.155316159942	-0.0406434737617	0.136155727836	-0.221193623064	-0.059783827519	0.145675489126	-0.355073250457	0.0406258959066	-0.285196720095	-0.260381795495	-0.00417475464619	0.196055494779	0.0461022411523	0.00672650187196	-0.342635594645	0.227088585815	-0.0952505482896	0.303295546097	-0.21250562423	0.350705604234	0.163218090336	0.0843066908523	-0.131507350238	-0.130139758618	-0.0262317762218	-0.2716339671	-0.00841323647318	0.438593481837	-0.169030478557	-0.0291343441274	0.284385272178	0.00863627989162	-0.348510281047	0.234772478908	-0.140542885951	-0.514523775096	0.0940420006224	0.278886441165	-0.338038917928	-0.0655683473448	0.0366293915989	0.124129626887	-0.0594503774491	-0.146774993754	-0.137459212003	-0.0657751614208	0.0363934829027	0.394065123393	0.233499522401	0.0225606439478	0.244960854347	0.0589884300077	-0.0904224580893	-0.0251237401405	0.108390827444	0.114292223554	0.0823879381226	0.030100342735	-0.176523658801	0.207594892169	0.171723733168	-0.178309443689	-0.12151603659	-0.241945884485	0.0761956373509	0.0980159610723	-0.0122611375377	-0.110485350348	0.170751792296	-0.0461026748587	0.16935010538	0.074429500541	-0.210417782537	-0.0958329984689	-0.020008918155	0.0440773045668	0.134492093499	-0.161695097192	0.281354977456	-0.397799764465	-0.0512380209591	-0.201421837265	-0.114079511496	-0.0443586380237	-0.529113603263	-0.0125510753163	-0.0816637453076	-0.025258039537	-0.162959612518	0.187263492217	-0.303408299371	-0.0490567151569	0.0676763257442	-0.0913537947379	-0.0998074982991	0.358162918612	0.210022635423	0.498010231338	0.111743565694	0.131972405647	-0.0059858229903	0.0160892474702	0.0871762244832	-0.0263277440116	0.0191560429569	-0.274884232311	-0.138001939778	0.211332947512	0.0706461202456	0.131202324334	0.0181366100549	-0.276406250682	0.140098317018	-0.0474754612359	0.0162638773075	-0.100575122254	-0.136405987314	0.12994533752	-0.148497234106	-0.0841585731757	-0.0584452755882	-0.200662147313	-0.231997824535	0.534092257137	-0.190336378407	0.0675681778782	0.109079476857	-0.159607982631	0.14123392696	0.431555652702	-0.128068573806	-0.192845523464	-0.0454230869198	-0.101175659274	-0.170502073585	-0.0305944580353	-0.137077206532	0.228650544343	0.131794194646	-0.0359746718095	-0.345866872632	0.305221532785	0.00674209402294	-0.10032237004	-0.00667552740194	-0.0680066828417	-0.247919493508	-0.030925104655	-0.201295105485
ant	-2.37237600178	-1.27587565161	0.695505638146	-0.152849954053	0.196161964473	-1.35290901926	-0.0409338332279	-0.227119342582	-0.550432956221	-1.27877561177	0.00903135731539	0.598403401339	-0.216238324618	-2.0079944322	1.31070632197	0.155457171921	-0.414964343514	-0.611555456658	0.264135567076	0.28865046405	0.0578808135886	-0.142630723617	1.11434479057	-0.195180792535	0.168286141229	0.282251754559	-0.101236537048	0.197935255909	0.0132767320731	0.442348883579	0.230550750176	-0.18395710302	0.257445689592	-0.368126170022	-0.191784269084	-0.621833035036	-0.551098401681	0.70787501006	0.369888646568	-0.00711129886248	-0.451889170052	-0.537765096407	0.176150610263	0.437308446423	0.430279245393	0.186092508845	-0.579012286081	0.167172614759	0.0441976094499	0.093096273286	-0.125991407165	0.188925845418	0.00785647725561	0.347232081071	-0.356165710405	-0.0754064314567	-0.225300929368	0.287399049312	0.526199981544	0.266951863433	-0.334574889203	0.186937688928	-0.0648789958935	0.0665252469098	-0.30849055082	-0.253695284458	0.744818655486	0.00682697892691	0.107823626096	-0.166255454866	-0.142156313911	0.0248671017663	0.107275116365	0.141876755919	0.555863529551	0.259123702071	0.147900943522	0.0341208422711	-0.204573406089	0.408167482036	-0.233800225843	-0.535268100947	0.0405104607699	-0.110099602247	0.0376191669497	0.405498446153	-0.22387152438	-0.0456447486166	0.239243178589	0.10968777424	-0.274392728099	-0.0959470453287	-0.309827912064	-0.153681965908	-0.26521358384	-0.0115214042647	-0.0448033311218	-0.524832161913	0.182642522046	-0.175581736391	-0.422617284622	0.0584271789768	-0.0313686078183	0.124720124733	-0.187309929569	-0.0443220843322	0.158706842246	0.376137218257	0.102995903486	-0.2217816595	-0.382698950106	0.475263597236	-0.080933541748	0.163443821259	0.263920087721	-0.0199346231648	0.0922432582289	0.448238583373	0.259640138557	-0.165680053269	-0.190627905129	0.139376678246	-0.124344434885	-0.339750552683	-0.0786160440874	0.152902920877	0.430043508294	-0.0739464224447	-0.13268675869	-0.341871152471	0.283400849088	0.125730288027	-0.363624479485	-0.0623410501112	-0.204553267389	0.0960617387029	-0.506816561245	-0.290927150317	0.225871764311	-0.0572199807058	0.118721667099	-0.288315473804	-0.0517966826738	0.491784180802	-0.0368137477731	0.456819038158	0.0351733529955	0.2795585644	-0.0829155516997	0.0157532897973	-0.341612178197	0.43139425608	-0.0766266743987	0.074290365403	0.123162820735	-0.000477643762886	-0.142074403345	0.16700290926	0.119825190199	0.451296708021	0.710339329127	-0.0503413731248	-0.622883214836	0.651846260359	0.398365114649	-0.505706541757	0.582285332418	-0.160002509616	-0.00116213808673	0.103741325929	0.188082940708	-0.0379293519539	0.226563893151	-0.104448157817	-0.103426424024	0.291131427137	-0.0988094829516	0.0800440072712	-0.189419045815	0.54164956717	0.445589911111	0.399126278851	-0.0341204442885	0.282652602906	0.0783873873752	-0.637384517245	0.169060669486	0.324459031329	0.520162013568	0.530302234218	-0.333957565739	-0.100289286815	-0.167532684819	0.206630998361	-0.011337653651	-0.363320664752	-0.379399191377	0.0374909259325	0.138548885281	-0.0536214861388	0.146803327423	-0.0113797588113	-0.0287945941116	-0.604909519009	-0.390427637219	-0.2684765116	0.223262610431	-0.398892355512	-0.678679935668	0.0478858629771	-0.128328904766	-0.207204987317	-0.702200653012	0.11360355105	0.0701894263233	-0.00401149600199	0.26918513449	0.151844426256	-0.359980531923	0.168963449499	-0.551215082969	-0.57377719438	0.480619050416	-0.0472990802215	0.26345690617	0.0143695009087	0.195045794613	-0.318718111969	-0.0409510900486	0.0529914954767	-0.35510561707	-0.19448397217	0.302976776647	0.406988833535	0.477783243765	0.101940368774	-0.396440272995	-0.376206319192	-0.559409150415	0.167612757976	0.223045843787	0.144934038293	0.048277752469	-0.0800914125157	-0.0109935686211	-0.387661092652	0.753067717147	-0.00598267635249	-0.428315448007	0.0840688470722	0.303480038874	-0.40371122368	-0.10017347193	-0.043884478168	0.116107933175	0.191388791901	-0.298280500487	0.342088452429	0.354239012618	-0.0625449812399	0.0713971994496	-0.350065164907	-0.0039555359011	0.314408483143	0.0598318462565	-0.346523285513	0.0813252186192	-0.0534680715977	0.0727516952591	0.108706849742	-0.426540657793	0.397989194403	-0.0626878362116	0.448700665873	-0.19789615874	0.181174608926	-0.213023763501	0.51229780347	-0.0228364359523	0.00756473154528	-0.299129729875	-0.0319142289033	-0.142331264012	-0.089397598099	-0.0907646572191	0.0437763169352	-0.0410105962198	-0.27970898099	0.00292421951143	0.152375196267	0.125439278723	0.0525447507128	-0.329727468795	-0.0712787477537	0.0326303095096	0.0519776612375	-0.410352982487	0.191497599648	0.375273900886	0.109292495914	0.00822687741706	-0.210849594211	-0.0720233364745	0.212225443476	0.136830990596	0.316574092439	0.0372655671353	-0.0130114848181	0.161384940085	-0.168752113779	0.0411831253478	-0.0701818524858	0.281939990122	0.111344112383	0.0560361646736	0.0462409634003	0.0606660476913	0.137817924114	-0.217427813924	-0.168872177239	0.0355032971836	-0.0357877663737	-0.0971396896595	0.207242682746	-0.00034267059563	0.0105114341667	0.00854758130328	0.284119620101	0.221813593584	0.132001379667	-0.0678131775933	0.0491429919744	-0.139456547605	-0.0451546523539	-0.0202936540597	-0.20151689022	-0.0740319410015	-0.0141397691524	0.166340069858	0.366546704517	0.0209449236553	-0.254839938577	0.0527087699904	0.20651024759	0.159539480048	-0.0824235322132	0.104154174989	0.0812259949758	0.206663781184	0.0311340381021	0.0334316825691	-0.0794876510078	0.062542843168	-0.0657569349675	-0.00743664811682	0.0309266975483	-0.0887292074941	0.169448896594	0.122455469318	-0.187627222241	0.101969876685	0.0571535833545	0.0810309479246	0.0204273055724	0.0706449687736	-0.0385975992369	-0.0871946712124	0.302216830884	-0.087766444739	0.0157728476198	0.00165224009428	0.0261392304518	0.228962719713	-0.053940969689	-0.0772799470579	0.0471904455501	0.164875838543	-0.150938551136	0.00576471437902	0.00463166828244	-0.130018029863	0.0629884675358	0.0404152096613	-0.128735516475	0.138966855068	0.201548043675	0.0966311484008	0.111673110575	0.125913316802	-0.0944419156095	0.0397148740021	0.0781879518813	-0.152109514321	-0.172968782419	0.0189013869939	0.0335471310201	-0.0684334970689	-0.149203406689	-0.0801340008505	0.219949102033
apple	-1.54428776567	-0.102638653837	-2.94365609957	0.397149967152	-0.766077184617	0.107455225816	-0.269154916199	-0.576561143915	0.731913110999	-0.883758574696	0.270885434698	-1.15148053847	-0.210100473729	0.268158722588	0.0908745660592	0.038880810913	-0.281669280276	-0.111850943783	-0.198439231066	-0.0695647312075	-0.062733732847	-0.409064606932	-0.0109676186338	-0.0245796725213	-0.302409390237	0.169823796626	0.172236982534	-0.372115351684	-0.095918816769	-0.0882400589636	-0.101768565333	-0.02288877224	-0.248232132335	0.207419002153	0.0199640661044	-0.316412921572	-0.204217144564	0.0183356475956	-0.0965637687631	0.240030068777	-0.213107419158	0.175727784165	-0.0310156215783	0.334977607852	0.679243420616	-0.126857699282	-0.0257427739345	0.249548928494	0.00399224657072	-0.149012024525	0.0254064897522	-0.0390159805751	-0.0315213274771	0.0220826904563	-0.00802937728807	-0.179101500322	-0.0491677857313	-0.159425993298	0.0483720433597	0.123584383201	-0.125910413083	-0.194424269442	0.101603693097	-0.206205575238	0.246486937615	0.0775987307389	-0.120698599685	-0.141511444937	0.314667502801	0.0614672441861	-0.0195173631248	0.14417540954	0.0420553150873	0.0889792336462	-0.17741740798	0.311917121176	0.184754172559	0.146333270475	0.23386065795	-0.106079410121	-0.283903849878	0.241135185815	-0.0274189171404	-0.104541112866	0.0467111502476	0.20511299462	-0.208215046635	-0.186452240692	0.106475014906	0.140911377089	-0.0241123501122	-0.0773625416383	-0.00232039802953	-0.0419029051919	-0.0828990210878	-0.0310486701458	-0.217670369276	0.0310844525079	-0.198678594702	-0.0895582990853	-0.0463947147351	0.0768791551122	-0.134947570093	-0.302550421225	0.0997364821531	0.0989964632139	0.106183477943	-0.143931088111	-0.0476988650757	-0.229930604411	0.143088999058	0.109039834644	-0.0438515290753	0.114252015146	-0.00137709754881	-0.421554403437	0.201797185524	0.177966826978	0.189379874501	-0.18932503414	-0.30246097506	0.131199166342	0.0801366770423	0.00610043343547	-0.0486372166342	0.406391977915	0.0868900274346	-0.372649966258	0.158259116049	0.0387899357752	0.106006509398	0.121028069308	-0.215222001772	0.0473759636165	-0.42893244659	-0.0837161448608	0.174639555531	-0.0549296494376	0.0712234953615	-0.160017674103	0.0414039691406	-0.076796113618	0.040298441714	-0.318642137626	-0.0605800113584	-0.0803472938737	-0.0991284338317	0.0643382662214	-0.205338664766	-0.0177836133564	-0.198515998198	0.180251966734	0.0694954179378	-0.310878938856	-0.164123806016	0.276632914733	0.0442944358713	-0.303646856409	-0.011375559238	0.141931937622	0.0501068441286	-0.0493603904945	0.0975598329668	-0.223881989382	-0.0197016270766	0.154848397714	0.11826601528	-0.0750851832805	-0.00179656275091	0.0502893185667	0.0492726281989	0.174149099724	0.0217954398383	0.0984426098903	0.124548428703	0.0759195505307	-0.327949603173	-0.108777453076	-0.14041568493	0.14867469035	0.300936302248	-0.289403406654	-0.0691250957383	-0.128897406198	0.084286685309	-0.0804695351044	0.0778137916017	-0.122775016893	0.0135377608208	0.233005208431	0.0442507830716	0.196681111549	-0.350293350764	-0.233998505763	0.0221513290652	-0.00337137399203	0.131855125703	0.00826362711905	0.0500748565495	0.101190597064	0.295375151356	-0.0850258609764	-0.00243729499882	0.196537912448	0.118030677156	0.202148366561	0.275045260408	-0.0670758076255	-0.100510947354	-0.303138880493	-0.0326706107807	-0.21580112769	0.0125606629475	-0.00494352836074	0.280796837559	-0.00963045330598	0.147348775287	0.439010756861	0.125289035654	-0.0109015149351	-0.200865011735	0.151975132817	0.0192018531688	-0.0500499100559	0.020833686645	-0.0542688359002	0.019441338954	0.143452606014	0.0845566227082	0.0569462789205	-0.0449221313324	0.0462227193386	-0.106605916356	-0.260229270396	0.0617994688765	0.181078534539	0.0653482951377	-0.309324585439	0.0191084101412	0.0378256564651	0.182268776284	-0.179780545095	-0.32627955298	0.0293196626431	0.323539578318	-0.149338297058	0.0283799790738	-0.115850629261	-0.0470931831257	0.279876410318	0.0465730021613	0.217192590204	-0.302432913421	-0.0795364185507	-0.34828222715	0.0447351901508	-0.231552099108	-0.104318837089	0.0873581951559	0.135853679037	-0.00547327648267	0.055772205013	0.144972614423	-0.0425547522102	-0.0418135136584	0.0515905330641	0.0851593057658	-0.131543601797	0.0663016348902	-0.318593998847	0.383672182926	0.292755480476	-0.211439895548	-0.153421603347	-0.000432629993522	-0.248690726762	-0.0493664938711	-0.212470910414	0.000739694067413	-0.162816524176	-0.260417300682	-0.126842646367	-0.0939650132019	-0.00333820120495	0.333881436999	-0.0230233857339	0.124968815326	-0.0590151062432	0.150965389948	-0.0252727285114	-0.24816100759	-0.102833317829	0.070260629361	0.094195231289	-0.0382339203057	-0.0634729923083	-0.00991978781131	0.166637297348	0.0189206195825	0.0390720176148	0.0247280212855	-0.133565381531	-0.155437149246	-0.0900016421822	-0.019886886471	-0.152666169651	0.1302472966	-0.0263561769806	-0.021131689249	0.129913391362	-0.0963819442057	0.0269152063195	0.301236261158	-0.0925711971313	0.158197312952	-0.236084882717	-0.0795763426238	-0.031242407809	0.183485270945	0.264857085014	0.0472637850947	0.238395042211	0.0834134637485	-0.0115345564783	-0.0267607970847	-0.0936486280626	-0.383391697406	-0.0099923055717	0.0436355461632	-0.0631980829444	0.186240392059	-0.091015515158	-0.0669382445809	0.0294290962461	0.104888005772	-0.0836002253715	0.0327517256709	0.222108002597	-0.108171802725	-0.0274621898365	-0.050170195364	-0.0817207682206	0.177621695715	-0.162052737123	0.0429597849524	0.0712093889964	-0.0624602327973	0.0246137505451	0.15788124923	0.188644453162	0.322465595351	-0.0189358257582	-0.308132348047	0.205997588023	0.0284776947042	-0.140356526758	0.102327911194	-0.125258142934	-0.118260434517	-0.235102737689	0.212493519479	0.22785278603	-0.213892239452	-0.0107667109771	0.0251491914874	-0.148852181949	0.235730428268	-0.100787355042	0.104822414655	-0.0681894378283	-0.273002451108	-0.38269564558	-0.301585730776	-0.0333610057132	0.197879940194	0.0312764546695	-0.0294940760933	-0.203687876793	-0.0616327217062	-0.0120944567244	-0.211456913463	0.0596464148089	0.100409989502	-0.0375465551615	-0.119930483056	-0.053658956861	-0.0231628914246	-0.121955388198	0.0809988295506	-0.0193945821203	0.0433892149958	0.18150967403	0.0693946645986	0.150773984403	-0.0626916659598	0.0992769935571	0.127449178438	-0.175887703685	-0.0994547695685	0.0881169022412
apricot	-1.26680827456	-0.111486232433	-2.27727515956	0.308606712962	-1.00982540078	0.0543258580038	-0.275150840353	-0.757785876218	0.576091947688	-0.868693736682	0.186191793508	-1.10950514258	-0.22946697054	-0.130352599659	-0.104240894607	-0.167458687667	-0.704372586421	0.090077301568	-0.130164736273	0.368318938718	-0.451811331754	0.215668643884	-0.26629221523	-0.482874372461	-0.189384691696	-0.0972296735791	-0.16449448461	-0.0412378076483	0.316457243246	0.0669417896731	-0.0983916520779	-0.371067809611	-0.222350697348	-0.0163895399354	0.187820963289	0.218880353446	0.0227498028629	0.000372946435029	-0.161562607664	-0.0413754189616	0.0749971779309	0.334974848019	0.252058279451	-0.327989532906	-0.238788379872	-0.0108119808277	0.134424065054	-0.27301345891	0.00635486067804	-0.0467740523755	-0.0398664824088	0.140000366792	0.0467793760026	0.190463944586	-0.117124241204	0.068965386162	-0.044584694325	0.0224506511379	0.00260763734328	-0.20546476857	0.0733826949282	0.0692287499792	-0.000481132447458	-0.027290859398	-0.40576169642	-0.0638495112553	0.151869871059	0.179559928743	0.216808785113	-0.169297844945	0.00141891339405	-0.114815407151	-0.186488082212	-0.00546636660278	-0.226176240656	-0.0575248437863	-0.102826712382	-0.0359637316482	-0.249646950159	-0.225754005176	-0.018929387849	-0.016150224204	0.183062488624	0.107682342016	0.0777907586468	0.0356783362373	-0.0565553172529	-0.173967352721	0.167768395617	-0.312934682722	0.162657258551	-0.135750762605	0.151983224313	0.0685623081339	0.180670040747	0.0518099970614	0.095603366688	0.187613880997	0.082092099317	0.0453270056247	0.122710178309	-0.0683309202017	0.0699609364356	-0.0655944546588	0.0788952228799	-0.0507281164169	-0.0939135215017	-0.110981105225	0.236270222531	-0.102030577044	-0.204267581542	0.0675309690749	-0.166284754529	0.11351999177	0.145120725708	0.137054066899	-0.188862829537	0.0826752212693	-0.0240526811958	0.12504439967	0.185868560899	-0.0788492919307	-0.210538823418	0.119631368664	0.0444019216125	0.179549357132	0.232554694421	0.00444490517231	0.10358503993	0.13249836608	-0.115731997933	-0.0551381325711	0.0611492144311	-0.130594001324	0.384885808532	0.312855406835	-0.0291561896025	-0.0924504274763	-0.0850634345912	-0.0516341616141	-0.0488277216279	0.281949055733	0.061545315832	-0.0939315880583	0.106455164567	-0.0709537880909	-0.0267416759091	-0.0338280060245	-0.0239956736183	-0.00818835924686	0.0373144545052	0.194304359074	-0.0211866907543	-0.18361369149	0.221203825736	-0.0494286450381	0.205998618977	-0.0962490038874	0.00812933380081	-0.0437767887409	-0.415236309435	0.0788497307265	-0.178586401194	0.0453242528594	0.14598233836	0.0657176606814	0.19145546599	-0.0659966009007	-0.0227826415913	0.0968878031114	-0.00438522189191	0.0419762936006	0.394724630496	-0.0726208124012	0.428120471053	-0.0941869120791	-0.0270490353148	0.132152733025	0.0579247685786	0.296846286793	-0.102831985539	0.0927230809428	-0.0208815125985	-0.228803277072	0.0220232634796	-0.0791946713765	0.0578392468655	0.0460421930677	-0.14926565066	-0.0581021960403	0.054153063913	0.148148676984	-0.0149152749754	-0.0330652303596	-0.158091571021	0.246677347787	0.178842044013	-0.0881585950164	0.116763573031	-0.107913383504	0.0710395080595	0.0645834156604	0.158775457709	-0.0223731166106	-0.147538782576	0.0683384470662	-0.116262148351	-0.0132738653591	0.0830192199226	0.127053505803	0.0533342037645	0.0662233418289	0.0633668333621	-0.0680721315316	0.00601579356016	0.0320393051998	0.127673403198	-0.33366008288	-0.0449906440995	-0.152906437964	-0.176535158821	-0.091490538927	-0.104702266174	0.169914170113	0.122342580071	0.202361082416	-0.0606761838462	-0.0285739983078	0.130756437753	0.0164153748199	-0.166713012621	-0.0372879916767	-0.0623253983914	-0.206084276276	-0.0992329012567	-0.0223394803908	-0.0690815537175	0.183294629422	0.0692323946734	-0.0979765009742	0.0087668093136	0.0496759927451	0.142757534727	-0.246372299852	-0.108821573172	0.0413612211524	0.0247229425938	0.0418841694151	-0.0948097608432	0.022765615219	0.143557453223	-0.122492988988	-0.0345405268945	-0.0141430519599	0.0595305741759	-0.0421048055097	0.00713616090207	0.0128083808162	-0.0158358637265	-0.00979938398554	-0.0468642284561	-0.0832556961491	-0.00222859789804	0.0203383971417	0.0409863872154	0.124418931605	-0.0799024707502	-0.103822163098	-0.0705325789064	0.0176041284096	-0.0109730810636	0.0714230526368	0.0703569881531	0.070428517924	0.227743335953	-0.0262688165662	0.00135790317707	-0.0474752146083	-0.0335237424891	-0.0142912017198	-0.123618646018	0.0328858145191	0.00712507464012	-0.0366054092336	-0.205965970628	-0.0953769538983	0.161337473058	0.0774163617271	0.0403750021148	0.0861970579954	-0.00325874617528	0.0621276679405	-0.0393480235365	0.050352157819	-0.0493094992223	0.117931543782	-0.00259923004238	0.111302095844	0.0545406195807	0.0102954147368	-0.125291190581	-0.0584390649999	0.0427939757169	-0.0131561227665	0.099557403212	0.0235156208734	0.0747651265026	-0.0633804672584	0.0984790966819	-0.18664334934	-0.10182922654	0.0162630486467	0.0923112116365	-0.344704718631	0.0264351894819	0.0749750589085	-0.0715310992894	0.0480626915865	-0.057299899479	-0.0265471031071	-0.0428498589767	0.0207298808554	0.0939676206203	0.00942241521275	-0.01257643569	0.0992033723658	-0.194986628405	0.0953368925467	0.105502803467	-0.110589695945	0.113602160627	-0.0174230715135	-0.0229243952321	-0.0614695475641	0.0419818617932	-0.21520816617	0.0178844440105	0.057486754793	-0.0558349902832	0.0516989785499	0.0110442509605	0.0218983488395	-0.117093523813	-0.00834041849995	-0.0649570335518	-0.0746096802661	0.0666176125739	-0.0598704523888	0.0533014095886	0.0351856855804	-0.0364087704502	0.14902238404	-0.0491401442377	0.0789731110345	0.0633113439121	-0.0347695300297	0.0720775907369	0.00330651448622	0.0334030239266	-0.0428522842414	-0.0481867059903	-0.148682722015	0.0281973013019	-0.205381464477	0.0107459537949	-0.0277922820319	0.139072797934	-0.0985015252621	-0.0442372046462	-0.0205460212054	0.0126199001791	-0.0498421897857	0.10963208464	0.0233713500482	0.212906888187	-0.0221748693075	0.100578443523	-0.00506685233095	-0.115098679406	0.0217108394691	-0.160826076595	-0.0476201898277	0.0687494142726	0.0658874237706	0.0283313549973	0.195857457242	0.0357726118749	0.0587314555188	0.0328261421581	-0.107879226075	0.0336422979417	0.0301077935944	0.0112603965564	0.20040967309	-0.0372894843738	0.0739830210372	0.101414171137	0.0838932609024	0.151779857774	0.0369404638149
apron	-0.862197463862	1.19105863089	-0.034994953037	-2.19963238067	-0.708968368449	0.0884458888103	0.0520844001033	0.35429881796	-0.119231087915	0.220849005892	-0.382446862793	0.000437245557294	0.179509735598	0.485489608232	0.356446242302	0.370391618764	0.204691758997	-0.385287391982	-0.284732406226	-0.0177145399118	0.0561385035665	-0.325038044557	0.377683752445	-0.110575357614	0.292714241724	0.456119330128	-0.0707253552363	0.200476250701	0.315534287893	0.152368330287	-0.0246298796446	0.193585367907	-0.352965939992	-0.0811502835094	-0.419714774448	0.51809621625	-0.098360654486	-0.424113788824	0.0374731824157	-0.223853372002	-0.589555321644	-0.296388701398	-0.058815958188	0.387674748241	-0.474926367266	-0.0763450150898	0.0570564861377	-0.311188732428	-0.146434875756	0.0275112590997	-0.33175775646	-0.00275239411673	0.228022428014	-0.105109862673	0.0333103381543	-0.11616755277	0.0612483522209	0.209416256256	-0.1000660943	-0.329911044862	0.178227627583	-0.200594581042	0.219510643886	0.202059756059	0.194591505505	0.245315389355	-0.018640796532	0.0801109610867	-0.228140639795	0.525743424128	0.179375201731	-0.0322542930517	0.191203777203	-0.775902592791	-0.264971386161	-0.413617913839	-0.0923285062341	-0.179753811535	-0.562568874532	0.203737742105	-0.109104210901	-0.135681523666	0.187287964778	-0.133715337375	-0.110291665699	0.133932138539	-0.0429862708339	-0.0465345014317	-0.331368979671	0.0800955846004	0.163263594912	0.394949369178	-0.144945856651	0.291239420639	-0.0075507555133	-0.0916003521526	0.397479001312	-0.00223294054032	-0.291138675408	-0.0525529502494	0.92225074376	0.0751660710243	0.153295519078	-0.132743704498	0.064798898808	0.0885855056646	0.103489508635	-0.124943974205	-0.250170958859	0.237274366765	-0.222029388029	-0.0158443547097	-0.116145034143	0.463627134407	0.423624883096	-0.209846652519	0.227825897677	-0.0586725812564	-0.028606165763	-0.300399483958	-0.0193444696323	-0.368956774868	0.604228713131	-0.416403779711	0.0767422010837	0.181701659867	0.468390530189	0.329724635401	-0.124871163812	-0.0797873683609	0.079379755078	-0.101012859146	0.523769270009	0.23552757558	-0.00988519313459	-0.284138811143	0.0305771860344	0.27828480059	-0.121128682789	0.271017863423	-0.0226857951101	-0.0672761580484	-0.0217681537402	-0.0884428754272	0.400894027525	-0.0254971912169	0.0171535358832	-0.00051130718243	0.476499444594	-0.205321177536	0.0360124165759	0.246320278788	0.0274574731788	-0.153405834868	0.0493935547656	-0.305945152843	0.25037735439	-0.106329310914	0.093544751303	0.272021475088	-0.0177073591775	0.173958060396	0.22737608259	-0.0444459099245	-0.391681263417	-0.431381176252	0.333780271625	0.0800500442624	-0.119013504193	-0.0340991446247	0.145829776	-0.0468405456387	0.195669198952	0.336651846755	0.224983967036	-0.0518714800526	-0.125258200696	0.0492597683869	0.0796544376159	-0.0986256834716	0.130792452915	-0.0532613812627	-0.200053653375	0.528621919861	0.0941858936609	-0.126647425091	-0.442529530001	0.101186334916	-0.0383741478995	0.14235996686	-0.276811059668	-0.0436683709435	-0.182020246026	-0.183435244908	-0.122000029713	0.191010558255	-0.595035415719	-0.311222732937	0.193965700936	-0.0245822202967	-0.0574102443112	0.161227368709	-0.0531246481538	0.263390784947	-0.181370146548	0.0145513401018	-0.089542010984	-0.64869847496	-0.564677484288	0.0609880814147	0.43200399773	0.0758115710556	-0.018513112583	-0.0101746043582	0.292841378767	-0.272463257434	0.00114280743579	0.169850172733	0.228170219918	-0.418682429187	0.351173168564	0.0962895144099	0.060181872599	-0.0572029484735	-0.00201541673802	0.255571361554	0.131182253714	-0.357539265479	-0.0294551066482	0.428418207316	0.241824711282	-0.411303264769	-0.304826503496	0.135562025282	-0.168455126499	0.10311047245	0.0939472427349	-0.209352646477	-0.0315362952005	0.201921072084	0.245421290083	0.093473323899	-0.0741962458253	0.0368531641549	0.000370200570831	-0.0964544597346	-0.2925883191	-0.150946084915	0.305122551174	-0.452148816532	-0.168144906487	-0.127161297623	0.0947283109633	-0.732227494062	-0.228600383357	0.0326042552923	0.229589764984	0.380130310288	-0.0604199634619	-0.206265772715	0.204613871474	-0.0134348741867	0.107787057568	0.0301052019679	-0.175452712142	0.125263275116	0.0608197105578	-0.228141261472	0.451186235974	0.0494412059949	0.00014974239687	-0.0236053565987	0.361557143522	-0.25881263401	0.856724879284	-0.0954602958728	-0.327710986191	0.196900336034	0.00394411585907	-0.31091094316	0.22996611534	0.586733678239	-0.28386056333	-0.313750065604	-0.147445050701	-0.51725622854	0.14740152089	-0.252698063984	0.238174500062	0.206254070779	-0.103151482485	0.146225228699	-0.107897620399	-0.0775011072367	-0.283688385302	-0.123598873553	-0.547083141131	-0.0711966477424	-0.305520018189	-0.281375699635	-0.0837689047299	0.0612982920902	-0.394308283247	0.0272550682314	-0.503271254878	-0.347689292054	-0.331361000063	0.23812582095	0.32898310665	-0.0787364925361	0.138254083871	0.0467219878129	0.155238596341	0.336050695503	-0.067078552903	-0.057224963385	-0.00992247166084	0.00360767261731	0.285250093609	-0.076596408626	0.136398570927	-0.304148005032	0.0523656103226	0.446947755167	-0.196544913563	0.190209916255	0.158971094999	-0.314888122758	0.0236113431143	-0.142685546854	0.057014657765	0.204838429802	-0.283850747469	0.0559087953691	-0.0720205735209	0.0743168480606	-0.324225484476	0.02323910573	0.156997808257	0.224850658281	0.288790606526	0.0870179137428	0.130546460464	0.214833354328	-0.192483192984	0.270933493538	-0.253903198625	0.181153964034	0.374778038683	0.0796910510949	-0.186520111747	-0.0222325122248	-0.347577369586	0.281615044307	-0.0448904464193	-0.0804707458058	-0.0424479665112	-0.0653463689167	-0.146221776487	0.0770708158651	-0.208742023282	-0.40017978791	-0.0997543962427	-0.115768832118	0.124134742741	-0.00678125497512	-0.0866089781617	0.0415558076752	-0.118975630277	0.00971660941169	-0.00852950244549	-0.287952228741	-0.124885468197	0.11921847441	0.0333754701809	-0.0920724469057	-0.19088536246	0.211749647181	-0.220307232322	0.114142238314	0.0867912007814	-0.243734670265	-0.16292592093	-0.136818333439	-0.237515062306	0.066191881837	0.0423025702361	0.110466429397	0.0718955888289	0.0656673832143	0.220088343513	0.092360270693	0.444896522057	0.00414068854131	0.0571866072322	-0.0383116389226	-0.183924731487	-0.135578665025	0.011928850944	-0.0127597045394
arm	-0.972617677537	0.934135699001	0.0713690202539	0.0168126490072	-0.307148706682	0.123040930829	0.371288956288	1.05856409216	-0.346078106317	-0.0557001750892	-0.454514055092	-0.988358021767	-0.763658054775	-0.858227837415	-1.6170678228	2.64837640238	-0.21884980173	-0.489342838895	0.904497637424	0.117462561912	0.499632717049	0.955125835006	0.752770543595	1.11739417304	0.451820409573	-0.0715492306914	-0.468216109379	0.219733635239	0.325971174068	-0.156797392645	0.240559230619	0.12455845059	-0.170151517481	0.21700470187	-0.205226930716	0.276047646681	-0.707092581302	0.28239147365	-0.411019360517	0.0145941174447	-0.0435010534387	0.318204156442	-0.237706827292	0.204850327844	-0.0170341005204	0.203349745297	0.259900094404	0.00687176649445	-0.48809005865	0.506795226376	0.0390964488291	0.0658263961778	0.322901501058	0.0343753267876	-0.0173215141957	-0.144290544821	-0.351764510237	-0.0753360295424	0.217101228922	-0.33777423094	-0.330872966072	0.224351340789	0.253150150729	-0.488477740337	-0.489694606877	0.297329721762	0.0037637262861	0.0610904056399	-0.510008542094	-0.123184883767	-0.460203714989	-0.404492508502	0.170067925051	0.482860586446	0.18419098638	-0.040475122892	-0.014119041317	0.420510893804	-0.105670058237	-0.0689321656067	-0.383386295451	0.00142981112797	-0.270492864319	-0.111375936011	0.12021222431	0.0636601035364	-0.0491133569747	-0.410676747032	0.0581511365613	0.0648640673926	-0.213644004961	0.331664556988	-0.206934056207	0.3560481677	0.891088629834	-0.04716102321	-0.217539187792	0.277479042225	-0.152770148996	-0.542944781615	-0.356195441748	0.310672186778	0.0469155727081	0.344461305281	-0.00342767238298	-0.348939969113	-0.234859885945	-0.59384855221	0.287454313712	0.698675361998	-0.0187374805855	-0.246789492039	-0.0452447352818	-0.032097871067	0.0763902086603	0.111771051579	-0.264630889621	-0.26786041911	0.454743190585	0.30375681046	-0.454457308471	0.55359040563	0.0863190561791	0.0396850926629	0.214549752697	-0.308704985661	0.142988901905	-0.175983600728	0.0988261131295	-0.207519763804	-0.217048719311	0.252444712851	-0.0500992891531	0.211406245557	-0.471247037526	-0.21681297672	-0.349441330555	-0.211858930244	-0.232137075989	-0.29339389896	0.166817132367	0.565413384811	-0.81510212016	-0.414947193896	-0.0843766399203	-0.0914197417404	0.125966967446	0.258367180119	0.0382944877869	-0.0937026369292	0.0776514841037	0.57075241538	-0.359449017378	0.123899956344	-0.106244170089	0.803135664257	0.186978363728	-0.229572207976	0.286072829209	-0.218673120722	-0.0134358750995	-0.50626577672	0.250109992961	0.416981593457	0.297549409382	-0.225163669427	-0.243106024905	-0.374126784071	0.576808002139	-0.237959922664	-0.436654247402	0.417388727328	0.0568224611822	0.0654334333478	0.256570689408	0.0176137896116	-0.0514748483493	0.105312737868	0.741977311916	0.451814598125	0.266018299607	0.229046542709	-0.191755696467	-0.309520875795	0.225350241215	0.134240964728	-0.0998553457305	0.124248677933	0.0216122833076	-0.616866022315	-0.734007735544	-0.188339463059	0.075672476354	0.00308737329611	-0.119724900088	0.379509342392	0.379564297888	0.188935952753	-0.446237116385	-0.355709011161	-0.00606784253396	-0.189178950508	-0.40934955146	-0.228659550658	0.711949165254	-0.0924790020435	0.0240981871994	0.63955467316	-0.451866967285	-0.0735129197828	-0.700222981166	0.705885687027	-0.398096915482	-0.449430920307	0.0221333338318	-0.427733020002	0.232029903618	0.0511878866106	-0.119907303911	-0.773319634532	0.0992275236128	-0.20755814819	-0.101741230181	-0.0148458963031	-0.430802387852	-0.0482946016682	0.000534957981777	0.0471239613394	-0.0250252725808	0.124236196705	-0.167116816027	-0.397822391681	0.0630636402086	-0.135078589089	0.283689194104	-0.0434907637517	0.136494403606	-0.106247380313	0.0971042315221	0.336012219506	-0.0761901249365	0.00474296620944	-0.132055535546	0.331149696578	0.0323576955123	0.3242091588	0.391902330527	-0.0174351800121	0.552438359506	0.270799204914	-0.1518744928	-0.0517516339971	0.129910707738	-0.00194169956879	0.101578500553	0.0408725934891	0.128548901063	0.312358109346	0.131838164224	0.154504634366	0.257299340306	0.195065251286	-0.162917864333	-0.127561848855	-0.189639442418	0.0621112220667	-0.378621923049	-0.325106950313	-0.0029135540397	0.121268241481	-0.162364063115	-0.210599462146	-0.360515219938	-0.092694409809	-0.110686164932	0.112798435224	-0.0505191211875	-0.0389281071805	-0.277607031743	-0.18885940896	-0.0181007691996	0.0812226405352	-0.118662348928	0.137149604984	-0.125165914812	0.136594664195	0.0906263037315	0.545213671051	0.334912825847	0.0672105814001	-0.24787149948	0.0054510178967	0.0323408501835	-0.0871649711549	0.0910703505305	0.0639438025059	0.197583482795	0.0460922802244	-0.170499702629	-0.251938491372	-0.335567566118	0.148538154666	0.0873654839462	-0.230628638339	-0.142132883586	0.243004217082	0.105737551026	0.0634159800979	0.0461737670198	-0.110154137101	0.128683794467	0.105539873534	0.139424598292	0.0663321168039	-0.164422771646	0.0769099905724	0.192124488094	0.0691093232645	0.303150803	0.0892321643676	-0.068903104994	-0.0670081359208	0.262907283333	0.0113992900653	0.161822848272	0.0167134204331	-0.0182341543357	0.0902461037828	-0.325651730289	0.0342249569645	-0.118974733772	-0.160853982208	-0.163789994516	-0.112660355351	0.0406504852943	-0.273849246917	-0.100365431336	0.0460745815132	0.0313484160171	0.189018847137	0.243701179043	-0.203538162146	0.309105881257	0.0479059136547	0.0625093827251	0.0674016518028	-0.0914971338389	-0.117771805722	-0.195703179113	0.0780099435596	-0.151035064938	0.194185752511	0.151306358884	-0.069813187478	-0.0585182755011	0.015815897637	0.0313968292101	-0.00874826754204	-0.0042246617373	0.141533599128	0.00822740677609	0.0162102159316	-0.0579476689334	-0.0986595338366	0.072956101868	0.0609687406791	-0.103800104343	-0.136753871409	-0.0869159912929	-0.0255808324245	0.111019317143	-0.19600272277	0.00387276923475	-0.00759337324342	-0.134997853328	-0.0730842082909	-0.0510121724556	-0.0403298338945	0.0921854457867	-0.0890612997464	0.0321642384431	0.0408708002779	-0.0471905048901	-0.0938629186605	0.0878147179859	0.109582521195	0.0388517684676	-0.170936735374	0.0617202252469	0.0555662308711	-0.174464970952	0.130769377427	0.179217729958	0.0423959967224	0.0328224344741	-0.106432477222	-0.0929199576627	0.0779538555827	-0.0272591985059	-0.0037364891971
armchair	-1.64853753329	1.30756343714	0.647119212973	-0.937221615413	-0.0293795673607	0.611992358669	-0.64796792736	-0.441210749942	0.417672277201	0.674768440461	-0.010911438904	-0.320582922587	-0.95179601521	0.139631093728	0.537901064571	-1.34888221512	-0.717638651906	0.325526587843	-0.35107096262	0.466357754571	0.604816870168	0.568139494887	-0.472927757455	1.62790444799	1.58520744921	-1.58717913946	-0.158417223193	-0.232042830286	0.40676490395	0.238481369535	0.184233742505	-0.540057213914	0.0396549100265	-0.485193563641	-0.428142688978	0.044308054815	1.30751866039	1.20197534796	0.49671335174	0.0191978231444	0.414235817745	0.642764452062	0.297485766651	0.651681220579	-0.716763488469	-0.0717964084709	0.225857852343	0.339469143115	0.209028705972	0.0745934536287	0.622018084999	-0.116739731363	-0.54918920752	-0.235654385716	-0.266616641079	-0.397038515282	0.180803515221	-0.455003003703	0.441928848376	-0.133712160851	0.165735754269	0.495139982254	0.623995906376	0.137634807878	0.305878279147	-0.493294323965	0.29015598077	-0.0152825739969	-0.520917484331	-0.0442800162907	0.0971336491834	0.542501595932	0.225425444242	0.020543543288	-0.0210679873138	0.00368839510975	-0.0111568205879	0.0822894893875	-0.116911347734	-0.211110675185	0.112211037858	-0.0221058201281	0.341011547547	0.424925310278	0.130039940832	0.0877230542627	0.129111641608	-0.235171599174	0.168276624463	0.180006275686	0.181175349192	0.0734523753876	0.264861587063	0.224599415245	-0.247080013489	0.173193888404	-0.678332238967	0.00860717216329	-0.203121799363	0.165425520601	0.130500787401	0.0742943150174	0.0176002105425	-0.181280688329	0.182626333896	0.489246977063	0.0499112637852	0.097240196202	0.0673051395551	-0.0638673763185	0.103943713433	0.127321975482	-0.123071657055	-0.0186842121031	0.0347004255249	0.0986024107527	0.118247266933	0.192990264532	-0.113784370714	-0.000851434098329	-0.0193850092406	0.076701308825	0.00929855317446	-0.00856835806105	-0.285553861663	0.230224070916	-0.0534591923639	0.0326494075952	-0.158544863739	-0.029959572947	-0.136453653012	0.54209256244	-0.136357411931	0.0478247607729	-0.180568262556	-0.0309359083971	0.142862459357	-0.463401331218	0.0882551902464	-0.470068482023	0.12119176909	0.212112445718	-0.0270339936072	-0.579514203154	0.0383705104712	-0.169638663549	-0.0301897105658	0.143599742121	0.136991202862	-0.0145827284361	0.0117662473555	0.11059462358	-0.315470821467	0.26714669139	-0.127994824515	0.24737026501	-0.219920827748	0.403550377593	-0.131358125542	0.254709386649	0.113609122163	0.150025008937	-0.191824550273	0.285371909809	0.24398347378	0.13221795675	-0.153800141485	0.311330043241	-0.22955631832	0.0140635047184	0.285225300416	-0.321842081515	0.126173330002	0.208607713709	0.142843681351	0.0334831163269	-0.0662095519194	0.21703463275	0.0803133671291	-0.208549921462	0.271488119018	0.331203672609	0.109939732538	0.427598497425	-0.0675765092406	-0.154842719465	-0.0714989054521	0.360681615254	-0.0558727802988	-0.29993145098	0.274618224387	0.00720750368043	-0.27935235792	-0.0848263787531	0.566363076494	0.335618745934	-0.115179195845	-0.100169082169	-0.128402409488	-0.146874989431	0.122173182682	-0.232805692165	0.246102838511	0.00150710354573	0.138804092504	-0.126041904001	0.238346208817	0.144194365464	0.215428628623	0.0094974684841	0.0906996678164	0.232366577114	0.272326269417	0.18395676742	0.0136342645906	-0.281280132799	-0.0998871859498	0.364211809451	-0.360627090808	0.169324596845	0.0996438312296	-0.0628795489506	-0.0497634969418	-0.249105666873	0.00379497151464	0.10037265194	-0.246524938174	-0.0723722461971	0.00785234574474	-0.169196053875	0.312082028819	-0.189866483438	0.240798546396	0.251928121066	-0.276574587412	0.120291082039	0.212837480311	-0.16504764984	0.148835907924	0.0441222053441	-0.141253527953	-0.0883978565673	-0.162280954029	0.0489748463	0.0169897196119	0.406653532799	0.0812221253594	-0.0885939521059	-0.282081729703	0.0553339924992	0.0923685996718	-0.149131611467	0.0440223565251	0.120964534452	-0.365596122428	0.2859748409	0.237348232293	0.204440142787	0.105569962024	-0.297003160772	-0.387052825141	0.00509077788388	-0.182503665166	0.209233870272	0.328077013943	0.200236362463	-0.0165871307028	0.0304079570938	0.177630822254	0.362876162192	-0.032419108406	0.073076486423	0.186852706782	0.0813667041514	-0.221508102875	-0.0350232890099	0.187763256027	0.0344691005365	-0.199015019736	-0.289280298059	-0.0405365272997	-0.200768544515	-0.0877777376734	0.229068962709	-0.106665117158	-0.0503352559805	0.0947901474146	-0.246558637092	-0.176885419708	0.063255112235	-0.0609596399545	0.0833627344725	-0.0994811635916	-0.134757073507	0.159141805709	-0.0496323398448	-0.421447433861	-0.00213996568444	-0.217070489921	-0.281703391081	-0.0349016392532	0.0390771518268	-0.251744076185	-0.054571603782	0.102409365771	0.154960234848	0.217898146657	0.0474113788715	-0.0763314621424	-0.238985165769	-0.158815769732	-0.0762228188329	-0.0337720066273	-0.0620473334818	-0.017818270744	0.411868070983	0.0997021351021	0.0962744419157	0.0322835494251	-0.214383099397	-0.000365711435317	0.0779619413689	0.0243390035949	-0.548853788137	-0.0588982118381	0.105798602384	-0.125471100875	-0.153472099608	-0.290119017431	0.144320508276	-0.16076564022	-0.0443024736869	0.0695882315379	0.00787175864967	-0.18334100631	-0.306435703531	-0.124297302912	0.175603151741	0.0955826680615	-0.171320615401	-0.0580165505532	-0.139742312327	0.164435160179	-0.169418223926	-0.159636303846	0.0688228098494	-0.321305274732	-0.129856599353	-0.126433908654	-0.114874223397	0.102510786226	0.146519111634	-0.0549372780348	0.159787778437	-0.0815843405558	-0.0371235651654	-0.136415291003	0.047389006111	0.141148976028	-0.108795877688	0.0451083021099	0.131734709824	-0.0271958984487	0.0952982659581	0.00696517240965	0.0520306413219	-0.0744265069312	0.0179542515752	0.189248783641	0.0081520551017	-0.284209087209	-0.0424483418523	-0.0543391431426	-0.155288716245	-0.0967814681929	0.0476760429802	0.233754161605	0.180785136735	-0.118434336969	0.206233485488	-0.0105511760606	-0.408523168094	-0.115162805728	0.264935664729	-0.253052238672	0.065613488133	-0.0109252744877	0.0360428172038	0.0961183043972	0.12822911295	0.162247729308	0.22920842789	-0.0221050926244	0.0839131635166	-0.234226086058	-0.0651859747186	-0.117277341417	0.13260690699	-0.00674087730073	-0.11995483173
armour	-0.734316719365	1.08654447834	0.171799618272	-0.540581385538	-0.133569648017	0.339043538166	-0.164611108345	0.575064803262	0.520126897986	0.195211267323	0.516798765043	-0.115142586905	0.698145521742	-0.395128306632	0.128604442636	-0.079026237572	-0.249940562369	0.35510901278	0.640424611349	-0.688355140673	0.361535287362	-0.540190597435	0.653252376169	-0.0177593251756	-0.0580594320793	-0.540840592352	-0.652809248839	-0.665903109969	-0.075598750594	-0.0571352955959	-0.150099921596	-0.00754014531681	-0.393140166131	0.531189954731	-0.0842799072771	0.189116462843	-0.619579427823	0.209121534338	0.256018324749	0.204603503085	0.0463718778982	0.248480093577	0.00103478138474	0.184831628227	0.147173431934	0.365348438579	0.259924111313	-0.0844530506154	0.177809876689	0.306148642332	-0.381149241105	0.118965629564	0.403018703557	0.396445835295	0.0308758243265	0.0507511098273	0.241548272703	0.224380290361	0.053802263665	0.0798699155194	-0.201797233698	0.575344451984	0.392823785782	0.0969663967405	0.0670193356282	0.456645027775	0.0978519187824	0.598426011355	0.048384222552	0.0984288031082	0.479753710415	-0.507023072222	-0.0702588362949	0.0976734767362	0.117670172697	-0.242107847313	0.00762952497551	0.153215012291	-0.012570350998	-0.308358079244	-0.175241558568	0.066005813471	0.187830879921	-0.626548174555	-0.233707150695	0.417982006753	0.416851155567	0.213526777333	0.0229280693698	0.0876477307499	-0.0954737616354	0.0582691846525	0.0534508295292	-0.280546215355	-0.199062623795	-0.0504649804073	0.0791961499642	0.111862188782	0.152871689598	0.0543524420353	-0.174939550798	-0.0941655398269	0.0225777949891	-0.233099046463	0.155088053488	-0.128216625603	-0.14102177456	0.187344458479	-0.199536367496	0.0864083203265	-0.102280858865	0.0438413069353	0.108053803888	0.421624330093	-0.126103012447	-0.115586518949	0.0404464198979	0.175235801466	-0.0435970420157	-0.115933508741	-0.456857213596	0.296691814022	-0.0489819427964	0.118877846978	0.0125867547807	0.0630628119866	-0.0677725138632	-0.0809699943174	-0.16495009887	-0.00125682935973	-0.20422579863	0.137932657451	-0.0387864105773	0.0841091436679	-0.18795783541	-0.0668561057407	-0.0146660233651	0.114501365667	-0.334266623303	-0.0493774083646	0.17589138812	-0.0482148191917	0.306574080151	0.0850838508043	-0.0695751590503	0.290982595233	-0.158784903007	0.0837991327839	0.121883638993	-0.131739409993	0.0113940241605	-0.114815173702	0.229486943092	-0.0218410766911	-0.1169344641	0.195883144083	-0.41559430977	0.226428804405	-0.0166332792923	0.315970603515	-0.276186517611	-0.254403992802	0.0752018028344	0.0533891861418	0.271599562901	-0.125338602539	-0.138225007177	0.175746682985	0.0177064851596	0.257068943191	0.250949257146	-0.213961049134	0.185944502795	0.118451787076	0.0935240692811	-0.36217824554	-0.299767126133	0.107305676821	-0.123696462641	0.135661769442	0.241570828844	0.0741844979527	0.279379688537	-0.0564818066642	0.29003740231	0.172100769495	-0.244004193049	0.0506946486177	-0.146788422972	0.0162228916641	0.331678995981	-0.0763791103959	-0.214090311875	-0.208948243109	0.219088334379	0.0538947226196	0.200686420998	0.0244569559532	0.282444983065	0.13597375823	0.108006294901	-0.130129946781	-0.044759865732	0.302453725178	0.224517911287	-0.283834963087	-0.338814742039	0.546384733514	-0.102813197905	-0.0905301520767	-0.229014838471	0.0402995199565	0.14300713201	0.0815039440845	-0.00305622800992	-0.117310299282	-0.076635489357	0.0626016877305	0.00510974831611	0.0895457679457	-0.0220023762229	-0.276559637363	-0.243063884858	0.101521614675	0.215277084989	0.241532873044	-0.0692025565012	-0.0221936994225	-0.141212455346	0.0192075023405	0.242769175281	0.485657238083	0.126623750889	-0.222307536557	-0.0607291539773	-0.00290541969103	0.0714116296628	0.0523112998709	-0.218791288018	0.296999441498	0.00183707031367	-0.10010574431	0.325895659255	-0.00258307531302	0.0605937194146	0.0444959833172	-0.0179803936488	-0.413337457461	-0.160620663777	-0.183530501066	-0.094170274767	-0.22625750354	0.235764335541	0.298968721346	0.209986774439	-0.00230843762084	0.469852629875	0.310039494254	-0.238224112777	-0.110650809447	0.11555217909	0.00903893187055	0.295277301487	0.17347644249	0.0162279248785	-0.283377563487	0.0528189967022	-0.270456793368	-0.113797099363	0.411231767798	-0.411459781633	0.227349429593	0.104933996821	0.0336310713552	0.375053005194	0.0553498074437	0.42857533381	-0.128653486166	0.215174783315	0.0275486362929	0.142581862102	0.0744170060807	0.0996388604336	0.20586448667	-0.129006533646	0.03419874195	0.223491810617	0.134526086603	-0.0956348114755	-0.135332029249	0.0206362533763	-0.0400047461585	-0.209738562677	0.257943566636	-0.163505636484	-0.0864818026113	-0.199276075729	0.256803479365	-0.0677354679746	0.486711989689	0.0934312358061	-0.16190635276	0.0801931466358	0.151486961297	-0.130697319821	-0.022178153892	-0.139895394773	-0.0861640018064	-0.0994254214123	-0.142504526381	0.0134298341143	-0.142833342011	0.0727542670575	0.17590797875	-0.169107641675	-0.360741853944	0.348352852141	-0.200202049142	-0.318420088739	0.10100203418	-0.126177946456	0.0967772962405	-0.22499145116	-0.164855177009	-0.134439595865	-0.113664236783	0.190347066427	0.130537530068	0.133581829601	-0.43529096293	-0.13626623662	0.173213909585	-0.0545097162781	-0.272724845727	-0.10317531555	0.352887891029	-0.0257335359893	0.327171973468	0.0999838960728	-0.0833318378173	0.440238650027	0.148275573105	0.144444952179	-0.0628124286051	0.330685903564	0.0902424031854	0.0584879488544	0.0181694353624	0.232885484901	-0.262619839286	0.0355103786691	0.0486585580923	-0.149427592045	0.00622691882296	0.0635865419092	0.198720396563	-0.039215686202	0.145363618332	-0.270612125691	-0.262454638667	-0.165846799567	0.400332614318	0.00289360875329	-0.261702248188	0.258117125093	-0.463217522951	-0.17096533645	-0.42245964925	0.180887218578	-0.0834013519861	-0.0292735668221	-0.0461879501929	-0.0313534081779	-0.0319314567049	0.0985704351388	0.485648192349	-0.394154408074	0.0790046687046	0.0695622059071	-0.0577384265662	0.19573249246	-0.117013815284	-0.0267151306665	0.0214463941946	-0.177821272481	-0.174161846773	-0.0484397305578	-0.165113486638	0.0629515725004	0.235063991278	-0.194522744504	-0.4569659996	0.0130869781692	0.0599980387087	0.0095253539864	0.0299278454298	-0.00251866833228	-0.0303743446677	-0.060046241566	0.578222274705
arrow	-1.26861881856	1.34527542577	0.555577369687	0.369150129875	0.388262015117	-0.472754801332	0.572400430332	1.56738927602	1.12341252301	-1.47776103169	-0.524071724205	0.63486326767	-0.167999207378	-0.060053504057	-0.97577677698	-0.365747548586	0.0508121652506	0.937788644057	0.245187166079	0.0734809266801	0.191883951931	-0.242111789504	-0.381526672069	0.426308620589	-0.0299149716892	0.153340870018	-0.225764730997	-0.872901465471	0.23964073483	0.0585197444008	-0.236917820025	0.0942208985664	0.160711814034	-0.867462178687	-0.373228532889	-0.120788984506	-0.445658354332	0.255207872382	0.450245623543	0.299089002291	-0.153802340242	0.284021906545	0.19803960733	-0.141421619229	0.149899831757	-0.113729589199	-0.197113764954	0.00831692946104	-0.213528722831	0.402009836879	-0.207705763423	0.762015280138	0.860935674343	-0.164279338357	-0.174588012306	0.558919835034	0.191821092429	0.250637172412	-0.140520562499	0.161271678113	-0.347278687781	0.179138679101	-0.273699632202	0.393550480918	0.0388846227111	-0.160754555683	-0.00223611214217	0.114673138058	-0.485431243592	-0.476615698233	0.846129894695	0.273025767342	-0.0131671173955	0.084614184098	0.158804812577	-0.0817087268389	0.113101755151	0.0690867653948	0.168581522688	0.177258380309	0.127654284786	-0.0489092757315	0.146066590428	0.0124743376551	0.843764916991	-0.00485677738687	-0.216154223835	-0.644861767137	0.0169230255147	-0.287876124892	0.0636675421312	0.18656709249	-0.275989253038	0.0290188241067	-0.0288227028213	0.264726776018	0.026553394566	-0.440834604539	0.173598851723	0.0562759666315	-0.163571823671	-0.0747944176128	0.298524058528	0.0304012340135	-0.146683741186	-0.00907246364125	0.0274281531567	-0.0892715760632	0.156857829869	0.171079910264	-0.197222048572	0.299183183502	0.202859791489	-0.000840063402085	0.148324680754	-0.00276166326493	-0.109586592939	-0.152704439663	0.0823937450205	0.0491014837129	0.0111285231795	0.173691764807	-0.2145001717	0.267881706903	0.279109120534	0.708561124119	-0.0904701983634	0.250315287357	-0.121861710698	-0.258512831719	0.589289945469	-0.212170158565	-0.241209814613	-0.0794893849633	0.373411537249	0.0774132229512	0.126894384497	0.162561192888	-0.187198473334	0.0364434093859	0.455692670638	0.0188011016185	-0.179731586837	0.00502357417996	0.0286991896927	0.0707571260915	0.262571452866	0.170471514747	0.18596390163	0.0712424108744	-0.0184342997078	0.0658301346331	0.0459623906642	0.219342528775	0.0777970832428	0.274036898575	0.0272212249955	0.325270550347	-0.109206831615	0.00816443686247	-0.108240947351	0.430878261891	0.0565731278165	-0.0571333406003	-0.00252975404377	-0.567372485838	0.144549902372	-0.12606148804	-0.2943665395	-0.0811761214094	-0.210502293253	-0.00955480139825	-0.414790819846	0.236971551644	-0.155105005727	0.161797308101	0.0816986177613	0.294732191492	0.279607235662	-0.019196657257	0.123317928174	-0.189632701462	-0.0999303958559	-0.0489137123236	-0.362799310833	0.102103288509	-0.132276363897	0.12035495434	-0.00565617225339	0.117775589827	-0.0285857254195	-0.0682215025077	-0.534444552741	0.0673585387792	0.0179962635533	-0.234513339857	0.167627658038	0.244945285426	0.0632407821844	-0.109966755588	0.214307927199	-0.00965078856908	0.386536002467	0.280637996506	-0.267052009	-0.0136430754866	-0.115020061601	-0.154729325055	0.189597125987	0.0446372680737	0.0900987875244	-0.0847532020431	-0.172999933858	-0.0190731574231	-0.0201347141977	-0.256597061718	-0.00454062245614	0.118489129858	0.0625330690488	-0.0754067145457	0.150403713816	-0.00319690522292	-0.34670415594	-0.119450543511	0.0353180550728	-0.0410888635132	0.330200918617	0.210523239283	-0.0868992740658	0.00974559502775	0.132072494339	-0.105752701971	-0.0480671989802	-0.1847869631	-0.183952063826	-0.0482361224106	0.0233774778434	-0.0266492048377	-0.021824941199	-0.374535388899	-0.105167190539	0.0214420510056	0.323653350676	-0.080414731068	0.177522375628	-0.0960423153882	-0.2031695648	0.123333658911	0.0595837312552	0.0733109880988	0.0117653452989	0.174520226427	-0.202061749213	0.023997986697	0.0554528127951	-0.114672219115	0.110655808494	0.0461246419653	0.29199311561	-0.0265742704352	-0.102847650074	-0.0211244957791	-0.139734679548	0.0909624644292	0.0805055093719	0.0700911365283	0.107342014599	-0.00807409973447	0.132761582213	-0.103054287895	0.190200293095	-0.213656113771	0.0623717964942	-0.519683082021	-0.126306578794	-0.123325392237	-0.183781839479	-0.105521723204	0.207434205697	0.184488950905	-0.0992034676326	-0.108441488476	-0.114696122368	-0.0666999836503	0.148161736789	-0.0500170293762	0.229637602061	0.197429013079	0.0794720786177	0.151368378981	-0.142688049404	-0.202400077967	-0.210069822235	0.0700557623669	-0.160577803882	-0.0459843151656	0.0558601581128	0.241728634338	-0.0854496040642	0.0522806915669	0.236710616048	-0.0778289183582	0.2151921626	0.179661796095	0.191607541684	0.386600303991	0.078120132024	0.159659220753	-0.21858617091	0.0861636066963	0.142902723341	-0.225473844905	-0.104392230549	0.212440111469	-0.153163576952	0.0208809829923	0.28270428023	-0.147877568043	0.234122347959	-0.142914973878	-0.204858341171	0.0660197237908	0.192572546746	-0.059029565773	0.111899616439	0.568457377245	0.285210475207	-0.366007059879	0.0997360486508	0.0530924277738	0.0531644395315	0.0285391353889	-0.111879244739	0.0352568400955	-0.00301898563541	-0.0670186703619	-0.0319400096049	0.108175470679	-0.0074545253634	0.0253094327778	0.0348381680107	0.218878091484	-0.285053394363	0.268997890491	0.113323157414	0.0947650887336	0.172082209835	-0.107591999173	0.327647099301	-0.322081012754	0.128313421011	0.197228857227	-0.21398327512	-0.104433591063	0.119130983492	0.0980029833922	0.0689329588104	-0.280189382605	0.183432417442	-0.183939699702	0.133398836468	0.257122640609	-0.0779108888644	-0.294040965334	0.234973553979	-0.0042056977524	-0.0386770472347	-0.0498856795509	0.106512302191	0.154983467612	0.0417057784169	0.0446746221977	-0.162989279979	-0.00725967646834	-0.190526198596	-0.00796010348336	-0.349461044964	-0.0327888293914	0.0833734815229	-0.15369835819	0.0100615751046	0.377298009967	0.243274197631	0.366474643667	-0.106467716408	0.000528647457341	-0.226966058116	0.19753856975	0.257645534603	0.419788418123	-0.333726003803	0.117391679822	0.103982557706	0.103651112387	-0.0850553983841	-0.0495110452249	0.0400729724865	-0.0627594952472	0.26242726932	0.145367673497
artichoke	-1.85340791538	-0.123124627037	-3.19027860246	0.0971197396675	1.28400006036	0.0570431747881	0.511152742273	0.0311125973807	-0.340927637627	0.32830177575	0.0769216711442	0.409034925505	0.319143619633	0.408111661322	0.480419042891	-0.104978696709	0.641193695139	-0.056375336699	0.381774779971	-0.82966534979	0.269947792954	-0.372729263908	0.725390492633	0.543659580597	0.187794442745	-0.159842828909	0.0823075759502	-0.134565878014	-0.609529947429	-0.371634194227	0.24335269591	0.493207870898	-0.0657570884653	-0.00855802435773	0.0633361971245	0.184078892085	-0.0612961355044	0.213705030444	0.248572726724	-0.248775618077	0.162226432941	-0.280016559958	0.658946345239	-0.39681183125	-0.015260444593	0.288362417748	0.130107797711	-0.0855933658978	0.427633904429	0.0623847376508	0.192621871627	-0.134375030658	0.113378483201	0.119773185248	-0.191597441829	-0.0990090995019	-0.112244131405	0.0231509261752	-0.0922493043045	-0.121587792821	-0.254456745901	-0.310515210056	0.0589492755545	0.0639205678125	0.368668841996	-0.334491785944	-0.230900192688	-0.101037785342	0.0141343510459	0.248081087703	-0.0647959364837	-0.278809421025	0.0864262281105	0.298176017164	0.431454749821	0.120013111867	-0.218242701451	0.230031364528	-0.277347840851	0.0524656949262	-0.142507817067	-0.069015042885	-0.374782535607	-0.405450063444	0.129641246336	0.197833200108	0.525786196305	-0.420618693113	0.207743923736	0.0231140092782	-0.357236486392	0.234531123379	0.137701591887	0.482248202086	0.360574161046	-0.132495863243	-0.0226449303755	-0.233567370113	0.334165046146	-0.208195430529	0.0101505956795	-0.103275827613	-0.13401019472	0.0248665921662	-0.174878053772	-0.083424739808	-0.163342515351	0.0835223123108	-0.0408541372189	-0.447009506154	-0.303025588173	-0.000646907828286	0.00787977733669	-0.1869776712	-0.0807606435305	0.0049747442838	-0.0279692438916	0.19024517432	0.0602618980644	0.163012665957	-0.415145869108	-0.0969489676062	0.035417063134	-0.344187483033	0.0580002298983	0.204000748771	0.530423080589	-0.051273017901	-0.406464894154	0.236898866467	-0.223284761838	0.512962435635	0.343000932854	-0.129220133823	0.153881096011	0.206701855459	0.147741531385	-0.447749795829	-0.401379324992	0.0775031437844	-0.385302532553	0.080378683246	-0.372109759815	0.172081574143	-0.148244804319	-0.207117586147	-0.0980336546612	-0.0575430423108	-0.247254925958	0.0503297959295	0.0999813763739	-0.124729393786	0.0441072467338	-0.430409331972	0.25637522302	0.187414127521	0.193698782121	0.180674839467	0.320318445895	0.058571997066	0.0467847839987	-0.077158328031	-0.309654314784	-0.216180108717	0.181500219406	0.181319623747	0.270580400955	0.143934979444	-0.0365649865205	0.279048086333	0.300260380003	-0.0514823950576	-0.0466849874684	-0.276800300039	0.242244267251	0.372934256026	0.226568081896	-0.0894692340957	0.236335596803	0.0489217855859	-0.0638944857887	-0.123325137786	-0.258045461015	-0.0298312227238	0.152557416315	0.444859358018	-0.140762745124	0.190566152386	-0.181270773094	-0.0301108412575	-0.104480377671	0.0676695392355	0.35841064062	-0.293915053845	-0.223923667572	-0.0897264358145	0.243858233051	0.290591626633	-0.156411140112	-0.0880153666895	-0.00408801767926	0.285065785193	0.0868506863622	-0.133006381994	-0.259678384009	-0.140151295213	0.0343240227578	-0.352998715219	0.00224225187691	0.0743806998978	-0.113769213259	0.543648117621	-0.0724960051047	0.189829924251	0.210161448186	-0.00983611407359	-0.35117385979	0.0853999615215	-0.0366913303228	-0.154661013918	-0.192608457781	0.0973390676281	0.0815814332947	0.0624559045281	0.0112058972822	0.299229315647	0.208335852231	0.219307391045	0.0972010089673	-0.150948406568	0.244149075028	0.0920414672784	0.0122534782273	0.216531522875	0.0664609635717	-0.0302416765757	-0.0106796172584	-0.0585839663333	0.0739004127852	-0.153313141533	0.308570486152	-0.285237385462	-0.215305468971	0.00533552849867	0.229725103795	-0.0895774154924	-0.0557132704059	-0.122935865247	-0.16746321626	-0.0999444781915	0.0399028818248	0.185527351135	-0.145914493897	-0.241294091324	0.266783399532	-0.191564675069	0.113125399189	-0.273868495766	0.04811979981	0.196964430803	-0.168654920325	0.216502137884	0.221699154004	0.20924712294	0.13130365288	0.071274787043	0.198179334828	0.0305557998286	0.0773530577422	-0.148276896198	0.213187233967	0.154231264517	-0.0404890568179	-0.137062332717	-0.0130947249515	-0.0650398297045	-0.0409753423528	-0.0137121750928	0.286441254244	-0.151659829366	0.239729348131	0.10734778238	0.15199756198	-0.0916454984226	0.042334264758	-0.225287131573	-0.0814007356883	0.0345615666558	-0.0110299159593	0.103529022019	0.0432266677489	-0.366172632605	-0.0413059718754	0.0485013300338	0.0112285360217	0.110992519206	-0.264750316255	0.12537865797	0.0171242747982	-0.0511351738063	0.124690362872	0.0310916757169	0.259515256793	-0.188001013573	0.369988991396	-0.136008329931	0.293694011047	-0.206020476224	0.109089551494	0.0767958941491	-0.086541450705	0.274904790753	-0.22163575137	0.0979289798646	-0.421037064864	0.0649817035589	0.185209513211	-0.061062061879	-0.150159591693	-0.126472951312	-0.297303942395	-0.304392408438	-0.0297569694057	-0.0320493849148	-0.315660697931	0.0946800926037	-0.0203983862403	0.0274089044721	-0.124946820099	-0.14479811214	-0.19844765376	0.0300730836572	0.00423486842398	0.0911650757126	-0.0385604191122	-0.180603675841	0.155832234306	0.0278020307854	0.182290640786	-0.117002764736	0.137535574872	-0.135218936789	-0.191386801741	-0.154930918673	0.0456672914176	0.2190900784	-0.107757848679	-0.150237658685	0.11147062594	0.0912741033115	-0.343161594663	-0.248635556408	0.159530010966	-0.197200240318	-0.10832025851	-0.0442272268663	-0.0996414006263	-0.1502631762	-0.12602684353	-0.112210342773	0.0911630550734	-0.185463115792	0.0389453668562	-0.026159071374	-0.00889446799117	-0.0211673153024	0.240262121233	-0.164114255996	0.122840177469	-0.00205950190836	0.0567212701158	0.0594100738691	-0.222304666075	-0.0637008393287	0.0565286158722	-0.0374106346735	-0.140411659273	0.0529108540248	0.110940049866	-0.25738931237	-0.169683516109	0.00721449814302	-0.120478451252	0.0754917081248	0.0534433145187	-0.124000666154	0.168694769912	0.014429053858	-0.111781325523	-0.215267153039	-0.0578270602567	-0.0325915589709	-0.142780141997	0.00844684696308	0.18578565695	0.0998863449263	0.235781176483	-0.0624114929062	0.0361494118579	-0.113910044714
ashtray	-1.19865282056	1.48180732875	-0.0544600467006	0.255062772194	-0.356780180573	-0.390373469097	0.235260538776	-0.851637402519	-0.502718565777	0.717548189887	0.0453060875337	-0.604769979967	0.64347985493	-0.347579665743	0.13724410152	0.0110930617544	0.258791047586	-0.151675063642	0.246896529034	-0.353861158545	0.0559132922648	-0.385155089132	-0.247508470555	0.031068837869	0.302992086372	0.344049986525	-0.509341712847	-0.0383748728826	0.0828288253919	0.204063271398	-0.343980687417	-0.362601960669	-0.186071875458	-0.274873374849	0.31552014711	-0.411912225735	0.214473858897	-0.0113342726362	-0.106751591748	-0.0315951398191	0.151121220312	-0.186621918773	-0.108922517175	-0.131333908158	0.141778363241	0.186752317004	0.0764078276402	-0.00726333683467	0.400179362921	-0.200033778869	0.290077591303	0.379182939316	-0.0938330387567	0.0695394214587	0.0452718042801	0.500008679579	-0.09516089912	0.0822746735195	0.205274801171	-0.112576142289	0.0310048305393	-0.0369255191904	-0.0108686666719	-0.0362974968213	-0.276970023422	-0.10478142125	-0.210304147364	0.0648330485078	-0.377688916967	-0.0684728879582	0.109669403202	-0.161328114885	0.0855422487203	0.0537477797924	-0.24365980035	-0.112544103299	0.125634526622	0.00886740667781	0.0751470542426	-0.358519776515	0.114618521968	-0.19075075312	0.0252358252012	0.0729442636217	0.0498242877369	-0.00257828359978	-0.0494338515754	0.178737797963	0.242776842533	0.156123619414	-0.0548640608454	0.107632574755	-0.162513098214	-0.12749081172	0.138627032039	0.00170048837636	0.242724786199	0.00296423963023	-0.319146415985	-0.133007591077	0.257225817601	0.144632828145	0.152280708308	0.0146109400696	-0.24559092554	-0.19641422382	0.252614615681	-0.240464557617	-0.371648620631	0.143270540276	-0.25542330702	-0.0950834063171	0.038978146139	0.0531263761091	0.174417410777	0.000778186072275	0.071140358711	-0.209258380411	-0.00174531830727	-0.281168825502	0.419946589608	0.0375491904115	0.034487709668	-0.207709332008	-0.00988794337324	0.104766848649	0.0106913460562	0.0986476993369	0.0609305012909	-0.175507784113	0.225225471102	-0.0562115313167	-0.00884127797249	-0.126840678605	0.0621535930597	-0.30896648986	-0.118702878844	0.119473814922	-0.0477048356522	-0.122675845215	-0.103334169332	0.145823040708	0.0253574228896	-0.110069265083	0.0147187554509	-0.114774337153	-0.190090143922	-0.154545404654	-0.193377961969	0.205429095581	0.056198328355	0.158558965213	-0.363756703485	-0.047362772995	0.117102878869	-0.0906095201651	0.218459478299	-0.185767756674	0.0937447891025	-0.0152475346085	0.0477310008551	-0.174033916585	0.152488156509	-0.0872475963716	-0.0325727843578	-0.0733015892627	-0.00945643329843	0.0655813749457	0.132856148358	-0.318726320327	-0.0707608929389	0.0598078054252	0.0496889750928	0.292705010011	-0.0651499255484	-0.0600882083876	0.0893158756846	-0.129933445444	0.264969808167	0.0534224653166	0.0820246070234	0.0306065343725	-0.2275401835	-0.102562440581	-0.0634851807459	0.130756157528	-0.0345442025893	0.138517021434	-0.0881542897733	0.101050653409	0.23295092263	0.276065694032	0.294578017789	-0.17682205609	0.106302965739	-0.0347358263357	-0.116179758064	0.0362681908965	0.0212887778579	0.221133194994	0.124434310274	0.0532166269091	-0.00407716984277	0.0424575389984	0.0286560243717	-0.187716404921	-0.0387117198986	0.0829840359773	-0.0620287241515	0.0626404327109	-0.0288997981528	0.0122712507657	0.00527864618866	0.0863883659041	0.00723725166801	-0.0297067044012	-0.0173668985246	0.248683190433	0.220023712707	-0.0263013602347	0.0843054031331	0.147254572179	0.230512188547	-0.1757149072	-0.228222663473	-0.25746627007	0.188831895778	-0.0341359273671	0.13541918227	0.133985715355	-0.232228433463	-0.0698484319443	0.21010760921	-0.0315378684318	-0.120876224322	-0.13326398415	0.101067852697	-0.0791238827133	0.21318650004	0.0106884433205	0.059248401168	-0.176127025587	0.274673252815	-0.187322232314	-0.086466395637	-0.160658787824	0.00342394258254	-0.117261305813	-0.266527365494	-0.0702670938472	0.231007722704	0.0434607818473	0.270457105045	-0.0246554090686	-0.0145076173171	-0.193141276977	0.0113706675612	-0.216925524619	-0.146307077319	0.0758565652518	0.108167098842	0.0336834644064	-0.120484500356	0.0944324232062	-0.0482000357417	-0.172921764778	0.0544420799811	0.0167957473471	-0.0444598559858	-0.142997386634	0.114903561995	0.321184561635	-0.205561892237	0.167460412584	0.0481229235884	-0.179161069247	-0.0965474447294	0.150997814705	-0.0130326779924	0.0349400841956	-0.0367894072135	0.175022383122	0.120611087032	0.163555069765	0.0897589804663	-0.121521916291	0.266215042384	0.129473180305	-0.145926541974	0.120837343937	0.278506261639	-0.00787911450321	-0.111776403941	-0.0135250875836	0.00295784252233	0.150094606226	-0.121739462244	-0.101446301302	0.133553328317	-0.355766829566	0.138246271197	0.0638234170415	-0.046395901066	0.0125777898915	0.13977759596	-0.0881927813449	0.169961337307	0.238125493709	-0.150882847759	0.163902620107	-0.144230119185	-0.326291798728	-0.0532922741003	0.127250098946	-0.0546258388367	0.127282492901	0.0275054838958	0.11575503825	-0.0419052856479	-0.0718667371287	0.275890348143	0.0818203212543	-0.00252233844683	-0.210914869945	0.173837117378	0.143080503031	0.0040141472595	0.285797885656	0.050098466501	0.110387702487	0.27501327097	-0.0193378330409	-0.0834925331675	0.143939732995	-0.191935921672	0.0966147027927	0.0530962708108	-0.047221998529	0.0557934273001	0.156763862572	0.226418177048	-0.0263679253507	-0.0101769414446	0.0473338336101	-0.224096398904	0.0469585351035	-0.180214557792	-0.11183463687	0.306229737909	-0.185142882774	0.0837186854448	-0.0207135091374	0.0247443895655	-0.163698318109	0.18583380433	-0.0272738365651	-0.0039481781192	0.0405411357207	-0.349237343858	-0.130035945606	0.00722293046291	-0.125221173547	0.147842846752	-0.0691866466847	0.0719005369904	-0.0131800559172	-0.186718284977	-0.0694698009778	-0.0266370646675	0.0521985483748	-0.0152875121097	0.0761174262234	-0.182581387111	-0.191789819226	-0.134379309285	0.0390011596966	0.0526484561224	0.204874937195	-0.0925249117177	0.0831018593862	-0.00921629610434	-0.00143659272108	-0.186701241838	0.226107354356	0.12722918841	0.0909253771178	-0.122253816121	0.0631694924048	-0.497352780141	0.136447254098	-0.0315659462157	-0.032806118812	-0.187349750436	0.120416592925	-0.0423216763542	-0.149574472915	-0.202510367319	-0.0686037077511	-0.0282323834384	0.0139700206503
