Concept	0	1	2	3	4	5	6	7	8	9	10	11	12	13	14	15	16	17	18	19	20	21	22	23	24	25	26	27	28	29	30	31	32	33	34	35	36	37	38	39	40	41	42	43	44	45	46	47	48	49	50	51	52	53	54	55	56	57	58	59	60	61	62	63	64	65	66	67	68	69	70	71	72	73	74	75	76	77	78	79	80	81	82	83	84	85	86	87	88	89	90	91	92	93	94	95	96	97	98	99	100	101	102	103	104	105	106	107	108	109	110	111	112	113	114	115	116	117	118	119	120	121	122	123	124	125	126	127	128	129	130	131	132	133	134	135	136	137	138	139	140	141	142	143	144	145	146	147	148	149	150	151	152	153	154	155	156	157	158	159	160	161	162	163	164	165	166	167	168	169	170	171	172	173	174	175	176	177	178	179	180	181	182	183	184	185	186	187	188	189	190	191	192	193	194	195	196	197	198	199	200	201	202	203	204	205	206	207	208	209	210	211	212	213	214	215	216	217	218	219	220	221	222	223	224	225	226	227	228	229	230	231	232	233	234	235	236	237	238	239	240	241	242	243	244	245	246	247	248	249	250	251	252	253	254	255	256	257	258	259	260	261	262	263	264	265	266	267	268	269	270	271	272	273	274	275	276	277	278	279	280	281	282	283	284	285	286	287	288	289	290	291	292	293	294	295	296	297	298	299
accordion	0.613607690428	1.11108183889	-0.213450301905	-0.017949214947	-0.286918011848	-0.351023171438	-0.723893343623	0.414702379957	-1.10475159227	0.750600107057	-1.1645349457	-0.052340649701	-0.66989654563	0.0480459408472	-0.0409712909161	-0.0358245519081	0.488771926629	-0.115907792237	0.0603934359966	-0.0962634471062	-0.315673656536	0.0654830529363	0.00342686165991	0.101772223577	0.125437674427	-0.0835087172692	-0.050189036435	0.247099769947	0.0261174849665	-0.0489106361167	-0.0206773170959	0.0984613266304	0.0594744059839	-0.107863458919	0.116571824988	0.0582285558967	-0.225547545557	-0.156099769767	0.110437796767	0.155893091084	0.168419078977	0.0884868934656	-0.052026477448	-0.103365985656	0.257951493179	0.0442691986876	0.127160558397	-0.0974570711198	0.0279579569532	0.198153939503	0.0290780154377	-0.122577204218	-0.0668551825884	-0.0961021900556	-0.0646668033084	-0.0294177860332	-0.0381525976704	-0.0220483278275	0.0275414500461	-0.00718031434468	-0.0516321761812	-0.15222626717	0.0935930284901	-0.106582293479	0.0798736319212	-0.0933724215681	-0.104300288149	0.0794743779678	-0.0714746034693	-0.108527839901	-0.00594364294046	0.149758995652	0.0503987514876	0.000637568326287	-0.164777170116	-0.0193116530568	-0.0203647544967	0.0497162923609	-0.0221538317025	0.106781293052	-0.0434567431235	0.0325200426689	-0.0348487700102	0.0261874360463	0.0248069373987	0.0922845328219	-0.0221807169021	0.000480983204832	-0.0548688774779	0.0385745138125	-0.0873989690752	0.000179818704393	-0.134828145424	-0.0168549053482	-0.110437297958	0.0407244268089	0.112810844938	-0.0148321533712	0.0864036878677	-0.0137428932759	-0.0413246009985	-0.0597822598356	-0.00360356383431	-0.0951848606416	-0.0819438727375	0.0401677104009	0.0546900342052	0.144953607233	-0.0836210705105	-0.0282567634155	0.0486817777279	-0.113794582719	-0.0664984686646	-0.0528666260953	0.00513671668292	-0.0450598623287	0.0317658571666	-0.0363985654892	-0.056900379876	-0.109336628997	0.123912588702	-0.00182595768039	-0.0286086020389	-0.109700140288	-0.100480849256	-0.0150176818597	0.0056851091234	-0.0750591579975	-0.0882818472737	0.0989301271842	-0.136768509202	0.042512452791	0.0577558347354	-0.0188130499786	0.0204566557489	-0.103143841863	-0.0486655753847	0.0722089510375	0.307177888268	0.119706544247	0.0865865579115	-0.118451619448	0.0718364036308	0.109429861251	0.140955377094	0.0643331986105	0.0304907391352	-0.144261855327	-0.0123495810451	0.0365463297585	-0.130433524712	-0.00416414442277	0.0924984122599	0.115202166591	-0.0500801960581	0.05638972387	0.00784206604799	0.158313193362	0.0919646686193	0.108862100082	-0.0171097762588	-0.0638215207088	0.102901320322	0.126113733491	0.103199415138	0.19856555175	-0.0134858498604	-0.00542587455133	-0.0571038406691	0.0749302332018	0.0732837990383	-0.147788514282	0.204751095984	0.0423337860866	-0.157033693971	-0.0570218548238	0.100649745911	0.00847626517984	-0.150614730423	0.235507040291	-0.104578437555	-0.0352941259205	0.0251007566059	-0.0890834797428	-0.064062104359	0.16055920444	0.0878477317691	-0.163743570482	-0.14144342718	0.0634066310472	0.0013241378953	-0.0584209343696	-0.0564648827379	0.0179512418637	-0.161872403496	-0.0999915992069	0.0694804964229	-0.0922998548771	0.0520695971431	-0.0704274946281	-0.0472188557138	-0.0586061327591	-0.00525884874963	0.0586772850429	-0.0325343783127	0.126646305714	-0.0550299958509	-0.192464253925	-0.0457614835566	0.0663509897038	0.156811951476	0.0101711374704	-0.0636122529144	0.257820888323	-0.0567227932705	-0.268245491114	-0.0119876818117	-0.137481705442	-0.185319626884	0.149283644538	0.177400247994	0.145299706577	0.181120898392	-0.156708299457	-0.0379160893806	-0.365358509548	0.138487997578	-0.025444126781	-0.0114372626469	0.137634742892	0.0800983622205	0.029060784787	0.235195237229	0.0439448192783	-0.172905309482	-0.141640660795	0.128104480327	-0.0120960033541	-0.0523310524169	0.00689578890149	0.0392195130745	0.0194162523707	0.140685158396	0.0502457698503	0.068456906377	0.162718984448	0.124274884127	-0.0170513976085	-0.160163635899	-0.0757174028283	-0.0580658360383	-0.0190240685255	-0.0794397087904	-0.00851211973943	-0.0315083717468	-0.104713185195	0.00862541870411	0.0541472267576	0.0604006883009	0.0278426294198	0.141013221528	-0.119817168055	0.0126029261939	-0.18678637012	0.0369416361227	0.0145282788754	0.0321162121285	-0.170626018971	0.12653242594	-0.104414034923	-0.0701013877367	0.090516142464	0.243846400263	0.00119879479446	0.253388026955	-0.209082061004	0.0412329974694	-0.0193377457476	-0.244463412615	-0.065570287867	0.133497595599	-0.00841851787499	-0.0161515704884	-0.172823753429	0.0366195526632	0.138263850188	-0.219637549597	-0.0864779011453	0.170726339314	0.0234587365621	0.0292161791538	0.0383556038172	-0.25425314888	0.115760707148	-0.0716738384297	0.0165696935016	-0.0433390329462	0.0851387767792	0.114155024717	-0.0148905048065
aeroplane	0.862196661463	0.708100839579	-0.407817174368	0.441774378728	-0.696195791108	-0.407757842138	-1.08922959103	0.615054861779	-0.0269347208224	0.218558203233	1.55306028426	0.267079799834	0.173604306536	0.0728393488449	-0.0776222469357	0.0328022617499	0.245338951589	-0.102427862724	0.0419746160303	-0.141290451025	-0.0619829401362	-0.0598175253096	0.133133474463	-0.153157476016	-0.0441882159502	0.131839314469	-0.36073008285	-0.0946966844942	-0.00209876725345	0.159091193042	-0.278963040197	-0.13777586056	0.016313525299	-0.0715456170593	0.122444181462	0.0461044656418	0.0985173860034	0.369963748595	0.135982686681	-0.0203323068281	-0.0351334694859	-0.0524290840233	-0.00408220677539	0.354621706734	-0.246066463202	0.0762709877406	0.175181511352	0.395843638092	0.0179023835705	-0.129834045386	-0.221294937758	0.071208122429	-0.0467545393565	-0.257559758981	-0.182383941919	0.173257226929	0.0282549172044	0.000137588912286	-0.112289866736	0.0598520783157	0.498464139471	0.158622027569	-0.121243817221	-0.133786230298	0.0680411737517	0.237030055076	-0.104998135169	-0.168787445509	0.0126513730692	-0.128373408433	0.121459511681	0.243960264167	0.256420999679	-0.208848951713	-0.00241024703837	-0.297694325102	0.0628093692451	-0.0408275958751	0.425533738743	0.0752043489787	0.294851654775	-0.281028206704	-0.0942180852531	-0.294696687522	-0.022809006672	0.115169449987	-0.277728844246	-0.00413244824202	-0.181007486992	-0.126746240482	-0.0482274901779	0.0876195216518	0.124401630546	-0.00408860471107	0.16216449675	-0.118921207638	-0.0289875847327	0.0281677092309	-0.198467129127	0.238036022048	-0.284151724583	-0.286654966806	-0.105878826565	-0.0786631830429	0.237215839694	0.00901646364807	0.0559964904884	-0.185122629171	0.156484005017	0.0416745931881	-0.304665463205	-0.0131020560636	-0.129101753914	0.0777075085717	-0.323488074186	0.12818060623	0.108952942581	-0.0582330847318	0.158060950272	0.0167734369336	-0.0171550495923	0.20654082639	0.150232390583	-0.214345621878	0.0622723964625	-0.105275977835	0.0437954187064	0.0682941580948	-0.11229828011	0.320763632281	-0.056193426282	0.122309410798	-0.126829164849	0.277447413355	0.00600218476363	0.0146623589096	-0.256094443154	0.14076815879	0.112795037322	0.0266702081641	-0.069783634669	-0.0925546706673	-0.0435092058412	-0.00365304708061	-0.0352904397528	0.0624454443532	0.151148129396	0.0657503549114	-0.0182255061657	0.173690932679	-0.0606491816749	-0.181148071858	0.0376418142191	-0.0469303763478	0.117746121646	0.0228822960809	-0.101846763147	0.201581285302	0.194959204067	0.0500122387568	-0.0372579279353	0.00728773736345	0.039020678228	0.282802798624	0.0952814852272	0.0554516885262	0.00292824436338	-0.144806296301	-0.0113273281668	-0.0806700172077	0.0142342411835	0.0376872580421	-0.104759793602	-0.113656382703	-0.0110731562758	0.0781404523814	0.0412943152629	-0.00476535640735	-0.0610639092097	-0.00719425394301	-0.226150320185	0.165051476125	0.0419021411986	0.0562797071838	-0.0425887010581	-0.163569819063	0.0226161745072	0.0593820314931	0.145605851575	-0.0790416834364	-0.00438348191722	0.0233764018178	-0.0823935394477	-0.193650788789	0.0580995198476	0.00709906732882	0.0830191825913	-0.0126602020847	-0.0613883514854	0.0995013490397	0.0106254200299	-0.186216249147	-0.10016295055	0.101336353066	-0.196787818287	-0.073958759424	0.215226274633	0.153625918649	0.0199667318566	-0.101345434883	0.122809627862	-0.0013582492065	-0.0211576314644	0.105054834526	-0.054855014841	-0.0370663851211	-0.21503570427	-0.0308809068961	0.196346856229	0.216585598498	-0.0339496564391	-0.1708793839	-0.0491673565195	0.0760386577927	0.0139819080127	0.0732056746738	0.109237251206	0.022053751824	0.0748147993449	0.0440490695046	0.145704495764	-0.108373946593	0.04249819211	0.00972666922675	0.0153297809783	-0.00248356934144	0.00292620783032	-0.142425831564	-0.0126191199277	0.00586153391691	-0.0686976958111	-0.0212851638193	0.0198498045757	-0.0529838632176	-0.0160933686107	-0.0718394683043	-0.031727733877	0.00629699430227	-0.0754091829564	-0.0673592717669	-0.0297439031214	-0.102714348542	-0.0248368361244	0.0469172110821	-0.136773455009	-0.0544484256393	-0.0185438446227	-0.106483980679	-0.0121113721797	0.0595464309107	-0.0212259525804	0.0782268550134	-0.0372247311672	0.00964114737165	0.033977844228	-0.0377469156351	-0.0165135172694	0.07894809851	0.0471836189485	0.06264751037	-0.0611461256248	-0.100682248547	-0.0594198268006	0.0742783120675	0.0193506790008	-0.0936214746459	0.0372997057814	0.0873081801309	-0.0441641556872	-0.125402129953	-0.0200291559799	-0.0100120653225	-0.0433795153281	0.179123242839	-0.000546455198542	-0.0871805809753	0.0596815730706	-0.0913900948228	-0.0506233888087	0.0538339028439	0.0417120766031	-0.0963958437376	-0.0555580168024	0.0644642935535	-0.00275371136037	0.0510911648254	-0.114709932993	-0.0617558506012	-0.0442138597399	0.0264712374162
alligator	2.133708879	-1.21402081797	-1.01879710624	-0.736314932789	0.144305491073	-0.432881579644	-0.611557205879	-1.02753204747	0.155700518335	0.128105704685	0.236067619802	-1.68720235378	0.237226136723	-0.722945904317	-0.593599925873	-0.563715180002	-0.636929452192	-0.427565694573	-1.13446613118	-0.341715553073	-0.338345494309	0.382316760874	-0.0906279224091	-0.410863454128	-0.13023346852	0.119670542197	0.0651228901464	-0.07995535979	0.708060531965	-1.44003231557	-0.420485979425	0.0271659074885	0.530871315344	0.104809044318	0.128016823664	0.221151973919	0.0781056114131	-0.241531873694	-0.395521035046	0.142444116819	0.268649578977	-0.383104595627	-0.126043624179	0.0742361701532	-0.795148632278	0.369720471069	0.501951907862	-0.877211042289	-0.0327117539073	-0.116833117547	-0.534061169697	-0.341996906671	0.222699601172	-0.513907219755	0.531225133217	0.323140609775	-0.342755492937	-0.202363138413	-0.374417079626	0.29558722084	0.0202064987715	0.0721632537407	-0.371359718323	0.0230330769719	0.578936964762	-0.247899591924	-0.0927361566979	-0.537056737381	0.00210276345219	-0.237674123576	0.299848803613	0.188039370583	-0.104434640004	-0.251541719854	-0.255255343523	-0.57902670882	0.535539384871	0.148226565404	-0.434898756345	-0.32557484858	-0.76913572061	-0.124545426904	-0.246408553495	0.203991958424	-0.288451054189	0.106817179868	-0.343606885579	-0.338098398731	0.00322544168831	0.18714145809	0.394942294353	0.143069632826	-0.483063950481	0.0198407148167	0.251236077215	0.606756549929	0.191921658451	0.229628492125	0.155331269954	-0.230608408344	-0.0514028023243	-0.38891845098	0.148987361777	-0.246523272362	-0.450382467533	0.0649555936495	-0.179376011458	0.169091335863	0.223737294808	0.0633505014771	0.418991419241	0.0774136502223	0.414880550314	0.0678831546181	0.0656233742642	-0.22464498901	0.123257573747	0.2821583218	0.0405721471191	0.283535993168	-0.135305898227	0.163306060122	-0.23700960387	-0.211174986609	0.190926331746	0.0855714042103	0.0175168180587	0.113533077027	-0.0446109023202	0.215125296904	-0.34356516478	-0.242044162861	-0.119165475268	-0.0428410968669	-0.034435102492	0.190509892752	0.130317945092	0.0951195155163	0.177584693731	0.411072590506	0.187094979639	0.0149465982743	-0.282284137594	-0.070165481131	-0.233380637407	-0.0309308194604	-0.00898569098952	0.056518129262	0.110879637079	-0.133919259973	0.260132778459	-0.0885634805167	-0.00137941481163	0.0526254002718	0.0918247881157	-0.219284125488	-0.0533083087326	0.0232053234698	0.0563836049245	0.0948847495411	-0.18761543255	-0.228281581225	-0.17840651747	-0.153234815599	0.261431016752	-0.0634088331544	0.0889295556269	-0.22157983072	0.00358406324812	-0.0127713717233	-0.0915252074361	0.159648077146	-0.119580607005	-0.0174343007799	-0.0998331324646	0.0548543590984	-0.00176707099227	0.0405979141065	-0.272972318707	0.04880406599	-0.0140845012914	-0.130538215449	-0.242227966547	-0.0858828176564	-0.055481723824	-0.101481352174	0.00368832299275	0.192727552974	-0.0798132277461	-0.000573859588818	-0.00788468965368	-0.237870219563	0.188980333066	-0.131891739735	-0.203315475367	-0.190589984086	0.140910410773	-0.0358859005476	0.0875604240277	-0.207016355543	-0.173647180551	-0.073534928024	0.2598384375	-0.0625151391223	0.0674358326662	0.143534556461	0.147554988537	0.0470126924493	0.118373426048	0.132693806927	0.0585282713941	-0.177073988417	0.105533342579	0.100324981396	0.160978966567	0.269899138917	0.130903004678	0.166097351584	-0.0215365131249	-0.134142100163	-0.260037772281	0.0331444986195	-0.0063613738425	-0.075601523204	0.0546325379982	-0.115448560898	0.0896681982189	-0.0943528146742	-0.0366038693404	0.0474836920143	-0.0289738938025	0.0918707556963	0.0593400822364	-0.100659843307	0.176600257974	0.0728625432769	-0.065581061465	0.0129385607886	0.00181080092892	0.0488899934631	0.0430965305212	-0.032547124021	0.0778320284094	-0.0830445436646	-0.118499823935	-0.0280482248447	-0.0303707807741	-0.0457692324896	-0.0447503772738	-0.117660014104	0.0503481666398	0.0266987535248	-0.0283393134728	-0.0422349636409	0.0385077037332	0.0127784021351	-0.0387688485717	-0.0424721839573	0.122805816732	-0.206526468682	-0.146388951262	-0.00756916696142	0.1391393792	0.00922867283014	0.0899640407652	-0.0324542168638	0.0898919268515	-0.016280142737	-0.0502623367786	-0.0322622304289	-0.00885995564495	-0.0277503590328	0.0233206787093	0.0768917110052	-0.0984817716963	-0.0401719993811	-0.0597106014848	-0.0415028934175	-0.00464181113896	-0.0779761534182	0.0146868719598	0.0445260192357	0.0375122615178	-0.00249172707679	-0.0331008623346	0.109365417989	0.0653738110581	0.00589598675884	-0.0215535236847	0.019483433776	-0.138720432007	0.0139883132999	-0.117204267522	0.0457970142362	-0.0319044863775	0.136839964829	0.143329090629	-0.00113827093246	-0.0794231353883	0.117457959662
ambulance	0.65555313584	0.78439246149	-0.206864819577	-0.0779947444591	-0.306655271113	-0.321844988594	-0.755749999933	0.690171159899	0.082064983119	0.423651754093	1.43795773045	0.553695865659	-0.779350491693	0.404516361003	-0.300976059576	-0.226185612525	0.0689632250083	0.225442978121	0.17027557119	0.249615492643	-0.8673116017	0.316782758893	0.502511959964	-0.202932466155	-0.226758637766	-0.286736230895	0.107234616325	0.0287085793174	-0.315143799152	0.136081861343	0.154546947697	0.44251601212	0.516869143788	-0.139795761177	-0.196400173594	0.201654719753	-0.0712561452744	-0.178201018174	-0.238921761143	0.309346389803	-0.103408576233	-0.124635272386	0.0280119594748	-0.232172990448	0.429312457904	-0.141258717854	-0.251251328507	-0.481779248523	0.0736210740862	0.358430781816	0.0591627869439	0.189072635179	-0.0179659992091	0.0110824791586	-0.187301744097	-0.23685204514	-0.169582690641	-0.459371248679	-0.222330374208	0.00158578002652	-0.597564601313	-0.31351347501	0.0357506618707	0.280223728477	0.0482562702071	-0.262117133103	0.367234301369	-0.00392623800058	0.0357238347653	-0.173658740265	-0.302941601089	0.0602014664665	-0.214552235279	0.383323253096	0.134397098047	0.166725598897	0.0749016464711	0.0507338099202	-0.218088900575	-0.325020755855	-0.483724175402	0.22585903971	0.244704459132	0.383989638006	-0.167385072107	-0.0622910985262	0.443680980718	0.430586317616	0.271649980211	0.00742301947299	-0.09767551598	-0.241225702352	0.114491206036	-0.0612529838333	-0.186826998036	0.355130981735	0.194092537362	-0.104395679225	0.11340778335	-0.39963538627	0.549298947963	0.226256314588	0.561804856597	0.105525199948	-0.184969463551	0.0859832448658	0.247342043967	0.036613242499	0.00926939856079	-0.124819310822	0.268450228326	-0.0855672825116	0.256659161328	-0.442833558073	0.28330494624	0.315403770309	-0.179722229031	-0.106276227583	-0.224255079206	0.28943018672	-0.0554041753523	0.449520108885	-0.189976061269	0.183848511006	0.0590961980279	0.107232536153	-0.0975142757442	0.460362651623	0.152501428296	-0.444764241271	0.0780898698018	-0.0749327291704	-0.122196083285	-0.0734712785216	0.930578151108	-0.00876987702552	0.615738968546	-0.368683542092	0.505271509393	0.282395284596	0.0220869303382	-0.581327545313	-0.159668872576	0.623886538586	0.350658178695	0.298231828237	-0.318529227542	-0.425478410092	-0.131064522175	0.113736574076	-0.168433283205	-0.0304433010556	0.0657467587302	0.0950781958174	0.137861364173	-0.104189302269	0.123050529003	0.223168728663	0.00187896074819	-0.397869999485	0.0521943633841	0.0746796151204	-0.215452900448	0.319568480535	0.289358348104	0.418304007429	-0.518526370872	-0.278939926011	0.0185794360809	0.232868702578	0.260463580581	-0.13879315167	-0.112407915628	-0.299658465294	-0.12485815227	0.218716599816	-0.0728488268819	-0.217276190871	-0.299655935761	-0.316155850773	0.121397956295	0.386304312729	0.395154074506	0.526539448003	-0.311447394367	0.322816821946	0.0486841706217	0.528976985459	0.310883172659	-0.0161655785934	-0.00670460482269	0.522179142526	-0.101943178844	-0.1205170001	0.33659647845	-0.0606342245415	-0.0649579264645	0.143135252146	0.0738233533209	-0.0778436987016	-0.116903771541	-0.0387463842826	-0.269520651078	0.116259582372	0.0179851441928	-0.306730855818	0.0742622224142	0.130635861853	0.113317829233	0.146269625199	0.125826936763	0.00157877276605	-0.0457852450871	0.246646537409	0.131422756447	-0.0951423662141	-0.111807214377	0.177411379435	0.130242441836	0.0488995108249	-0.0304941109403	0.0177019531757	0.052680984181	-0.0194787768442	0.146308794851	0.210423617216	0.173052527821	0.121984377768	0.137782905538	-0.0694210544471	-0.0900812299732	0.152928674547	-0.0715927136551	-0.0732317051259	-0.117764360535	0.129421560166	-0.0783502275697	0.0194602923967	0.00415848660378	0.182525836522	-0.00958093156389	-0.0891604342501	-0.120754637689	0.144854330262	-0.237005848683	-0.0222998970382	-0.0106421365789	0.0756196052952	0.0293008682657	-0.0192304356185	0.00660844616772	-0.154516462872	-0.210024262009	-0.124327930861	0.141927625283	0.0819558433177	-0.141092337738	-0.182797449101	-0.0384887051355	-0.0789054300659	-0.0850696359215	-0.0893163177224	-0.0667622181705	-0.0119096208386	0.176574933172	-0.0795912128746	0.0790383291544	0.14614397571	-0.0221523895387	-0.0150861724151	0.0146572045642	0.11428733966	-0.0645630007772	-0.0256828535612	0.0770230124931	-0.00502988745474	0.0422626174946	0.06473678783	0.0780555577179	-0.026864849285	0.117663035215	0.0264758706083	-0.128749864377	0.177536461659	-0.00262525006442	-0.047385819518	0.0231124915834	0.119095411362	-0.041530817694	-0.0248438189137	0.111843530594	0.0468246975996	-0.0973152105679	-0.0206427664484	0.0698885421259	-0.0818700086365	-0.0864779063665	0.0875169852437	0.0565092585863	-0.063798581268
anchor	0.432784422547	0.64207776171	-0.123206251288	-0.181387329087	-0.15146518517	-0.0186056514246	-0.236683892449	-0.263581157299	-0.0696016557718	0.244962060351	0.283110522006	-0.125882015054	-0.201400804167	-0.116523214322	0.0839344931688	0.264562326862	-0.0640956526499	0.149218724945	0.0907881737524	0.231271446987	0.381316264717	-0.075118531938	-0.171761565218	0.227691724211	-0.304507718453	0.0756709083209	0.0146101097974	0.129493960197	-0.23850330708	0.0351366475244	0.137818011004	-0.0515138566544	-0.321823851892	-0.112604758901	0.0126673336204	0.0524258744806	-0.399801249556	-0.0863761608558	0.226105379243	0.180517827114	-0.0655426212693	-0.335501552658	0.0658785682355	0.110782409449	0.0939120060145	-0.00654186896698	-0.141887454119	0.38708971959	-0.222160586144	-0.00464391826689	0.179766960442	-0.22058811544	-0.256715966327	0.18874274063	0.101189518879	0.0154853821819	0.0434884463091	0.0114427930554	0.008763820342	-0.145180873682	-0.221436690889	-0.092269349514	0.136192894067	0.284098990433	0.00301952506617	0.00561598306245	-0.199746247059	0.108375187762	-0.0116994359971	0.0536391446884	0.0729157414385	0.097104837527	-0.293849269847	0.114848644005	-0.190279662263	-0.228381642684	-0.132992954946	0.141956886181	-0.225364613177	-0.202063995758	-0.0803003674251	0.0114692366346	0.101897065708	-0.322538076404	-0.192892002132	-0.0065914268313	0.201380267003	-0.062121200038	-0.193609898073	-0.115443809441	0.0359653133603	-0.393705131493	-0.262021126528	-0.0168943977318	0.132363163177	0.178449920841	-0.116673561291	-0.168917421629	0.0928028611658	-0.019794291804	-0.133782028849	-0.159300849796	0.0359317708749	0.23998918018	0.00853187453688	-0.012847353114	-0.0896170805764	-0.0436647944353	-0.0619967267971	0.116285307411	-0.092532348567	-0.211690399676	0.00852331989439	-0.0774831864735	-0.148976014047	0.0932560422247	0.126854369591	0.107979082646	0.0249383184111	0.0480830623001	-0.114831864968	-0.0131136084767	-0.0297903637299	0.102971318175	-0.203197220472	-0.154420851387	0.0289617128926	-0.201472248885	-0.00583159261957	-0.068722196874	0.0444896014006	-0.0531824884359	-0.332230772718	-0.0455599281312	0.0680133961626	0.148965231949	-0.0582516491084	0.0577416794208	-0.0618059081006	-0.0250520872356	-0.0845342455382	0.0089282247612	0.0919670734377	-0.0741643671869	0.021905927992	0.145109926289	-0.083007499027	0.0911532951037	-0.00699341827786	-0.0935864227743	-0.119900124104	-0.0812305272488	0.166412822103	-0.225194528894	0.110496446416	-0.0599588305768	-0.154824899064	0.0714459915697	0.0706392828832	0.227019240904	-0.131096940562	-0.071829870214	-0.049896895594	0.0809677572595	0.235147617335	-0.119217763377	-0.0480923091479	0.0668057645479	0.0769998115801	-0.106574904857	-0.0612489848062	-0.18024501601	-0.150481153572	-0.0308661008412	0.116510200211	0.411765502437	-0.221336054109	0.0768794199778	0.0709419648298	0.20474972388	-0.0623162609099	0.0526728076336	0.0394766822998	0.0952789572737	0.0874452013962	-0.21841364542	0.111447882384	0.117891702602	0.0514143178582	-0.0329443411788	-0.0304155172077	0.110476995585	0.243808665564	0.251617116335	-0.0476545956299	0.0500666711545	-0.132556266163	0.137997472295	-0.088046497517	0.00489344664934	-0.0550828425214	0.103816410592	0.274749522828	0.154168489905	-0.263565589588	0.0801340110029	0.00406701580499	-0.040888783107	-0.162911850791	0.153563707625	-0.0714408764806	-0.1138911037	-0.166333766364	-0.190035917278	0.0802576597871	0.0332833834788	0.0871339275143	-0.239044499796	0.207552688168	-0.262444931893	-0.0825872674991	-0.189229781394	-0.0848865417153	-0.253230050204	-0.0237151046926	-0.228989331849	-0.0294268220622	-0.00853620112351	-0.0903880223937	-0.1281311416	-0.228911164653	0.0696088860511	-0.346529909487	-0.0359999552268	-0.0679358656668	-0.143876033942	0.0466815586411	0.0974225266956	0.0115681935346	-0.0458274426731	-0.0354429143544	0.0667947142215	0.093125034472	-0.00766402158539	-0.126910704047	0.265513613	0.239375124456	-0.0377206718898	0.0968484697386	0.0408881488455	-0.184702011945	0.222064074859	-0.129439438451	-0.150069449277	0.346321144389	-0.0702926906304	-0.184946601998	0.208984496215	0.109166369364	-0.0619539454773	-0.0613236401684	0.134927131403	0.0629663833776	0.124025266673	0.126009589568	0.224007089935	-0.022046517741	-0.322037015032	-0.0118446128738	-0.0127609838868	-0.173927480858	0.0948632706042	0.111418206064	0.189697634334	-0.0305136395301	0.079603486409	0.0150332743366	-0.0176214140985	0.0398506597791	0.0273914050762	0.0805281299459	0.0466351998821	-0.164791578283	0.0724717021838	-0.0811016470153	0.0184216897585	0.117456233656	0.073891689408	-0.007798340592	0.00509146276545	-0.0649002597753	0.202500262761	-0.00927709244699	0.146889941197	0.0174039318377	-0.0746341577914	-0.0118444225156	-0.284892286087	0.0190170755177	0.0426401181254
ant	1.61062394228	-0.718380605798	-0.465369154418	0.331402693477	-0.00214677005675	0.428552245281	0.724855711568	0.322785016227	-0.945837764803	0.29392730473	0.459682780793	0.858250465891	0.561309153808	-1.00954382596	-0.485537183138	0.0886919299012	-0.196746113679	-0.588045367218	0.131314127131	0.0418466170198	0.227926493382	-0.449514179431	0.569327094127	-0.0839514178565	-0.0689955366482	0.150291758835	0.0284846816071	0.414911035664	0.178387033282	-0.104295947962	0.685041117124	-0.408009164082	0.607137670966	-0.316908253475	0.408082140161	0.561446911811	-0.162113549795	0.283645550073	-0.0705795033487	0.0219572782431	-0.351842680849	-0.0397151493748	0.307398112426	-0.425372116207	0.0244689882114	-0.141629500664	0.434827917358	-0.271825483986	0.675348779333	-0.457273743027	0.21245912324	-0.166442999487	0.172342580825	0.12425181599	0.151436710941	0.0836508122779	-0.447623818328	-0.297778715179	-0.140479118815	0.299741090711	-0.290069303532	0.151245453898	0.182452967663	0.124500711916	0.102484922691	0.215602251556	-0.218989658693	0.155732663428	0.00375566437706	0.27081159019	-0.0686812583382	0.152662613983	-0.269197277131	0.421818333461	-0.0377024169681	-0.07452628882	-0.0325494778698	-0.0494609187994	0.0985164934726	-0.24500871526	0.108944287583	0.106044990565	-0.204568703326	0.0930781061386	0.0108401266643	-0.110320933001	-0.193367869958	0.438425807841	-0.0556848942193	0.0913846634846	0.23902803391	-0.150354755077	-0.152739454709	-0.0749166525317	-0.0435622103525	0.17722894827	0.0138681921533	0.24920907103	0.17619681911	0.318396609977	-0.0785693973313	0.26170919758	-0.138247834209	-0.00605170129465	-0.0424937466402	-0.168679313192	0.225076209874	0.00902073366418	0.266361664951	0.383989595054	-0.114802896547	0.0497881952317	0.125609006851	0.174625531656	0.0587739905102	0.0104445725894	0.0288028692812	0.197452539763	-0.144335440602	-0.0130055978949	0.0876956213273	-0.312786494917	-0.0430063267562	-0.0434731597755	0.406901328001	0.116860776402	0.0713218790118	-0.00618138686859	-0.249194594383	-0.161639224202	0.183453755911	0.203753429434	-0.0627731665183	0.0499680168763	0.211265728425	-0.290666831967	0.332725650064	-0.285193149579	0.0163111572631	-0.170516878489	0.0629012849863	0.117420424286	-0.24290762531	-0.271984738373	0.495860438277	0.222292546983	-0.137242642342	0.0480078718653	-0.434121112989	-0.207557635114	0.196449465358	-0.179677791885	0.144618703284	-0.140065442942	-0.0197530576409	-0.178262108193	-0.00897287346889	0.0477400767314	-0.167083204441	0.0151202193161	-0.0742268016021	0.145812583141	-0.197583815739	0.0958882019582	-0.226066656463	0.00624936354679	0.124856030033	0.161941432528	-0.0754370433136	-0.115241892103	-0.0560428569901	0.0349994006033	-0.000833717620354	0.0706907077622	0.033076380639	-0.0120134722731	-0.155315944725	-0.0165241203969	-0.149796763106	-0.0188726852637	0.0035274208392	-0.137909487311	-0.225128327587	-0.0466669169939	-0.240914918918	0.20129670614	0.0433803318643	-0.136739993586	0.0471617414584	-0.00403202976983	-0.0368102170743	-0.013036645406	0.203489605158	-0.020974709288	-0.126490680617	0.298233567379	0.25199166538	-0.168365291051	-0.217125819629	0.154859601926	-0.0558370822791	-0.000554901001546	0.0268150619852	0.106206236876	0.292589717888	0.100100332866	0.105761568516	0.232475959641	-0.0416828469378	-0.0235897233484	-0.162573535469	0.251380652267	0.0655427475252	0.16215798512	-0.172236122705	-0.119487200329	-0.0277295598221	-0.0527764251425	0.00845280506	-0.025042508621	-0.0622782119799	0.0561430090626	0.0203928648349	-0.0204537951568	0.0301743853146	-0.0772500424962	-0.194667632172	-0.0828388106271	0.0590884182085	0.0570888072761	-0.0507431466318	0.152811806023	0.209830739556	0.0111572391621	-0.054767365811	0.0214573138205	-0.146948602452	0.0398293025191	-0.109986884661	0.112526808212	-0.0765799356289	0.0442149842005	-0.208092699947	-0.118529325856	0.051755185709	-0.0638906888686	0.0254234599027	-0.0884147188582	0.0630591402319	0.101858230854	-0.134349769406	0.0236228278785	0.153543817867	0.0752733930677	-0.139495636018	-0.0582316723607	0.108805147631	0.130957121771	-0.00327375471684	0.0628135996496	-0.0307482630459	0.152955329472	-0.0142569691447	0.00753199462885	-0.137836703942	0.0192304413243	0.0532819398429	0.154746973697	0.02190243593	0.0708219263847	-0.103517246943	-0.114153106843	0.110956268672	0.0653086763375	0.0353503629494	0.0335056114135	-0.0121938377142	-0.0424620600007	-0.106692165884	0.0584463030446	0.0378045982731	-0.0986059965782	-0.0300851305593	-0.02324900389	-0.0819263509145	0.0596118483135	0.00801031116274	0.165536697004	0.0358711745256	-0.0457424737842	0.121679868137	-0.103312433039	0.212763901819	0.0385355851101	0.168656858421	0.150063813661	0.0976363493132	0.104571161622	0.0178023540392	0.172529868926
apple	1.08198752973	-0.258772791728	2.68805113841	-0.293451209188	-0.125513258533	0.211230605715	-0.536947490372	0.350828336132	-0.313011631862	-1.02342785054	-0.0143137281909	-0.583002546874	0.16663292062	0.0957748640245	-0.399471845381	-0.10158157795	0.028270862833	-0.289692367632	0.214743838363	0.33035062959	-0.123621408102	-0.136192263957	0.249368738911	0.13136478922	-0.198471530471	0.21350324707	0.0810346805916	0.109472119229	0.227863380544	-0.103973375805	0.0953972809279	-0.0624893943315	0.101512162174	-0.0492976693665	0.330057820667	0.288940865907	0.0427053181735	-0.237751314872	0.039412535502	0.0322098243925	0.203190176308	-0.110248624406	0.144560478335	0.16393051522	0.260088200747	0.118212648618	-0.0546106614223	0.0880698130999	-0.097026828659	-0.077439419132	-0.185039187356	-0.100858562188	0.0143291185746	0.0969470651367	-0.140605406505	0.139006058128	-0.18497276002	0.0292564399149	0.0112231373575	0.0915986393818	0.125786834691	-0.00630237939025	0.064817961245	-0.0672993913007	-0.120015539004	0.0398709910576	-0.145228151854	-0.0701633286009	-0.118040674138	0.113207016774	0.351629300985	-0.217783766669	-0.0993431971073	0.0874187360098	-0.10280657934	-0.0126087579348	0.0235474706422	-0.243966708916	0.0181266950131	-0.0152517658684	0.0906346584647	-0.0999239791653	0.066629129177	-0.0146540053174	0.108733881357	0.0212260245421	0.165975106554	0.0877761775322	-0.0544900921741	0.0670718054798	0.0146861730205	0.1540844121	0.283292883943	0.00328112854789	0.0710957825396	0.174955802103	0.052249490283	-0.113319162357	0.174140767641	0.0337327742346	0.191570231459	0.0606835811196	-0.0354266491902	-0.144124954676	0.0686101484605	-0.0887624709872	-0.152065277385	0.0789443224875	0.0500779012833	0.00145180630455	-0.0958629847384	-0.11281659888	0.194030692206	-0.110393436454	0.0325401635607	0.323378571422	0.162393243316	-0.0726966914095	-0.0681978855185	-0.222056942162	-0.13810846386	-0.0552220044208	-0.072680661082	0.162377309312	0.152034831605	-0.0916655856743	0.194054658555	0.0755898411703	-0.0115743021437	-0.0291739878468	-0.0855247409099	0.0678434385586	0.198287864192	0.0611130418361	0.0593291638526	0.0235135575391	0.0787029610455	0.019973025559	-0.140787249333	0.170591434539	0.0183351849795	-0.0675845158747	-0.0269939137289	0.113228705931	0.0513416128701	0.0344521218214	0.0382352039739	-0.119310928281	0.0831846604757	-0.186135077091	0.0292200941847	-0.18945794586	-0.072455981398	-0.0980194708353	0.20746817731	-0.0636432255065	0.0686827267787	0.0753464350213	0.137151315469	0.0820346052353	-0.0470138918609	-0.115523802131	0.178705446705	-0.126976898594	-0.00903122194391	-0.146114014279	0.0891920438037	-0.0698121330804	-0.0564161858658	0.0944822411397	-0.0503839098012	-0.0369054724595	0.0594697530692	-0.0060752461083	0.0884438362401	0.0144062653381	-0.0927507374846	-0.0988316855582	-0.0155413616536	0.0173402142784	0.0158699001062	-0.10765952228	-0.0160919833125	-0.119796519483	-0.130134334052	0.0753399840756	0.0641185371637	0.0678371306258	-0.058380236642	0.127994979567	0.0350589224509	0.124027245474	0.144248691503	0.0792404622022	-0.0838310077229	-0.0405566581779	0.0964931483011	-0.0404487624823	0.00606152390127	0.00288336169129	0.0649266619443	-0.0149422024404	0.0829930654211	0.00262100500822	0.0512764543005	0.0281148358546	0.163673089457	-0.019646758976	-0.0397976365691	-0.0185203611281	-0.216293083061	0.102814371733	0.153004155176	-0.175701119447	0.0343676107948	-0.103256832591	-0.117780288563	-0.0760880953872	-0.0217685960623	0.0483262366112	-0.0209015353962	0.124630736318	-0.0635263421482	0.00240345955654	0.202576548802	-0.113636485697	-0.12465659488	0.0513810449143	0.108894219834	0.017630698731	-0.132967908877	-0.134709397516	-0.0401044947291	0.0332781094253	-0.0911829877524	-0.0506422938897	0.0505479209183	0.0573590452653	0.0759872879528	-0.194335518709	0.0211655292893	-0.0708717899806	-0.0930667870563	0.00933438642754	0.0133350199944	0.0720953873039	0.0437931483995	0.155310362766	0.0276486131131	-0.104043603578	0.134669244818	0.0405220210799	-0.084215102792	0.0385587027635	0.0163774579467	0.0352058685128	0.0352099289475	0.0112570251416	-0.0871415528989	-0.0436150593646	-0.122429689964	-0.138209571567	-0.123228301659	-0.0760725578585	0.0461363293983	0.0706662872526	-0.0156256798931	0.0568213726396	0.0377460741352	-0.0206375145775	0.028518447046	0.0194334306396	0.103995032126	-0.0515952584742	-0.00255953666743	0.00376761665304	0.0824318682782	0.0289569544704	0.116759007687	-0.155913986686	-0.0905506416947	-0.059215302181	-0.0421686964544	0.0167562810796	-0.0421769509195	0.0335274512721	-0.060779479898	-0.0237646669687	-0.002995650386	0.0389829907044	-0.0564678455782	0.0357744576656	0.13105161878	-0.0776923384208	-0.0391048283675	-0.051113411819	-0.0974630900702	-0.0293051821669	-0.0230982562139	-0.0604736233966
apricot	1.08043745212	-0.272572842824	2.00673850807	-0.123254535504	-0.149117896739	0.667016938031	0.0418880018197	0.337284305552	-0.562346711516	-0.490393667907	0.274693888894	-0.409732138649	0.0299959350409	0.117312218308	0.306376879432	0.235936419986	0.0230462258685	-0.462759239592	0.417668361784	-0.363326293443	-0.255407790263	-0.00828724610733	-0.106972919127	0.418270054809	0.256240600434	-0.445954828356	0.107068377105	-0.215509051047	-0.12475189942	-0.0512821568219	-0.152134223978	0.0361220597534	-0.211429670167	0.176925446768	-0.320091080421	-0.33134058798	-0.117395709726	0.0503372772008	-0.22648635932	0.140471837607	-0.155879325424	0.0640803102333	-0.169248026014	-0.0291982923311	0.0393988789002	-0.0268471637682	-0.0375190325211	-0.0556136405299	0.0599533850394	-0.0619843595227	0.287217063268	0.0270089859616	-0.209111738208	-0.225103131866	0.252120329464	-0.141328089934	-0.191953339496	-0.154098154421	-0.019951497057	-0.0975127463604	0.0911792872355	0.197534019283	0.0687371381669	0.163541001172	0.0199210991398	0.286641141561	0.249796071505	0.509373246074	-0.0418498535489	-0.0840369281889	0.281971415255	-0.0434126865401	-0.134933942438	-0.408776742854	-0.121866625886	0.15594890067	0.20723105939	0.111549286702	0.260718390819	0.0693246680305	-0.26177517222	-0.102992869828	-0.0999924862784	0.15612300078	-0.300760655996	-0.266584692279	-0.00561499127137	0.0306363668582	0.08345590485	-0.152719649529	-0.154441425732	-0.114046711632	-0.194251793344	-0.308536465625	-0.0646304642225	0.106127451279	0.0116003659413	0.0655133030918	-0.118761250607	-0.116105074364	-0.223630660027	-0.0261665995318	0.2014999497	0.146866694121	-0.0765932890412	0.0653773646153	0.217641854139	-0.121820333179	0.078116244597	-0.0515344644476	0.0319119503403	0.0594709220722	0.0532830086639	-0.0351568974468	0.0136669194839	-0.196486669324	-0.00371725685671	-0.0301061693983	-0.00726406262472	-0.158258928943	0.125612061668	0.0133363955791	-0.106947005627	0.13648974348	0.180765304154	-0.11021642377	-0.0602941517534	-0.0487424912338	-0.0703862981032	0.151955295491	0.0345869109534	0.128530073517	-0.012641657834	0.0103578743355	0.00165346454027	-0.0931472740522	-0.118765104641	0.132525671686	-0.0385416666314	-0.0721498251909	-0.0735836032292	0.134731550394	-0.0744209095669	0.0799284775513	0.0682647803813	0.00642339022357	0.143422425292	0.0837648080442	0.00293461181239	-0.151887666658	-0.0893875032682	-0.0669524054435	0.00401078685958	0.0241730103491	-0.00424936752482	-0.0270549324973	-0.14534382276	-0.0588604525478	0.042907188617	-0.0626619257964	-0.0573667363138	-0.00820085780122	-0.0498720093149	-0.0856568213714	0.102827939908	-0.0525680068541	-0.0364650865857	0.0177464476606	-0.0289691259904	-0.107928707476	0.106963937526	0.0368735173466	0.18068643592	0.0935536204783	-0.000487938117655	-0.0712611544077	-0.0761347684374	-0.0270513319606	0.0178157759274	0.0842908812949	0.0568909005956	0.0490977755101	-0.071962909135	0.170735313626	-0.0460880149569	0.138040886743	-0.066738138947	0.0118045520872	-0.0295759744086	-0.0500799463561	-0.106651274491	0.0827779060761	-0.169187399486	-0.089801676065	-0.0302993020652	0.183238852494	0.0397423923679	0.0493023111947	0.0421638010076	0.0867257874648	-0.0851758738741	-0.10952973948	-0.0578856147013	-0.0304354158248	-0.11137015288	0.00818999413574	0.0584296667248	0.0339148040527	-0.0223208341372	0.0326305350697	-0.00142451001947	-0.0948052572689	-0.108536094416	-0.158095537948	-0.0159453916219	-0.0340977648606	0.0986166520788	0.0547038564488	0.0340887388363	-0.00322408711008	0.00789023100522	0.0282091226721	-0.0405156750579	0.0894152242994	0.00174519526235	-0.0299093493858	0.0958496871642	-0.0083526574154	-0.125993946596	-0.00889191506283	-0.0551655530913	0.0348253770647	-0.0492880337552	-0.0174410380511	-0.0523258129884	0.0360363940184	-0.100116943104	0.0499982246704	0.00248122047676	0.00821694874747	0.077563468262	-0.0236203431423	0.00234559583831	-0.0509757861825	-0.108001590798	-0.00261844274235	0.118231660699	0.0468480699406	-0.1024947519	-0.05401219607	-0.074236095773	0.0107803499262	0.0147222598946	0.0402283772643	0.00744465455353	-0.000908657851435	0.0930711366964	-0.0596364255243	-0.0480426835275	-0.0705557962116	0.020243188909	-0.0963442312872	-0.0425832995137	-0.0101922697562	0.0198380209348	0.00527416343918	0.00341063953994	0.00189558705778	0.0593508714396	-0.0784216046202	0.0105636604184	-0.0356963094603	0.00142043812222	0.00199492504772	0.0301413558999	0.0353481516751	0.0382276339752	-0.0503903015096	0.087274603632	-0.0690421818887	0.0990570915768	-0.0340902895884	0.0608273164189	0.0512135931289	-0.12821585053	-0.027651032815	-0.0664725395997	-0.129388370388	0.00810177643096	0.0541326182929	0.0294156818889	0.044688056976	-0.0245383817362	0.0605077596269	-0.122616997459	0.0593585218471	0.0441900572523	-0.1554177598	-0.0278513219644	-0.00788452072063
apron	0.414894381956	0.618978032643	0.0663138047021	0.916624131458	1.61850147912	0.231999951262	-0.173413358187	0.196097738498	0.640058858259	-0.0632377532531	-0.252640097494	-0.231597665759	-0.231797405671	-0.325531059754	-0.181788120619	-0.181104887081	0.357417535115	0.174384958678	-0.320221548794	-0.367181402149	-0.0607545419872	-0.250444863015	0.00281456763596	0.264714845029	0.498097111153	0.0358088688112	-0.193235927217	0.239263546662	0.0223081512849	0.0747089271739	0.19531424887	0.107253229703	-0.0732776743973	-0.2092465632	0.173460999103	-0.14266574235	0.162470078938	0.315032148251	-0.532997793352	0.236871613641	-0.137651559007	-0.514618429915	0.0184450929479	-0.00662741888002	0.118602588874	-0.2523718731	0.288696873023	0.190579165134	0.257588494709	0.318744446223	-0.133777328449	0.125639651241	-0.284640609864	0.0289687804923	0.486235028406	-0.084267261315	-0.0743484958529	0.326513902277	0.0794116223104	0.0272862724249	-0.107888737409	-0.325463656447	-0.0840170693623	0.0960839629959	-0.271198392736	-0.0915275703829	-0.033284722099	0.235642716722	-0.0199470792159	-0.0326992002863	-0.0259492675542	0.335384763203	0.269979695619	0.109038655238	0.123569087908	-0.154524598779	0.346636855819	-0.337753647081	-0.0831390953772	-0.290313304331	0.118694741578	-0.0970312094515	-0.0359967716625	-0.174889793932	0.258071139467	-0.0489133925206	-0.0275257714844	0.0975019874159	-0.120913718011	-0.0571467109269	-0.167290585506	0.0267393003484	-0.0837937143108	-0.162874092028	0.23530390772	0.311691951639	-0.249440071586	0.152141355574	-0.238069090802	0.0637114335296	0.108934590196	0.106972931398	0.182634123176	0.181972289984	0.240557554728	-0.144529393153	-0.170835302481	0.0140860245321	-0.0059689391526	-0.33077939028	-0.0212158404789	0.225935092174	-0.0848199165848	0.177311710635	0.016703577107	-0.0834790270816	0.0619677813402	0.161313567533	-0.14199792839	-0.0703895962617	0.0908449479212	0.272631226239	0.0350759949676	-0.03659281063	0.26447171562	0.0971749879954	0.0256264998488	-0.277982824556	0.0291104861869	-0.164276035494	-0.104595062192	0.0600638354907	0.0459791627897	0.150108057565	-0.132077400685	0.015828726825	0.355850713515	0.401897926476	-0.320634967149	0.0890215430054	-0.389014828599	-0.186226084153	-0.0877842857425	0.105529408091	-0.231108212741	-0.102950295373	0.23691682403	-0.0806940927405	-0.0134213948948	-0.148507780668	0.128960928635	0.0661578609379	-0.0702465371169	-0.0912071794937	-0.142364967708	0.0346695926629	0.350328048717	-0.0822142073357	-0.0877672268125	0.18306159149	0.476990921907	0.134911925244	0.109303872432	0.0653703837758	0.334867846134	0.261159042542	-0.348489643121	-0.204120538344	-0.0804419369902	0.0719427519854	-0.319927716728	-0.10218976013	-0.0170254753503	0.274982599889	0.256918185287	0.217845335323	0.232205166269	0.18852621886	0.0842510593742	-0.204504696388	0.329690973432	0.232472110663	-0.0260106900974	0.0142449559493	-0.0339408287991	-0.417315018502	0.311763503873	0.124828150173	0.184602338088	0.124021545791	0.519826426437	-0.207288823357	-0.242278375747	-0.147864751642	-0.296179844644	0.211853888316	0.250485073645	0.207263055526	0.282307287948	-0.0170589707512	-0.0133093072079	0.16839658616	-0.112593639464	0.0531213037105	0.201137629821	-0.107158224654	-0.0544195892259	0.352359448702	-0.175705763344	0.130775143835	-0.0190810354464	-0.0336675218347	0.120984262348	-0.36198690487	-0.398055433942	-0.0279212372718	-0.370582914854	-0.142874329443	0.0325497350602	-0.198853020073	-0.251984618683	0.118904208496	-0.311771876444	0.0876759551108	0.0869562373566	0.22365904524	0.0619609023151	-0.0651342749973	-0.0615187965074	-0.212648808801	0.120364791754	-0.204738162801	-0.0858385198506	-0.148478836777	0.258623375703	0.00393482698959	-0.184862115839	0.188704271641	0.0868370130187	0.141575076468	-0.249838375746	-0.13490343754	-0.0676326013022	0.0537042751965	0.0544890930455	-0.0510924433009	0.169590874686	0.0961947114221	0.260504483563	0.271612144226	0.0641709169604	0.00329750256763	0.19177571214	0.0773929185942	0.0680978690756	0.210782662816	-0.143496654433	0.274378086996	0.0157957599459	0.186884444892	0.217750315922	-0.0840880072176	0.0459789343082	0.0723383129909	-0.0858080449544	-0.0913525733568	0.0745163483349	0.483424426891	0.143407617681	0.0532270489053	0.240127613162	0.123009111269	0.246293240566	-0.0284615543077	0.0874156248084	-0.0921017255866	-0.0987789117057	-0.207029930235	0.131574243284	0.134720678313	-0.0460524005039	0.0376297125455	0.188719790675	0.0602417767683	0.0973631303321	-0.062706499322	0.148421398275	0.0629773369123	0.0368805942929	-0.0588661389509	0.259715957552	0.192137637289	-0.026596462677	-0.176903678476	-0.116511828623	0.0234702630471	0.231733220338	-0.0221677718569	-0.120082033609	0.131330260904
arm	0.331740509929	0.314106319415	0.0924787052591	0.031438397112	0.328790722528	0.0542404213776	0.0115589679216	-0.390473009424	-0.125454636114	-0.109774069848	-0.0840380095211	0.191314525204	0.403540244469	0.685374651929	-0.762269126408	0.76324763807	-0.956027434881	-0.589871963184	-0.111906476111	0.669541819832	0.109047207707	0.535135674555	-0.364990743972	-1.34545482682	0.939093005726	-0.681653081112	-0.585231112258	0.7718298299	-0.335189487963	0.632075102922	0.0385790553393	-0.0922633215197	-0.186439543781	-0.0538712794181	0.0786565434054	-0.155827408755	-0.237147603467	-0.165284087708	0.122568494694	-0.215106445211	-0.268924078891	0.0347026131071	0.125637520474	0.391637670822	0.206566247078	0.288138971269	0.145617122207	-0.214480673798	0.53252828977	-0.198193996246	0.159820964899	0.0778368336539	-0.0237947558556	-0.2232636678	0.0532179853696	0.17723420152	-0.114938161796	0.256624384522	0.083272685154	-0.035637594465	-0.148817141846	0.0032631847824	0.139166047588	-0.167382228148	-0.16437882853	0.147617513254	0.151001185041	-0.182232246605	0.0274009064112	0.0400257443679	-0.0954924284541	-0.0271846952205	-0.0239843462174	0.0667263209673	0.195575058598	-0.0182235110883	-0.0543589674165	0.0226611298518	-0.0283570652663	-0.126150987083	-0.181992720437	0.106941480517	-0.166005613896	-0.0470892292936	0.20010436223	0.115813433079	0.0993511321763	-0.0241254127524	0.140348446097	0.106662479805	0.119816343429	-0.228648148893	-0.223035079687	0.0819983878062	0.116911768579	-0.0285027359085	0.274720514452	0.255508787286	-0.210321983461	-0.0121380911778	-0.153535934024	-0.219408337609	-0.0812947479359	0.00489516527626	0.0945924373862	0.0799663454614	0.0725598288105	0.0715165471818	0.0219508000208	0.0489198863617	0.101213672534	-0.100051290265	-0.269871579815	-0.0493831048959	-0.120565632321	0.00852116301055	-0.0957015161359	0.13680403071	0.126878638451	0.0207414049088	0.105203791492	-0.0866086931023	-0.0995017729162	-0.11018205456	-0.0268375820285	-0.0912636096357	-0.328009271642	-0.0389684357244	0.000499976485602	-0.138950713496	0.00409866581341	0.0986947793013	-0.0538720726077	-0.101232913318	-0.0893963009803	0.125742581127	0.0731013575391	0.0565678401424	-0.259876996528	0.203722417069	0.0697562439569	0.0778089204066	-0.105641221349	-0.0344907894137	0.141803936377	-0.0581873579753	-0.0306982861648	-0.112903064617	0.0450397854658	0.164421218137	0.0153379905186	0.00166761457074	-0.159997860225	0.0633407285931	0.0982513983578	0.0775151502146	-0.094229390647	-0.00215691554431	-0.31094788099	0.0447182088247	0.0920286700997	0.234687122129	-0.0930532650821	0.13455198837	-0.104094891108	0.0334342991502	-0.112602916952	0.15919766052	-0.0398659534606	-0.0802094524225	0.0362793770483	-0.0342204889634	0.187875553523	-0.22435742239	-0.155016458065	0.0311575459913	0.0931265869626	0.181237643932	0.133867653296	0.0303084448147	0.224870481028	0.0890394249234	0.0133728808776	-0.122096316336	0.0907378731795	-0.0385974393723	-0.0359774128582	0.211839018193	0.0160897402479	-0.0272677832662	-0.0593672261947	0.0667913519839	0.291983587263	-0.0702884616182	0.118690114651	-0.233967167006	0.109127610487	-0.0657918645403	-0.0760939195544	0.0606248775903	-0.166675278469	0.0953112596014	0.104848125843	0.162225081792	-0.00841720285003	0.132784471944	-0.0169610438915	-0.15115835821	0.165909391107	0.0208996616337	0.0604354613456	0.0518415388268	0.0873569415471	0.110897025417	0.0584819696211	0.0785244148189	0.0165216629076	0.133138686232	-0.0718016292968	0.222043966936	0.0313271607244	-0.034552704717	0.0754959067059	0.0683710036981	-0.2135745947	-0.0274681831177	0.0684767436502	-0.074606600122	0.0141780928882	0.0488852970203	-0.039198489058	0.0352411475178	0.0670900962166	-0.0298284732024	-0.121947546371	0.0684278689538	-0.121581978596	-0.179172239451	-0.0890968529015	-0.0525811699902	-0.131913798374	-0.0240980872779	-0.090910924938	0.106068273616	0.222370609056	0.0405697312847	-0.0416613700375	0.142461971249	0.360578156376	-0.147255063848	0.173923693857	-0.232275536317	0.0188808879909	-0.0100352025458	0.0788020560559	0.164530052218	-0.07166582432	-0.16672079332	0.0412357074998	0.00093172762022	0.0395588762889	-0.0719168543841	-0.0818766724428	-0.0594857478523	-0.0393369063393	-0.0308669968914	0.187800491345	-0.0395824237371	0.053829102566	-0.233794435474	0.0987418524656	-0.126692010498	0.14361191627	0.0293416275604	0.131122711862	0.00111800195932	-0.147213111681	0.196197558637	0.20372433535	0.106193828474	-0.414482495986	-0.279558611913	-0.181533703557	0.095323809764	-0.0126053330051	0.0661420244452	0.156455090513	-0.156215084618	0.188567869248	0.0292786488705	0.34882295812	-0.167642607065	0.071869361951	-0.0727454159207	-0.184545230555	0.0593346500575	0.154516350779	-0.109341352777	-0.0525069767255	-0.0301834294409
armchair	0.886637044387	0.394076288608	-0.341326342036	0.163555380622	0.533484232717	-0.459332936127	-0.765009202805	0.284332062323	-0.172011219536	-0.150643946595	-0.0901188049261	-0.0986770137162	1.11583071642	-0.893230595739	0.607316075715	0.289325841224	0.445642310772	0.312675506931	0.550664849595	0.442732575321	0.115356862775	0.898223086404	-0.712716781926	0.281413292653	0.139584106908	-0.0284034553418	-1.15414798054	-0.804065072697	-0.252016588063	-0.588225458848	0.355172770487	-0.0778557296633	0.262037362785	-0.115454126276	-0.341480888432	0.0228181618091	0.0144852962691	-0.368623809559	0.769351517073	-0.410005142072	0.214273855199	-0.163515003283	-0.140151451724	-0.200385651636	-0.683214750943	-0.231911069447	-0.253287199711	0.289131419812	0.483019149241	0.171976471329	0.155351865374	-0.185356794413	0.225996653422	0.137575210189	0.0597864155327	-0.0471530139906	-0.196963518044	0.171908462981	0.376889857801	0.147049725574	0.214204886512	0.0515520451169	-0.0741245425553	0.184759372536	-0.0879317065451	-0.0533149396245	-0.0237216226356	-0.0353473723706	0.0864917955877	0.148183015908	-0.318258619135	0.167507962271	-0.131654515637	-0.00394564669664	-0.0376339274827	0.0859983282163	0.241476518059	-0.0548365062682	-0.327962876919	-0.414741762845	-0.00620540074093	-0.180514974019	-0.0953794930191	0.0907609626087	0.00186261886395	-0.131907252701	-0.097951558126	0.119821433966	0.0886445455066	-0.234492434214	-0.0348321754402	-0.245788741524	0.14008666355	0.0883439773392	0.0591657127592	-0.205874487035	0.161660983326	-0.0184788890393	-0.107223001731	-0.134615380641	-0.026841819149	-0.0704875509447	0.0133700578262	0.053842712068	0.103991863244	0.245746368364	-0.0918519380413	-0.0255506134065	-0.0177952964489	-0.0351867799654	-0.124429584557	-0.17182247917	0.0539152258442	-0.0964345156749	0.209271582472	-0.0237467642388	0.129190521063	-0.164978441989	0.0497569478833	-0.0399365793218	-0.0458152807618	-0.00299749605114	0.0273507962752	0.163547554083	0.0239005671328	-0.180236420548	0.112064965995	0.00569646583822	0.0400691282666	-0.032176206931	0.250736569746	0.0598037456565	-0.112663073454	-0.0173708312813	-0.0204209745092	-0.000446230001776	-0.100069127945	-0.367759990257	-0.157574087466	0.0977448364958	-0.0759218397539	-0.00648365612624	-0.140632015448	0.0819092781544	-0.19446286511	0.0848672032035	0.210724240459	-0.0658387514697	-0.151792157555	-0.0590200704203	0.135984290974	0.0358689110476	-0.00403040591469	0.0651942324411	0.216654914367	0.162573513221	-0.100041152359	-0.0860681044217	0.114225294512	-0.0778084464623	-0.0504080767551	-0.0836556151247	-0.077915222246	0.0860492817649	-0.227459354917	-0.075370939713	-0.0300731069351	-0.127210830229	-0.0628724019219	0.0696864394247	0.0453802610261	-0.0462777652474	-0.0254258154557	-0.104867861968	-0.202552460672	0.0327231626676	0.0364232965336	-0.00270037025136	-0.0268799978457	-0.0842968180733	0.13494181476	0.0518306584484	-0.0583862658064	0.0024986732715	-0.0717103166953	0.0863344284907	0.258288179531	0.0591689230744	0.105661931189	-0.0879298620488	0.0641832631778	-0.0895293429696	-0.0296448638659	-0.0557842444642	-0.099600172415	0.00639690055487	-0.0590297963105	0.0285236482673	-0.0835390191669	-0.116218475863	0.147861638008	-0.0798717243581	-0.115597379342	0.069475883496	0.0145112760896	0.0476525111557	0.0919355395593	-0.112367750744	0.111150292956	0.109641508322	0.054879505788	0.00763207871228	0.110520544788	0.0760734784643	-0.167959194611	-0.0629518076965	0.0221441998733	-0.211033583249	-0.066540949519	-0.00557929936411	-0.0561563808956	-0.00135142760943	0.0903851072289	0.0395260431336	-0.0851359240912	-0.0241567455433	-0.000663491486382	-0.0325110342893	-0.0422336621436	-0.0895468380727	-0.0500640461453	-0.027316541137	0.027853589408	0.00558197289704	0.10208798005	0.0612010188666	-0.0232528431772	-0.109152536069	0.178923517238	-0.0591850106708	0.0859632830354	0.0312744173409	0.0272119001657	0.0257662764075	-0.00627393589438	-0.0256355772356	0.116202931229	-0.0995632516684	-0.0675938315886	0.0845584602144	-0.0181245752188	0.0105793341921	-0.0451857552333	0.0653688476491	0.0213255954622	0.130845372201	0.00649422653402	0.110947864957	-0.0894549314825	-0.0134847437086	-0.126679993959	0.125353452723	0.034957696993	0.0262935589307	-0.101403842377	0.0566495424263	-0.153544485934	-0.251874209961	-0.100643485831	-0.0334224296074	0.206401189069	-0.0348656019509	0.0183442596291	0.0684415177832	-0.0134832471411	-0.036524097816	-0.0430139237493	-0.0743581881024	0.257041338867	-0.13206451204	0.102207934836	0.059842827246	0.0790376339531	-0.0903913801285	0.0500185001557	0.041354365311	0.0803720305936	0.154450673683	0.0325769571676	-0.00149517852188	-0.00661793323552	-0.0264879309775	0.15548853558	0.00755298865169	0.192931665638	0.0936441768	-0.0470351680056	-0.0787317166251	-0.000748446549153	-0.167716112908
armour	0.490050774051	0.801401036822	-0.116332564335	0.124518321066	0.367706486426	-0.0778240687526	-0.355098356877	-0.0663581202224	-0.225287333343	-0.0642608646786	0.202099826364	-0.0803969531266	-0.38983440715	-0.232180900247	0.186599836837	0.33385056918	-0.124478233189	0.321517916442	-0.179577501691	0.402109920819	0.339829632114	0.0389007013408	-0.291160916349	0.321409040436	-0.503055080215	0.0808555972205	-0.11661260434	0.458716853975	-0.483590638257	0.178767824389	0.281869369814	-0.803376785668	-0.552682130223	0.0297870432471	0.10676461858	0.271056010526	-0.613802114065	-0.404077751696	-0.782714370472	0.331098459354	-0.374298556798	-0.720178422969	0.427024765811	-0.00782331920924	0.115232322172	-0.0218726892299	0.45610025405	0.0584116069391	-0.0371921754071	-0.329264895283	0.312905138326	-0.0556961264972	0.0113991888213	-0.139165880005	0.118231893862	-0.160902321247	-0.280317610051	0.119711897734	0.144082686646	0.208788114858	0.0276779070842	0.16236974142	-0.0437605886984	0.206568362977	0.0444159015071	-0.24751494865	0.0213413507202	-0.021569978751	0.0502992200267	-0.0350009120482	-0.294543029133	0.0557247260043	-0.0160691507594	0.0189391362704	0.175597441219	-0.146647842848	0.332393550682	-0.339036461292	0.0573802286908	0.254668399196	0.0967245163865	0.259360464739	-0.12761048037	-0.275472968093	-0.0641142923876	0.250302087372	0.270433279477	-0.0123655463985	0.191826897025	-0.0170266553319	-0.119868677485	-0.136821772108	-0.0864852639827	0.0946573856316	-0.280093169072	-0.0711974836897	-0.172021500802	0.0941749351582	0.102501535615	0.02402865076	-0.254731574497	0.161951072673	-0.108003231206	-0.139565371111	-0.0691302093389	-0.0506812823349	0.0526352302924	0.0243706948257	0.458511385809	-0.0843853426837	0.215842813704	-0.0085996170546	0.36143535564	0.244294165869	-0.165634449701	-0.0705183716229	-0.0723489922109	-0.195646405103	0.0529835807875	-0.0246226542907	0.0515602934902	0.0682830529269	0.184796929803	0.0113791972911	-0.0832677634544	0.114766392637	-0.0498331499041	0.108533832166	-0.027784105809	-0.129976341275	0.0886330790897	-0.208449880875	-0.0637080095783	0.090612948141	-0.133421340325	0.0871702559358	0.257676484762	2.26101505299e-06	-0.25933588639	-0.312297608101	0.0969251040336	0.103662501112	0.0303080256368	0.0654504171977	-0.105630118637	-0.11602421727	0.226324741139	0.0829074168248	0.0883635399167	0.0256932005893	-0.030821745216	0.0932166051829	-0.303207491827	-0.0176512567009	0.210870964859	-0.194951755352	-0.196909767856	-0.0979453184707	-0.0323772591967	0.0717103743593	0.039684497834	0.0130006746815	0.0859168634225	0.0447474912874	-0.193242565633	0.0274095493599	0.0877109120614	0.0970108990996	-0.0153309250432	0.0149450360112	-0.024485822326	-0.0654918198259	-0.0067743682854	-0.0208391040766	-0.145011422426	-0.0659633917045	-0.013756158266	-0.0255522772589	0.000136841631905	-0.104683428384	0.276394232734	0.211887218198	0.0653923027266	0.17627050851	-0.172888590471	0.002941436374	-0.0994148582388	-0.0356176347636	-0.00238325779509	-0.0763074814173	0.0515091490074	-0.176252268706	-0.0161538767172	-0.123251468027	-0.0195044165919	-0.110562004805	0.0191545550853	0.0204461304892	0.0311391160057	0.0318510601922	-0.0481496092191	-0.00554140687457	0.266851314698	-0.115449668865	0.025976189135	-0.160602567165	-0.0393029189853	0.0784034742901	0.0880792367251	0.0158016431041	0.0343893478912	-0.0101337405055	-4.14074952809e-05	0.0422778894138	0.0901144591147	0.100847703575	0.139755214431	0.069623381398	-0.0523017507927	-0.0811676389435	0.0451841750962	-0.078379202211	0.201283284884	0.02209818008	-0.00675747595327	0.0848482254482	0.246875623823	0.0839970068015	0.283643793341	-0.136455387839	0.173145339905	-0.104024524305	-0.0520092797885	0.00904283517924	-0.0222151764947	-0.0158445795308	-0.00997703728178	-0.0899813083328	-0.126658628413	-0.0468868906673	-0.102924070912	-0.13365176448	-0.0934607034579	-0.0921531179498	-0.19748599198	0.0448824328235	-0.022395087709	0.153988125552	-0.183076916346	-0.0744875088721	0.0953033146736	-0.361059511846	-0.151516965164	0.074580599782	-0.145900210008	0.152929143897	-1.58974541413e-05	-0.0288006451905	-0.0889447800524	-0.0199963295091	0.0526377938542	0.246993296297	-0.131644419867	0.0323395072923	-0.00601049466719	-0.0668536643016	-0.0541424728961	-0.00804667873043	0.012365840452	0.00532561040834	0.0624123640562	0.0120966908275	0.0569313994533	0.0186039159865	-0.263736333229	-0.0176686274344	0.0300503245237	-0.102488611229	0.36789203689	-0.0641622283888	0.182117989742	-0.0729475266026	-0.0201396335152	0.00488583681208	-0.0497880957808	0.0090920355715	0.231849022339	-0.198270592699	-0.0631572389262	-0.177537502079	-0.0571922645083	0.0723116225155	-0.143647703057	-0.142738433698	0.213434155194	0.149716178141	0.0942855825393	0.0432047219437	0.0621832202038	0.0481323316413
arrow	1.05216951411	1.30087963855	-0.34122040869	0.367770211203	-0.40673286934	-0.18323694782	-0.166910493593	-1.74827683981	-0.898348944029	-0.493444592039	0.104946161606	0.360081105176	0.122406450127	0.552307561642	0.198353361194	-0.698578999388	-0.468005286945	0.242054705101	0.0828851801408	0.266126355941	-0.0503343072128	-0.0548457221451	-0.713303141272	0.380170225158	-0.388330757201	-0.324114156176	-0.0295738664802	-0.0718716071724	-0.115286535794	0.285634235511	-0.0890951222679	0.345512481529	-0.147612037203	0.11597140875	0.659693375202	-0.0572001868049	-0.111542100557	0.600837051536	0.285522272125	-0.0511376216417	0.195829392583	-0.364316180082	-0.0471395525229	0.0782433714571	0.10135726921	-0.192088496641	-0.130089135936	0.211176577218	-0.180621752079	0.533815666496	-0.11141051924	-0.158482533612	-0.315552403174	-0.241675650688	0.0207370406692	-0.029240892518	-0.137774119968	-0.257933739654	-0.322972771265	0.0640265561645	0.167435196384	-0.203934981572	0.178936124096	0.116279447357	0.027981304865	0.0205357963359	-0.276013086457	-0.107434121979	0.161075111027	0.187950485863	-0.218297872599	0.0520506287881	-0.0580767024686	-0.162804910587	-0.357089852815	-0.207020756977	0.336243378326	-0.0834955076865	0.262497940692	0.228494512012	0.175917089645	-0.0315968446581	0.330502689091	-0.0339901942463	-0.0300547299648	0.162744399239	0.154079017346	0.135953689481	0.242456621898	0.050034401493	-0.243559848204	0.096294590226	0.099589379619	0.171563222721	0.0415419605507	-0.00611930303825	0.121514624031	0.0587491255214	-0.0071356214909	0.0269335419618	-0.109878990731	-0.0085352685349	-0.009793682567	-0.102845023299	0.00535487977972	0.120721941527	-0.0254683488145	0.232326300913	-0.00352260085617	0.0933445507768	-0.151202606435	0.0557033368964	0.0280585004817	0.0164210800148	0.046392954368	-0.0654792907362	-0.0362174013627	0.0504554109986	0.0161093322552	0.0448233523052	-0.0581530085627	-0.0806355022437	0.0229195037991	0.0153187938214	-0.130898554837	-0.0366233384473	-0.130785977851	-0.053735326773	0.0425877436924	-0.0953200463423	0.0299770282178	0.00836324646935	0.127849826023	-0.0441188165489	0.133382288527	0.0120496894843	0.18263204208	0.0848608139932	0.0126142537295	0.0951954283693	0.00283219662546	0.057477154994	-0.0951731061175	0.0134496769479	0.00121341209971	0.144561437667	0.338657038934	0.0550421947629	-0.108842589434	0.167258129912	-0.0507983007947	-0.058166162923	-0.0139446521959	-0.0272809940487	-0.0877881682557	0.0187914555693	-0.132145049767	-0.00524779604988	-0.0697502145643	-0.047966836249	0.000980287775337	0.243324487062	-0.171184891602	-0.110049456822	-0.155057290732	0.176122943919	-0.0738797597013	0.126424239448	0.219277223488	-0.105001563454	-0.0290152662382	0.121958653992	0.151301850639	0.0896442306015	0.0465963557066	-0.00680840337436	-0.316679391536	-0.117313920352	0.122487459867	-0.0974446472745	-0.10551754089	-0.113294388523	-0.0800989491922	-0.133654391494	0.0382504453618	0.0922684257024	-0.00151089984507	0.0227071360954	0.118008045404	-0.00563250474187	0.0250943005999	-0.116551172031	0.200720155723	-0.032875358865	-0.0640109828038	0.0780122726107	0.0715921473767	0.162926246465	0.00319267533057	0.073868010218	-0.0485160898296	-0.0915264596387	-0.161786239701	0.0585330748566	0.051296437487	-0.0541463472516	-0.147751356026	0.084696278706	0.064695128368	0.127961495732	-0.200717100715	0.0249459514888	0.189422505465	-0.255328666924	-0.0156166920947	-0.00595337678224	-0.0327338924296	0.148420878913	0.0015721821043	0.0367726556013	-0.118781283536	0.160987303	0.0179133850571	0.0706143313566	0.160398099295	0.016619281504	-0.0707197331046	0.0724505127992	-0.0474199975866	-0.0515191757404	0.0556960684748	0.0705350868856	0.0138784367786	-0.00421141862181	-0.00273310884466	-0.00476993181029	-0.000211611032577	-0.0271724381752	-0.22207177065	0.0724242506111	0.118696560785	-0.00736167011772	0.0025751362401	-0.0632306681552	-0.0759845867386	0.0281422288601	-0.0873547485182	-0.124602297423	-0.185015472464	-0.0644097064914	0.0696534964416	-0.0309084924401	-0.0753048873302	-0.0241048384991	-0.118080404798	0.0435957311789	0.041165446866	0.0646557194043	0.106367840263	0.0689320134868	0.112489528436	-0.0834505333636	-0.00121686064635	0.016635067775	0.0753674694131	0.120019686518	-0.0535032623475	0.156362381767	0.165862632092	0.105939024739	-0.109466853642	0.123025328091	0.0743629071851	-0.125013618208	-0.0252078137627	0.111564797649	0.0738759202656	-0.0746116421587	-0.0238378226785	0.113744992015	0.0851567555911	0.0197212322854	0.0617640713167	-0.149488350018	0.127220477259	-0.138560460699	-0.0916359584156	0.175004504329	-0.0306599889173	-0.0373006565378	-0.075997785029	-0.198725704134	0.0206441461544	-0.040608209047	-0.235268147793	-0.143279440462	-0.0322092478722	-0.0840529863541	-0.00837354724122	0.141140389928
artichoke	0.708282546859	-0.218128725991	1.61594323334	-0.123875744809	-0.0032685440803	-0.471465243109	-0.137124622224	-0.492443833911	0.553529714153	0.31005565732	-0.131718419501	0.506374936612	-0.152092583381	-0.285292096974	-0.602528079363	-0.344662987458	0.674877904513	0.325696521499	-0.470927777145	-0.227526710922	0.193533040553	0.405535467838	-0.138793585317	-0.139740947473	0.0536359464298	0.300211637293	-0.0557209037314	0.0716787114733	0.0953844007593	-0.0196822451788	-0.064031418634	-0.309958945628	-0.0410870393856	-0.0298936722983	0.0725943405628	-0.224396521031	-0.0462855186446	0.138019319661	-0.0692400351901	-0.119282906879	-0.0590194761752	-0.0119095002116	-0.00643226404338	-0.0790952811917	0.0617505978896	-0.145066052084	0.0314046006015	-0.0526539220251	-0.0772077548911	0.113652956331	0.106473532614	-0.0561049726031	-0.0595148731173	0.0886099869127	0.0502313251116	0.210679382369	-0.00908203977651	0.114318600169	-0.102908109427	0.131975445222	0.0184516690685	-0.199723837089	-0.185115788518	0.0208609984145	-0.161941445796	0.181196097657	-0.0421184905381	-0.112198667967	0.00844406793106	0.0968173445246	-0.106603143444	0.00329566030501	0.153814804528	0.0283258140799	0.0466101942214	-0.0777019706299	-0.0447828593958	0.157072858614	-0.0267168357271	-0.00158817904021	0.00448568463987	0.168695941574	-0.00125340739652	-0.0872418171689	0.0978310575582	-0.0687728184962	0.21565498723	-0.0525949350261	-0.0925460326999	-0.00783813006374	0.0833556716537	0.144729108779	-0.0951333931145	0.0324610392544	-0.0136317330734	-0.163879470749	0.280587789416	0.050349644242	-0.0469858790163	0.258849720119	-0.126358280024	-0.0252948168396	0.122486829156	0.0809958847902	0.0124846569922	0.0203188375183	0.0501574416635	-0.0454376329401	0.065920491529	0.00231221607816	-0.120670929422	-0.272248736073	-0.0850250750501	0.0214865437857	0.00951921949609	-0.0270518950758	-0.120725029414	-0.0226963990491	-0.0548637239275	0.0570932293244	-0.0478681083625	0.0296296898741	-0.117303369792	0.0561454502272	-0.040652664856	-0.135395517585	-6.09417829819e-05	0.124529380783	0.131227589543	0.118268142181	0.0901398039087	-0.0521193030211	0.0842363923089	-0.0161313759239	0.106391715882	-0.104760528505	0.0950594523168	-0.0600843480377	-0.127542903228	-0.0656142570011	-0.104402361301	0.0820682295223	0.00550042631812	0.0411084155578	0.0791584906866	-0.122467521523	0.166637888657	-0.203220955254	0.0444767349459	-0.034871118544	0.035449748828	0.0751635588343	0.0251866745068	0.0261356031867	-0.0845915548473	-0.100517104912	0.00907396543641	0.0148225526019	0.0979499211743	-0.0651756889223	-0.0943695855102	-0.151294488901	0.0817549850196	-0.0871835523074	0.169241752628	0.0293530699712	-0.0068282244067	-0.0348369265479	0.0126383499768	-0.0298390598787	0.0111199225353	-0.0850769711916	-0.0221607619009	0.0895428136065	0.0799085823222	-0.120765848255	0.192027573186	-0.0698730267831	-0.0470432043882	0.0440458870371	-0.123038034079	0.0656445332746	0.0519571988976	-0.0505436035439	-0.022489765852	-0.00580158206075	-0.0442567266049	0.105707591015	0.00751110071691	-0.194696471439	-0.0429617208248	0.0982643592707	0.0685091340543	0.162711857964	-0.0883893575826	-0.0700932468679	0.00915528714889	-0.067820071108	-0.0533521140532	-0.0709806162963	-0.151364495424	0.041492464419	0.0564143058936	-0.0554515574034	-0.0759037322486	0.0445767990382	-0.0158863055939	0.222551314145	0.0127569653103	0.0330525732329	0.072102244713	-0.0620838336327	0.0304011886195	-0.0215682839355	-0.0572983922549	-0.0322106673137	0.0822323947145	0.101968921329	0.0488994833967	-0.113218269538	-0.0100189816965	0.122986714204	0.0416251078061	0.121928726996	0.109383102244	-0.091047512841	-0.0247452340146	0.0156465202941	0.0890410911102	-0.0557257215896	-0.0415890394809	-0.00152333840503	0.102699548284	-0.0660067933761	-0.0768806448857	-0.0506083621873	0.00744991586887	-0.0313671400142	0.0868163333462	-0.0465166581496	-0.0821663958315	0.00473182227166	0.0141113907246	0.0276927573008	0.159461341232	-0.059780816605	-0.105047699359	-0.0419999850374	-0.115635315134	-0.0325140863775	-0.0341481055902	0.0410406592979	0.0431416387812	0.0091711174694	0.0327153366023	0.000418943928732	-0.0696635669204	0.0790963380075	-0.0781283449212	0.00049292828111	-0.078921266574	0.100532713684	-0.00193928099914	0.0411894246404	-0.0491989398718	0.0517488567889	-0.0420936520637	0.0212628179032	-0.0123386781036	0.0304437137251	-0.0743768557178	-0.0367011292083	-0.0545111120853	-0.0169773019524	0.0482715904598	0.0317428594638	-0.0391389930322	0.0029195663492	0.0445178119367	-0.0399765778271	0.0311428870443	0.00904888281648	-0.00173093849539	-0.0533831959378	-0.106746811428	0.0824525033482	0.0565311503405	0.120259273694	0.0261807950624	-0.0518760443286	0.0637882645148	-0.0472823498672	0.0365564057997	-0.0480466280758	-0.0113623030972	0.0916993701694	-0.0602086478863	0.0408419940022	0.0413124832054	0.024581333611
ashtray	0.712316307815	1.11832073256	0.0743943238354	-0.0855993229639	-0.0524647061841	0.0904676262864	0.11988689209	0.588061481461	0.516516532345	-0.086073118773	-0.167501552652	-0.241037086187	-0.251590078835	-0.260490119979	0.0517384714852	-0.0948700861926	-0.638979339633	0.206934634969	-0.275084643215	0.538816930888	0.457237271953	-0.282921402244	0.0103417559469	0.0291490511882	-0.576839324574	0.222387910367	-0.166401418706	0.145282780567	0.176763956661	0.226074643107	-0.171729878739	-0.343763432168	-0.100635437129	0.104242874092	-0.726830722981	0.2557602783	-0.242266553679	0.111221514546	0.474080690749	0.526698261206	0.554574118187	0.026511035332	0.0349745175794	0.140704729207	0.0881845776138	-0.445150728088	0.287217329943	0.0645962776297	-0.0345079707303	-0.0412526736661	0.456127663327	-0.121728026188	-0.0792905095868	-0.0118114602075	0.276699039959	-0.155983405946	0.217956492727	-0.00602360962815	-0.119101461492	0.121172933985	-0.066961475506	0.036769688724	-0.0994527471707	0.356640907061	-0.0333163366639	-0.00136097342331	-0.122136091155	-0.0139376451205	-0.0274598352613	0.032323703359	0.0523398466756	-0.0853599142286	-0.00324435927639	0.0816643420071	-0.232996894145	-0.03918228665	0.0341231150776	0.015738149136	-0.0440611503537	-0.206281090721	-0.0624176523211	-0.339994398562	0.233095612798	-0.276739577082	0.144812466019	0.129577752957	-0.24638691296	0.0407201699624	-0.103862760299	-0.0690651691723	-0.124675325292	-0.242941237363	0.11996627087	0.0143541642628	0.214741021815	-0.0795073869456	-0.0586779235424	0.306820665524	0.0890139904385	-0.00303026309979	0.27727221161	-0.314376966472	0.0506244861797	-0.127944469793	-0.0863575054067	0.0628653721144	0.0718439493115	-0.0556666692603	-0.230922812589	-0.232760498862	-0.00950406550052	-0.0723482382629	0.0684416664826	-0.0372341783955	-0.0701937575183	-0.0581185343477	0.0053583679603	0.0824166379461	0.0327726269296	-0.153622216621	-0.0265503141452	-0.0470378181794	-0.00974313983707	0.221586302551	0.133753932248	-0.215508858879	0.03416268563	-0.00936283688435	0.0783835071501	-0.225393759363	0.0979175274172	-0.0588311234876	-0.0977214478768	0.288771465122	0.263298469478	-0.136599532317	-0.232990113886	0.208505023307	-0.17042162491	-0.0650958567682	0.150836063404	-0.101761269478	0.0819580532459	0.0429717037189	-0.026538760885	-0.0558032385846	-0.0483543534032	-0.151285794869	0.0832459547393	-0.00438298990794	-0.18751457289	0.0435643076744	-0.134116215356	0.0858396614056	0.101834342933	0.099915613936	-0.0417069304013	-0.00705399533177	-0.130500802535	-0.149818048512	0.0976441057267	-0.00486571324315	0.029965492087	-0.0358730694087	0.16804025995	0.0966980135164	-0.0141294134837	0.343489771853	0.132268677376	0.13866070352	0.0982585856775	0.0870497547463	-0.163630617428	-0.0554001209677	0.218543770874	0.240622606646	0.134651261231	0.128126052002	-0.128965418287	0.0455744106132	-0.107947589257	-0.0595967516243	0.0801122034491	0.163664688954	0.0211609028287	0.112200880432	-0.110950740702	0.0863019500158	0.0410228838508	-0.0323047332161	0.11768734211	-0.0678012745274	0.21653004814	0.00134968588206	-0.121224767932	-0.342707775376	0.00283216964199	-0.0750851704879	-0.067158875354	0.104190789621	0.214471094912	0.0324074575173	0.064492293786	-0.087655448599	0.0390858410497	0.0287717569229	0.0421915892656	0.00564867875652	0.112037366465	-0.169941552701	-0.0625315884651	-0.114619097547	0.0368651213205	0.0644249147784	0.0137651109028	-0.0138011189078	0.211224769711	0.0678857220138	-0.225153776367	-0.0860611232754	-0.120528208901	-0.207808040311	-0.0649029964433	-0.0742474545989	0.261013788728	0.0486345212265	-0.201008647927	0.225946702767	0.0663841978648	0.235800034701	-0.0495611162944	0.0270742493616	0.259580716229	0.213605829551	0.27857119118	-0.083134100152	-0.132716548888	0.0939776110915	0.179757783957	-0.0898497099797	0.50383518167	0.17533141199	0.024421680927	0.268892878196	0.0221393800837	-0.0961357636059	0.0376417207259	-0.0294570458463	-0.0882189107648	0.0836192266521	-0.10163652234	-0.259475928074	0.197039770911	-0.215990095566	0.0867125897837	0.234903998425	0.0492371910518	-0.12751671496	-0.0330846807174	0.181081058026	-0.0611401821034	0.0490615803339	0.181268360577	-0.181883894516	0.074600219679	0.0247211078835	0.0222431421288	0.0307251299276	-0.0371007231984	0.142653072852	-0.261032089128	-0.252130706233	0.0889936259659	0.0355910408209	-0.145944121005	0.245948699809	-0.127172485263	-0.146988087502	-0.135164821243	-0.221679910241	-0.0443757340302	-0.103101525498	0.0837940568758	0.153450553103	-0.186645511924	-0.0129885566644	0.11430941943	0.077175875947	0.02173378288	-0.0452726114596	0.100998148621	0.0154236865001	0.03947827259	0.106083835273	-0.0527105308717	-0.118998112683	0.299973630331	0.0427379701709	-0.246862528247	0.088628524204
asparagus	0.886369040692	-0.0455902976735	1.79397511761	0.00183933969817	0.21348222978	-0.707980466142	-0.237363648563	-0.734060888548	0.0818529637799	0.117088183035	-0.0834145696082	0.656413977861	0.233747760705	0.420526801705	-1.05612945879	-0.310779261527	-0.0218126037013	-0.103060334572	-0.314079356123	-0.0457421083691	0.0415203520826	0.316636225612	-0.170355545233	0.258140781533	-0.15819216315	0.476831025221	0.151853722004	-0.294352341161	-0.152479349645	-0.07937265298	-0.101102444883	-0.268325642939	-0.0418765255253	0.153553046257	-0.109881419983	0.0590496449053	-0.0443718497146	-0.209812045087	0.113552313503	-0.395967255217	0.228437419722	0.353693945112	-0.125641674045	0.159384055534	0.283570251107	0.0331519738341	-0.0638002213482	0.157059614042	-0.0912207354413	-0.0938771286156	-0.0839903969334	0.0294444816672	-0.129592952292	-0.158233903898	0.0808307796354	-0.0825224897685	-0.464114300601	-0.0826724483681	0.0514489631954	0.108167337301	0.485585476061	0.0697834611372	0.0649536435787	0.117106088776	-0.0557186067361	0.25314662378	0.125051940007	0.14965234411	-0.0333244055122	-0.056552551818	0.195010634714	-0.0178229416241	-0.0309394011876	0.150174412193	-0.166250566652	0.19011675884	-0.139129196198	-0.196289324414	-0.202929887228	0.108657489395	0.255186099068	0.0738501885699	0.103586384073	0.314780716968	-0.0897684664224	0.136119840373	0.0535282747725	-0.248188918545	-0.0476363340303	0.0196821977539	0.0607229318582	0.0925064743301	0.157349103725	-0.12743637693	0.245789083165	0.125990047349	-0.257666660497	-0.13985767616	0.121358180752	-0.185453809877	-0.0254323480908	0.118501264856	0.0321685105202	0.00703009552343	-0.0890147869753	0.00240793934174	-0.120333151583	0.254424082752	0.106724556159	-0.0358104969706	0.0410388315448	0.137751200811	0.00790616020239	0.150104985586	-0.0783804923677	0.135025500106	0.070374661329	0.0274234132318	-0.055573443467	-0.0928432657161	0.00903525532688	-0.174357191186	0.0112379039976	0.0982566904408	-0.0249877570487	0.0165946970816	-0.107406359133	0.0125541487822	0.0592358747806	-0.145548063685	-0.0547949156077	-0.104557619086	-0.10089817035	0.082770493886	-0.0218406731858	-0.0640382804525	-0.044405536776	-0.0114694980955	0.110705747684	0.110741439915	-0.000708867699673	-0.10142944844	-0.0730046254589	-0.173272164598	0.0743815205445	0.166075107516	0.0693936031553	0.085219252809	0.0669814894243	-0.0425573658069	0.16016969421	0.199401026362	-0.00376082486889	0.0569742863035	0.0148208112272	0.0517727519745	0.084241714676	0.0463869669631	-0.166431436617	0.126103785863	0.0885059145746	0.120437570737	0.131730444673	-0.00671162451395	-0.0192520972332	0.00801976916791	0.0374120423882	0.0339538540076	0.196687289033	-0.121693344904	0.0283720055387	-0.0162781801715	0.0279492165265	-0.0847869490311	-0.0880293280958	0.0919888324184	-0.0216637436097	-0.0014546660346	0.0347850413884	0.028728325598	0.063882713086	-0.174317695467	0.00667318218046	0.230247017205	-0.0207827969106	-0.0276160989727	-0.00966771640413	0.050382871345	-0.033175572231	0.0705668339473	0.0998771657851	-0.121495828647	-0.0986684548147	0.0255429139697	0.0488260114646	0.057671229091	-0.0305640153588	0.19171930313	-0.000929955613164	-0.00616567169512	0.0869378598861	-0.0105875510262	0.0075988467456	0.00697851658424	0.0837226217049	-0.0848296145862	0.0800069203789	-0.0631900961153	0.135610069803	0.0162917127273	-0.0178458868909	-0.0976557552999	0.0790871109029	-0.0465230301107	0.130671330731	-0.153324324072	0.070035352724	-0.0706868045661	0.0241783384878	0.076247681086	-0.00503763623379	-0.123165177416	0.0417871247148	-0.0659396439296	0.0231371210707	-0.030521369438	-0.0273491001073	-0.0400870821841	-0.059571297206	0.040585775144	-0.0787343012884	-0.114622539193	0.0386634136586	0.0706260605367	-0.129282369114	0.12124842871	-0.151162273404	0.0265222152145	-0.0938105836571	0.0443441594954	-0.0279396789323	-0.0655134673056	-0.0176158946191	-0.0117857720662	-9.60632583013e-06	-0.0493671251761	0.0774298609167	-0.0354094141247	0.0123721079384	0.00769548813409	0.085782490229	-0.0201886807862	-0.048562142274	0.0809055941608	-0.0740269401019	-0.0327505055425	0.0361696304809	-0.10048526454	0.0836195702341	0.00510681115218	0.0573055218394	0.0188704726626	-0.073184661245	-0.0597128074082	0.055635814149	0.0223921565694	0.0649466655878	0.0565550187565	-0.0539341937187	-0.0985499522777	-0.0324385375944	0.0755137958981	0.0370606323837	-0.00819996390277	-0.0613813580044	-0.0263188423402	-0.00389789847602	-0.00333442547054	0.0598440655171	-0.0419818434081	-0.0395143064363	-0.111594394858	-0.0251875318024	0.0223240948932	0.035433237355	0.0795761314219	-0.0334673808215	-0.00804229145087	-0.0237404401429	-0.0482496092548	0.067279750377	-0.0879740511346	0.0744314952005	-0.0303220090047	-0.0330411603181	-0.0401149146816	-0.0642545978562	-0.0498426626905	0.0459217612565	0.105715518097
aspirin	0.54999873957	0.0523831982837	0.35201458806	0.189095975896	-0.0681724438252	0.420797450429	0.49999483434	0.389188490012	-0.162984783329	0.248668553519	0.118896818787	0.093551390409	-0.245966238815	0.124195762391	0.381901639057	0.0799895366381	-0.769562268926	1.05009178022	0.0444821535403	0.0265655425189	-0.349914997169	-0.00311713548237	-0.236389062617	-0.387114159726	0.169512741201	0.116511373201	0.297048765866	-0.088094516281	-0.00699941140356	-0.27262687571	0.0652995684477	0.230125804556	0.621181900397	-0.101489904888	-0.280371040442	0.296929237899	0.134829763335	-0.150884036348	-0.168878310885	0.216791101878	0.0450423666775	0.133362666063	0.184067616327	-0.251936576439	-0.248940004584	0.239603477615	0.179416553985	-0.101923081193	0.173676100865	-0.197280463663	0.0491633354498	0.317755996526	-0.280069302676	0.175595910918	-0.573148298157	0.470822180919	-0.675234728377	0.0245965894743	0.604434663423	-0.671281119014	0.347223031752	-0.484221162393	-0.0232720277303	0.295310595992	-0.192443452063	-0.15571665578	-0.0534406761093	0.101943499674	-0.312736870145	0.60486458784	-0.596827927704	-0.453294234768	0.476058025697	-0.503242025796	-0.49497895005	-0.475793365348	-0.290022489323	0.0924190099068	-0.0839468035118	0.0705338371543	0.0301976194913	-0.523880998833	0.176513380797	-0.182055088216	0.0637013641357	-0.181138277343	0.0312926524001	-0.106435983501	-0.269601155235	0.100559954647	-0.0749062577874	-0.0387471407293	-0.0133257008036	-0.228043388161	0.304357335474	0.0115697224638	0.0325283839535	-0.0117945071028	-0.0242217688476	-0.00524442167098	-0.00817355852817	0.17813230137	-0.0629800788939	-0.179347990798	-0.12818159305	-0.0513893214438	0.0171274751125	-0.124900262457	0.120459540892	0.0298101006585	0.0452343247613	-0.00388259193797	0.108984699148	0.0530181212966	-0.159179126813	0.160484277508	0.0103620960396	0.102954718997	-0.0727550367664	-0.0256333751765	0.117802524818	0.0233073043875	0.0294080819368	-0.0930747880559	0.0258501179173	-0.0708842396067	0.0445853986219	-0.00951954829543	0.00251103131025	-0.175671317558	-0.0298666090583	-0.090825308231	-0.0300635389448	0.119285341324	-0.0993096556995	0.0850396672749	0.0420353688572	-0.0123304474234	0.150527528234	0.0910578950245	-0.0801146839273	-0.043989655262	0.0664167475889	0.0519232566963	-0.017289844583	0.0780380085946	-0.0689720381954	0.0345514500512	0.0652559518355	0.0256730579131	-0.065477780902	0.0352559100347	0.039553554764	0.0616964569046	-0.050846007143	-0.00062821882592	0.11159278387	0.00208625040014	0.0161318622692	-0.122776677381	-0.00721562670569	0.098861798274	0.0182383354375	-0.0077978805116	-0.00644760328126	0.0220111997793	0.0341734880512	-0.0428160252382	0.00190360253993	-0.018883767428	-0.129384129928	0.0308250105616	-0.00644708012995	-0.00835724857777	0.202124335239	-0.0288605834959	-0.116316487844	0.0114674833411	0.143490849185	0.0140482256807	-0.0312323180261	0.0381059321216	0.0703258685294	0.0124367619847	0.0520697329327	0.0899617717127	-0.106765386255	0.186641378278	-0.158221491408	-0.181802693024	0.0366937052969	0.0406645103917	0.0192891572708	0.0411482506662	-0.113765703512	0.0352631881815	0.020700732803	-0.154790101394	0.0741637972472	0.0119801708242	-0.0726980754022	-0.0387702648411	0.0726031601777	-0.209879589506	0.0987421551285	0.0963560513209	-0.103904426737	-0.100792754611	0.182294078332	-0.218842624553	0.012933944803	-0.0590521862394	0.108322113956	0.213523052502	-0.0779439001862	-0.0572856975789	0.0184094883126	-0.0866248524172	-9.5271876793e-05	-0.11023274367	0.0497327173405	0.0566698193226	-0.107945489833	-0.1318348792	-0.0306632086771	-0.00186999174243	-0.129837811122	0.163550819126	0.00315154360149	-0.245340402283	0.00420243736493	-0.0160547391135	-0.158195562754	-0.281446955436	-0.0411890833397	0.174199106985	0.100909877098	0.0303790531381	-0.142474524084	0.165249496193	0.128320625978	0.00903642599335	-0.0181115567478	-0.227271358575	0.09623540038	-0.0579288241352	-0.00863972353148	0.336319514802	-0.120295181421	-0.0619770162194	0.00233734407914	-0.159471136579	0.106183257411	-0.00355640934613	0.0622676931954	-0.0247145808808	-0.137944772012	0.0408300114457	0.0489823711259	0.0225696387894	0.0714408204331	0.180471856955	0.108936609908	-0.0621237582589	-0.0935568176274	0.0573642396089	0.142434176446	-0.0666982496284	0.0443516120851	-0.0467545861608	0.0236726545472	0.0113951875513	-0.0064195488091	0.0111127985891	0.101770313589	0.0135194479191	0.183837443547	-0.0254892105811	0.0612979045956	-0.0123227656994	-0.00208612154532	-0.0510341252657	-0.0222041684976	0.0564601148288	-0.00185824950151	0.0508864423943	-0.0134830313182	-0.0126762844073	0.0296244349431	-0.00430569129233	-0.0230074687985	-0.0282521663293	-0.0101662715354	0.0307604239388	0.0102177330535	0.044392860028	-0.013601885724	0.0115669332822	-0.064324477712	0.0439569670038
aubergine	0.895057850812	-0.0824646773854	1.93028548967	-0.120189028455	0.116234819161	-0.335416656063	-0.40416647947	-0.517906861334	0.0228400344459	-0.223029790604	-0.157270306967	0.297520942932	0.137844165989	0.213627811567	-1.14754627811	-0.180887830807	0.173355333411	0.122140470892	-0.192718813185	-0.20443255145	-0.0345724646023	0.1092474365	-0.123844073551	0.307857728388	0.101730049251	0.516144547788	-0.237930182509	-0.0474272330044	-0.139224721388	0.00598109447364	0.0825919454752	-0.156570632495	-0.111431096814	-0.0192557598132	0.00829583383963	-0.198270726536	0.0856239993731	-0.17958391162	-0.172311809591	-0.143869393459	0.0747007958906	0.123351738568	0.175486902434	0.0854138236525	0.0588415331969	0.0968361068179	0.158312091647	0.0146895541015	-0.127805015318	-0.081938375852	0.268465721122	0.0287964846016	-0.286602925761	-0.115649192654	0.26460221618	0.276268500829	0.134025080459	0.0764791100691	-0.167450093128	0.068864611796	-0.421621525417	0.030458044485	-0.257596528956	-0.0274690184033	-0.077427848273	0.0182082617988	0.204794375096	-0.241163511959	-0.104781924584	0.152797556123	-0.298820612006	0.159038333147	-0.183811671013	-0.255746395875	-0.00330207183083	0.131800165198	-0.16380158359	-0.385550084372	0.266104015909	0.0630496297637	-0.12299942011	-0.0885904447489	-0.112830745342	0.0600499678286	0.158105369619	-0.140113413732	0.401838269525	-0.0244763014654	-0.121636187686	0.10995475782	0.128447506845	0.280569438063	0.219553902711	0.124253326009	0.174242487993	0.0828117563473	-0.0590771650439	-0.085325256251	-0.0344853937989	0.0770095890468	0.2277056235	0.00390919835002	-0.291782047976	-0.0310392867351	0.181514892546	-0.250494974521	-0.157559473858	0.0220446232871	0.28085396066	-0.138150217683	-0.275376145413	-0.136937414208	0.560138240274	0.0333683190293	-0.152865011485	0.0309809424094	-0.0906101569128	-0.031154939772	-0.136931648685	-0.245952952072	-0.017014222966	0.197997418901	-0.041230843672	0.241961963642	-0.16997278977	-0.0489269639986	0.123783408116	0.129702989285	-0.0710058126438	0.0896792018535	0.112252466612	-0.339728041594	-0.100986071901	0.0665379319728	-0.0452288380776	0.165998047047	0.00709761073557	0.0366078278332	0.139444802226	-0.145948624961	0.0406193157807	0.0140116066022	-0.0609867417718	0.0642934429014	0.169053626697	0.0257550712591	0.108928351772	0.160752962487	0.0556796824951	-0.187785118892	0.0435926533053	0.175047139638	-0.287188742062	-0.147498854908	0.220055049537	0.072810635774	0.0794575700246	0.0583291055617	0.129797654661	-0.0177213958075	0.0857618024197	-0.0368370831051	0.0487373242712	-0.184894967967	-0.213086435936	-0.129407723392	0.0276224084501	-0.136273573784	-0.020055146156	0.0436944520915	-0.051969169532	-0.11828508089	0.152631063947	-0.0895224353172	0.0268419294826	-0.0769421300395	0.218984223502	-0.162500451747	0.123290300547	-0.0894203443457	0.0273574125397	0.0992338503292	-0.0529714532403	-0.020939798477	-0.0595537852984	0.049836757481	0.132065875221	0.0128000508426	0.0369011461052	-0.103396435309	-0.0749025309581	-0.159559731742	0.0658266917007	0.0526778941334	-0.103967281599	-0.0475260631644	-0.291993276412	0.0466826085437	0.0212410905023	-0.00743003687818	-0.0500674561419	0.0320168908611	-0.113221717746	0.161845462202	-0.0720073855004	-0.0515558749484	-0.0142242182946	0.0937348330573	-3.18681187562e-05	-0.0031685322236	0.0878414572673	-0.203678321039	-0.057837386152	-0.0410943521483	0.213908940155	0.0423407876623	-0.0295288030358	-0.175580468927	-0.00400000912758	0.194803294918	-0.0225487543673	0.0551205344815	-0.031424338208	-0.0933772460827	0.0178122775299	-0.0532255809992	0.0194616937188	-0.0117417327282	0.0140784194618	0.0534721227559	0.203142949707	0.0476252176769	-0.034428968658	-0.152572224703	-0.0122529382446	-0.127718102012	-0.0592122061046	0.0168344087987	-0.203408146788	-0.00677762874854	-0.10217920115	-0.130895647791	-0.0966310871285	0.028794214723	-0.224264882542	0.0426386579802	-0.0575900099912	0.119679081334	-0.100296370617	0.182136897758	0.14888297809	0.0108703438085	0.143242758449	0.136469367462	0.0418527347949	0.0582791292659	0.0240341962883	-0.0987956697642	-0.0349527122435	-0.164637310189	0.0932374407654	0.0246084283556	0.00543538740907	-0.20768594619	-0.0979370233538	0.220571483428	-0.130142051956	-0.0880428791723	-0.0797317644099	-0.0951579856521	-0.119841843566	-0.213963325573	-0.13921374244	0.0538015184023	0.0491336881899	-0.0543281628929	-0.177895924877	-0.192625180805	-0.00287550924368	0.0319048488746	0.194002439126	-0.0483773427982	0.0890351770291	0.0197705202304	-0.222102870992	-0.0147767514122	-0.0644014541047	0.0833352163227	0.0427166809564	-0.0206423718881	0.233123893168	-0.152368804922	-0.0632394679374	0.0538502687147	0.0115077057233	0.110005734225	-0.0725788966693	-0.0237070100475	-0.106268455585	0.0426235073683
avocado	0.832755763326	-0.274037579151	2.08371485812	-0.259187185891	-0.0298550929532	0.111181427914	-0.603393622874	-0.119186402063	-0.0534909723569	-0.612404322443	-0.0564586149743	-0.161412323123	0.291548380783	0.0417781977264	-0.677670835078	-0.0187687022257	0.344689462653	0.0118051397195	-0.0874518037752	-0.0123720990447	-0.423589235968	0.380248153256	-0.0560331519165	0.204769407271	0.231701324801	0.18008133556	-0.051382126913	-0.164138136032	-0.0932669987399	-0.105212832203	-0.190653335215	-0.0438156170777	0.0154180558875	0.0700833828916	-0.0335737727184	0.0646059156026	-0.4731523461	-0.12511804508	0.206909088238	-0.521858740931	0.0565489086329	0.135445144437	0.472280997607	0.386093952781	0.26886553805	-0.33869026346	-0.0622643411397	-0.00882276641094	-0.137281780564	-0.246247312249	0.149784228781	-0.0630463467317	-0.0460854391862	0.200165742977	0.216034823762	-0.214149993572	-0.56614221315	0.140240388882	0.0812763717758	-0.128211771725	-0.177032707187	0.32848586791	0.361757714835	0.0798219248648	0.192515755491	0.0816113386833	0.156109140029	0.273067118829	0.291735133084	-0.238028045005	0.264559433909	0.190612254987	-0.0683583694922	-0.218776932671	-0.103373463686	0.0419779178938	-0.111732114834	-0.0933267728508	0.220574065692	0.320725848767	-0.237034778966	-0.341995412694	-0.236203124997	0.0524245525839	-0.0659558183479	-0.111946232344	0.0302288292931	0.0207060537583	0.220582266377	0.0690675962378	0.217333417934	-0.425403109345	-0.432629892714	0.0378710069831	0.267859076662	-0.0295049041205	0.148841861358	0.223822826828	-0.281739350122	-0.0831454367301	0.0144774087156	0.4266967967	0.177139260181	-0.272592966451	0.10086638435	0.139849521443	0.0914248005102	0.19141697633	-0.212038357378	0.0601648422779	-0.143617356311	0.0750570220602	-0.102950862678	-0.0631452536619	-0.172614026366	0.133831207252	-0.0997547744902	0.0511649835344	0.145197776283	0.0424245687845	-0.0256976522327	0.0966882670179	0.168859624205	-0.126957665974	-0.220922820967	-0.122051628719	0.0187141207044	0.0451332733382	0.142654033143	-0.0245782743035	0.0555637389944	-0.0477116679736	-0.120135252891	0.137169347794	-0.108720778858	-0.0435635799481	-0.0283210745844	0.00108597424373	0.0160451479998	0.0438697307661	0.273373318539	-0.189059249618	0.0850606314979	-0.00275666442163	-0.0756710240266	-0.10983441959	-0.235814346344	0.292809215488	-0.0794589673316	0.0224716863344	-0.00719408606173	-0.115409475065	0.273799022015	0.106749753702	-0.247385382866	0.081317345749	-0.103925583677	-0.120818177133	0.108798978093	-0.0430901913689	0.192382701876	-0.0378057948635	-0.113710679929	-0.0541677638616	-0.167788708613	0.164547896012	-0.0921696803897	0.0869101443476	0.000287204426703	-0.039840554201	-0.162571851017	-0.0422883198838	-0.176282519912	0.140549414696	-0.134922163074	0.0928930870422	-0.0200917906495	0.118667575845	-0.0497656288383	-0.213906282043	-0.0510357970034	-0.169513328208	0.140296429547	0.0568640926565	0.249449683598	0.0255105122657	0.0109848983554	-0.137508187669	0.19737299919	0.10038077036	-0.0268592169879	-0.101432521118	-0.111438851041	-0.0923302102554	0.135414747695	0.254149795099	0.0503586392164	0.0749382389204	0.0390491114881	-0.0976554952918	0.0205044003057	-0.079424881634	-0.0516091857018	-0.161603827033	0.068847154518	-0.0819384783451	-0.150921828087	0.0524676830337	0.0458054984233	0.00794351046134	0.0933202887193	-0.0420581513038	-0.0821453245887	0.243658500802	-0.0155814614381	0.0827312988473	-0.0150891318566	-0.00377952815308	-0.000242123401423	-0.131272087774	0.0932010338296	-0.144093610056	0.0816787099604	-0.0736589537084	-0.0768139518064	0.0893794966682	0.0357701370883	0.0325480421614	0.104841333173	-0.00616999814987	0.120645393401	0.0701939628386	-0.0277020276445	-0.01597281902	0.0511417800586	-0.0682521437885	0.0604367455999	0.0245674001855	0.00931294108737	0.149541354187	0.108925243161	0.0434525791591	0.0787163815574	-0.041129024053	0.0508041608839	0.00400605460295	-0.155776242975	-0.217995441443	0.110409240809	0.106148833245	-0.242072175669	-0.0729151981985	0.134717840571	-0.0554973619094	-0.121481462795	0.0439587440859	-0.00231237181387	0.0602124688568	0.154653136623	0.172563515478	0.0961235220976	0.0249642559859	0.0774692316175	0.159407236216	0.137198775009	-0.236651734153	0.0989503602728	-0.0917475304365	0.0213640137068	0.144606823061	0.0757306747616	0.0328419479292	-0.0709371379235	0.142455311554	-0.107140716462	0.110673932144	0.100093140772	-0.120461283739	-0.00374365684741	-0.00140685744309	0.165200236665	0.122562196223	-0.0882849373242	0.0588102736424	0.101405624762	0.00482259032948	0.0929317452344	-0.0976616769786	-0.10754949557	0.0200784787415	-0.0584337319597	0.132105370764	-0.0604475796866	0.0522850615116	0.0178586256224	-0.055552832412	-0.0355879191671	0.23506067705	-0.114462954402	0.00564904615654
axe	0.904375979728	1.66819415752	-0.356057397331	-0.44580077998	-0.359818850625	-0.105320926225	0.231011163002	-1.58692393453	-0.515610630198	-0.801141239345	0.170516110019	-0.18314453891	-0.32545260328	-0.338206677718	0.688810465362	0.124895841584	0.547581798302	0.347325103466	0.295962303799	0.209825235637	-0.0526636192687	0.171097335971	0.506850025476	-0.257005825068	0.245982459906	0.525953658313	0.0908917971662	-0.0517855607543	-0.0181199022544	-0.087267051908	0.122864210347	0.164342345194	-0.390766753188	-0.429791172851	-0.190485577664	0.128077645584	-0.188375351531	-0.0697542932547	0.0127522797146	0.195041629189	0.316051974663	-0.0912521164768	-0.27455585181	0.120403653632	0.056012677615	-0.288561689351	0.190059218523	-0.0337920573001	0.179255796746	-0.186845766799	0.170268117105	-0.155704741733	0.0775408242189	-0.100118300359	0.0144194233172	-0.227173182208	0.0616750435299	0.158841625437	0.162025752202	0.0251001942112	0.189587587656	-0.16617785384	0.160023941543	0.17703783736	0.0383938156846	-0.0434133239194	0.0826754847944	-0.255589424133	0.191045625892	0.334877272611	0.0426090083101	-0.125742875666	-0.11485376139	0.217760403393	-0.139754655005	0.459242388974	0.226148072951	-0.0909535919924	0.151215683979	0.205565068121	-0.00214992198876	0.129811405621	0.12275806266	0.0526484339455	-0.10612323594	-0.150577256459	-0.40503767749	0.204315080835	-0.19803634048	-0.198417844431	-0.0350556714295	0.159130032057	0.0895142436687	0.203759093718	0.289023041048	-0.064786620746	0.200110185517	0.0282638766492	0.0937698986031	0.0582493126995	0.118813953487	0.0196466469885	0.171062581397	0.0625210863888	-0.0794077434759	0.142673671452	0.0941028386613	0.0641058694416	-0.0389684682041	0.0359276568738	-0.247280694241	0.0736167233405	-0.166657168493	-0.129647905864	-0.0611897467756	-0.149279428843	-0.0503196036883	0.0630354525156	-0.0988658048767	0.0739142845539	0.0615929488803	0.0593243702163	-0.254767072309	0.0466588543216	-0.0700787901891	-0.169836742752	0.0963824620871	0.104125590227	0.0876305289123	-0.04080695587	-0.101747876953	-0.0716142085566	-0.0798858332852	0.126868992887	0.0262602796984	0.125571370359	0.0199562569222	0.0420600684526	0.119196151596	-0.0330064442328	-0.0294671065675	0.224993189977	0.0562400381803	0.027633978562	0.008135682659	0.00396774914579	-0.0465061766977	0.00706411846803	0.00290576718164	0.0416851531061	-0.0043222340282	0.0728654657748	0.0644413108208	-0.024313865479	0.0217805593461	-0.0605199651319	0.0819379490025	-0.0798227046228	-0.0569395793958	0.0111120160685	-0.0648580069372	0.0911416760295	-0.112970884222	-0.0604055813869	0.0473638716737	0.0444971285207	0.131426733781	-0.0538459151511	-0.276746293023	-0.164745874533	-0.0936760814159	0.0398767686215	-0.0613619657022	0.0321378701603	0.0291360530863	0.173290219458	-0.0817324438101	-0.0955138304533	0.143569712303	-0.0409256164764	-0.0501766298846	-0.00341954585352	-0.0722471417569	0.125808124029	0.0244774171284	-0.149260075168	0.230691266896	-0.0785566667117	0.0780635955455	-0.0667691645865	0.0712950180014	0.108876591312	0.00161295283442	0.0283427841783	-0.148126818852	0.0614654343146	0.119826678138	-0.00108382931833	0.0480265203612	-0.0219010095853	0.0607426004814	-0.160905251727	0.0119776845688	0.0799039157884	-0.0708918913523	0.2608712925	-0.0542577421345	-0.105001915982	0.0713730290792	-0.255683701876	0.101183153365	-0.155042317786	0.239062668859	-0.0428420975583	0.19629792081	0.00877002407491	-0.102649003352	0.0462594710775	0.0607880627574	-0.0447392932433	-0.0125467575156	0.0927174656149	0.148125270678	-0.0983486291684	0.0639470401404	0.11984254813	-0.0167597158676	0.0663629099907	-0.0180535308159	-0.0238331435827	-0.098502092811	0.184130047503	0.00495377310618	-0.0170720431269	0.0237431645145	0.0482432306381	-0.0660629999563	-0.0867874713079	0.0174741680139	0.111558328805	-0.0498356338885	-0.137914529819	-0.225861074101	-0.0408107156369	0.100528331693	0.111743592803	-0.0551949336264	-0.0934699272876	-0.0176865402453	0.0407665046406	0.058803364092	-0.0791698086609	-0.0807698012186	-0.0809008483858	0.0235587200944	-0.0727530300151	0.0526463854151	0.0704521199412	-0.124488294919	-0.0599506773863	0.166021861622	-0.010599907625	-0.0351695273126	0.0147603319996	0.0333185841378	-0.0188802001721	-0.112223200502	0.184849851305	0.129495760279	-0.0129315536366	-0.0539048356797	-0.0476161092804	-0.0495532568019	-0.0155233558395	0.0413863945531	-0.100045769416	-0.0916530528934	0.228115411235	0.0174587375733	0.00145541887648	-0.0476845157428	-0.102457699134	0.00838576685335	0.0881196740156	-0.0395976666628	-0.0335711795909	0.0205671998579	-0.0156289509385	0.0612780497735	0.0755264438005	-0.0649313078574	0.0357617306868	-0.0554836362797	-0.0831300628024	0.0485059293218	0.0821687290426	-0.0318687802143	0.0956951650394	-0.0233101625099	-0.129817365218
