Concept	0	1	2	3	4	5	6	7	8	9	10	11	12	13	14	15	16	17	18	19	20	21	22	23	24	25	26	27	28	29	30	31	32	33	34	35	36	37	38	39	40	41	42	43	44	45	46	47	48	49	50	51	52	53	54	55	56	57	58	59	60	61	62	63	64	65	66	67	68	69	70	71	72	73	74	75	76	77	78	79	80	81	82	83	84	85	86	87	88	89	90	91	92	93	94	95	96	97	98	99	100	101	102	103	104	105	106	107	108	109	110	111	112	113	114	115	116	117	118	119	120	121	122	123	124	125	126	127	128	129	130	131	132	133	134	135	136	137	138	139	140	141	142	143	144	145	146	147	148	149	150	151	152	153	154	155	156	157	158	159	160	161	162	163	164	165	166	167	168	169	170	171	172	173	174	175	176	177	178	179	180	181	182	183	184	185	186	187	188	189	190	191	192	193	194	195	196	197	198	199	200	201	202	203	204	205	206	207	208	209	210	211	212	213	214	215	216	217	218	219	220	221	222	223	224	225	226	227	228	229	230	231	232	233	234	235	236	237	238	239	240	241	242	243	244	245	246	247	248	249	250	251	252	253	254	255	256	257	258	259	260	261	262	263	264	265	266	267	268	269	270	271	272	273	274	275	276	277	278	279	280	281	282	283	284	285	286	287	288	289	290	291	292	293	294	295	296	297	298	299
accordion	-0.998605842995	1.6676695069	-0.54023526613	0.216559548382	0.130696754794	-0.330933522122	-0.248546577478	0.166273054919	-0.835767681798	-0.421163327791	-2.0267879572	0.624454296791	0.161084980032	-0.722461626525	-0.0291034742149	0.12140623248	0.436956392306	-0.310545308149	0.270388801381	-0.158357581131	0.212465678369	-0.309507993416	-0.267403681492	-0.0727489515499	0.0889487301332	-0.179944064637	-0.249941290012	-0.482446763171	0.0349029787716	-0.424279001431	0.145249194984	0.125088283658	-0.0308190034716	0.168043050694	-0.128704108414	0.198382206226	0.436085852315	-0.278443724899	-0.0913728861855	-0.0328166381435	0.0954551967803	-0.113963263451	-0.287784785835	-0.0854132774732	-0.21122576816	0.130549081688	0.110254663704	0.0666588093771	0.240735177117	-0.245669452176	-0.0588705044815	0.0984875050217	0.120083531062	0.0517850618105	-0.122118002757	0.0155081496339	0.0130343829531	0.176832929303	-0.161996486194	0.184446341013	-0.115163181502	0.186265776519	0.205481554558	0.00252465218209	0.161509831047	-0.0269834914227	-0.00107294218292	-0.216813997644	-0.184399176198	-0.192603425119	-0.391404614073	0.0305038649961	-0.0517433344206	0.0828376686049	0.152583132666	-0.313447068227	-0.130446281463	0.0663698061575	0.114634962634	-0.251504509466	0.493564246526	-0.055082415278	0.0271881120277	0.593867301867	-0.236718829661	-0.112183925115	0.134483140586	0.0924545465732	0.14961910127	0.172005278371	0.161639071119	0.0653858898587	0.110962970391	-0.020391467047	-0.333376772916	0.125399546023	0.065952049347	-0.105766463669	-0.158733903468	-0.0314242141714	-0.198977685589	0.0526925715031	-0.412441296178	-0.375020746198	0.0681622608133	0.0380624817043	0.11140589336	0.139664592987	-0.0299908277932	0.202077551311	-0.125603056595	-0.359764895921	0.269543672542	-0.115692710549	-0.211714225477	0.101711059732	0.248511616223	-0.0310712816157	0.0633727756006	0.303268880103	0.147234666086	-0.00161593266169	0.253543113263	-0.154396498698	-0.128613876962	0.0316568742543	-0.0843947202774	0.171338382287	-0.138215696893	0.134913164607	-0.442237190577	0.0288797240252	-0.160213045271	0.182128513255	-0.15259370348	0.153044293321	-0.0388814145057	0.0711685320071	0.05547031633	-0.164574289262	0.0939689411165	-0.268140193418	0.0514365471664	0.00144662986116	-0.174406484577	0.153921092514	-0.240812266522	0.000280501733147	-0.30152610693	0.178190151757	0.061777862993	0.123613991281	-0.0992351019048	-0.0585287922412	-0.0604277277532	-0.0286674318564	3.35930073519e-05	-0.148334731393	-0.0522690286052	-0.0424965286259	-0.0712188970286	0.0966982668794	0.0679065056798	0.0860719238439	0.13273517277	-0.161879882883	-0.022876552006	-0.116641099019	0.0720245112546	0.200510511867	0.0603373280047	-0.0440296162832	0.12616781964	-0.0129300261128	-0.0606911234272	-0.0646567974592	0.214326965777	0.0950429511978	0.0346582166301	0.0521806142573	0.0365546067098	-0.364972345206	-0.00806810674694	0.249069616426	-0.194608393362	-0.0143284483396	-0.302205050929	0.074154640371	-0.00977816393064	-0.0656314186736	-0.140336682169	-0.0345212121311	-0.0233864735084	0.117358392736	0.0557848998954	-0.131548465132	0.022232013487	-0.0706799477831	0.0646020295503	0.134743381776	-0.0431724570591	-0.126799504996	0.0377087486425	-0.0811175212976	-0.00479029468689	0.013755234334	-0.0206277479008	-0.0587683515302	0.153775396632	0.169370704472	0.12244596039	0.0173097922684	0.140828001751	0.0320916613113	-0.0203283344334	-0.170761792163	-0.183960649175	-0.0891975384717	-0.0430961536248	-0.0286252262441	-0.249821075437	-0.0579582773039	0.152452592618	0.0915250664749	-0.151271387395	-0.0393771728336	0.0484980608844	-0.197140541529	0.13175599503	0.0198654360562	-0.155499632315	0.0645147251241	-0.0945706188625	0.153947574684	0.121513872686	0.387608899026	0.0377175499031	-0.0204158169	0.00795303196329	-0.110542881994	-0.0843210651488	0.163694012201	0.172635863606	0.00681586335696	0.158364604263	-0.414705583456	0.194477533406	-0.183151858339	-0.0881305648804	-0.0273247764336	0.00548249032248	-0.227393635689	0.0814890755258	0.0297498926775	0.1397117623	-0.148484591761	-0.296145651429	0.0792980138154	0.168288307014	-0.0417710077278	-0.071764245717	-0.222327394351	0.114918959135	-0.0172262154632	-0.115621196538	-0.163838181179	-0.0507162238035	0.0387071525295	0.0768953825885	0.00466420114272	0.0206597182977	0.0998960923776	-0.00167329293782	-0.129965810023	0.130808222612	0.0402579746222	0.0468246414559	-0.200851860974	0.188003719294	0.0681526196434	-0.147349784105	0.11283835063	-0.0719187979459	0.067008225266	0.116050105775	0.231934481275	0.0368816258295	-0.108628394507	0.111872409269	-0.0831427073076	0.0294669329629	-0.0188482588369	0.23704040585	-0.133207987968	0.0466771050762	-0.0429289649912	-0.354978182535	-0.181663675777	0.0587495582176	-0.233222355659
aeroplane	-1.57201309043	0.849965905713	-0.840724425663	0.518731699351	1.1388330541	1.1749020235	-2.41160242903	0.518531941347	0.0914238614195	0.494129020094	0.331285213589	0.271264469346	-0.598734269758	-0.0935669253216	-0.0315484033385	0.668394582753	0.0851025275637	0.659905429565	0.0684136021494	0.555695204207	-0.0591442265304	0.265145192873	0.00657822154745	0.372573541332	0.0700537049444	0.125378961877	0.363539686067	0.250738466564	0.231659068962	0.214514158268	0.260021208917	-0.122247210041	0.486781915578	-0.231134651629	-0.936912073319	-0.0735237742781	0.238291133528	-0.0906065872294	0.265808851541	-0.12248009153	-0.470283654398	-0.147714270912	0.327745883722	0.303604740715	-0.535435237009	0.674074992124	-0.122594705553	0.576322567182	0.418927633074	-0.20477616829	-0.566321640497	0.00403091227365	0.114497186932	0.243558009549	0.0577618218958	-0.0959003656936	-0.0923141891071	-0.488282390256	0.339611652289	-0.30812947426	-0.0521256199821	0.102909872063	0.127144255358	0.310538650623	0.333244897646	-0.821904906455	-0.777534775589	-0.302193047328	0.255239734316	-0.342169817283	-0.42439414005	0.265415272144	0.229528288951	0.385249824801	-0.349485182583	0.169297690555	0.0282015090683	-0.0967726299608	-0.784513629502	0.16471791085	-0.158310000482	-0.48826331759	0.506017885321	-0.417910087638	-0.269682818553	-0.158294600169	-0.0579553646122	-0.222300649371	0.283886162977	0.586683872082	-0.00165561243522	0.224543349809	0.0558487931798	0.109176428068	-0.148137499819	-0.325074569343	0.18453185864	0.092069659785	0.0306544490155	-0.282119111192	0.201675941998	-0.209051657257	-0.195638402484	0.378664240937	-0.114433067909	0.490951452534	-0.225755348207	-0.0844002823887	-0.235145073017	0.170243074238	-0.476386343595	0.0853095041398	-0.148420855172	0.42351773482	-0.178718661927	-0.283898445082	-0.159747264971	0.030270293649	0.0143504947482	-0.267286086602	0.109911756374	0.120348862719	0.769608025007	0.627146695111	0.288801011669	0.388868108765	0.0377452791406	-0.641614840162	-0.328941166057	-0.34534739258	-0.306684232994	0.0376464734837	0.0174645325011	-0.405061440179	-0.0837301536267	-0.0443086395388	-0.0532319611543	-0.316515295543	-0.0932710117172	0.117774853554	0.0204250761454	0.121986935702	-0.205556794684	0.0208031838813	-0.354965040421	-0.419659068322	-0.0708592521942	-0.00332625055523	-0.490822871105	0.208079099916	0.273447661354	-0.146689446065	-0.0338658159156	0.22250727437	-0.0693357113594	-0.158706561162	0.194459594436	0.411688859384	-0.265148827657	0.0342572932446	0.291360802396	-0.168763151729	-0.0495129321564	0.312206440476	-0.0513631871904	-0.572207603783	-0.0911704481902	-0.251180735592	0.524619622455	0.0851094344184	-0.0769681595217	-0.0140646431892	0.200246313078	-0.334806529318	0.00392542652033	-0.24165804121	-0.0737222436898	0.162819231163	-0.0655154818815	-0.12175613633	0.079400467148	0.364141859771	0.273108317426	-0.204716755756	-0.058228845678	0.00618540732323	-0.13761072664	0.196773617691	0.418790603614	-0.0134407514524	0.0955690291811	0.00323741511212	0.13148616196	-0.0289168025754	-0.0408874597397	0.22615704176	-0.248947905462	-0.0345447943122	0.0477023451273	0.123796187727	-0.146843970123	0.0626813992586	0.0655232398161	0.196071952903	-0.329266727994	-0.213739190706	-0.0714134617715	0.234075842828	0.10283686746	-0.22291079371	-0.0714642875247	-0.19203536988	0.107098879342	-0.121600676483	-0.114878096397	-0.469048212861	0.185920334749	0.221222567484	-0.370588781925	-0.13617145566	-0.0633316180499	-0.07365208046	0.0236745706832	0.179861619054	0.216574285675	0.19240080856	0.0418538064511	0.212612083847	0.0302302741289	0.0369154822663	-0.196758246107	0.0912184046727	0.159091951554	0.00796280051434	0.267969117315	0.247402947385	0.0107755618407	0.0971740096326	-0.300772329778	0.129815789195	-0.247170941939	0.147265606963	-0.0732963657255	-0.14162478321	-0.099747025492	-0.278207035566	-0.0496402495929	-0.144525877375	-0.0547690626923	-0.257913888796	-0.335076951867	0.177243006725	-0.140431570008	0.097263757189	-0.206759844914	0.128237990379	-0.106292334277	0.0528189645172	-0.132222966947	-0.27775593089	0.196257812508	0.290635921996	-0.321799286918	-0.235378232089	0.249693313975	-0.00767771855724	0.218182095983	-0.212766606492	-0.0816056008679	-0.220745137981	-0.13871177672	-0.147968609108	0.0903580072128	-0.163625319472	-0.180862808789	0.237460426299	-0.0595729145506	0.081881204588	-0.181422976654	0.0395552135567	-0.0488849344351	0.0547442128964	0.0850764919565	-0.116653104139	0.492543296891	0.00390364891413	0.37695906837	0.0683086053407	-0.0462038017754	0.00803273944137	0.0610241976933	-0.0234836848122	0.244748818854	0.06481308324	0.0672416995732	-0.0314403376643	-0.188830256153	0.182731692955	0.0235775956268	-0.0693770056802
alligator	-3.32428355877	-1.94353182246	-1.906048328	0.584148230802	-0.0626372471472	1.72506455337	0.410607089411	-1.91002507762	-0.267822759427	0.606249808303	0.116509581548	-1.57750038067	-0.475568123592	-0.650114250302	-0.692769475208	-1.22010586658	-1.48509941823	-2.60068523581	1.02046412869	0.616619193145	0.684528872481	0.0298739672654	1.37203544266	-0.382719108041	-0.239541329425	-0.71528740201	0.449448074738	-1.25818342774	-0.231051101568	-0.39059287222	-1.66511636194	0.14762465536	-0.321255180453	0.301126409636	0.207566690933	-0.495878964283	1.01145880198	-0.656001314344	0.0780563207865	-0.131452814475	-0.245559446163	0.152934357759	0.149196575657	0.241379695801	0.971585030068	0.721892590293	0.0757241523824	-0.256426461968	0.346161802265	0.248483151493	-0.220035232216	-0.545758273956	0.0291504810259	0.241887201799	0.277169629577	-0.541625984888	-1.27735289704	0.646284433776	0.758987333542	-1.37929848541	0.428366650588	-0.867443257455	-0.47790809967	0.080677955511	0.335318275116	-0.160034594225	-0.22760070957	-0.423364878148	0.091791106408	0.323265948898	-0.764450788245	-0.0824373436415	0.110329027395	-0.265730598681	-0.121798385609	-0.187200112636	-0.25082222358	-0.077555921221	0.0550731635709	0.34207758364	0.684398733387	-0.107709812018	0.479839660119	-0.625040783449	0.409293574447	0.021244100622	-0.203734959857	-0.35046635528	0.127807346737	0.189735176426	0.628911438804	0.266858054019	-0.177949382741	-0.348427062855	0.18815449023	-0.679597853736	-0.0253410506878	-0.278081436239	0.0273604238789	0.681795613055	0.186201819251	0.322602359933	-0.0302811646311	0.0156429828593	-0.172927550539	-0.0847975500711	0.0805227984547	0.35643961213	-0.311419826223	-0.131298879228	-0.0103917973425	0.0988414583983	0.126168761629	0.171023580845	-0.535125067732	0.235723678466	-0.251545620367	-0.320560567971	-0.418704358296	-0.0545514767454	-0.219250586687	0.264534436453	-0.268730453814	0.246902754994	-0.00486275503929	-0.400385162104	-0.173251576852	0.110444560415	0.0499315289034	0.164238621135	-0.0402268506217	-0.159726064806	0.0674965135068	-0.14554857648	-0.042112363085	0.0948394834347	0.0968764002546	-0.0645346130265	-0.206945110275	-0.0833366458447	0.152641435872	-0.0876440188752	-0.0239467638212	-0.342433623201	0.0112348954792	-0.390878232792	0.0846426963848	-0.179837492935	-0.0665293363153	-0.135170377171	0.312028290871	0.124408937852	0.161297008986	-0.291314497554	0.315752295121	0.214086149066	-0.166192758964	0.117774235896	-0.277970275122	0.31475452773	0.0293551560123	0.306852074623	0.345651768852	-0.216355475148	-0.0397904365377	0.263896614208	-0.210369731405	-0.0776955824821	0.3584481908	0.120047344426	0.111647438789	-0.00463740287458	0.471155586377	-0.324794603093	0.164905459203	0.136852930384	-0.206512960408	0.458690548197	-0.127394676269	0.16936557324	-0.0798007877626	0.0876411324543	0.22628333991	0.0897390603405	0.263761268855	0.222395922769	-0.0836985296911	0.116629451764	-0.178281218824	0.543802738906	-0.28665642498	0.0129033756198	0.0457060573057	-0.182223830238	0.212890549413	-0.0729131763338	0.238923861503	0.0315722141524	0.155725827648	0.0642823462148	0.0687566675308	-0.18719555192	0.286838454772	0.153682154272	0.00502169196701	0.140215800968	0.275634024739	-0.0550840923285	0.114659492128	-0.00561348591671	-0.236574942278	-0.260738533711	0.0287681089804	-0.00214677982945	-0.117908690516	-0.0501432532483	-0.38420787559	-0.307347494124	0.417965294428	-0.202061564366	-0.184068636755	-0.111476411089	-0.311202285137	0.163264420931	-0.212653861662	-0.146703589102	-0.305991587501	-0.143675170503	0.123218868854	-0.0332112089991	0.175955336354	-0.377207348727	0.0520941383121	0.0511131233065	-0.167174009143	0.0932967838945	-0.250120091689	-0.209091061948	0.0815948624739	-0.0831597921315	-0.361458910359	-0.129466525599	0.180117002789	0.0517828902706	-0.347906356181	-0.124118465625	0.397927352976	-0.192985360311	-0.0649879985515	0.319974158524	0.25756643916	0.172107242213	0.184830820161	0.0817609044663	0.00385356794238	-0.276061065421	0.168627460596	-0.052021122312	0.407389384137	0.300727546799	0.0954949130557	-0.0925907850148	0.0434941196602	0.205623615366	-0.0827817594044	-0.100935951557	0.199536879282	-0.488877875262	-0.0964357986878	0.295649503679	0.0268803114553	-0.0704671931106	0.110740389084	-0.0792136578511	0.0461372873227	-0.196185169979	0.0163087670994	0.0527788930992	0.0705175907574	0.0635390648172	-0.00119548942987	0.0626153893914	0.054006835302	-0.0706762068585	-0.0276153796808	0.0999448536872	-0.167593523039	0.271986189187	0.0163202289645	0.0783525246667	-0.163106568455	0.248966734904	0.0205122522524	0.424745773881	-0.080839191284	0.197482195697	0.2174091762	-0.0637270363495	0.10408862922	-0.125800746165
ambulance	-0.97119052507	1.04281626434	-0.31604412294	0.325747553548	0.58201641198	0.802946537126	-1.27669001752	0.750238014785	0.54298155	0.603382286316	0.419624038875	0.40054084482	-0.306658146543	-0.577032426205	0.117311794439	0.722361591395	-0.105292679245	-0.589040064031	-0.021127251475	0.226246589342	0.928548239582	-0.52755156647	0.0766352777499	0.0796533146315	0.360350085974	-0.31046296941	0.528397749464	-0.0257802442372	0.00658307323157	-0.102401082879	0.349553394016	-0.698075044918	-0.171821753247	-0.0947219509798	0.218521301525	-0.221767943652	0.500809661321	-0.433740725841	-0.205988361752	0.354838569405	0.0789896166137	-0.15720721169	-0.0629170470345	0.111699379311	0.248150382263	-0.258731674514	-0.0289464596497	0.173865691476	-0.154385549166	0.196837464422	-0.360129780128	-0.109265530949	-0.0526504297917	-0.296505045069	-0.317622431642	0.0145150410433	0.00293012709311	0.225288262215	-0.405877965424	0.166511306653	-0.101551641235	0.244993013329	-0.238711108972	-0.180174171415	-0.247131424032	0.0640464495486	0.19243721345	-0.230014738091	0.0790218143564	-0.0651932018978	-0.269877495193	-0.0132373622412	-0.267772658477	-0.0205642657988	0.00506935017279	0.187022629154	-0.0483020122756	0.420489990565	-0.198428918567	-0.0428681426114	-0.163275882699	0.415241269702	-0.0480173340048	0.0615579333434	0.250086746226	-0.129873519948	-0.617345566174	0.360950432842	0.189026328079	-0.464549904207	0.35395940494	0.0823261633964	0.597228332234	-0.0360612781831	0.23329589949	0.177452727978	-0.243107710895	-0.425129556868	-0.466652498425	0.0176691226936	0.285773350673	-0.0859320728333	0.153604071363	-0.309778514978	0.231168051341	-0.548702567002	-0.0996710077904	0.331575220781	0.127043546664	-0.159630548978	-0.331385099075	0.0337167015348	-0.374412373698	-0.572233775764	0.148430465505	0.366005930895	-0.17379567121	0.350218892257	0.148692860045	0.0980669882099	0.448557379198	-0.489585332343	-0.631710735205	-0.471324527497	0.257486175449	0.220828259684	-0.0777872687717	0.157645262031	-0.0194113150727	-0.15539467272	0.18344511851	-0.15424097029	-0.64732371181	0.647770104495	0.00497391537923	-0.0735694555823	0.516368495325	0.337158113914	0.0693252977122	0.276507313798	-0.130993104306	0.387985926304	-0.454794345892	-0.38224549783	-0.572438786246	-0.211154672878	-0.259522227095	0.152389132686	-0.196200215798	0.138192574633	0.319661977455	-0.474897109491	-0.351654949379	-0.811010629534	-0.284982572843	0.304426588453	-0.631875429452	-0.137908727053	0.223016529097	-0.125530102795	-0.495786079518	-0.214408342085	0.098509805064	0.00922569759624	0.39827731662	-0.142779331157	0.0502198084519	-0.00461152979912	0.217043102645	0.0660196340306	-0.00717894499566	0.197451569762	0.769872589179	-0.475198830996	0.147873050284	-0.183787643967	-0.374651279489	-0.507797220067	-0.133784831151	-0.200896074909	0.0448109665523	0.122241865562	-0.217363576705	0.125144932117	0.393352671135	0.224712633998	0.036743305423	0.533137853727	-0.131193926095	0.132280085974	-0.317147148433	0.364672342335	0.29469792805	-0.627531572562	-0.162190488307	0.264773798077	0.173378191555	-0.899126115511	0.0792003879379	-0.0986121267328	0.100655252951	-0.0158350707035	-0.446220557899	0.261309922469	0.278026892036	-0.276983188933	0.441860888219	0.11717950657	0.0819776452323	0.256359242417	0.262486281875	0.457777287388	-0.101597631831	0.126079178568	-0.292318912663	0.0229539111351	-0.000364566484042	0.532305202588	-0.613640699002	-0.428424659718	0.159051980299	-0.1652478616	0.0713274271904	0.464992251816	0.183537540953	0.104428274426	0.332742195072	0.485851975856	0.302912868592	-0.4078901875	-0.256971603328	-0.454456158907	-0.134994143946	0.0742891639071	0.171172909753	0.152443700887	0.109522546243	-0.053753755502	-0.291680158445	0.125819575578	0.113412421716	0.268110806215	-0.422288427991	0.00588946582278	0.141946185532	0.13441195491	0.126742368203	0.465021062101	-0.203963769565	0.129302587218	-0.0183164900047	-0.252131691665	-0.435970217559	0.0166684179649	-0.054212311078	-0.152346294816	0.111904989633	-0.305926591653	0.476961785791	-0.318141289472	0.0288755012094	0.115509472572	0.513081418938	-0.304172067341	0.408452767894	0.0425280985584	-0.189528145821	-0.120142585533	-0.0114087685618	0.0241802890975	0.52789979782	-0.00457356918084	0.132862739402	0.0531995777683	-0.0793485185932	0.282296293214	0.217109390635	0.36188203232	0.157537915158	-0.182026203317	0.050629054467	0.259701217939	-0.169792716809	0.0385267408741	-0.00168666783835	0.155588510817	0.0552429966893	0.160887466695	0.126487627591	-0.493871761805	0.156690286019	0.109904595985	0.179640658288	0.0366009444508	0.0633468890469	0.275683472092	0.249919452431	-0.228707376876	-0.341542824189	0.395227362424
anchor	-0.863685785432	1.0175142227	-0.346298461383	0.373568474014	0.196603918263	0.265119699898	-0.193982525734	-0.510235734568	-0.203408152115	-0.548365915219	0.0338487698098	-0.540078617321	-0.22195672072	0.570387521128	0.0736553899325	0.164998685055	0.241356174775	0.389901957629	-0.0380533447467	0.0288728306932	-0.155913043522	0.304966880861	-0.388268621836	0.271461366395	-0.162068885711	-0.180639249406	-0.135535980028	-0.0976387279847	-0.0824059553479	0.103333081792	-0.0583888776181	0.0828654197368	0.0176061793953	-0.394041866282	0.0601013499796	0.196074409246	-0.200472175269	0.152500311078	0.425237823495	0.0085899959312	-0.237115481208	0.263668959321	-0.0713144132744	0.178468391022	0.219526343224	-0.159133805121	0.0712835384656	0.0864297503932	-0.0806604691778	-0.132660933499	0.0600165186987	0.249110438291	0.311413443026	0.0742467333959	0.0382364000365	-0.022177691284	-0.121320551428	0.0186074399954	-0.103295325617	-0.0864578358792	0.13922141273	0.269618141458	-0.157496344958	-0.0971278469429	-0.220910741203	0.0338924502046	-0.180691588521	-0.0621281539573	0.259174347042	0.0304735785857	-0.22776449467	-0.0794370542516	0.00563395145672	-0.32271283176	0.159588690056	0.15150760383	-0.0719254921782	0.0975222885244	-0.20382740265	0.107618714166	-0.249614959763	0.0650718572342	0.0180992342596	0.13803832746	0.0125955242604	0.398421115982	-0.38697805393	0.14979277135	0.126978601848	-0.393737751571	-0.235956714884	0.00700835332646	0.266813736531	0.0425508866028	0.0345005857593	-0.343272374619	-0.11903709844	0.324632608143	0.0713573299117	-0.346188833267	0.18165905088	-0.163426174787	0.057089660636	-0.308704453198	-0.224587230513	-0.163427638955	0.36767319127	0.0626888618501	0.269218684182	-0.0893048961921	-0.182976034576	0.0342872319849	-0.080077911204	-0.0146548701329	0.0763281761067	0.0818028335909	0.0541671721575	-0.461757782799	-0.021003851319	0.124682044345	0.0530956842149	-0.213658466467	0.127862601094	0.219102124791	-0.397713012868	0.10116660946	0.0324100434896	0.262064742133	0.156445622462	-0.141337056985	0.105755012926	-0.0424622111979	0.119460426219	-0.00280845664097	0.155117434891	-0.0460040562243	0.20847285325	0.0405080737122	-0.0753165987721	-0.0204465257589	-0.0234401314436	-0.0328116307914	0.125563579169	0.227001133778	0.104744217481	0.0636136567281	0.0615372253259	0.0916541682964	0.0258538745427	0.0287399735335	0.240356536636	0.169038716599	-0.169275638286	-0.00104553438789	0.0222720092828	0.115106103372	-0.150664561557	0.0816716643839	0.00425328735247	-0.234530364146	-0.111842309826	0.0156334817086	0.0991031354186	0.000106343550058	0.179816716368	0.215659328584	0.145833056224	-0.0744066825261	-0.122801461572	-0.163723311837	-0.254754715118	-0.218274570518	-0.166088113315	0.0502575040137	0.360178067223	0.118134258904	0.098733727633	0.0206445255731	0.0180179295888	0.0187010520852	-0.132476613793	0.162287832066	-0.0934196070261	-0.248843007847	-0.113637358862	-0.0327853443697	0.0476774269022	-0.103192196072	-0.102433415998	-0.106211189624	-0.372474126471	0.297193111079	-0.0496714530707	-0.0666223135791	0.0256394233931	0.205431013243	0.0652279609011	-0.0800495007819	-0.107675949786	0.0423702016313	0.0750231797548	-0.194795755809	0.0241700410159	0.213739834408	0.0342563355616	0.179520239943	0.186539932038	-0.228446007843	0.310832995754	-0.322765065371	0.322739118394	-0.0749636147804	0.0483801048387	0.33178093922	0.0464088960742	0.151842734338	-0.300462236015	0.0133268847962	-0.118370844743	0.17029260961	-0.0163196668784	-0.155859278104	0.0388074705751	0.244267366444	0.0809856599309	0.148115409022	0.0419682046175	-0.168286869402	-0.12661383898	0.00401291957484	0.220814563689	-0.266319920601	-0.171647676383	0.0128676860777	-0.255186851966	-0.145412208431	0.188795639367	0.165133622707	0.234066336338	-0.0657028999346	-0.209180364979	0.038925412287	0.125921351393	-0.159008252436	0.0886804388138	-0.339907320967	-0.067176838173	-0.0698907882031	-0.265418202862	-0.522300956178	0.0800172872474	-0.0476181400661	0.215551115628	-0.0956452888366	0.12092640896	0.051020282927	0.0147715058685	-0.105316382269	-0.313909175812	-0.073747729113	0.299770623101	-0.0392187893993	-0.000261338419082	0.0630138113225	-0.226467193986	0.0768606153223	-0.085820050469	0.02110314873	0.0524692444186	0.0303992230132	-0.452800742545	-0.339484780365	-0.0532982330094	0.274829038109	0.26422046967	0.0843567434885	0.198282892576	-0.288291438662	0.0693421275837	-0.0540950631151	-0.350716005637	0.243240070737	0.178006689935	0.214819317316	-0.0560992500066	0.196497195258	0.129459345326	-0.343271447467	-0.0456087602684	0.212073020242	0.0248382860888	0.346832990411	0.10673854557	0.0956425500933	-0.0772455605576	-0.400569162436	-0.0237463156917	0.125839059115	0.155329501418	-0.159102370145
ant	-2.37237658306	-1.27587467728	-0.695503208182	-0.152877035957	0.19615678453	-1.3528991408	-0.0409781422532	0.227088584678	0.550480523553	1.27867702731	-0.00890642971458	0.598386087914	0.21603954472	2.00785154293	1.31069883014	0.155906012357	0.414425233305	-0.61171198331	-0.264210164937	-0.289011163031	0.0579993460982	0.142068586325	-1.11408191047	0.196032870228	-0.168557333069	0.283920476754	-0.102000058786	-0.198258408802	0.0117161455522	-0.442694660999	-0.231591186715	-0.18323307765	0.255349398058	-0.367244477333	-0.189752090396	0.622481701315	0.54759431405	0.708797657237	0.366716895158	-0.00778207329338	0.452257024675	-0.537942387074	0.175849375053	0.437570612484	0.430791551672	0.184945730676	0.58109536314	0.168471711397	0.0486064201011	-0.0898874062987	0.12534239926	-0.18811756399	0.00612701648352	-0.347389004521	0.354596827008	-0.071933233219	0.226259482594	-0.287733904264	0.525725203111	0.26535127156	-0.332654541444	0.192291374309	-0.0682354209731	-0.0698592079636	0.308125035676	-0.252252877647	-0.741467030306	-0.010704218263	-0.0997459922912	-0.170129681604	0.141226941052	0.0298563047876	-0.101208557809	0.141557626411	-0.564343414249	-0.260439092212	0.143891055608	-0.0312297293696	0.217976763592	0.397336273233	-0.203602464481	-0.533976584628	-0.0761299086458	0.108005047689	-0.046097349621	-0.430621469792	-0.193394516519	0.0105163013337	0.242116971588	-0.10234779151	0.28867996797	0.0721339223304	0.313118813314	0.161358339309	-0.244032627983	0.00751605256645	-0.0328557089807	-0.528900828692	0.191993503117	-0.14101379018	0.448037555164	-0.0864091287319	0.0514522308881	-0.11589909049	-0.187048453595	-0.0161649825223	0.157647877243	0.392684851257	0.092323912032	-0.212694537192	-0.324855794587	-0.497637750621	0.0704448845394	0.186326883819	-0.278458574818	0.003633027196	0.123494155699	0.459032282358	-0.219467920689	0.159028699783	-0.177079898156	0.16136413579	-0.12592116783	-0.371580225784	-0.0325637538979	0.154064231461	-0.399812354341	-0.0471970046222	-0.0771805725805	0.374979539911	0.240753698624	0.257744553113	0.342696318726	-0.0159280030891	-0.221500516574	-0.174211554098	0.445780769183	0.0475678320552	-0.352204292535	-0.191070258939	-0.11333761528	0.472621625145	-0.294080446724	0.368179107192	-0.00392588365306	-0.43688050858	0.00479502664515	0.273155450704	0.0429025237943	-0.0869691903562	-0.328561648884	0.391917973941	-0.119927251531	-0.00480620303641	0.150000109849	-0.090306460945	-0.086528525657	-0.0963863132844	0.0446868686636	-0.503651740396	0.689925584897	0.331059418866	-0.200417238307	-0.446553547693	0.870287053856	0.499664327307	-0.568930169585	-0.0964869319456	-0.073969950945	0.101116898136	0.201226253239	0.111582209762	0.278192158189	0.126397466242	0.282396983584	-0.308268701622	-0.0135121380823	-0.102884358472	0.238619831692	-0.49344679538	-0.354021933246	0.205989136655	-0.377115257593	-0.102513676917	0.0478971588795	-0.506793929611	-0.232023398042	-0.201467745003	-0.24767894099	0.793303357074	0.220848749433	-0.0135926801837	0.187084009214	-0.142574709697	-0.349901911056	0.176348822822	-0.253825930172	0.370247686892	0.0504624466182	0.110272588113	-0.0540558780615	-0.167079803935	0.101501068906	-0.414386813324	0.486036518419	0.153164790677	0.64601718072	0.407747796769	-0.775361096573	0.0236263368219	-0.0920503247137	-0.095888208968	0.599045447081	0.206017850704	0.144708541497	0.286910659452	-0.269902682306	0.262103451387	-0.437059550634	0.256863206865	-0.422073270225	-0.259582221953	-0.372004579771	-0.367482093405	0.225429020679	-0.291707087827	-0.141058452368	-0.0121897034034	-0.10868747293	0.0302644599321	-0.0237963751823	0.203647815428	-0.284024691046	0.275507523845	0.42264415685	-0.493440920738	0.490844278746	-0.162865310894	-0.062748641452	0.457444061153	0.157918237371	-0.279311822091	-0.149256505711	-0.0975883561133	-0.387597878182	-0.137178360003	-0.694529965385	-0.410402397989	0.214336852984	0.0178000684832	0.511144811753	-0.339453033058	-0.511866531928	0.156985525612	0.0997280447169	-0.0739195291641	0.0125519829195	-0.239385986405	0.425753674762	0.0881591386901	-0.0108393282687	-0.411391829854	0.13122236128	-0.138942731246	-0.354301131216	0.231337879715	-0.181632247606	-0.194798977768	0.217089348358	-0.103783375882	0.00812175606944	0.220916437992	0.36106236605	-0.183608740425	-0.0746805327469	-0.07649742925	0.0586179493178	-0.138772818778	0.463792902927	-0.235188800781	0.110563807903	-0.0259297836345	0.0215956620711	0.0445294497655	0.185464343434	0.232994542787	0.0867123122697	0.0975893163913	0.0541271098527	-0.0239871767335	-0.203172881827	0.191691988583	-0.188255954406	-0.224490274988	-0.0312038384543	-0.132640864971	-0.0988601762311	0.00280054580075	-0.00330269448739	0.0826864932889
apple	-1.54428826366	-0.102641029304	2.94364864792	0.397103752497	-0.766090469664	0.107479738935	-0.269122865477	0.576663870286	-0.732036885992	0.883915768321	-0.271004265261	-1.15137303593	0.209871937516	-0.267803259032	0.090286001769	0.0384498573957	0.281434242531	-0.111880562606	0.198678941489	0.0700526575662	-0.0627961507035	0.409366688979	0.0109947538656	0.0237771503598	0.303575822579	0.170440151259	0.173116778172	0.370860690991	-0.0992757109516	0.0885497667838	0.0999227487655	-0.023361941047	-0.250840130823	0.207019242441	0.0192620069752	0.31560326556	0.204721730074	0.0169256295682	-0.0956487208259	0.236405339547	0.212239738071	0.177397890705	-0.0285936916759	0.33962545238	0.678978449022	-0.126029963433	0.0296479030122	0.247668483632	0.00328383347545	0.154545351214	-0.022614689174	0.0428249587795	-0.0343292698078	-0.0206897070863	0.0117384127261	-0.179643091537	0.0483290713603	0.157891120628	0.0508892338549	0.118331628154	-0.123389314502	-0.189273182187	0.106123048624	0.205902540055	-0.249411172921	0.0796680868857	0.126935920609	0.139341844518	-0.316555867526	0.0618484497861	0.0192665364278	0.141789834336	-0.0473572901264	0.093568315703	0.177892405359	-0.31018606888	0.189794136024	-0.152331628223	-0.235433870495	-0.0918842463822	-0.293024617635	0.246104057467	0.040170559663	0.100798771538	-0.0419397360988	-0.231885260378	-0.210712817687	0.171059731182	0.120130949903	-0.146489675132	0.0178724274206	0.0782743298044	-0.00247056323573	0.0472174070039	-0.0950562863782	0.0303244212252	-0.239509112337	0.0224745441357	-0.195863039428	-0.0692565419511	0.0591714303158	-0.066203519643	0.142765876031	0.310373172434	0.109172342946	0.0845838326918	0.110610867205	-0.135876035001	-0.0121103568809	-0.24688193962	0.15648249089	-0.0829616127446	0.0293343021455	0.114986801383	-0.036534527612	-0.385735329512	0.247601555948	0.2048230512	-0.161055060885	0.138993738572	-0.274719609715	0.17400573883	0.093351370797	0.0394556238296	-0.0442542073289	0.40221996015	-0.1493304131	-0.374519762173	0.124678057345	-0.0137399117171	0.0417967334782	0.152787256746	0.184899191494	-0.0442058104339	-0.46100891815	0.0933388465545	-0.190531690778	0.135654401726	-0.0112080301241	-0.112613395398	-0.028275591155	-0.0222621128058	0.0973666197145	-0.302928463311	-0.13672196812	0.0385561544936	0.077310472704	0.0831278780077	0.177445069943	0.0153103698132	-0.144536974803	0.180113507192	0.065399750418	-0.345496598842	-0.0757522719756	0.285477142966	0.00577268409633	0.320227423995	-0.0441067141223	-0.106572908582	0.0420288434932	0.133721457963	-0.013038652119	0.252321891049	-0.121515928682	-0.159928052084	-0.14213076631	0.0273308732045	-0.104373478491	0.054945793746	0.0624118642758	0.185533431179	0.0222073054102	-0.0689239549079	0.149703442553	0.0699075421859	0.337434313275	-0.194666271771	0.0457636404227	-0.10276600483	-0.240734227061	-0.207184213408	0.186402439831	-0.0686457361188	0.120333192458	-0.00575922538396	-0.128258383638	0.226046253974	0.0750838993357	0.275617675506	-0.104768794808	-0.383147438803	0.0526288868366	0.211568548351	0.000630685918508	-0.109467598496	0.0181897338949	0.00330730541008	-0.00239658164891	-0.201370269859	-0.251464656513	-0.0113793605728	-0.0723677785503	0.260363891541	0.01027431827	-0.279729564423	-0.143883039656	0.0949537195064	-0.232375747182	0.182461754222	-0.12659793689	-0.21866866951	-0.0116033166023	0.103008697876	0.0553552566056	0.00757783219947	-0.185881456712	0.334832433823	0.311521025275	-0.0953745970413	-0.387902682691	0.196003549543	0.0390133864274	0.222184857771	-0.154449311905	0.106159442565	0.126313560019	-0.136177920368	-0.02930410551	-0.271556674981	0.0526822716576	-0.120312492382	-0.0707078261505	0.0144209857837	-0.111799135966	-0.111314137831	0.00753488553201	0.131015638937	-0.0998966574979	0.123901254331	0.35721635013	0.189367426867	0.202823894739	-0.0556829609082	-0.126537335645	-0.0342650398137	0.0569852922741	-0.133457243551	0.0612817705604	0.166340402624	-0.181992101605	-0.211445049659	-0.0212267885269	0.0879697232426	-0.0501204495182	-0.249727212311	0.171398981426	0.162004779181	0.00841815717237	-0.191985079893	0.226430797696	0.141360173507	-0.0406173187594	0.139253802217	-0.0836530047987	-0.140825455759	-0.259774645448	0.0468261991697	-0.307484883754	-0.0475315134203	-0.195072985228	-0.17383686665	0.0454746976219	0.0841887749094	-0.00752839240405	-0.130332730245	0.422607951859	0.0371405355366	0.133971221015	0.148497499402	0.0221575460815	0.153513541408	0.113742884999	-0.186274128041	0.0832525849643	-0.0812132558883	0.179511758116	-0.171331956768	0.070262748528	0.0247298465725	-0.000730312034399	-0.059559401797	0.0880251255814	-0.0848710735817	-0.00216707284411	0.135680168799	-0.0832714824512	-0.0580561817521	0.100099727996	-0.170319135886
apricot	-1.26680773901	-0.111492141147	2.27726859878	0.308633701563	-1.00987643667	0.054375390181	-0.275193393522	0.757650872573	-0.575972966648	0.868842778101	-0.186162218247	-1.10953857727	0.229546280357	0.130231157658	-0.104173513068	-0.167503480098	0.703833407023	0.0897828215731	0.130017860879	-0.368294417588	-0.451616524701	-0.215999165956	0.266219284218	0.482859793944	0.189848040355	-0.0965312045899	-0.164606754066	0.0419808762822	0.316739618474	-0.0661074987066	0.0948081270196	-0.371114008845	-0.222386661773	-0.0165757954234	0.189717207824	-0.221604394565	-0.0203039639326	-0.00263735285243	-0.160873650214	-0.0428991662303	-0.0758538629316	0.333961168488	0.251666623849	-0.330678718609	-0.23950379684	-0.0119981026554	-0.137528179123	-0.272157080817	0.0068575235106	0.046519817233	0.0404217070965	-0.136586032628	0.0508738540438	-0.190497684456	0.117367092943	0.0658345359915	0.0425082181047	-0.020888274992	0.00503690590137	-0.202626175177	0.0754517053276	0.0707755783292	-0.00308970754983	0.0271767112447	0.411167364135	-0.0655255316609	-0.155360810673	-0.184446406158	-0.212094092569	-0.168258322335	-0.00390274553565	-0.117421731009	0.178657150399	-0.0104619938909	0.222047201462	0.0623269225793	-0.0995388718683	0.0252396984337	0.250874437376	-0.229158786763	-0.0314273593542	0.000624192666259	-0.17829616388	-0.0998881660315	-0.0800851597063	-0.0513571721976	-0.0650594310334	0.143291047889	0.151088757945	0.330090588227	-0.14131028867	0.144998668703	-0.152911280741	-0.0590768657993	0.177286121731	-0.0552480704535	0.0886542687494	0.192426666855	0.0787753459324	0.0200209463958	-0.116901986473	0.0699034382519	-0.0484959471363	0.0672182346247	0.0847914137412	-0.0602954660999	-0.104688145785	-0.105616135809	0.22161172981	-0.126404329419	-0.200396795143	-0.0635720872318	0.145925850203	0.0948124164055	-0.156100973232	0.120093076183	-0.206732622785	0.0752833308976	0.0386955720966	-0.0977299770655	0.172679450377	-0.092185458981	-0.226890159148	0.106977949336	0.076311050168	0.15108268455	-0.228061423142	0.00189457329595	0.0555273729357	-0.138360657901	-0.0514768925574	-0.0906971939141	-0.034459752157	0.108186100731	0.434884961298	-0.268453487637	0.00368262091499	-0.155829239649	-0.0416864511513	-0.200759756988	0.0147474606462	-0.240416015307	0.113456477795	-0.0619039657345	0.0807784572891	0.0275105735233	0.0242010007121	-0.0259149941179	-0.0199597029817	-0.0165247256725	0.0932140357882	0.198144592188	-0.0142768387454	-0.177771430614	0.141086404522	-0.101251578001	0.187678026811	0.122759782408	0.0489201898206	0.0214131587466	-0.366412226473	-0.21814009705	-0.186107775068	-0.00462265419722	0.16652710166	-0.125118547007	-0.198554632648	0.0572836850049	-0.0304913721247	0.0468569105996	-0.060978826686	0.194696094429	0.363901773856	0.132666342817	0.0793470752589	0.329271666313	0.0229040085255	0.213744590215	0.0570158689893	-0.301894298359	0.104794756922	0.15639685285	0.196112652916	-0.0770504349475	0.00842106789335	-0.0750984766824	-0.0740368606623	-0.0651345353763	0.120901773674	-0.142547544565	-0.0274215286833	-0.175633605944	-0.0589646639432	-0.0414082724051	0.252233143972	-0.0201260602962	0.033881065891	-0.192596665088	0.144369949392	0.0736424063714	-0.134796854492	0.0813295347699	-0.166413314066	-0.176490265473	0.0639348351754	0.0960573212799	-0.0431217818091	-0.0868728340214	0.0801222615205	-0.0721005206356	-0.0141622559319	0.00975511424707	0.0298512567802	0.0560070837432	0.0599688583552	0.0960403543215	0.245377053539	-0.223781743611	0.00841315687758	0.205389091551	-0.0694199113933	-0.159488491674	0.172891978998	0.216240184549	0.179469666245	-0.0140531265764	-0.20534345466	0.122211530154	-0.109164991233	-0.109422516299	0.0988143331466	-0.105696182005	0.0882383515335	0.0728052518618	0.00718335688791	0.0788809822407	0.0535860390457	-0.0700758714025	0.1895018643	-0.0546140802038	-0.0418273843904	-0.00318628284048	-0.00608886488491	-0.0119781018397	0.204099540405	0.00585930584329	-0.153558446166	-0.0201245272676	-0.112139052103	-0.0195719114949	0.132338204806	-0.0309471216336	0.0836346263022	0.0260739498329	-0.0174676311194	-0.0225349550386	-0.0646831881495	-0.107334073583	0.070614652018	-0.0499635662741	0.0956155117891	-0.130966900906	0.0219592527632	-0.0547846807459	0.100995303542	0.111769541979	-0.0651798318372	-0.0635403424501	-0.0618488963673	-0.0483007312815	0.0629751332221	-0.0189226502288	0.0508376031144	-0.0971470763359	-0.188821071181	-0.130615143811	0.0560707814623	0.109352124756	-0.0263882470863	0.00921923612378	0.0104717444687	-0.00223199498144	0.0203166951865	0.204124325984	-0.0358111841881	-0.142591015289	0.0382574227984	0.0986816815505	-0.0021938161161	-0.0517350345112	-0.159265680224	-0.164023473116	-0.0870909239464	-0.0190280249104	0.0328762616632	-0.079027426936	-0.1069281245	-0.121679920819	0.0644454172775	0.0711943053986
apron	-0.862197279791	1.19105847391	0.0349873035245	-2.19968648793	-0.709043524462	0.0883806487645	0.052108302465	-0.354404058774	0.119043346224	-0.220976959163	0.382629555985	0.000547830276082	-0.179338177957	-0.484993523851	0.356118872284	0.371001246405	-0.204512466508	-0.385532027813	0.283111696322	0.018014324505	0.0558683780279	0.324556984484	-0.378239658522	0.111063367397	-0.293300094874	0.457413555604	-0.0703136156509	-0.199448028198	0.316434902237	-0.151953503367	0.0255131217201	0.194497180296	-0.350117104842	-0.0801375995881	-0.420889189	-0.519059463671	0.102610233249	-0.422743861668	0.0376827168775	-0.224836635683	0.594862791958	-0.296024080915	-0.0628696204197	0.383228369303	-0.477464642142	-0.07530259104	-0.058443446853	-0.313602355234	-0.146987648116	-0.0282938587938	0.336282806942	-0.00557237993305	0.230526383439	0.103218149824	-0.0350165820848	-0.122435973149	-0.0565086281654	-0.206982784095	-0.104043722015	-0.32679222549	0.179073500998	-0.198864579471	0.22031884647	-0.198562085648	-0.193558230612	0.246468596463	0.00630268687949	-0.0808328224251	0.22442044963	0.52182433895	-0.166260410464	-0.0337239641057	-0.217713166763	-0.771767956483	0.267360437841	0.426262777248	-0.0895939815014	0.165191277711	0.580505772679	0.199663099067	-0.0916830901497	-0.127344640522	-0.192383759257	0.134415492656	0.110262415087	-0.15114908067	-0.013042136849	0.0631221421928	-0.331297652798	-0.0819968446015	-0.158211015602	-0.375947188971	0.15787319612	-0.274850494276	-0.00145560557947	0.0881399239611	0.388893895775	-0.00998778820038	-0.273295583875	-0.120167532989	-0.919287425854	-0.080407771763	-0.154681410572	0.140700196148	0.0838608320943	0.0701862350222	0.0800836639013	-0.148056134863	-0.295843578403	0.239114981994	-0.249036807483	-0.0298365020305	0.0695978728321	0.457943629073	-0.443428394962	-0.134546651961	0.221395033324	-0.0519209686244	0.031024637006	0.291246312053	-0.0942425589236	-0.329664416003	0.616456011185	-0.368902018594	0.0891522394105	0.199855693947	-0.463076279159	0.360164868304	-0.146858740741	0.0883235573974	0.116779021347	-0.0912593864408	-0.517402672425	-0.214301980533	0.0118208946787	0.314728762394	0.0365496386414	-0.0351868295663	0.182590638889	0.398673368818	0.0386368803585	-0.0167458496557	0.0439378354667	-0.149838610868	0.342032375918	-0.024829152929	-0.031698136342	-0.0121508733939	-0.462006033336	0.152969696682	0.0630348405487	0.280611369412	0.0169079311034	-0.134984108779	-0.0917300305157	-0.252096486502	0.225580128295	0.217545426142	0.0201622650973	-0.248553726623	0.0303853188031	-0.173649950115	0.280934550519	-0.152070963754	-0.419522484822	0.337712553826	-0.366329698544	-0.0749010413743	-0.0102873962152	-0.0945419111462	0.104742456479	0.11183923378	0.295535587048	-0.183504163138	0.144912682283	0.118390826578	0.1156220796	0.17224788657	-0.14840499747	0.00934896820271	-0.113099984305	-0.304539051899	-0.432591920007	-0.135801162691	0.322415680594	-0.204642468857	0.287957321966	-0.157535295291	0.0693615873099	0.0868242175031	0.163659714168	-0.031077918527	0.199591690826	-0.0993330817002	0.183508556358	0.345874745515	0.350911508827	0.435332754805	0.401163551153	0.0290822333042	-0.010113541272	0.198026425222	-0.105848533693	0.16139281007	0.0799898807842	0.120046164548	-0.10602870051	0.616294149864	-0.419597722275	-0.461407464284	-0.284737506384	0.0818330058231	-0.0339730477865	0.18809796083	0.141261716455	0.0913457067872	-0.319392079714	-0.113193400083	0.60918646426	0.143545514599	0.274863271959	-0.022477815336	0.0240711399517	-0.168725742284	-0.0415715679429	0.165633116631	-0.270421356274	0.41890535554	0.262770317299	0.43293131945	-0.180973891204	-0.352037433791	0.0287076369189	-0.186969143047	0.0207452851149	0.046409037469	0.0146156881734	0.278880597044	-0.320762656534	0.101329624986	0.384591562854	-0.0576040418598	-0.25152162031	-0.53541855279	0.0195169210639	-0.029669052615	0.0332847542114	0.547267117371	-0.00662682179643	-0.150934620891	-0.317459746501	-0.0779964050729	-0.358752285901	-0.186627950767	-0.101881090376	0.155253048439	-0.152545962164	-0.074398357648	0.165747419871	0.182831719168	-0.197893097442	-0.0555703505732	0.0776557195634	-0.0209394785409	0.0779619807928	0.270074193887	-0.116228349379	0.0367032791873	0.0143109742393	0.228120534553	-0.134746329214	-0.365344924341	-0.296266495958	0.300726312111	-0.450681393477	-0.201628968268	-0.130800938949	0.283554613085	0.0127581225057	-0.414757535061	-0.457920751633	0.61838615248	0.0329099441596	-0.126230473126	-0.0121378579299	0.00306485352338	0.482749248677	0.463180518365	0.105609239471	0.138315437634	-0.498632232459	-0.187889436339	-0.0590125444575	-0.617862077605	-0.161587210171	-0.0663700649038	0.00977152254967	0.255781027588	-0.0664430964785	-0.136042950473
arm	-0.972617326208	0.934138812249	-0.071365671252	0.0168157874461	-0.307204951971	0.123012347811	0.371305281633	-1.05861428722	0.346030939414	0.0556761657387	0.454641981489	-0.988404186768	0.763818687941	0.85833751091	-1.61727609811	2.64831956895	0.218751246569	-0.489127879615	-0.904457994692	-0.117845419023	0.499869455689	-0.955468464869	-0.753302510493	-1.11765273665	-0.450710655724	-0.0703223720452	-0.467221533324	-0.220148633066	0.327069041725	0.158594567815	-0.23957275664	0.124531657252	-0.170327362188	0.213931857358	-0.204612406219	-0.27276978529	0.707501057569	0.282156134506	-0.411877619735	0.0150856957214	0.0445665417744	0.318672210319	-0.237894651442	0.207180077695	-0.0143851058585	0.20328434152	-0.259742672094	0.0104875085109	-0.488021186516	-0.508141887309	-0.037367584293	-0.0708137258313	0.317435748306	-0.0291296396903	0.0179854797853	-0.141034054253	0.350562555963	0.0771259825123	0.219526542231	-0.336588366444	-0.333178201242	0.230055892501	0.250858194256	0.490722155209	0.489044624066	0.306253217346	-0.00160286364376	-0.0625573017096	0.512835151331	-0.123715811862	0.459946280136	-0.400172053975	-0.152135029885	0.486328207796	-0.190434222708	0.0291622926747	-0.0146614958234	-0.417436104062	0.109717146006	-0.0641719495481	-0.382016539022	-0.0112758543475	0.276297495226	0.112504182397	-0.118123499361	-0.0822721191558	-0.0583598107816	0.427947970493	0.0812293513067	-0.0322965448474	0.215076931137	-0.358202259083	0.146133021191	-0.339944051413	0.899545892975	0.0406260061384	-0.217751786229	0.278360937185	-0.175246890904	-0.499441401391	0.416164207868	-0.338592305364	-0.0579804407035	-0.278851286901	-0.00939400944347	-0.383873638996	-0.253554729156	-0.605838886066	0.259343349171	0.680113778624	-0.0652624508999	0.224379202983	0.071371028966	0.00795132111837	-0.095381330982	0.0968074286577	-0.280150865113	-0.217065270634	-0.473686476287	-0.370835593101	-0.316603759448	0.587736744529	0.0924303716479	0.0370490368638	0.192864214448	-0.364654698444	-0.124206919137	-0.18154986235	0.100530540988	0.230473485447	-0.345798699985	0.0534118999958	0.0412640563233	-0.184082258166	-0.503163290901	0.148093323789	0.353142292628	-0.0816157901015	0.167905972836	-0.388351667217	-0.254432534906	-0.73793066665	-0.581195446376	-0.324177828281	-0.150751097669	0.0966899181159	-0.213546132998	0.24928215186	-0.0149657592308	0.0594397433303	0.0534843930454	0.52781852056	-0.416203732405	0.00412088750072	0.134004235609	0.819234243558	0.0794276953507	0.219590397969	0.391249705669	0.286726031689	-0.267886212353	0.565192289701	0.243343313396	0.0989883009873	0.451873109888	0.274480282813	0.117545379954	0.538017330343	0.51811345042	0.0529267889788	-0.386195661429	0.333660131084	-0.219943173434	0.0433641270823	0.0495534477278	0.0601548759614	0.0803723224624	0.318340467544	-0.587441652121	-0.565323884283	-0.226973002527	0.331948308464	0.278825834711	-0.158309856632	0.260282556497	-0.0384890904074	-0.0759598094479	-0.148582543836	-0.276966758047	-0.478073867713	0.591171353418	0.152799390159	0.300026055877	0.00254535389323	0.475810669886	-0.359340587529	0.045783926382	-0.309330895861	-0.302064853138	0.309657713451	-0.171769202975	-0.322838392501	0.86047867662	0.204121591019	-0.271019123483	0.0745353751516	-0.116864038919	-0.681705953896	-0.520018367754	0.435409857237	0.570560274756	0.252650755045	0.465713074105	0.200423915039	0.599575621114	0.315307867947	0.00664362034057	-0.00101990081643	0.358687210115	0.404527371827	0.284453135266	-0.232446481104	0.0873622922959	-0.0967299125597	-0.137602135864	0.603064232383	0.0682055732392	-0.059663513523	0.00125232536963	-0.0215831774266	0.0954220708607	0.00477497420927	0.211899968695	0.28924718825	0.170750184606	-0.0930874695574	0.0487601960611	0.180456800496	-0.52524824664	0.0964249600401	-0.00497145358691	-0.156901163573	-0.0791531641398	0.354713033066	-0.377319595288	0.289394713956	-0.092239842281	0.305709210496	0.0700715064297	-0.15961903852	-0.385994199145	-0.217686593055	0.341135822949	-0.012861554581	0.0422782806921	0.0874510638353	0.00265882004522	-0.0957812206452	0.1639795332	-0.171521086948	-0.237186626722	0.1640602178	-0.0489415703529	-0.207526270919	0.290000380022	-0.0530699131981	-0.338950152397	-0.264587733889	-0.23772231931	-0.359732093053	-0.13348177403	0.382811128742	-0.240625412134	0.0789906549347	-0.135559365764	-0.00658157173762	0.076911836876	0.112963857565	-0.270540995867	-0.0228765947268	0.143601698693	0.222127116377	-0.227311358507	0.315191104654	0.0710424280561	-0.190108226753	-0.116252576848	-0.0130437819106	-0.260182585524	-0.268601166596	0.282516792172	-0.0680314579636	0.0258746038686	-0.132638045883	-0.0227196156058	-0.0254066249922	-0.0297867841454	-0.032424944476	0.0755405732882	0.12358332486
armchair	-1.64853733182	1.30756138348	-0.647112608394	-0.93716694319	-0.0294309072536	0.612039723592	-0.648065689092	0.44089608989	-0.417793221063	-0.674727139482	0.0108646264472	-0.320504821571	0.951982039517	-0.139766858452	0.538003094843	-1.34856825368	0.717712391398	0.325393759718	0.351048381702	-0.466478339168	0.605275175783	-0.56820903787	0.472499641476	-1.62868660723	-1.5858809488	-1.58690568515	-0.157160621049	0.232790629937	0.408515310523	-0.238194490477	-0.183321455703	-0.538430386079	0.0412600084946	-0.483668852911	-0.426116726047	-0.0541805367816	-1.30925587511	1.20127988921	0.497414172408	0.0195958776093	-0.412378143459	0.644026509598	0.293808009161	0.648001714964	-0.716779474186	-0.0718835571004	-0.222554254015	0.338922545484	0.206349973532	-0.0756940547681	-0.621311216129	0.11450853922	-0.547736773085	0.233904585637	0.269942649876	-0.391693734403	-0.183216203123	0.455886558427	0.445861544846	-0.131605407904	0.160697938829	0.501773943032	0.623312858964	-0.149232983921	-0.302825170635	-0.486020159683	-0.28216616072	0.00938062924585	0.517304490517	-0.045142497919	-0.100089672405	0.545008692878	-0.223238452096	0.0194253860426	0.0183561830998	0.0073017442544	-0.0150987287593	-0.082031125476	0.115417605753	-0.213017921388	0.115705705782	-0.00372613863872	-0.327418583671	-0.427213205412	-0.131125569765	-0.0685486167727	0.123690277951	0.22916433484	0.180183201292	-0.158577265037	-0.185821865599	-0.0590505152898	-0.238852080453	-0.250807250533	-0.265279551664	-0.158136962239	-0.67933477656	-0.00992260214111	-0.182713304719	0.159485908531	-0.138681084923	-0.0647925003055	-0.0136955984668	0.177341909572	0.182205592437	0.487085186137	0.0332637453558	0.0522780088175	0.0514259712112	-0.0595245544737	0.102294993784	-0.111972801101	0.107968496631	-0.000600459473946	-0.0135637077045	0.103725183054	0.103841577894	0.199643942064	0.105529339021	0.00887312318671	-0.00187154469893	0.0988617554555	0.00785757246832	0.00123286000812	-0.277813572188	0.236810564432	0.018602856761	0.0387895432967	-0.196137936779	0.108979292133	-0.376997580202	0.372477066166	0.124683231483	-0.0180454793457	-0.175096484569	0.0656114060164	-0.214885570893	0.119939262215	-0.192380252638	-0.621877111628	-0.126580072763	-0.278968010392	0.0900599620043	-0.519925846685	-0.136680859656	0.151346629209	-0.00914653735634	0.176524240598	-0.157340012144	0.0048576203946	0.0421209294545	0.090853879542	-0.356132541578	0.125432504439	0.00972927557155	0.264987339427	-0.190643434413	-0.41052564744	-0.153892045259	-0.265944256997	0.126126402089	-0.026576273213	-0.00557945909745	-0.188359025731	0.387240474492	-0.122835600491	0.228732920202	-0.355543310692	-0.0809685548221	-0.0329289984564	0.189184687913	-0.187905745254	0.310183977627	-0.0827171624863	0.173287399719	0.0407272288059	0.0688575051809	0.226037678748	-0.0668036786297	0.0674382488167	-0.330497553017	0.0573344282579	-0.547883839906	0.125177645527	-0.149373118795	-0.154664553522	0.012154978774	-0.264012054456	-0.0685713707616	-0.258932409161	-0.281084802326	-0.021880011511	0.181133887052	0.217518621389	-0.204803760205	-0.518336193851	0.453410413104	0.0680907164966	0.101864320743	0.0160276838025	-0.0311903945716	-0.444073349955	-0.082207101755	0.00754409741631	-0.152760646298	-0.171458045789	0.0225938889993	-0.134384751926	0.173676487635	-0.107432908346	0.125891467469	0.194637934982	-0.369307275744	0.141276160555	-0.002071365067	0.130763947239	-0.366997450932	0.232164757983	-0.251554036647	0.0441504571161	0.234687500782	0.112899414588	-0.218239861963	0.16983936268	0.15739207859	0.069416659713	0.139554362994	-0.057638346333	-0.0407597814089	0.630565259625	-0.131632111806	-0.165240829225	-0.237168232862	-0.0817776640356	-0.024146343461	0.0603982619028	0.104022714345	0.172735466363	-0.0897522108674	-0.0428841434013	-0.0527733489251	0.128250657541	0.326440729926	0.423504702776	0.0507053961022	-0.132007203216	0.0950966582677	0.0424778001324	0.0035669267147	-0.0609751972696	0.100465499716	-0.14607148569	-0.105147776706	-0.170452525668	0.293058252237	-0.265599580978	0.380563180999	-0.503798783803	0.0196046085742	0.223606964771	0.0039560836647	-0.324395234826	0.0660785265413	0.0529217204015	0.306959490227	-0.186416539407	-0.0415406609367	0.172610656199	0.240150602253	-0.158505391156	0.0903077201252	-0.0958950166742	-0.00596608630915	-0.0752558707013	-0.0975126345265	-0.207429909168	0.121702468574	-0.0764585936155	0.101278154886	0.184453166973	0.0828546815145	-0.0824455234463	-0.315543209945	-0.189593136612	-0.0946191485528	0.288707043244	-0.107375976175	0.242233195866	-0.110764506975	-0.312938226829	-0.108526943656	0.0693500494387	0.0851217843553	-0.27658051035	0.163213641964	0.103363527811	0.372909872711	-0.0698833994177	-0.0721199299976	0.217737379813
armour	-0.734314556861	1.08654375392	-0.171801997665	-0.540514473179	-0.133521099289	0.339053444062	-0.164628004999	-0.575020577397	-0.5200933105	-0.195291785868	-0.516537783917	-0.115246700786	-0.698345870767	0.394946039142	0.127984288814	-0.0793530584061	0.249799789662	0.355026848513	-0.640270426144	0.687475316955	0.361994658767	0.54011084022	-0.653080411378	0.0171882187996	0.0593300115078	-0.539712321044	-0.65346555634	0.66566401145	-0.0756109610558	0.058231029985	0.150622446697	-0.00809871318952	-0.394929916231	0.529489375828	-0.0837989478758	-0.186384881259	0.619338272665	0.207932987614	0.257794462171	0.205797329897	-0.0455157532155	0.246405632224	0.00116499389958	0.188412810628	0.145131321651	0.360171848826	-0.261650726464	-0.0800811897561	0.179255749162	-0.305267676798	0.375661912442	-0.121323009139	0.399969946346	-0.393793231941	-0.0297285174937	0.0489861159522	-0.243483538707	-0.231652532867	0.0508348780658	0.08594074194	-0.203657869804	0.578715063395	0.375235131023	-0.100191884657	-0.0684733847479	0.45321928455	-0.101969817542	-0.596018061791	-0.051446305142	0.111201161974	-0.479578015808	-0.510792868709	0.0763555515591	0.0967108445837	-0.117449897543	0.23195211516	0.00674448129746	-0.145454709264	0.000844509008744	-0.302438028718	-0.192099950591	0.078445115692	-0.189044341833	0.611779688406	0.238216263537	-0.393098161465	0.459404291331	-0.196318230843	0.0158068689603	-0.0926237358942	0.0990158331372	-0.0541936647887	-0.0577128053286	0.273438795786	-0.208686893672	0.0439926250422	0.0606064258372	0.100688998208	0.163659128722	0.0760862200885	0.181067223947	0.113105608711	-0.00595875096455	0.211703648052	0.164070120248	-0.11985301122	-0.138125364707	0.188757381116	-0.221838890054	0.0694541253706	-0.0729442331359	-0.0356502075632	-0.147419211182	0.435275802802	0.0995600141142	-0.120733994072	0.0704074328161	0.189117405473	0.0488739334714	0.0253796194963	-0.412798011017	0.346419905107	-0.0487574772818	0.124604974275	0.0118351883058	0.0562159992883	0.0631759701017	-0.087860275855	-0.170790390302	0.0250236327811	-0.262716254967	-0.0299266031966	0.0596985142939	-0.0591213688999	-0.191056507037	0.0614322546696	0.0178297422809	-0.0542604471928	0.316555840975	-0.0409175851831	-0.188153126559	0.149902122346	0.259904125676	0.129512109993	-0.140388785411	-0.303023225605	0.239321513518	0.0805514603186	-0.115393040507	0.176403510505	0.0236922112134	-0.141525194188	0.242566737384	-0.0777356792172	0.011499482633	0.11794565444	-0.385773717234	-0.252505946066	-0.0200070397902	-0.338264687345	-0.34368227805	0.131346046373	0.10473776532	0.220248983277	0.196302202794	0.121039724215	0.151186422434	-0.154234398993	0.0166441468514	0.198405533973	0.234238403883	-0.107935968888	0.382667837097	-0.275202494324	-0.195248711762	0.135793375645	0.35274152038	0.0940696622517	0.169666429794	-0.208909407568	-0.19317630593	-0.0134485815022	0.0320308570769	0.404320256812	0.0746245777114	-0.0805812154598	0.300834235805	0.0383170301521	0.12720606065	-0.065777015927	-0.364581699978	-0.0917439107127	-0.011721912338	0.275987216128	-0.0213923075537	-0.104700010816	-0.043500766038	-0.0585611676931	0.190678148277	-0.243504320451	-0.0960600556637	-0.0789941387408	0.133567586409	0.31503086179	-0.411454953933	0.423615467943	-0.0963942427345	-0.428513195303	0.00157175655441	0.276220342754	0.121667132088	0.019438285812	-0.204891577934	0.0364824505225	-0.18377732327	-0.109942800122	-0.183504091931	0.0974832533593	-0.162090079847	-0.0147198693754	-0.068394154843	-0.259358152297	-0.0461430159797	0.30041453219	0.210199901483	-0.0240966927452	0.0705375261141	0.100363197873	0.100036112417	0.149956054662	-0.0792240901854	0.401168687034	-0.228766799846	0.038935923786	-0.447464874726	0.0757023642113	-0.0851945137536	-0.0663470270064	-0.104916609306	-0.0873221172289	0.00697303223959	-0.2670930142	-0.0177389255759	0.114044180573	0.170503972736	0.220766955793	-0.339282307251	0.335502984086	0.476397972295	0.156542983777	0.181827644229	0.418937226425	0.0587677829185	-0.402950137741	-0.0254586801672	-0.138426828021	-0.259365376955	-0.160404180887	-0.0532943405959	0.354423969105	0.184129245018	-0.327862239882	-0.12337862387	-0.227346460461	-0.275734499136	0.0834218207011	-0.139311792088	0.135140405805	0.179767489515	-0.13251040073	0.226172043419	-0.234787937435	0.0919081616712	-0.0989356662723	-0.15351148687	-0.0670649163407	-0.418534809027	0.307070416928	-0.225081279747	-0.265682009551	0.110362269302	-0.190236879031	-0.0185981053859	-0.206063186741	-0.262543695359	-0.207474462523	-0.0638628869203	-0.1630071682	0.0781725133387	0.0711935733011	-0.2488969216	-0.110985920786	0.106503427178	-0.136888485586	-0.367111573247	-0.21046783164	0.122687093577	-0.371791512031	-0.240119878573	-0.158374991509
arrow	-1.26861972453	1.34527906025	-0.555577946835	0.369131782149	0.388262036357	-0.472758381047	0.572406760526	-1.56750760226	-1.12332545512	1.47796432367	0.524111235203	0.634915624762	0.167987467605	0.0603981587858	-0.976017815197	-0.365780779596	-0.0508395286419	0.938105603376	-0.245159857846	-0.0737572623275	0.192022477838	0.241180737145	0.380062016904	-0.425768711302	0.030253099627	0.15316694682	-0.225963293198	0.874092739007	0.240671967115	-0.0555346326536	0.237013204335	0.0938262883725	0.162090813397	-0.868581378705	-0.373283203782	0.126508072859	0.442599530831	0.254444914838	0.452341199757	0.29895828313	0.153560668787	0.28589584723	0.197302793707	-0.137371958875	0.148199025632	-0.11219897651	0.198191170215	0.00555764985305	-0.211810842414	-0.401615381659	0.2078092057	-0.761284443602	0.862761696855	0.16292780755	0.174163294677	0.562256836754	-0.191555352859	-0.257254204868	-0.147455898842	0.165950045259	-0.351428709966	0.177260212172	-0.279679566175	-0.389032036754	-0.0319644237168	-0.165684636703	-0.000797125060345	-0.124916337742	0.482246300472	-0.466185889647	-0.84791261663	0.27016947308	0.0167146595056	0.0885627594329	-0.161251829329	0.0823143178107	0.113482924938	-0.0616777756858	-0.164497222352	0.163866771715	0.134954628284	-0.029957687214	-0.139578521299	0.00439990392115	-0.859613956514	-0.0203136439083	-0.223852873408	0.6225993841	0.039323458417	0.317971210127	-0.0598483964966	-0.188390234854	0.268892709378	-0.00882271283896	-0.0178737138787	-0.282771127377	0.0277716154668	-0.433474862139	0.184007305248	0.0763411161899	0.165604917392	0.0700349907138	-0.285311216187	-0.03905653892	-0.155650209695	-0.00345710851027	0.0431223893661	-0.075817966633	0.111620781018	0.182476146045	-0.213430242471	-0.342102491514	-0.180016952566	0.0139608684126	-0.140360629119	0.012279405572	-0.092678533048	-0.133982586397	-0.0993548631493	-0.0368516019588	0.0329449334244	0.195971641443	-0.243200246345	0.365591796425	0.296894064553	0.620958773906	0.0987261354905	0.217834273554	-0.0451967920165	0.231437642647	0.636856118251	0.143560457657	0.224014586166	0.0560233248311	0.382913953454	-0.044596958016	-0.128980328888	-0.0408208518388	0.249090468044	0.14518213957	-0.483081114312	-0.0289823023469	-0.168371704411	-0.0242885581079	0.0286701927289	-0.0885447370005	-0.284394993657	0.128216384763	-0.19185589081	-0.120357325991	-0.0400809405008	0.118671539502	0.030056184184	0.103400100453	0.103626476075	0.300541756226	0.0255960935291	-0.38027196573	-0.0852334125648	-0.0346546857705	0.0251614568191	-0.430219817009	0.0861174710132	-0.0174843305858	-0.100993439391	0.545150445203	-0.207949604109	-0.0730111149121	-0.296223484379	-0.094021579769	-0.0887676092326	-0.115621106595	-0.41752325013	-0.160386395266	0.151356002878	-0.137207610382	0.025756096877	0.369810733942	-0.246901378867	0.00938530387738	-0.126365302793	-0.186067788434	0.025275306021	-0.248719202656	-0.187714802992	0.055584631614	0.193433436451	-0.144656350983	0.00893263760298	0.199235278677	-0.120993222575	-0.279924942243	0.396856280961	0.148876731718	-0.142997257652	-0.17608799975	-0.276193996664	-0.064916929959	-0.0406914645543	0.0219977338091	-0.154600598521	-0.00295530302435	-0.636035369931	-0.00915658086113	0.00445408678726	0.118126936251	-0.0357133002501	0.0858250944341	0.191123865883	0.0488274764056	-0.023457271715	0.0132055773746	0.150179779154	-0.0604470354891	-0.0426870349266	0.072884649864	-0.291719792416	-0.0827910065435	0.0532401943135	0.0264813929959	0.0694346808272	-0.0389063011327	0.0426850651655	0.209191052102	-0.214289053606	0.28800435605	-0.278514613008	-0.128901084354	0.149658176564	-0.111000614492	-0.19398763688	-0.178712027153	-0.117974857888	0.0145267468973	-7.29360718657e-05	-0.246366960446	-0.0824428425573	-0.115854884554	0.194199129368	-0.38272204158	-0.169610513024	-0.0322732412572	0.0632026526429	-0.299336472266	0.248498836057	0.225596224616	0.00162862420934	-0.12013890872	-0.154849288976	-0.00881777947542	-0.0887404516601	0.119970439053	-0.0839386250708	-0.0651615674945	-0.0297161510861	-0.0454150457074	-0.0770530889082	-0.103173454488	-0.0392990191893	-0.120250437546	-0.098469701964	-0.13984287435	0.241818180764	0.230403867349	0.131450559217	0.0566159966721	0.0358343064836	0.247045716615	-0.124967035701	0.0440331776692	-0.0642203138277	-0.130109205276	-0.262939800142	0.0879708223392	0.371458697927	0.0144489628609	0.225906221143	0.0246505136624	0.239586652682	-0.0940878194566	0.0209291273067	-0.106299704494	-0.0269830296088	0.039405496623	-0.0991459548244	-0.399105401553	0.122393847944	-0.178277491235	-0.0965682760845	0.000436296525226	0.203804302387	-0.193636509528	0.109776937231	-0.255739207443	0.202336437618	-0.0318099820635	0.239649083974	-0.113673459461	-0.11642459115	0.0949201489462
artichoke	-1.85341017206	-0.123127543172	3.19027248014	0.097089581993	1.28391988819	0.0571133514759	0.511173277259	-0.0310917550457	0.340881678139	-0.328109137152	-0.0770485026995	0.409132364763	-0.319552482231	-0.407942841826	0.480381616776	-0.104943807931	-0.641143598639	-0.0566122681649	-0.382009108974	0.830207786371	0.270121638415	0.372457945253	-0.725679039599	-0.542961499013	-0.187309947833	-0.160811841835	0.0826313527991	0.135166363581	-0.610198224936	0.371499862147	-0.243503704921	0.493824713608	-0.0653594259679	-0.00689375685494	0.0636180773018	-0.183124636668	0.0626058834509	0.215413973906	0.249345399869	-0.249046042935	-0.160195941176	-0.277716645988	0.658912215765	-0.396202614825	-0.0133972971336	0.286843569587	-0.132856145881	-0.0866901585889	0.42735285375	-0.0613033640792	-0.193510152646	0.136966909336	0.111812952363	-0.118156758155	0.196562079675	-0.0996440834932	0.107672308285	-0.0209298577897	-0.0899893157506	-0.123697017383	-0.256562790995	-0.309001058685	0.0698915626999	-0.0661762239986	-0.372124443985	-0.335967858551	0.240539486221	0.102661925017	-0.018500374666	0.24900183381	0.060082651352	-0.281373200516	-0.0872322330278	0.292241800966	-0.438281922362	-0.123229652426	-0.215240726315	-0.215702634316	0.279106057472	0.047320108139	-0.140210570423	-0.0854978601249	0.366464418358	0.392974835828	-0.122722844309	-0.161299774415	0.518869135944	0.42548427171	0.225054267206	-0.0221834464829	0.347036859541	-0.23311676557	-0.148272467197	-0.487035715513	0.35868092017	0.124803271618	0.00670366821195	-0.226620207295	0.334699795458	-0.225240704797	0.0169393538079	0.0840080317973	0.154843915932	-0.0181144254824	-0.17391886051	-0.0906266105432	-0.148781976939	0.12255501799	-0.0444588860241	-0.457157624221	-0.284069712952	-0.00141312863396	-0.00270155744988	-0.199180050359	0.053056297811	0.00286870219883	-0.0192786245042	0.230739193889	-0.0603891634844	-0.21832661397	-0.398614683704	-0.0275575420178	0.0640940379039	-0.356273405459	0.107478930537	0.204898539042	-0.542550842722	-0.0169384180964	-0.514541899194	-0.14772602719	-0.406654711034	0.282699013001	-0.293814086729	0.141548120343	0.169083392128	-0.0610910282049	-0.19883549892	-0.562894584506	0.0551515623224	-0.380036073743	0.264923284343	-0.0902036645421	-0.384713386771	0.171988118973	-0.0555485143115	0.2521976555	0.0391696778202	-0.0274179149906	0.232911783665	-0.0672635926043	0.118192655992	-0.181137178844	0.0435816183035	-0.442518064552	0.33928419749	0.0507361332672	0.244414775534	-0.131062879447	0.336799186024	-0.112867305346	0.0730321563707	0.0906753871768	-0.242235183084	0.22733914001	0.0327820010786	-0.234675867201	-0.219557833889	-0.191760977074	-0.108680885706	0.195682768805	0.30264465734	-0.035235346851	0.0608998493877	0.430473430672	0.265305658002	0.0519027345838	-0.211929165209	0.00562860027845	-0.263110609533	-0.0513542324008	0.014771139058	-0.0104026126168	0.11145002095	-0.0474947021265	0.290327289059	0.432365386952	0.180584500485	-0.239288735443	0.137856779685	-0.150743200572	0.14452695718	0.153084649255	-0.305481462415	0.103392354319	0.437471014298	0.0264779436919	-0.266640225237	0.00921158928025	-0.259988443993	0.249370555572	-0.0345547718648	0.163341956473	-0.182374773721	-0.275916789296	0.0599917390892	-0.00103546611292	0.185690984086	0.179495114811	-0.114346697543	-0.0869032175887	0.41875990726	0.326735443903	0.0639367271736	0.431146685415	-0.147662775099	-0.196064553138	0.00871796774179	0.0721280332206	0.156818888571	0.160813166496	-0.0173266590951	0.119895363688	0.124232729671	0.00860362176182	0.294493342623	0.00574564921765	-0.113008329208	-0.340130717313	0.00714131818615	-0.012135790932	-0.109589767164	0.0600877131338	0.0411588111238	-0.17646968976	0.278090032344	-0.131778310963	-0.119727081687	0.016385885998	-6.11241395389e-06	-0.0313939740983	0.285558291519	0.27996808196	0.280330731955	0.00262964598665	-0.00103892679582	0.0396719619173	0.0536340671302	-0.040212885829	-0.0489350519755	0.354491112354	-0.0681445903487	0.0415430326699	-0.347900187228	-0.00156155708553	-0.0791054209561	0.114636829436	-0.430251834519	0.0423981029529	-0.282727109383	0.0412854346122	0.247480264455	0.0280552569761	0.112235797092	-0.0320806034859	0.0679569331068	0.0533583760188	-0.0364459815832	0.371360719457	-0.0467438287419	-0.00413887204003	0.0810795490349	-0.125957124824	0.125352003081	0.261917009832	0.225854093797	0.0136521448861	0.0828403602291	-0.10708620829	-0.212190725713	-0.0850477099919	-0.338673576853	-0.0068834277086	-0.0783539363026	-0.00991981379106	0.00274122360311	-0.0827958013738	0.161371929159	-0.165215752113	-0.0593151256749	-0.17696216969	-0.0620350282653	0.160877823112	0.158443453202	0.0429979724795	-0.0652255017422	0.164269623909	0.254081855253	-0.134398858238	0.273116792372	0.304520366657
ashtray	-1.19865081928	1.48181142753	0.054464462643	0.255044752516	-0.356741610878	-0.390389139724	0.235301715751	0.851505597645	0.502394032381	-0.717345615828	-0.0451313338316	-0.604756436022	-0.643275396441	0.347507966136	0.137116239159	0.0110655175181	-0.258681393418	-0.151710645146	-0.247280223673	0.353633918956	0.0555574877495	0.384754041084	0.246872017196	-0.0316637167839	-0.30313407085	0.344608613224	-0.510180550396	0.0399243033222	0.0834885740254	-0.203423667341	0.345536112118	-0.362286577162	-0.185323183516	-0.273269105358	0.317386445254	0.415580656817	-0.214803465384	-0.0122060849485	-0.10678660393	-0.0332359361707	-0.150071822735	-0.183820104931	-0.110894999718	-0.133559527864	0.141398086618	0.188908557274	-0.0761172127159	-0.0074760382534	0.401401547765	0.200057614326	-0.288744217551	-0.376824613027	-0.0957504399281	-0.0749516835455	-0.0446727826962	0.495640540003	0.0903206376352	-0.0875752478511	0.199389290746	-0.110251906479	0.0303106943504	-0.0347824111749	-0.0138100195978	0.0392365823973	0.273935356961	-0.105074073507	0.216138219458	-0.0652622385256	0.379430857174	-0.0719478457486	-0.108169769297	-0.166008976475	-0.0772096239766	0.059688285041	0.238661689944	0.105749202222	0.124704807661	-0.010773747221	-0.0812395413091	-0.367643912951	0.0968837439635	-0.17862361302	-0.0122476237313	-0.0634590407424	-0.0393193960009	0.00251109875176	-0.047357358158	-0.192096023575	0.245294578699	-0.151532100921	0.0548449258767	-0.117052093924	0.148416079682	0.156175176921	0.149057331576	0.0144765334477	0.239974272717	0.00123471283284	-0.318632313805	-0.155769264513	-0.248542563539	-0.151685201538	-0.156571692393	0.019872464276	-0.255093121874	-0.211402950931	0.267494418066	-0.234096276294	-0.388362467862	0.129262271472	-0.253522245079	0.0695343611315	-0.0285338434966	0.0425998361534	-0.177398637138	0.0302365665598	0.0578051318841	-0.205799469764	0.019175888427	0.340939112378	0.378960200966	-0.00863714017736	0.0254004482303	-0.197409157249	-0.00587392351124	0.123910336619	0.0105495084489	0.0695293358098	0.10098305073	0.17300158161	0.23505629556	0.0638050548849	-0.00245988174247	0.132514223818	0.0344789056622	0.235042386204	0.208738138031	0.14439791294	0.0853169124905	-0.0164581235235	0.0966780443193	-0.229281356324	0.115221852059	-0.0604268538274	-0.00414184633903	0.119328584212	0.199298292979	-0.113668931988	0.188058110918	-0.194468876458	0.0780181008696	0.151543415667	-0.361538875558	0.000278472272143	0.0619553010076	-0.136238532607	0.237354455785	0.248653575558	0.120300833488	0.102164347538	-0.0532125995346	0.170052851798	0.0794690717768	0.130920751924	-0.105835708894	0.0692713755231	-0.0275168105521	0.00194470038142	0.225372184991	-0.264298152038	-0.105284025758	0.101899083996	-0.0283019535578	-0.265922281193	0.0223315220011	-0.0565643375867	-0.0576456898141	0.00113976045511	-0.30448324062	0.00365318601438	-0.105152473161	0.15320094782	0.0941467274826	-0.165078437885	-0.0134221593114	0.102977527953	0.0290898816926	-0.206799855817	0.127925936145	0.0319331442955	-0.0775732674798	-0.0410909572479	-0.409759784099	0.0994524195472	-0.033680129599	-0.000109158989181	0.0918366303112	0.196223387699	-0.00568167195259	-0.187083401954	0.00658029537085	0.00271769302461	0.0423708705509	0.015397648955	-0.149589123878	0.148712236348	0.114464682804	-0.050484684923	0.0345233881597	0.0245230385025	0.0603620586469	-0.0641156904098	-0.0328419610099	-0.0840479950137	-0.0415042192159	-0.106407395362	-0.175861568764	0.0694934987324	0.26301490891	-0.132377825695	-0.0837517232784	0.177782224359	0.00674753978858	-0.465571023397	-0.171567087475	0.116665710908	0.0211765579527	0.00662972845952	-0.262857790599	0.0188747391628	0.150119444633	-0.154513432335	-0.0991767026331	0.15528943256	0.063748396745	0.0181291692466	-0.00835645144164	0.0195874745437	0.0715233292879	-0.123219267733	-0.112264158483	0.171228579046	-0.0450628084604	-0.0789245208218	0.158556140066	0.00257653838839	-0.218922450081	-0.186082793872	-0.0443555966195	0.174317240107	0.244554562415	-0.0297349480603	-0.0377508535053	-0.277097245503	0.0667466276113	0.129428380839	-0.0294277541555	0.148061825102	0.0125350580557	0.181754046782	-0.00926583507253	0.194177452457	-0.0428487560047	0.0132226847311	0.0639805074418	0.224995874661	0.0303788475106	0.0583478155878	-0.101935560902	0.0705692126285	0.27981806357	0.0849812358471	0.274078765761	0.0886605942525	-0.027266317932	-0.0961302031842	0.120181836162	-0.0781134923936	0.0325081635184	-0.252271974207	-0.275035653917	-0.0136394108359	-0.107873106091	-0.139606543577	0.0575688838487	-0.112135528436	-0.167849247942	-0.00712795552265	0.0617528664786	-0.0075405324007	-0.0215377010907	-0.0361535145278	-0.000624846034448	-0.0121259161702	0.310211818199	0.212912549143	0.00197381343922	0.138027487415	0.0159543167805	0.0701632200856
asparagus	-1.50468628242	0.0327702849121	2.60035455671	0.0163952663346	0.942942706079	0.309334564332	0.280334436248	-1.08534521251	-0.0535355450929	-0.132635205398	0.335216442227	0.844605290716	0.560368162245	-0.660106298607	0.327567160722	0.591108769184	-0.884588907028	-0.168819883462	0.0675525148883	0.386733236954	0.426135993562	0.89643216282	-0.541196532218	-0.50990999912	-0.284620983416	-0.173353657885	-0.136556118579	0.569341154758	0.00971647025275	-0.104058516047	0.00650652433267	0.391164904064	0.271982477517	-0.0533285473803	-0.0236778509623	-0.0924607329707	0.131218489564	0.123726405963	0.231864529076	-0.100542614916	-0.28326780291	-0.443398712406	0.198581195628	-0.152044091814	-0.196042593803	0.116741347451	0.204413265266	0.179191793022	0.0590801653736	0.292833725095	-0.266102520639	0.00896272609696	0.108905113124	-0.400980329392	0.390239720274	-0.073921572244	0.0792021726581	-0.226246199182	-0.136555838907	-0.498623744728	0.00851782419327	-0.355988340088	0.238611591595	0.0415835799874	0.517169667742	0.506280993336	0.0103534671605	-0.362174297741	-0.0664411924103	-0.269147864891	0.125868185328	-0.00280126342746	-0.0332072991065	0.453224535422	0.0766436465827	0.0913961038356	0.267517486409	-0.501616583221	0.274656653931	-0.105439092707	-0.200701582026	-0.101916175624	-0.19048361656	0.109713287799	-0.104790055422	0.203684718517	0.341051634866	0.156690567851	0.127571072991	-0.204094145867	-0.0323757926478	0.0928235708946	-0.183477572843	-0.183762139989	-0.106870230043	0.219601314468	-0.0273821826989	-0.204562629035	-0.009860117705	0.0541024205166	-0.00212698295779	0.0242529589093	-0.0391923647071	-0.173663345741	0.0331013255832	0.131950822499	-0.0315564511664	0.307529628321	-0.172962674639	0.0300508344292	-0.172608949921	0.0371268391597	-0.212691441216	0.181747910379	0.105203934712	-0.0309533429297	0.0302331458383	-0.317143210512	0.206866479169	0.0651363133165	0.200314009865	0.0311101805265	-0.36545626078	-0.26133479109	-0.0632181858076	-0.197687480958	-0.178005305603	-0.0292039286302	-0.177019893067	0.310995985769	0.024500907638	0.114273934236	-0.0519249371241	0.147475835807	-0.0328739018737	0.0834376516556	0.105882766222	0.0584051521965	0.0749541930504	0.196884242201	-0.0332085699196	0.133209610406	-0.208798906879	0.180055281899	0.0415321802595	-0.0157877575702	0.0928305543813	0.0244321297248	0.107570337934	-0.240207293594	-0.0133701099122	0.110212712234	0.170419940447	0.054798177551	-0.00173334821145	0.00668246769431	0.0255875695386	0.0911892384923	0.0503288743228	0.113001169513	0.297047353227	0.168351242383	0.26873355872	-0.131607069058	0.149590741765	-0.144248396026	0.014164555859	0.138063335095	0.345905435265	-0.135187807968	-0.0739391543847	-0.0874947788697	-0.181698957254	-0.0418927751003	-0.129103761293	0.0452300816932	-0.148779247883	-0.0634394688847	0.000602792578816	-0.112765079599	-0.0767727748241	-0.0171016489518	0.0325625941298	0.0689770308909	0.0989153460154	-0.111504726652	0.101758320093	-0.0621999195754	0.0377286832932	0.0741291886295	0.0204421154123	-0.0563451503855	-0.191259943044	-0.0931027573947	-0.0606733434005	0.143449289638	-0.12320371592	0.0274610736833	-0.108661454086	-0.00900742015976	0.110304794713	-0.129468312745	-0.195428321976	0.0693452274132	0.161070787313	0.141389146416	-0.290925101488	-0.212069217958	-0.0891173003957	-0.243298711405	0.117359839846	0.189590228078	0.163241824819	0.0552233946013	-0.00329085638688	-0.215009506472	-0.0194963240802	0.285010262041	0.0596514300253	-0.015377313074	-0.0634395306412	0.043051619394	-0.0838401494242	0.11622044058	-0.0388567113629	-0.0652371682599	0.169691742669	-0.0739897790614	0.0980582848999	-0.0639871901162	-0.0485695356049	-0.0347851741182	-0.0351141614414	-0.141261213919	0.0472100731534	0.162336357718	-0.077030982911	-0.212822386804	0.257099636142	-0.0778567078422	0.068729199139	0.0382730601017	-0.13765938855	0.178027672465	-0.0447140563499	-0.0509870675552	-0.264847052296	0.14600096182	0.0204537684525	-0.106121840837	0.103960178481	0.000477083202496	0.138800265207	0.050841998824	0.27927881975	-0.217843779717	-0.0435097652399	0.0164987377846	-0.120967375068	-0.0796320190746	0.0548672251448	0.00891409173532	-0.136213926341	0.234341592505	0.0700653045779	0.0458433461413	-0.0634367649629	0.0766644277258	0.0890201507688	0.0990095430818	0.252584148174	0.0620954695191	-0.108607544485	-0.266556651238	0.0457798887351	-0.158772498148	0.188847120008	0.0946010142709	-0.211538426204	-0.0310785154976	-0.0520903396552	0.119195512986	-0.13355506619	0.0897665554238	-0.154022784559	0.0482260629792	0.0472201826194	0.00836584041287	0.16998323274	0.108521967716	-0.00529173875189	-0.043469533972	0.0144110841942	0.0380069111168	-0.176290913292	0.217899518435	-0.152424584898	-0.0702121553933	-0.0870653579064	0.109598943913
aspirin	-0.904708508248	0.556019845669	0.317728145799	0.199640993435	-0.464916251865	-0.347585614761	0.50506440515	0.482315659334	0.139934022969	0.0625684365931	0.307866110372	-0.14232681481	-1.01537983091	0.506746315212	-0.331072809288	0.10306885244	-0.65488385874	0.504644134578	-0.51385159201	0.321907491167	0.151686236016	0.187713862255	0.290414981135	0.14271206268	0.22852465851	-0.234888977034	1.12193372624	-0.18944992879	0.355270200634	-0.514104344614	-0.609202953044	-0.87641714318	-0.596805594674	-0.594041417228	0.210266189959	0.369008168509	-0.00550693536533	-0.163475098699	0.639332874773	-0.458469364106	0.124167678137	0.0124582497789	-0.406919988918	-0.19868715661	-0.716383929522	0.247941795707	-0.215116017068	0.0748736692106	-0.0338872350965	-0.40141003738	0.623709916935	1.03874232341	-0.113327326025	0.285887076415	-0.628935126198	-0.822227073896	-0.0500757076857	-0.373087890595	-0.514863461983	0.367478073031	0.202914687211	-0.551780559811	0.550087234044	0.473952852999	0.168494842188	-0.0546057432846	0.661488039641	0.204935469563	-0.536571628344	0.818163665675	-0.00638541197927	-0.0144546097565	-0.519001795292	0.635334388968	-0.726073310919	0.369726162666	0.525560812771	-0.520475635872	-0.228179574027	-0.713450937035	0.426967967534	0.167711425011	-0.216534744465	-0.117853395126	-0.378767676971	-0.493024261541	-0.435003679783	0.133006952468	0.211255938265	0.0355148948539	-0.500556102884	0.479287774661	-0.00485161882764	-0.0918395515818	0.315259748688	-0.332366694206	0.48804999556	-0.275030956719	0.584055095121	0.146351333924	-0.134217453453	0.742646209742	0.232458163012	0.0371663133546	0.160069435812	0.0667299802648	-0.129498712792	0.459869772716	0.184764933802	0.300386771947	-0.24221424983	-0.0345332445839	-0.0929766270443	0.153786941154	0.154458922026	-0.146923175185	-0.0370442054316	-0.22126096778	0.203312385179	-0.26766464504	-0.0499046623214	-0.034247883534	-0.132682582739	-0.127379730459	-0.21955426489	-0.202420190579	-0.136349584968	0.0992607972816	0.00748951731555	0.300398121997	-0.0485031111908	-0.223514232628	0.113277562858	-0.142087326181	-0.103287414641	-0.0409503515007	0.0507603206189	0.0248312940979	0.207271555939	-0.0875479365309	-0.00303829231747	0.0323834434244	0.125786541656	0.0250285770184	0.308600541919	-0.196197745684	-0.134184935622	0.0476156727928	-0.00958844721096	-0.0503813197944	0.0878615715112	0.0276405392727	0.136718470365	-0.269686031329	-0.126181354572	0.24165100731	0.13723859651	-0.0408037161925	-0.315095248094	0.123720794252	-0.0222150945589	0.143346690544	-0.120656020781	0.0361026471596	0.0741690283767	0.0136884549745	0.0145252737276	-0.0244269467314	0.166478339559	-0.00547188297972	-0.0243188367606	-0.131858305625	-0.1456371391	-0.10676626441	-0.0704143924888	-0.196577804411	-0.259293126425	-0.272098397097	-0.123041910457	0.216767396111	0.114547154424	0.164506348515	-0.0450045318256	-0.200272833561	0.0185846442242	0.15275643996	0.00614830971859	-0.200221072584	-0.0705161032633	-0.0428858527447	0.0616595181268	-0.016394043886	-0.193751363998	-0.0685291708355	0.0165249064075	-0.127386150162	-0.147074805304	-0.0101539905388	0.055449548312	-0.145388155401	0.14059469514	-0.246095171304	0.253679195798	0.0869246678347	0.264548153489	-0.0939574457388	0.0876541930105	-0.141897347519	0.181747492824	-0.278910953102	0.0997531837637	-0.0832465256345	0.142584100557	-0.0271946771347	0.0386322836497	-0.00991104128809	-0.015239367468	0.0409926359346	0.21757276026	0.101211984971	0.32595615625	-0.372572875559	0.053426481526	-0.266831357341	0.155384487253	-0.153623469331	0.201927457431	0.17627103944	0.143906223006	-0.068931715779	0.044579808203	-0.224235131087	-0.0124483858681	0.186936474527	0.235790533123	0.210794695311	-0.291101518944	-0.258389039789	0.0785221994758	0.208562070985	-0.131025477036	0.208592413494	0.0744814420052	-0.217262493334	0.122455878929	-0.117555051167	-0.317248650541	0.0299185494933	-0.0579915234749	-0.013896293539	-0.0508984127763	-0.00115118555269	0.0678740063208	0.108918858442	0.154376309082	-0.237947374941	0.0283681577234	-0.21448148967	0.124297997692	0.00937309382173	-0.00409990979566	-0.0368106359999	-0.0871440837455	-0.217957007609	0.101736228412	-0.24321650505	-0.121863456963	0.520157048261	0.0300145299053	0.0123150536435	0.193201299016	-0.306003023372	0.01446271764	0.0533283945085	0.203148018473	0.0715348465704	0.0193695770888	-0.040297948458	0.0494920419423	0.191554992244	0.374022244086	-0.0843638081503	0.0799286364114	-0.13398087063	0.373545010777	-0.321902733536	0.122511409308	-0.00112367119842	-0.187361018437	-0.151908926598	-0.177087022966	0.401679693802	-0.125401361879	-0.124788117576	-0.0845813346213	-0.270746343939	0.304972564963	-0.129903117895	-0.0338185425202	0.0188365189341
aubergine	-1.76211341311	-0.176832117032	2.69987056938	0.148464179213	0.547053539179	0.546178498589	-0.299258045684	-0.786804189237	-0.716254408194	0.0937831743751	-0.00600713438321	-0.0347848949496	0.543477750941	-0.343565229102	0.842212944358	0.677526129329	-0.857814514483	-0.155999876807	0.175572092773	-0.213905288921	0.0567131317466	0.323361136489	-0.544991429998	-0.606731026429	0.269043679204	0.085073169014	-0.245172420739	0.166865023783	-0.524043567407	-0.120041966822	-0.0476799931068	0.333376682909	0.454580421636	0.120145235425	-0.0169492599154	-0.232829216864	-0.274532388955	0.501998087731	-0.186440235243	-0.105324348973	-0.304491661437	-0.176866295559	0.300151396166	0.373388616539	0.586269944816	-0.131053334122	-0.399409128457	0.117814091833	-0.0872131000038	-0.196665772362	0.331386223019	0.255076340732	0.0132893758106	0.212414495287	0.0800697404867	-0.163055081149	0.106489382335	0.00738303117882	-0.587656708225	0.13080600589	0.190650137833	0.243446734376	-0.352093281977	-0.0465948326016	-0.221073648201	-0.329158993929	0.102300341835	0.227944140451	0.000965762695869	0.518567793759	-0.0385469953127	-0.102382198593	0.0400715232922	-0.283054686327	0.143907227419	-0.101484793545	-0.0922852773108	0.101899599355	0.00144792773774	0.112203640882	-0.160478654347	0.0975692295801	-0.332161184095	0.11717344009	0.297728043722	-0.186712644279	-0.465234945602	-0.259215170111	0.0643580783072	0.0917895235367	-0.225174490487	-0.040798865625	-0.475173380161	-0.162743509022	-0.131716329449	0.173904178028	-0.0757066005129	-0.170667496626	-0.0196378117925	0.356548274983	-0.0750290351843	0.256207754697	-0.13346314689	0.232593479835	-0.129113366716	-0.115341907712	0.0745671622599	-0.511715159688	-0.309055869677	-0.0261893667936	-0.129829978889	0.33242128289	0.552046048504	0.0537302381485	0.0806516458527	-0.159218737243	-0.331849643376	-0.0731955695652	-0.212478107433	-0.392243651209	-0.0708514347597	-0.283089290432	-0.0122105696024	-0.185235570964	-0.0838625936358	0.127633221784	-0.0582533280635	-0.0321873825258	0.108445862029	0.0866160832833	0.0315371960668	-0.291420662192	-0.120806865503	-0.158407929364	-0.319320135564	-0.183828202434	-0.00824029407576	0.102361048956	0.291346644865	0.011635366296	0.0259055382368	0.136582600001	-0.0797258302661	0.16826121168	-0.0814034046354	0.0203492499144	0.303873854022	0.00426197118674	-0.0861454226114	0.0409505876205	0.000214174989706	-0.00995058879991	-0.136869157506	-0.142394947601	-0.280096546967	0.105097201791	-0.00348070387002	-0.25894649036	0.164766341979	-0.0282137824588	0.244340328271	0.0954893696988	-0.170544264682	-0.0537523082598	-0.00312620381875	0.0958503823684	0.139911121297	-0.103289443019	0.179258166421	0.00183560830624	-0.0740804206716	-0.105496174312	0.138674546604	-0.0154646514986	-0.223657542379	0.000668417824308	0.0383788886086	0.0504440218883	-0.181117960954	0.245606221712	-0.0727266637678	-0.132172234534	0.420703742525	-0.0767551993803	-0.0390140992566	0.101346349637	-0.10098239755	0.0785357816594	-0.0886751499573	0.290163310533	0.158256071569	-0.186777397111	0.196424936778	-0.0744869449279	-0.169014316611	0.130364364867	-0.145610198853	0.355461936015	-0.32630324129	0.253211391749	0.431334026439	-0.144872521303	-0.0522691023738	-0.103013463237	0.156610531975	0.0865437645726	-0.123679279466	-0.16660476024	0.0197834710967	0.00148413018542	0.106156571559	0.16388427089	0.0632660307334	0.0925657228685	-0.173384372679	-0.326193908695	-0.216800713067	0.114615782178	0.0355495625904	-0.228416724219	-0.090963435585	0.00498952441132	-0.131457024073	-0.202958459848	-0.103401661647	0.012587738933	0.24314471746	-0.189287832408	-0.0345994188867	-0.0535554780268	-0.168072452892	0.112118818571	-0.210210627843	0.151266618951	0.0653828435713	-0.11889625097	0.0659439673192	-0.0928687217581	0.00550020087053	-0.0529059243417	0.0801063458378	0.0848914438486	-0.16736081431	0.106923703846	0.0339550803771	0.00301433552844	-0.00323570398814	0.107873115339	-0.0434041195741	-0.102432205683	-0.160521237894	-0.153087416798	-0.102135095806	0.134801083161	0.0384030755478	0.212492560438	-0.138579331937	0.0514691001594	-0.142518761395	0.158466761597	-0.135258075221	-0.0727295669506	0.00258599232254	0.0702303572255	-0.0116082713594	-0.297426001895	0.148318821845	0.190874812116	-0.0510177406298	0.139657608183	0.315117769666	-0.168423436941	-0.0580608196465	0.160103837584	0.0986556893638	0.0651354296204	-0.175875965646	0.0248816585726	0.0548830407933	-0.0196968385628	-0.139182661016	-0.198738943423	0.271206709201	-0.285042728653	0.0359833374182	0.145587527474	-0.294682094244	0.124419540491	0.109579782171	-0.0615456184398	0.0942379563525	0.198977571038	0.0774896500442	0.0409931583053	0.206730670042	0.323502330808	0.0505050457262	0.320228789459	-0.134143306951	-0.00585141434988
avocado	-1.3725003159	-0.287625309651	2.8022774862	0.343760177735	-0.680359632355	0.517983430792	-0.640521965985	-0.101238599836	-0.855785694188	0.403089562328	0.0941658394427	-0.255429228353	0.419557908015	-0.376928442697	0.576153072623	0.309804934899	-0.273482939353	-0.298556335664	0.213803533749	-0.270926836864	-0.0793597713876	-0.170747625003	-0.143453313006	-0.335457063279	0.405261179185	-0.417478987844	-0.0992547686756	0.379650877354	-0.172963473929	-0.112894310102	0.311145368844	0.581506049652	-0.142551331957	-0.0725940291808	-0.312651993178	-0.280621998978	0.105769934524	0.278024248106	-0.0489618952313	-0.245363527614	-0.465957233153	-0.758054979355	0.385882722983	0.00611197920107	0.277364148257	0.0670112152782	-0.857597352147	0.294421920091	0.505246405131	-0.0307874745996	0.388679912663	0.28547567563	0.165456084894	-0.137922237321	0.108401127541	0.19199791224	0.252789418915	0.00621154686742	0.163849144919	-0.00499799837421	-0.226936092944	0.256147903858	-0.282504776625	-0.324332386035	-0.024574089311	0.162512061908	-0.0603764191847	0.239517697464	0.392817136841	0.368338092604	0.244947672607	-0.362162211714	0.0261189626185	-0.0537141367423	-0.307999844517	-0.221231876932	-0.111630426092	0.445513698901	0.0628822446307	-0.0244604556174	0.179937964236	-0.0708878478469	0.241858863252	-0.138526722712	0.133531212198	0.00807346482743	-0.0293082881092	0.155198993962	-0.192152496775	0.414436633114	-0.121448693849	-0.048980211876	-0.292614793893	-0.159890051592	-0.114843513139	0.225058038089	0.328648462407	0.0236507268086	0.491191758029	-0.388900447792	-0.0488616924631	0.146229927776	-0.356550759763	-0.109016895304	0.230396344313	0.0752399965191	0.252893142922	0.104471504872	0.286134739093	-0.189191484805	-0.123050351674	-0.0672989174003	-0.374987865226	-0.00182396262593	-0.13304237008	0.0548878816805	0.224764208921	0.0889835228937	0.499762065835	-0.002277000758	0.138671849969	0.0451022962469	-0.191783690846	0.0379576540253	0.027986847957	-0.131568385891	-0.193799160537	-0.0572163108403	0.112770178012	-0.0546463596256	0.0529344498918	-0.0126758567966	-0.399355520217	0.223582537914	0.283437297856	-0.419794164879	0.251032435702	-0.54035153087	0.106291981442	-0.320680726114	0.161473353709	-0.0974177512902	0.0532700189803	0.557886849713	0.299374693599	-0.186623041149	0.045740492969	0.107097794844	-0.355701055045	-0.270591596466	0.00434339149318	-0.130697059456	-0.271544768482	-0.101556044926	0.447051037781	0.0246500131941	0.181838535787	-0.0458904873562	0.0188690474538	-0.107615157332	-0.312430353141	-0.280033063613	-0.0183084204298	-0.298369335447	0.125348115007	-0.171594233117	0.303086854246	-0.228383163239	0.00484953005893	0.263952676991	-0.186438161094	-0.0688071274184	-0.201645572015	-0.145105837244	0.0224692839494	0.285486334442	-0.110525630702	0.237940377155	-0.0626691228157	0.19352141637	0.0437521341309	0.125303300248	0.222123184388	0.260409407979	-0.198454239716	0.0921514181949	-0.0843363921519	-0.0380973355738	-0.278094128651	-0.145276994537	0.0800908260522	-0.15639579226	0.234733208509	-0.287737243715	-0.118045687296	-0.189832442237	0.231877335079	-0.0239995915402	-0.26714089106	0.220228381895	0.0474441813614	-0.11638570871	-0.198640304842	-0.0527216421774	-0.166717863763	-0.0291721473315	0.146975065396	-0.0934575448819	-0.386582616983	-0.0987776760444	0.148403580509	-0.0708322333496	-0.339738390628	0.100008109956	-0.173723089655	0.217314230148	-0.124490434377	-0.0591048308685	0.11561251536	-0.240572311713	-0.149390475897	-0.127287535389	0.27543143944	0.114198001225	0.163784644872	0.0917782616825	0.478621050047	0.0699054625107	-0.261632700831	0.258793900873	0.0367382836799	0.111829824103	0.119004728357	-0.268986081472	-0.0227108146323	0.00651140868923	0.0564426241104	-0.0202147592765	-0.0112051896738	0.232230117298	-0.0151211465932	0.126103498362	-0.206294923024	-0.210026565623	0.208368617536	0.0134923625222	-0.0517611182895	-0.345523542449	0.182145912781	0.199976861709	0.0386220087621	0.32810021079	-0.0811415118559	-0.0209735121296	-0.0273652604177	0.0188879338256	-0.0727872287006	0.37611625467	0.360621584694	0.231584002759	-0.352998607442	0.118077215915	-0.188223286299	0.109907391635	0.0686390225308	0.152147546556	-0.139789082121	0.167220476211	0.310730564811	0.0453454277142	0.197399950705	-0.0325512318935	-0.117809291346	-0.0754221283604	0.191302258832	-0.000801242585779	0.0475851442006	0.127017826805	-0.0137327110775	-0.118820800441	-0.183415409373	0.117493710185	-0.00696194749365	-0.00746250902493	-0.203448671548	-0.0192345360432	-0.0398512850413	-0.270666522895	-0.35664861144	-0.0153334464544	0.103821309719	0.291847118062	-0.369993652703	0.0705272361835	-0.211540556884	0.0759733624168	0.0572065986763	0.164564448521	0.0207923944221	0.0590339651721
axe	-1.06617756629	1.78184185817	-0.549090083462	0.819787875672	0.0155937749427	-0.363210217231	0.92111761776	-0.969503063465	-0.931425739253	0.199763033903	0.267540954531	0.00288739908332	-0.674797618042	-0.404401948876	0.704738640089	-0.0957379848588	1.12572415751	0.640270899834	0.113644754855	0.289506907226	0.207095911538	-0.158090649758	0.0247936315536	0.336879206426	-0.0430616049141	0.104472659565	0.497228959922	-0.042577447848	-0.148695200268	-0.175643628427	-0.173641527489	0.364972880091	-0.0705893369765	0.212023905655	-0.407038888514	0.548073411745	-0.184800455284	0.484036086012	-0.317186090695	0.310006273585	-0.279997813228	-0.256210272569	-0.504416209366	0.182065187471	0.19430652954	0.168805714955	-0.459258691967	0.00290427461547	-0.131977769397	-0.48217731511	-0.10162403221	-0.698110694952	-0.0318761478915	-0.131298048014	-0.0993551286902	0.2458691924	0.189810963122	0.238719580646	-0.0700946432569	0.0132702075574	-0.191050301735	0.122831712322	0.107609041783	0.21071479	0.497865525688	0.196258250709	0.405265187844	0.153885826077	-0.336100659586	0.270582468922	-0.0851749150205	-0.00209322680522	0.356009187167	0.122498898923	-0.0333133627169	-0.126174684313	0.169801024111	0.0125426348672	-0.368412255917	-0.236449535267	-0.15912374278	-0.208431116553	-0.1091642594	-0.00500245026111	0.314373402048	-0.14600166735	0.178281933202	-0.0922551823814	0.16497352206	0.17032850289	0.209308408215	0.071701015539	-0.0646194609031	-0.12609390749	-0.0395074612326	0.0648797346934	-0.196191470206	-0.195529046871	-0.0694331443792	0.11821284397	0.0520846415539	0.140819597104	-0.0168237998663	-0.0291999026482	0.257617498321	0.064316494911	-0.307666557774	-0.168396922438	-0.286400494863	-0.0184837508786	0.337226568169	0.0723381587141	0.0872148816442	0.0458153349048	0.00646451254003	-0.199304050843	-0.0182272497432	-0.122596606544	0.241036774368	0.0729130625826	-0.0949857575694	-0.140875094993	0.0495509616299	-0.18494438123	-0.0395371419472	-0.114353171705	-0.295340124716	0.0735718695074	-0.194604077499	0.346763500549	0.113071004244	0.12797981447	-0.0982097448254	0.269936330136	0.022696695624	-0.12105312635	0.215288418177	-0.00678006087191	0.00937444219692	-0.113093978184	-0.0269854717548	-0.153510019029	-0.0941763507979	0.159114882762	0.216267904268	0.0508415418136	0.0773819790067	0.180429786533	0.230262807262	-0.232896636937	-0.257304147511	0.0653790192618	0.215593030933	0.0620438809477	-0.0432076551026	0.102281328709	-0.0123779540839	0.0354403006452	-0.140677777866	-0.0015330985541	0.0379305044362	-0.0371026768865	-0.0227119430118	-0.16701090478	0.27028034707	-0.03089625917	-0.36808156054	0.104036236818	0.272461380145	-0.0774129654375	-0.0488901061808	0.186132188323	0.123325664539	-0.131900539819	-0.0426097195118	0.0367503882722	-0.0901574413568	-0.0529792919842	-0.0701920248196	-0.00555017144255	-0.0316037915599	-0.0240670556647	-0.0446884267967	-0.195010887015	0.0446143019163	-0.091239237637	0.0848239147634	-0.0338102547087	-0.0297739661193	0.00572280132418	-0.27539327979	-0.0277562685374	0.196486861125	0.032722498753	-0.0638180093476	-0.282838983038	0.331619083951	0.102159653303	-0.027199323133	-0.142170780285	0.0775891486267	0.275891517766	-0.246424405021	0.32206332149	-0.0471716003166	0.188568855384	-0.0960671303639	-0.0738445802028	-0.00338379176588	-0.174234927931	0.286342460781	-0.0376287218503	-0.0422083337179	-0.0903683769846	-0.0671456754413	0.0136874158445	0.295715359491	0.0839229226955	0.0642847901142	-0.153074327139	-0.158925909538	-0.298832314389	-0.103567255694	-0.0516320416032	-0.245578080821	-0.119352141572	0.0619528332864	0.105345872657	-0.0532100790342	0.235971641463	0.250245084028	0.255668422731	-0.00772746638746	0.276433164773	-0.0376361921647	-0.0486903278496	-0.0349407104596	-0.142646481201	0.129742593667	0.0517166526879	0.159154490024	0.25556662217	-0.0342765999612	-0.285145355632	-0.264317057577	0.145166988127	-0.0267473701333	-0.0855338691751	-0.0402245130495	-0.00900948065197	-0.0372949760479	-0.135617793442	0.371359577256	-0.246064538881	-0.394522407995	0.274866047427	-0.0960452465848	-0.093594741506	-0.0860482546081	-0.139383786437	0.131463847947	0.110693329295	0.0121492065716	0.125715907236	0.0403017481384	0.145244210909	-0.0209717817734	-0.0673523117418	-0.214118643023	0.0642793746461	0.118417197069	-0.015348334904	0.042030227386	-0.0527564985661	0.0207875343409	0.022812209441	-0.111947096456	-0.190598715634	0.0380863892644	-0.0240922213986	-0.0281112597259	-0.0245955097228	0.159300675199	0.00547834507578	0.0299575095375	0.0370206928608	0.112792198052	0.230943541887	0.163570374941	0.0997528988798	0.124820128711	0.161426368083	0.0913885388377	-0.0539096694521	0.133072355648	0.197087683382	0.360563343174	0.175862779331	-0.0280765873219	0.0561509155848
