Concept	0	1	2	3	4	5	6	7	8	9	10	11	12	13	14	15	16	17	18	19	20	21	22	23	24	25	26	27	28	29	30	31	32	33	34	35	36	37	38	39	40	41	42	43	44	45	46	47	48	49
accordion	0.0947899261517	0.207115368508	0.170874863351	-0.0128942806801	0.0652502460202	0.119843628708	0.0618534815172	0.093265146249	0.109376720731	0.0284194970489	0.117350055142	-0.0251045572994	0.293342254415	0.119350395119	-0.678989683223	-0.203682368925	0.910268528843	0.505072488762	-0.0303065714469	-0.243667891533	-0.467018679002	0.209802223717	0.218365608897	-0.250334325509	0.495644382698	0.240634373987	0.10515467037	-0.209953350082	-0.0463826808253	0.0125024215383	-0.0133089132838	-0.00941325815833	0.0173602631098	-0.065733675897	0.244668397833	-0.0883963853697	-0.0566539361377	0.0398198433737	0.26990544261	-0.0956570382611	-0.00327181175823	0.0237692688616	-0.0794256625381	0.0697557483316	0.0138439269454	-0.0977732296922	-0.0708602482072	0.0657363364283	-0.101752623234	0.122443007825
airplane	0.924852919956	0.497082468439	1.00190849308	0.15823965757	-0.306773949466	0.621161932668	0.484592291286	0.201266898435	0.101883216682	0.0596259031542	1.09576992932	0.422908205744	-0.0791772249359	0.27598519196	-0.0134010554526	0.0461159080397	-0.155760159124	-0.230639124327	0.243347252951	-0.200436360124	0.215272776865	-0.0194274145098	-0.0896789451312	0.0603993665344	-0.0441238746075	0.0857307215583	0.0774419921674	0.660724121569	-0.543949291926	-0.0206615677203	-0.474469314265	0.188461305502	0.246540655342	-0.150584346819	-0.338315979756	-0.430839220771	-0.110123505031	-0.0155135995172	0.00685458478378	-0.402445671913	-0.0806936612693	-0.0721274505938	0.112869035832	0.111948306496	-0.156003430843	-0.16970385972	-0.215239803906	-0.245796725741	-0.414826452427	0.227150601838
alligator	1.1954839116	0.0159730303237	-0.445212771739	-0.644529531366	0.365653543066	0.297102822945	-1.47065186686	0.0905807439984	0.249032037176	0.769984658457	-0.48517008169	0.703864420291	-0.828632942491	-0.508221613659	-0.569415347737	0.129043633929	-0.265017277507	0.424774614483	-0.259842422499	0.28788420803	0.339247945753	-0.313825036024	0.801967705569	0.0294931088371	-0.0213693385924	0.151927577154	-0.392032563346	-0.257413126124	-0.0942333039959	-0.245563797734	-0.0802458065132	-0.132264774216	0.218222292555	-0.396388029431	-0.196927544131	-0.102412040997	0.263618175428	0.00785789379673	-0.109724064975	-0.0354519571034	-0.300255383869	0.00356519744265	-0.120711648959	0.220057036211	0.0349960722835	-0.528299866125	-0.109315794736	-0.0272315522589	-0.323245033436	-0.0117994633922
ambulance	0.715288248985	0.356565960953	0.169723282966	-0.130739605959	-0.103292329184	0.949707581215	0.804951230892	0.334728347654	0.290371705815	0.133970300375	1.256919701	-0.00520969955512	-0.127294309958	-0.370139725544	-0.0318718553211	0.84097790966	0.115000028017	0.145440565642	-0.118795077404	0.216050123618	-0.270195481571	0.164922829451	0.18375503962	0.051306518539	0.350894776254	0.0187150338243	0.37089427507	-0.397437969085	-0.14997809302	-0.272291144864	-0.213158557169	0.695908509732	0.304138657029	-0.132254837885	0.228909326887	0.0751306247088	-0.314812841594	0.090487397222	0.304896099825	0.267245075281	-0.376256069848	-0.162432172971	0.284596735095	0.122669584156	-0.191523630508	0.471109407981	-0.253064860721	0.160344928359	0.0583026891852	0.254795420352
anchor	0.438490699942	0.709832078356	0.51342248379	-0.224036873037	-0.225615869247	0.529533705926	0.156869528218	0.0603811606357	-0.0209403117069	0.211995711495	0.295325870624	-0.38006533196	0.140905713059	0.162287658187	-0.307319979453	-0.554952041236	-0.20561230463	-0.458965383348	-0.120482658873	0.193421953202	0.11947189831	0.259002952177	-0.0811336297136	-0.0216780777934	-0.22051464461	-0.328876874512	-0.125526639851	-0.0559469246369	-0.0858854374881	-0.094418507254	0.0314140763896	0.0521578494418	-0.0359769470794	0.0499857658279	-0.187176510662	0.275194090588	0.171612129021	0.131766384706	-0.375150824903	-0.268738733585	0.169095811299	-0.127759091221	-0.160408789632	-0.262869903332	0.10018095682	0.050151725549	-0.363330446479	0.137564288943	0.0626615410673	0.0549667862301
ant	0.582140186471	0.249427268651	-0.14781499052	0.224263882891	-0.121834189958	-0.63668376344	0.263996566689	0.61985046371	0.635537491171	-0.204343707733	-0.0928235512931	-0.449072737742	-0.444827347927	0.101680693052	-0.383222818436	0.237217984899	-0.474642529201	-0.0391988797171	-0.0375363494654	-0.746904929061	0.0295357792428	0.0249330509072	-0.348261758631	-0.252513494435	-0.0311595497836	-0.090854014052	0.0590527132833	-0.211190380964	0.44213926566	-0.119697435353	0.0706656578349	0.372107048826	-0.328399150636	-0.283363206645	0.0571201031952	-0.198259549801	-0.235831337297	-0.0882889561902	-0.0638790523645	0.0542715415539	-0.246168949527	-0.0776050017569	-0.391199963544	0.185328332474	-0.0131178921949	-0.0341260219964	0.0332022727132	0.195753295998	-0.149506346594	0.194036170456
apartment	0.344587166609	0.222829808927	-0.112149544011	0.123307981023	-0.19742440016	-0.537801919821	0.233246583464	0.761368332338	0.320543639939	-0.222769439124	-0.086330250999	-0.13756574988	-0.259994138798	0.0334264744285	0.127135664792	-0.197988715317	-0.169677586792	0.152672456738	-0.223918810722	0.23265062751	0.152607576195	0.0579260202382	-0.0852936924021	0.297419348432	0.187288696108	0.218622604881	0.0206780889561	-0.0538042206762	0.236798863502	0.785340262314	0.497069469121	0.0613829586641	0.180991223651	0.669327277105	0.0756257257335	0.493750023457	0.0991016667173	-0.497387267145	0.599742052756	-0.0959601166088	-0.162309135845	0.789691718849	0.517944076019	-0.279028031457	-0.0350165473254	-0.533574619681	0.126537189821	-0.0600299096597	-0.484993213634	0.0710652770779
apple	0.606402846051	0.908310576439	-1.64761597391	1.27833409027	-0.187820407103	0.254618904403	0.986964774237	-0.83522885794	0.0488580479688	0.887334091694	-0.271511554145	0.750470383835	-0.0330176765584	-0.205582845345	-0.250766964962	-0.220332325843	-0.244076406618	0.156448394561	-0.0887800540654	0.0526955344071	-0.243349587438	-0.383720718123	0.399835618	-0.487447069162	-0.396278911334	0.132269837086	0.105066650803	0.00115474331151	0.0174883874212	0.114616389703	-0.0996243638192	0.283640776832	-0.355608621432	0.012923835104	0.162817683052	0.12193109994	-0.172570219717	0.34726428628	-0.170910472647	0.130267721601	-0.572382843991	-0.102614586398	-0.290506945661	0.00555627051383	0.17224939073	-0.205168213838	-0.110693371595	-0.0350828705775	0.131685125451	0.260328548974
apron	0.136104266709	0.391728876774	0.0896504872881	-0.0557617799984	0.877404661399	0.0504993767392	-0.199770729133	-0.0901471831445	0.135766362356	0.0421099772095	-0.240913813707	0.198375046782	-0.0197376700631	0.290376628337	-0.38587454737	0.32825516603	-0.153632449353	0.281926523761	0.211395376245	0.174528968831	0.120149075237	0.104075675706	-0.130309598102	0.209475096148	0.145486785464	0.18601714874	0.140873883222	0.137817969906	0.140187876492	-0.107998588201	0.429958338536	0.182852984044	0.0403495320445	-0.130098028734	-0.136843040167	-0.125470558668	0.064600260656	-0.0822773801328	-0.185866027721	0.0333051072374	-0.0524729299286	-0.379913867926	0.256793588186	-0.483946161123	-0.00148124013719	0.0287191446411	0.241701827146	0.207456803869	-0.00218883253693	-0.356958499426
armour	0.207602103797	0.743805157782	0.37717086652	-0.150993505201	-0.194961033614	-0.147851231914	-0.14929789776	-0.0959960857081	-0.0354633542259	0.0209511924444	0.252279352869	-0.107801416306	0.283150410823	0.304742596733	-0.374881536959	-0.265474712339	-0.0102765417006	-0.24524867363	-0.0509544678832	0.230550494495	0.152117149618	0.154098187005	0.0194624777204	-0.107314076267	-0.346696033557	-0.358444598206	-0.117007406905	-0.209902267589	-0.140384352206	-0.0539398824478	-0.243896366937	-0.226881905513	-0.510129908372	0.340545470631	-0.114200796249	0.181706302904	0.206219132	-0.169750805601	-0.30534460475	-0.347026892617	0.138393429884	-0.13998267333	-0.197210750585	-0.0808261794366	0.0370127398117	0.0850705301021	-0.275571107752	0.167101809256	-0.078030974789	0.119879213263
ashtray	0.198136764378	0.477027682984	-0.131907667992	0.137746549886	0.0975307028421	-0.101902529045	0.19714160888	-0.203662115736	-0.819495840372	-0.0546406744857	-0.104560006926	-0.199263515947	-0.669088892284	-0.326146583974	0.0281677339614	0.0456131711795	0.356526879481	-0.20132725687	0.210473548933	-0.202435280436	-0.0088029839855	-0.221509364023	-0.145483976669	0.187296536444	0.0539904795577	-0.228916524488	-0.17137197325	-0.11385557522	-0.367195756262	0.454509524048	-0.20250651555	-0.00550448987702	-0.040636672809	-0.290359341718	0.215497541705	-0.0913652460195	-0.349244011934	-0.278991664108	0.192394315243	-0.216157304111	-0.250907695977	-0.0899462511003	-0.213189899086	0.0991116158519	-0.0863148837471	0.225254023541	0.132514425015	-0.121960588451	-0.109195128468	-0.71626516577
asparagus	0.513984174754	0.488647463985	-0.874032626978	0.496170650439	0.498577675916	0.743274924624	-0.911346022474	-0.365290567344	0.413415018446	-1.05975475437	0.0935641453545	0.347765543476	-0.250179062759	0.0538573210094	-0.139441400991	-0.181290595788	-0.128021910902	0.0645637734369	-0.0151618303469	-0.0262499302029	0.0848259614797	0.0914812519798	0.00216810260155	0.020368711957	0.0171047783683	-0.0849577919038	0.0829441633284	0.0318425544643	0.052594281613	0.190811906455	0.0464036081667	-0.126272166492	0.0501028572551	-0.0243692824134	-0.160957167494	-0.0493035732773	0.112126880752	0.161898705875	-0.00949536674452	0.0117070075902	0.116341369371	0.190944515858	0.0349176159907	-0.204720472974	0.0650098564344	0.120328798714	0.0322347639978	-0.125832882997	-0.120235609836	-0.0040480923499
avocado	0.565383913468	0.42311601331	-1.29126494983	0.778149017529	0.124301156338	0.443821704745	-0.207624865814	-0.286015758816	0.115959506413	-0.115568054402	0.186104267976	0.212705111448	0.451490602749	-0.161024043941	0.0954411712081	-0.186690574579	-0.156215194765	0.0766458206154	-0.0122309605794	-0.313945912937	0.116190436788	0.350190418195	0.467310144773	0.160549831042	0.0682889299501	-0.00303191320346	-0.555884445317	0.171264307127	0.079343370853	0.126592258279	0.0704909632943	0.124141942209	-0.277800738014	0.0141336952536	-0.084419702371	-0.277549841127	0.0979888726376	6.26355619335e-05	-0.19823422781	-0.0864068956923	0.403914477612	0.253295461472	0.148482446816	-0.0867089824924	0.118995734542	0.0684970058779	0.066601495324	-0.0426358600408	0.0149263915901	0.144528246477
axe	0.263025723644	0.912660227686	0.505057524441	-0.279731563903	-0.269762181851	-0.140880095567	-0.824612993	-0.800601398614	1.00499134103	0.5853131659	-0.355872934363	-0.503282102636	0.279896105876	-0.530733860621	1.13364883795	-0.034520773157	-0.362946934852	-0.582941919563	-0.0253226745615	0.330355729717	-0.406373742665	0.135936038299	0.132943866158	-0.613984539072	1.07176304001	0.491877375306	0.189025499066	-0.396532760663	-0.150351869397	0.100737990648	-0.388145809595	-0.306982134122	-0.264818237229	-0.0534970537595	0.509543987979	-0.212486776219	-0.0723367605643	-0.0689391775442	-0.0370077149158	-0.26200890656	-0.0100877244415	-0.063412525579	-0.126315516651	-0.124396892591	0.0858358465724	-0.0662719578204	-0.166285755363	-0.107694450334	-0.154705238292	-0.0870830667721
bag	0.137254791895	0.463788722069	0.165758740956	-0.0176041110173	0.794923544094	-0.315010870864	0.128512053703	0.0500671349735	-0.8107045578	-0.0378832480261	0.190309173879	-0.0584557202128	-0.53557427185	-0.298419118952	0.453544257123	-0.0174297043167	0.0801352713114	-0.159651267778	-0.370034743752	-0.384465521233	-0.470944353185	0.52057931603	0.425073139027	-0.186218758677	-0.407675632819	-0.476954572957	0.186190207429	-0.209281038208	-0.690628707891	0.160868633548	0.344112864505	-0.437117950508	-0.368112312989	-0.165445934462	-0.0830274415561	-0.380745223149	-0.166943084748	-0.132781576963	-0.0325062908815	0.0982010063005	0.0497165623219	0.351880377721	0.143079523368	0.046848155009	-0.0597427496747	-0.382772825263	0.00613901791625	0.149109875306	0.258574853739	-0.209761251398
bagpipe	0.0781592408951	0.162700956376	0.146285622138	-0.00112946268384	-0.0687578772908	0.104461506547	0.031408884695	0.0329139050993	0.0935051862258	0.0322736230833	0.147105822386	-0.0166733965589	0.167720470288	0.0413866605914	-0.519826766057	-0.165017164046	0.739492517332	0.389591187141	0.0374783579638	-0.146248219662	-0.341506840219	0.251565262951	0.208032884269	-0.163199989183	0.398112301022	0.0800319966011	0.042894532663	-0.158817043996	-0.00115974412376	0.0747122009774	-0.0135034077054	0.0427449411152	0.0434039895212	0.000326778112116	0.079629535623	-0.0196878481423	-0.0666186883821	-0.0148502050541	0.093981485694	0.0269334447245	-0.122078519141	-0.0582538963759	0.0840608430969	0.217275554337	0.0176677199373	0.098932912344	0.0576401343693	-0.0852210934974	-0.129245788601	0.0275196474857
ball	0.197875162185	0.445076908388	-0.143177344523	0.180863810225	0.49900377001	-0.222355653347	0.27785120125	-0.0597373471514	-0.409487512065	0.131048908471	0.0442529187407	-0.190180669943	-0.548064734365	-0.23429527615	0.188563172602	0.0195870995008	0.688739588074	-0.538410014722	0.0144550190035	0.216131598375	0.174129553364	-0.130954729081	-0.322952548937	-0.589126525154	-4.82794006858e-05	0.152027390172	-0.31366150867	0.0314110931969	0.3226389673	-0.462026232908	-0.279209986004	-0.229315766008	0.120583312841	0.224619931537	0.0236553182215	-0.0333524472923	0.0332245917784	0.0208833411791	0.175777132565	-0.2244773085	-0.231888332517	0.0456147985926	0.190056313201	-0.0930654209928	0.34781195417	-0.0679294245369	0.129096909092	-0.176415191543	0.00399423313707	0.0494296576881
balloon	0.508441701542	0.678235133518	0.137048600762	0.0759760016336	0.703257993237	0.318374438479	0.629517949674	0.110973121047	-0.859214052242	0.208022164823	0.0617286601618	-0.168681371757	-1.13926769133	-0.308947837063	0.289453832468	-0.314854916596	0.624836789266	-0.580361324793	-0.267765512639	-0.272933640433	-0.244926877777	0.293648362367	-0.208140829066	0.0741724896818	-0.0422317517016	-0.158704447622	-0.137572501162	0.0544792707537	0.467708024227	-0.051744551838	-0.655325270831	0.0105282471711	0.456964807155	-0.308420728742	0.718181967018	-0.184874970979	0.104215152619	0.0319736361145	-0.607201169968	0.264738167673	0.200723277063	0.0402090867431	0.153450181497	-0.106145991988	0.185027922762	-0.176720606295	0.0505503792795	0.0389677760831	-0.313154482178	0.442088434504
banana	0.786414997749	0.908451748872	-1.40800168571	0.938943634897	0.436320323789	0.42144839429	0.045068124554	-0.555252681484	0.048881454494	0.423444366955	-0.264108978645	0.441273090577	0.090869689609	-0.0827278550931	-0.275793036082	0.301494640027	0.0304649174377	-0.107938090087	0.597861301811	-0.0470832452567	0.402169009758	0.329095620443	0.453841784441	0.225773517116	0.104802267777	0.0884494924294	-0.723178467748	0.469055444047	0.0848892739642	0.371809841344	0.0676146625491	-0.369154784144	0.004273585251	-0.0473583758943	-0.0894850555987	0.00651452752075	-0.0200957963785	0.546584631517	0.153239499144	-0.0658537479189	-0.0252669379982	0.0712590244127	-0.0758789587753	-0.147184794158	0.119537196962	0.0467543892983	0.330998573741	0.00488204839335	0.167887834853	0.0674038053262
banjo	0.238483614536	0.648901348654	0.0699570278312	0.0583457547655	0.000118303388689	0.372340314541	0.398832171084	0.222404176186	-0.375920772901	-0.225919828172	-0.842824646187	0.0538271868378	0.270144212119	0.147172261068	-0.645288687373	0.0458340181915	1.46406678119	0.155218623563	-0.144861526697	-0.229241602484	-0.116923115935	-0.38998066474	0.136469330052	-0.293440177012	0.73052557562	0.664598013034	0.123859864604	-0.0917608482119	-0.0107765684971	-0.0426087735635	-0.0253913170115	-0.140635469066	-0.215235478077	-0.11407524153	-0.0131021799387	-0.20358172721	-0.154873279311	-0.023092993476	-0.0141309631184	-0.0606031582148	-0.0394998584905	0.185775721799	0.00316781552423	-0.134684805558	-0.0311012603644	-0.0785674734154	0.0636976486838	0.119792538653	0.0760741491588	-0.0281979608029
banner	0.438871801633	0.514167412566	0.299543383055	-0.123706607275	0.597671144532	0.644198136968	0.139573642959	0.0807684547957	-0.207679342092	0.0600304138595	-0.350845022566	-0.00805845194815	-0.8552330161	-0.0584888210348	-0.0582629454063	-0.0579826350375	-0.239749434953	-0.105258224946	0.104121572537	-0.107440638218	-0.259287348219	0.871979303083	-0.0109146296464	0.421120340119	-0.0838831856367	-0.555154747977	0.0686679028163	-0.110597115477	-0.0330489153588	0.163699537588	-0.454091205274	0.163826905057	0.19256094572	-0.343378759608	0.275128132767	0.166784523909	0.239360130375	0.131640191494	-0.16451282256	0.244993871077	0.373352937902	-0.0904534993012	0.0821778814054	-0.38904925116	-0.223744397632	-0.142886667544	-0.0391572788463	0.0704613030166	-0.0981760857987	-0.111984145184
barn	0.502869165121	0.472988155928	0.221825142347	-0.154179052832	0.0185396984025	1.0015163574	0.621569675871	0.818569713782	-0.107840451754	-0.186328337893	-0.518972256206	-0.233597184061	0.207196334576	-0.376576638422	0.311992235607	-0.262848137844	-0.261267504779	0.348806558546	-0.312884691445	0.176209814053	0.111439854707	-0.0720033299815	-0.564750677079	0.115392950197	-0.0598388439723	0.0777919663161	-0.326837286251	-0.225627906245	-0.143375917139	0.373189392848	-0.189050367137	0.394961936361	-0.355657330204	-0.585256124363	0.11037277261	0.10572825816	-0.652743156361	-0.192750251815	0.0307058525005	0.111149053416	-0.783469536288	-0.133682505275	-0.0745136069922	0.407646022751	0.0326227844875	0.177330623822	0.175894648277	-0.0254088362455	0.172687214773	-0.237790624376
barrel	0.636758901046	0.587726318105	0.0663205585791	-0.174049677124	0.0245073740642	0.818736372797	0.788297400449	0.321424985686	-0.381043972737	-0.220238380578	-0.719672934624	-0.419688934293	-0.253179472841	0.0977538238793	0.374152576266	-0.341016201087	0.309054681219	-0.132143939723	0.455918050661	0.32378454542	0.0122969972032	-0.534706540352	-0.0861411631363	0.0102670716789	0.0422965648616	0.112326602491	-0.250931438842	0.0103958553762	-0.150359035853	-0.0761043200925	0.23663117101	-0.180088995548	0.0426169117015	-0.603825429949	-0.151347655122	-0.154939304876	-0.0912410567859	-0.0643300733646	0.00885977132504	0.156916980627	-0.0561477687877	-0.125951499952	-0.135484212375	0.00202596041816	-0.102009511216	0.156785187767	0.030632384215	-0.136894312861	0.323990725428	0.144174177593
basement	0.0497529939068	0.0882546894696	0.0347492933716	-0.0231277098381	-0.0219570388257	0.141973864015	0.147003238944	0.239587006712	-0.0349138329232	-0.0619649527721	-0.12968464003	-0.133257677255	0.0249727024536	-0.192675141251	0.117984816441	-0.168041017355	-0.194545786797	0.383960388642	-0.0721957881871	0.450949933451	0.242810077498	-0.029400128444	-0.149656345696	-0.107892512698	-0.0904109491465	-0.0604233981951	-0.289647847488	-0.193826857274	-0.174930913861	0.491653363822	-0.0848220499142	-0.280250093266	-0.360453902535	-0.601911524132	-0.00155912265018	0.235278339668	0.125932915335	-0.0816942207148	0.449698854907	-0.194587074437	-0.157986968515	0.0518972910039	0.448177713172	0.450639329657	0.158855434631	-0.141979119271	0.532835684671	-0.206691050286	-0.512581815294	0.49934241222
basket	0.126063206331	0.495124633812	0.254179851734	-0.123473813306	-0.0315834593835	0.162718218503	-0.0019210870918	0.104205482789	-0.21244523377	-0.200325273902	-0.600939780113	0.176191984718	0.282518198948	-0.11272582131	0.47299976768	0.207568462182	-0.0909486637198	-0.0927779260297	-0.120622871192	-0.188010197093	-0.264113853973	-0.216572168302	0.0683271970743	-0.253553872972	0.314168783232	0.140228920363	-0.0697954510903	-0.0329021937577	0.00674338159109	0.127954113936	0.274706555103	0.135061108357	0.0484990097836	-0.0526841233695	-0.066956035892	0.0624520894364	0.0133565733024	-0.0633594920241	-0.0500708674277	-0.0481290400177	0.0894055630614	0.0791936860114	-0.149316126803	-0.0307308734716	-0.244867356178	-0.0702194867465	0.0236853071468	-0.185850847375	0.255771774851	-0.0486400795665
bathtub	0.471732101573	0.181573030212	0.161491008891	-0.0789516971648	0.113872823603	0.62662587402	0.404026719622	0.160821090226	-0.185405230343	-0.0568975849618	0.176053434705	-0.966000261549	-0.159652323268	-0.239744471624	-0.258043233888	0.244587524899	-0.275171346546	-0.216728229263	-0.206235684884	0.365747936336	-0.258492931637	0.423201736822	0.266241886627	0.269204505394	-0.194764238234	0.341683666702	0.0683281229318	0.03668831463	-0.0373514587318	-0.545180043864	-0.418493851938	0.160661965488	0.297155439378	0.891980011973	-0.77330884591	0.280760943898	0.290142021136	0.35721231973	0.223495633644	-0.141563996628	-0.208155547351	-0.368155670915	0.238537584023	0.309888562496	0.13752965859	-0.0669281094585	0.196639891424	-1.02455225897	-0.0823451004826	0.33597676793
baton	0.401608713306	1.28055821151	0.274962384928	-0.0465229324131	0.162893956718	0.173649284199	-0.0418745802669	-0.116480612636	-0.242959556444	-0.148373145011	-0.615447659307	0.406183163926	0.00350509284907	0.193427869623	-0.303622702628	0.286283072268	0.392095542349	-0.178037315222	0.131236380129	0.253233082235	0.469558496823	-0.346519147646	-0.310465121513	0.119602609325	-0.187085031257	-0.0504543723476	-0.145053482551	0.186114575793	0.0698759075553	-0.0377354941718	0.106385959271	0.0440861729264	0.175871902284	-0.121557428515	-0.18081695767	-0.0312687097421	-0.0823146775027	0.159507993896	0.202156533117	0.125396880565	-0.047077049181	0.0937209177176	-0.0783505194053	0.0194381019186	-0.0186594373395	-0.0540639461839	-0.0166515899271	-0.0501554513073	0.0259627914655	-0.0608775421778
bayonet	0.205671771106	0.501490708876	0.179870575524	-0.152837192285	0.269686721245	0.0549048274992	-0.537716764313	-0.416227453423	0.796734361703	0.306066232636	-0.347982433141	0.0357026342157	-0.318545172892	-0.196093583543	0.231636340664	0.172328608767	0.00680868841112	0.159559514775	0.150038092294	0.130541681915	0.0943155532929	0.151913855718	0.0101481601806	0.431190035941	0.0791755135315	0.227916417117	0.252965180762	0.0631760158903	-0.00579861207265	-0.0856796117647	-0.242189317035	-0.249133632512	-0.165936840464	-0.163113171688	0.085881743205	-0.116747380427	-0.117778104896	0.0376681605714	0.198777441991	0.0932132915829	-0.00906504547706	0.0834022176464	-0.0684108612601	0.00550392098294	0.00368090714502	-0.139499677018	-0.0376738292943	0.0318302038519	-0.129276419623	-0.188361671251
bazooka	0.615698342455	1.09648171858	0.79530504466	-0.342267401976	-0.40898362662	0.497857302275	-0.304111445417	-0.442416297026	1.03799295345	0.740763187142	0.45335940849	-0.676732678673	-0.0458031456432	-0.557584553426	0.254509350092	-0.61798924153	0.642656443629	0.22242256734	0.0608970533801	-0.103594390785	-0.113500652857	0.0726217666638	-0.00346488646115	0.38082171165	-0.392501975593	-0.0257967780669	-0.00249864657038	0.0675255471205	-0.081153022435	0.0704048269656	0.140324069307	0.235407767744	0.245028668571	-0.0301987366245	-0.155010891824	-0.0327979543714	0.0244477697819	0.0599673477517	-0.0933291962212	0.124843542381	-0.0829789968442	-0.0268610688729	0.0576970837494	0.00942587225098	-0.0762658719943	-0.0112190332647	-0.0438553786	0.142847200417	0.0616628677013	0.00799868265787
beans	0.973046584941	0.452459094649	-1.26200782951	0.646963739921	-0.028763545462	0.174327230726	-0.42798005074	0.0698172438757	0.574422801866	-1.46534042906	0.318303552229	-0.0900816313428	-0.298677848464	0.416495770659	0.364015468829	-0.635684077203	-0.0931258475539	0.190945596684	0.275064261869	-0.0501026466693	-0.312279158367	-0.186577375707	0.45033953658	-0.198113058516	0.0259797859454	-0.0136536341135	-0.00159763525637	0.33422825593	-0.0183700631111	0.147340626362	0.252851505113	-0.667403154492	0.0487731439177	0.0948184346001	0.100004408633	0.222779192733	0.377154720197	0.271249647907	-0.206068784562	0.0605334112677	-0.252678339327	-0.0286712189625	-0.153333164691	-0.18534035052	-0.171666806246	0.0864615950464	0.0028983689767	-0.0345122120068	0.13022426003	0.25252208012
bear	2.02796353921	-0.489764184846	-0.11552085531	-1.45593092126	0.0407884806355	0.460646163225	0.512335401229	-0.742018854048	0.324367120042	0.117025312741	-0.129005833461	-1.09686299298	-0.317641276685	0.567156159882	0.178856981169	0.500828998696	-0.124160297354	0.290133885655	-0.359038087357	-0.153790153909	0.0260264348563	-0.26852184092	0.489807730308	-0.0754627509544	-0.141221008248	-0.0154161602027	0.0113944627078	0.0458612569675	-0.224244370348	-0.407802402119	0.176697333922	0.131777192958	-0.0170831934134	-0.109118487813	0.362851623335	0.228191539	-0.00318137527175	0.216827705283	0.040759372686	0.708261101972	0.115192096033	0.399448111992	-0.303109037055	0.188383249666	0.795759818855	-0.201460538625	-0.322923477647	-0.365031980153	-0.4293058798	-0.277030283305
beaver	1.33951864044	-0.567825802605	-0.52563247935	-1.12426678431	-0.0734334116185	0.0119252883623	-0.582299917838	0.125918910147	-0.431429137882	0.503014458008	-0.0922749281731	0.0381105192612	-0.233729265349	0.841144358929	0.366894352816	0.00972452058332	0.244305088047	0.237534787832	0.274807410073	0.331689056347	-0.101472111269	-0.308044887174	0.396713276115	-0.513522205625	-0.242447792501	-0.0245856030526	0.0799426160981	-0.042848605623	0.199139804109	0.139448141856	0.075582240383	0.404082133746	-0.201306725596	-0.101178627864	0.0158093792392	-0.070430641539	0.171339657551	0.156762925164	-0.184017883789	-0.170633198973	-0.037820867507	-0.00453080538131	-0.117448929157	0.535070167044	-0.259265917012	-0.170206472864	0.196078495312	0.23994488813	0.23718765433	-0.00913900623272
bed	0.102917527581	0.133928343055	-0.0411968085948	-0.0438067938904	0.48713558441	-0.105694194038	0.20719808754	0.083650099752	-0.105628069873	-0.0240342266137	0.060702421959	-0.276919685923	0.681608002966	-0.402820535499	0.132000622983	-0.208896063317	-0.0817090678809	-0.304888035715	0.308691593905	-0.0327059727018	0.980925072034	0.138545617636	1.18855569911	0.242022472532	0.484558485991	-0.748075839803	0.255909782535	0.214386500113	0.430280590318	0.22234727544	-0.00572817171727	0.110026644451	-0.421269255222	0.0176049246283	-0.312669578038	-0.517093551551	-0.0967358607873	-0.267878189614	0.173765007178	0.165154654157	-0.0868574052856	0.0697789085003	-0.190461313897	0.227228196117	0.178868875072	-0.0494001463565	0.171490176291	0.354227826289	-0.107706476695	0.284372311311
bedroom	0.319879482628	0.185943127904	-0.122278326498	0.122164837291	-0.162325150542	-0.535415739192	0.154482918672	0.540003043354	0.223558851574	-0.178238698578	-0.0888906569887	-0.144190045182	-0.182552387138	0.00260040428237	0.0609132837142	-0.149055353925	-0.0995077025512	0.0764239126993	-0.0606526639507	0.0811700385851	0.121125365965	0.0760644696379	0.0194373442883	0.0942306284844	0.0893391981206	-0.0600327155663	0.0786938196361	-0.0863087613218	0.0270197558637	0.167281377416	0.00788022739965	-0.0520222367193	-0.0261515298156	-0.0917452808449	-0.0134351806906	-0.0101575715042	-0.0711082236727	-0.0107708608554	0.126724831974	-0.0183837098224	0.0380321600588	-0.00641711239843	-0.024256913839	0.0710837414152	-0.0520440283594	0.153284032004	0.131304430309	-0.158848763783	-0.222432198781	-0.0770613406284
beehive	0.12691157165	0.121740707368	-0.00393437528444	-0.00105019890978	-0.0385561907181	0.0521460849379	-0.0646000754024	-0.207564736261	0.334693262131	0.208653370932	-0.0156956793999	-0.0530809505311	-0.144108319441	-0.1423367573	0.166557505545	0.0207762446226	0.000703134926641	0.23985029406	0.0248540635717	-0.13451713997	0.0125363518708	-0.105814271163	0.273807775965	-0.00440674361646	0.000140591841408	0.0893213834344	-0.077257209606	0.325715710488	-0.00897799855361	0.0946144084743	0.00827905563427	-0.497613368657	-0.0799021580837	0.04633544993	0.158928082843	0.159388873638	-0.0359105863185	0.407238980736	0.0176690505608	0.150842533836	-0.443294911498	-0.157769856679	-0.246914558431	0.0252314369371	-0.122702106649	-0.255491192685	-0.0742652004475	0.0705060807953	-0.145425689232	-0.0282859875178
beetle	1.43986275473	-0.0855036938628	0.493817008883	0.452074186565	-0.0386375940358	-0.231771049801	0.625408281036	0.709646170927	0.638310393997	-0.244179900685	-0.112799528653	-0.755960649579	-0.452387298246	-0.302126442728	-0.597878240181	-0.207150507561	-0.680329670024	-0.596854384665	0.467771114823	-1.04401532725	-0.000967740965194	0.0878197326931	-0.57693204667	-0.497973310211	0.0359954474019	0.195322847227	0.0020162934784	0.476764533788	-0.227435721511	-0.459677926208	-0.327847203067	0.29554672489	-0.0180258192018	0.0298170781161	-0.189808547414	-0.219378911643	0.369511789773	0.0172704388778	0.153138563758	-0.276170597521	-0.199369031071	0.00954644733824	0.0898902843914	0.202738198108	-0.0395244402727	0.00857189341697	0.292907314561	0.124422870637	-0.0792701998012	-0.34902071675
beets	0.55392414857	0.624193501533	-1.27999717768	0.867199534532	0.0297295758753	0.633360625392	-0.237576719101	-0.565217930784	-0.11051970956	-0.814078826267	0.362101662519	-0.0138670781449	-0.10243716489	0.102509517572	0.180680279872	-0.310018678153	0.330495298176	-0.160325543481	-0.518212103647	-0.0233656975966	0.192203951535	-0.48984559937	-0.670152903103	-0.214539894437	0.179944945856	-0.334153450388	0.761433060291	-0.277318660908	0.309561007888	-0.147438667028	-0.0223952361012	0.532984675028	-0.153793468122	-0.230302911503	0.0209453239408	-0.0943135719347	-0.227904392409	-0.432683380814	0.0884369740687	0.0755294679404	-0.555272646671	-0.127443689418	-0.302628645364	0.318927910016	0.191880671012	-0.0930498117631	0.0445633194753	0.0328005200725	-0.0844114674728	-0.127114027418
belt	0.15168025519	0.41145543955	0.0766599992929	-0.0590641833867	1.25549467737	-0.0546788579228	-0.19857809057	-0.0348322460412	0.303797538529	0.120311607424	-0.20992999722	0.26543480897	0.0169472051085	0.336062032907	-0.311163730034	0.214849233934	-0.185790135416	0.0568619353321	0.37657105656	0.199448885504	0.133753910972	-0.0373865102765	-0.199141417145	0.415795658938	0.0263219913876	-0.280593410638	0.310646630719	-0.30243788424	-0.367956025552	-0.10109544067	0.207010465338	-0.122809933354	-0.172581013843	0.123304983125	0.125871099597	0.260773558905	-0.535154539337	0.269853588857	-0.433548577044	-0.229163102815	-0.263969047451	0.148830443508	0.401509553563	0.0512248799021	-0.0306000052774	0.00881990315634	0.286716981655	-0.153523787725	0.0236949482472	-0.178989451805
bench	0.584525352805	1.09891113294	0.381443857484	-0.459516273917	0.691366962491	-0.031839427337	-0.00810445422836	0.0740078792015	-0.0787970026052	-0.290563811835	-0.505577600526	0.468742884046	0.294518893591	-0.0787048142002	-0.0557864415862	0.148087017941	0.209764503172	-0.192777853237	0.0155003998573	-0.0548405203391	0.473434983132	0.394953178055	-0.103402713442	-0.414278066485	-0.569809328923	-0.0960196014837	-0.0892177773531	0.197297236206	0.260845766097	-0.415470845487	-0.267705065916	-0.125697077837	0.16719873271	0.362219615207	-0.204969660955	0.254510359245	0.136166607669	-0.0629139258226	0.336686390442	-0.0225103452107	-0.200555630612	0.00631278146225	0.206367766305	-0.0152255993849	0.12113621026	-0.0791266190935	-0.232330716191	-0.24882641949	0.109837093134	-0.0903524679998
bike	0.353886939477	0.788063466142	0.442213666348	-0.340030206091	-0.406203363821	0.106329488326	0.27973298267	0.245070243816	0.0856622194722	-0.095325553034	1.40746709472	0.996247222016	0.168669792841	0.112035624843	0.0596783995945	0.638089930341	0.0436766754683	-0.181617791982	0.0744650570191	-0.0776737417582	0.141997322595	-0.411385067617	0.0967018911218	0.0198815690627	-0.320313309782	-0.0352746577703	0.123438441652	-0.0167607117241	0.0470580089953	-0.488491946051	-0.284832019302	-0.148622198074	-0.233477672852	-0.302850630923	-0.583014593617	-0.0955951976682	-0.200337340347	-0.0583291453813	0.0779369227503	-0.127906723339	0.259771385989	-0.251265940767	-0.180338767113	-0.718235433561	-0.478260201029	-0.270879887024	0.373747937863	-0.196813369179	0.109766917737	0.285990144561
birch	0.18274876019	0.0532560455126	-0.111459396611	0.0587890516211	0.104754078395	0.225060226529	0.0370761945083	-0.0840703833649	0.0104243186907	-0.42423595251	0.0517346544663	-0.427746750145	0.0352887024957	-0.18319053469	-0.136961370131	0.326314830666	-0.11869886341	0.0547479362816	-0.182718512639	0.484998268329	-0.220991640569	-0.100323770186	0.487183980599	-0.0326619030558	-0.497343002994	0.293077531887	-0.239664699796	0.0650376383439	-0.179645517468	-0.15346438768	-0.31975133993	0.430014457857	0.310987473939	0.401070291909	0.244287598675	0.33658477021	-0.964688616466	-0.598846174663	0.328036094236	-0.254450505206	0.106003039457	-0.441348570114	-0.432107216067	0.11459408378	0.125515257919	0.0989562203098	0.223768587038	0.333801178852	-0.13247350316	-0.0461814792514
biscuit	0.738088132361	0.578066004644	-0.996763674421	0.680386532907	-0.193607730287	-0.261506154536	-0.0717058215817	0.29185535449	-0.102414653745	-0.286483415824	0.117752286853	-0.354040858012	-0.0925656992959	0.134147629384	0.220192934291	0.030855300025	0.417026183937	-0.286411558906	0.133850455233	-0.126670711659	0.38422399655	0.108084659146	-0.503302432163	0.409043659289	0.490278662997	0.126657493571	-0.493198983948	-0.066654264184	0.00277667403829	-0.109026955185	0.338795415999	-0.310695416061	0.0630621652918	0.00572606494491	0.0106568698002	-0.125313408933	-0.0966381409924	0.259210619603	0.154809842244	-0.156208382379	0.251950907784	0.00197681177952	0.140496676159	-0.0398350144691	-0.0903210173816	-0.0458489970391	0.00264763848413	-0.0523500220698	-0.00220366612373	0.0314290156863
bison	1.23351773646	-0.3771781678	-0.118375915029	-0.957722907263	-0.00944463123498	0.596555711126	0.355652966994	-0.143639672253	-0.130012050531	0.20003573425	-0.0425835056218	-0.315241673711	-0.306782422774	1.05439903926	0.471810917505	-0.409391759207	0.0714186959386	-0.0599687008693	0.362868656304	0.207978175049	-0.165501061751	0.139216824926	0.230646544158	-0.138133655852	-0.304068991961	0.180914424749	0.0728623312373	-0.0967182276666	0.387378368889	0.222447480847	0.186739908287	0.281837630457	-0.178689674606	-0.0227827674517	0.0232063673292	-0.22564460055	-0.0345455578873	0.340226567142	-0.134035293515	-0.117701812425	0.177763715681	0.0205674029891	-0.0243698767846	0.259536102588	-0.121128474371	-0.0835480584877	0.0230206058627	0.0709356356895	0.0514170528036	-0.191644584892
blackbird	1.64865325584	-1.00675771736	1.35766277076	1.40385113161	0.0535883342439	-0.189795950079	-0.17291347564	-0.367033549886	0.00934052751325	0.0402395742014	-0.196222483103	0.128028203858	-0.00872790584676	0.271855770149	-0.0134521873502	0.297462750641	-0.042407596104	0.167438871477	0.01747055652	-0.350477877228	0.317140580891	-0.310854841374	0.0947041910266	-0.359103664056	-0.143337399474	-0.0821423385264	-0.0447999198927	-0.29166122397	0.26485652434	0.129055337513	0.167754119113	-0.253249298236	-0.0593177778693	-0.0117770225694	0.0619494921878	0.065703381878	0.0397668193569	-0.272013538643	-0.00602336991228	0.0451386847622	0.189427515747	-0.237962805857	0.0698005122227	0.23675969391	0.210507380547	-0.186392839279	-0.134297612869	-0.211154683051	0.308743742465	-0.035547032057
blender	0.144588174161	0.502926744917	0.278461763153	-0.0333431373887	-0.0753083197206	-0.0843125743584	-0.0389845643656	-0.298785640158	-0.859300354331	-0.0425134131287	0.429265851613	-0.239161240602	-0.420479051815	-0.480756248817	-0.146432765244	-0.187951284668	-0.113399905352	1.4027200276	0.66213459634	-0.258047335657	-0.300595498481	0.537094597256	-0.00613888086924	-0.110764953203	0.370537254118	-0.381452685313	0.124208090004	-0.374239381799	0.0761153598542	0.0566852676674	0.0995105881702	0.160599936006	0.329376224018	0.342444060886	0.604758181745	-0.407692667782	0.0645508355963	-0.0951747872516	0.185526944137	-0.0590800914349	-0.0833438227995	-0.0429444364932	-0.179894174158	-0.335991315229	-0.0148752820154	-0.131356258879	0.0561006171464	-0.0805434389445	0.160562844713	-0.48376070393
blouse	0.155855262253	0.266783250854	0.0150990550052	0.0216743904129	1.98891481296	-0.493561430759	0.175906667629	0.188576663863	-0.0963774411007	0.346312828484	0.606669003979	-0.218228041979	0.589832749342	0.0211420867164	0.263666483513	-0.259924854676	0.0745990055814	0.156407328693	-0.422000478649	0.0980534763259	0.0604768210865	0.0472432658578	0.264971311089	-0.203021156002	-0.062082633246	0.427319788249	0.085865031719	0.515166884997	-0.030266854348	-0.103601940178	0.81915598223	0.0355267504573	-0.0944867730486	-0.365303187989	0.173687987772	-0.393114813763	0.118478634116	-0.248389872334	-0.125356107564	-0.378943259327	-0.0679112357509	-0.466548072192	0.10805354368	-0.252632043183	0.106399762288	-0.056764770789	0.240162812269	-0.138070878384	-0.102020313338	-0.188436333213
blueberry	0.874230875907	0.794800319709	-1.45405610964	1.08843600145	-0.326921493561	-0.354441343665	0.499133554291	0.105402877243	-0.0827039254678	0.530659583074	-0.102267916073	-0.0176583160599	0.179923480294	0.115954615593	0.19615232899	0.0506795912894	0.205536335715	-0.0812237684215	-0.037094633549	-0.124670429295	0.161239042949	0.238773904645	-0.435670986019	0.366168740592	0.265340947541	0.0479998873957	-0.262514095441	-0.2099426154	0.0318690936401	-0.0754926512119	0.230906108898	0.0608234769448	-0.0579683759351	-0.0372669597938	0.0299114368288	-0.134330474603	-0.26007979203	0.0188570587982	-0.0174699317205	-0.00268301506055	0.317116960079	-0.0228634042823	0.00770720666116	0.108404142258	-0.0215107830647	-0.140644332351	-0.204556789226	0.184106630934	-0.0407408455094	0.113646215424
bluejay	1.81414648068	-0.831087914994	1.13654066222	1.47674731028	-0.111579271284	-0.656737312677	-0.114258628689	0.131615974337	0.0230566650761	-0.0590052158159	-0.178465300057	0.310583961969	-0.130622472048	0.282378510736	0.28934493455	-0.0863597070687	0.0710710160982	0.154770790022	-0.108520077214	0.106546856109	0.370071451723	-0.0265056814605	0.160241515803	-0.0436290156725	0.00810359373525	0.0969522413367	0.116826529078	-0.35637873677	0.164477613811	0.0175219173553	0.0940381221276	-0.158179643101	0.112902768725	-0.00577581493568	0.00755563788617	0.0650076276792	0.00690794558093	-0.103084606952	-0.0180960545436	-0.0306014256299	0.1092731129	-0.246741063637	-0.00916934741744	0.0703549087536	0.0386280069865	-0.151901331846	-0.0909438064147	-0.0671371476435	0.0511397726978	-0.0677950224664
boat	0.459275340481	0.565462752122	0.106570315408	-0.0119786521492	-0.191845930428	-0.112273727563	0.426325318521	1.02945099849	0.242750285765	-0.395006608981	-0.233528189349	0.398620259314	-0.0264873506779	-0.112248295885	0.396395868746	0.304669030352	0.0811863072937	0.108373030173	-0.13077724172	-0.0104040638381	-0.0998631524721	-0.196802777917	0.0156335676288	0.273905149785	0.145467381389	-0.00329718993124	0.238745544357	-0.000984074135215	0.123513749223	-0.0646468573328	0.169293806499	-0.0787029636556	0.434933225158	0.524347441209	0.146611900963	-0.649862647508	0.0389954387343	0.149145585563	-0.339157582897	-0.219032655554	0.274982486316	-0.0997282350861	-0.279072857351	0.451381667575	0.0880448652776	0.139057255838	0.00809663728759	-0.344736565589	-0.231819876232	0.140354420934
bolts	0.482691144164	0.865937428852	0.214591872094	0.0166890485512	-0.41952624051	-0.809603151461	-0.0593291943337	0.41240563676	0.0980087904539	-0.18793053688	0.227306935378	-0.116001822445	0.0910046214368	0.409805956174	-0.192742401379	-0.253944281349	-0.261276445838	-0.32810045697	-0.362385265857	0.310649766123	0.11632892151	0.116984054031	0.195027653994	0.0944637704248	-0.259559098449	-0.294304326841	0.075453428557	-0.0906634746958	-0.282920238262	0.0867641141963	0.0479527618163	-0.359302057265	-0.0621586815365	0.358270764999	-0.291343552175	-0.730968787498	-0.254330246747	0.145130499835	-0.00470448307486	0.418997475019	-0.125634795913	0.00881138709854	0.262987517723	-0.0841715082139	0.240938876268	-0.0389623180656	-0.164386627918	0.690245366713	0.164886560151	-0.196858261008
bomb	0.220869065991	0.485346497551	0.346046332802	-0.154459130756	-0.198152401438	0.0490663182271	-0.452389888553	-0.51784959818	1.13741739417	0.600249276931	0.179228407398	-0.465005430088	-0.125830617099	-0.844172496574	0.524479842682	-0.22316537768	0.856607682695	0.52243259185	0.259897059237	-0.103202209326	-0.145330798153	-0.025916605034	-0.00187659878188	0.182666685718	-0.0714629942161	0.0583404140721	0.0743424927402	-0.0234721457982	-0.171056952595	0.0970693685871	0.0921791694132	0.215988734328	0.113200796877	0.0492565932104	-0.0423272894631	-0.129650066049	-0.0161305358673	0.0333559812733	-0.0121291917008	0.0805835863297	-0.15975399507	0.0209946071111	0.0435111978996	0.0131080078896	-0.022525627024	-0.0089815633207	-0.01108213792	0.206498352954	-0.0804512167574	-0.14947627169
book	0.00906917090542	0.0264223952017	0.0123864462621	-0.00603678540439	0.0335880985386	0.00350253097784	0.0208652616162	0.00947168741876	-0.0785666042986	-0.02646043871	-0.0216987672718	-0.0259990821659	-0.0486901240533	-0.0778832909588	0.0484545211913	0.0259610564538	0.0371348890374	-0.0127950176938	-0.0460287021061	-0.0367850945588	-0.0548307603956	0.131433418884	0.0650184769708	-0.0177730123401	-0.119527286163	-0.113723999458	-0.0261388953546	0.0167497398533	-0.0693447723039	0.0454358556748	-0.165646731979	-0.0171577281049	0.000444755097244	0.0493010631118	0.00652823449683	-0.0463686297291	0.0224614330096	-0.0155732002612	-0.165875676569	0.33412044624	0.183053075803	0.0192029230135	0.0941122371093	-0.0411609613429	-0.171758419961	-0.0846202214481	0.17141534371	0.0109314811066	-0.178387970682	-0.0305096760121
bookcase	0.539623128345	0.97301940615	0.637833719659	-0.322323185837	-0.195779329376	0.808647362393	0.45017388372	0.544059854473	-0.318734058941	-0.240874116558	-0.477524819289	-0.202146795064	0.510138600104	-0.143668556909	0.0999749782135	-0.545755013134	-0.210742140351	0.168185642281	-0.219500778979	0.15690490665	0.408004528247	-0.154042418126	-0.015249845553	-0.0116903393287	-0.608172646022	-0.226215368678	-0.324331825936	0.175439352869	-0.230985106965	0.140336057221	-0.244066198854	-0.18611335989	-0.249120515029	-0.403119525304	-0.0795326945379	-0.0838902566585	-0.190703020228	-0.147714916726	0.144915808041	0.113594423689	0.0958637126578	-0.220396310439	-0.12765658433	0.331112010068	-0.128007613831	0.188255850982	0.242462698905	-0.155844736223	-0.145089964621	0.0803573385532
boots	0.45024974926	0.373316923627	0.0477117607264	-0.186007014649	1.6709307458	-0.151874433058	0.0402855991287	-0.0655270288949	0.597150556634	0.0270331637188	-0.166829257195	-0.319316182225	0.0978881126016	1.01704411972	-0.323204817015	0.204163149195	-0.463743785245	0.217880157661	1.24583495065	-0.433440079202	-0.504440908389	-1.48861314939	-0.0880433444917	0.627014970108	0.130150121908	-0.901023643987	-0.364043581201	-1.10166206085	-0.355936476878	-0.00659011574322	-0.679908837187	-0.156692553381	-0.132639033783	0.345961029706	-0.0078089442393	0.252738890087	-0.283515250429	-0.0271699291707	-0.568872863707	0.228633526715	-0.0891941203591	0.405745649836	0.569927402351	0.0861333916613	-0.0630333260805	-0.251683627035	0.195755962922	-0.100547724188	0.0130563641899	0.478495185566
bottle	0.180456620714	0.361312509475	-0.0731349942638	0.103212540232	0.168943360572	0.0193451790517	-0.0682328347252	-0.198441415826	-0.690428768372	-0.271827948301	-0.0922160978833	0.106431353492	-0.914139459622	-0.533037486861	0.1188941571	-0.219121027459	-0.115738869471	-0.000460137543274	0.0982756266765	-0.621763828791	-0.579987449029	0.214160206226	0.801061997816	0.0635019728002	-0.145663022133	-0.0702897591662	-0.177201709721	-0.486647687054	-0.675160040424	0.460652180606	0.423724853367	0.0148880641204	-0.543578203963	-0.00841574915272	-0.247725155646	-0.251409260193	-0.0511471519575	-0.16069120214	0.366859234691	-0.0561274903242	0.445658108836	0.0692038762085	-0.338253880666	-0.471570188573	-0.291936921212	-0.0235392137798	0.356738540767	-0.398963946998	0.546872649988	-0.169499213058
bouquet	0.0370032334884	0.0114712789486	0.0347060827257	0.049663210599	0.124553879705	-0.059201737763	0.0211694996664	0.0384472502378	-0.0304519947813	0.00516542401653	0.0132281036529	0.0285896269598	-0.120594626094	-0.0388260156875	0.0829175065727	-0.0611549750803	0.0889072814651	-0.0131941535004	-0.0745352184643	0.0130479729874	-0.0517045685964	0.153870697639	0.00758358588875	-0.13943059195	0.00450385106785	-0.020969784757	-0.138553877525	0.0550192638231	0.194470192455	0.0365865315386	-0.303610418218	0.0470819423734	0.124387498958	-0.0748214527178	0.0784374909249	0.0790116099638	-0.037036009325	-0.0263644259288	-0.277413443768	0.319333986363	0.148288165659	-0.056842148183	0.0673994073943	-0.0373498257537	-0.107117356837	0.00399350273317	0.226386784457	-0.0125192310029	-0.201836564731	-0.0357145436339
bowl	0.228869517971	0.766833201626	0.0204348711817	0.137993859344	0.492609120327	-0.337857025201	0.23256015719	-0.393330711221	-1.44073407708	0.00690757404508	0.0874311321199	-0.237584444134	-0.983421209966	-0.449243182339	0.284011169001	-0.0389929843992	0.261141541131	0.148352364039	0.0994703777568	-0.376425982993	-0.150237263982	0.0788085055146	0.00829171189661	0.00730315003056	0.11971740232	0.100706716687	0.173142346573	-0.0561340156656	0.0179431223649	0.0384831925161	0.206058504553	-0.0855533206912	-0.0721878326917	-0.0364901194808	-0.144923893267	0.104386167122	0.0387904209177	0.0219683128199	0.173785322482	-0.241507921555	-0.0328574807874	0.012546707941	0.00998971256723	0.073722736945	0.18797526811	0.0575845772392	-0.324800530065	0.290802506396	0.0555152569995	-0.102807126041
box	0.869960370654	0.557537218117	0.130133576437	-0.21966865935	-0.124253655946	0.373788335126	0.794693641952	1.06039189435	0.0884791871709	-0.485634389211	-0.742078654718	-0.455430549469	-0.197955161717	0.152928632942	0.556346645371	-0.450585402404	-0.123807625599	0.197954942961	0.309040273598	0.298042066914	-0.180964654929	-0.105546863406	0.132507612406	0.150896004793	-0.0372045588538	-0.0762498466661	-0.10432389365	-0.0979165018917	-0.164089751389	-0.120794583207	0.261470814114	-0.190622751607	0.00274363186333	-0.639830529459	-0.158526070365	-0.12873749831	0.029064140459	-0.0174104553952	-0.0389712989905	0.12757850297	0.194974431465	-0.192767392157	-0.2570234378	-0.108301905234	-0.187144423795	0.206358463119	-0.0834808725947	-0.182669634156	0.471400348038	0.0820000886783
bra	0.373696508007	0.259957694874	0.0941121037538	0.0486400374753	1.7525110219	-0.421945358693	0.263922930816	0.0718116063481	0.00211644643797	0.0487900286085	0.521956684765	-1.05948120112	0.403695302241	-0.11488479004	-0.223738735916	0.79321888706	-0.207472633091	0.0664539134301	-0.648109511014	-0.0389482667541	-0.232642939066	-0.232894127172	0.381051119914	-0.518769330277	-0.442327740968	0.215572711294	0.28426695093	0.160881587697	-0.380907008829	-0.0337995732457	0.903015860082	-0.054509848018	-0.10470780222	-0.183443956895	0.136001009028	-0.617691083644	-0.317702275111	-0.219266718512	-0.697880835084	0.0873471617659	-0.212884849663	-0.377978497171	0.700520059338	-0.278874396786	0.204763689243	-0.0589116670764	0.231893049143	-0.0871360193301	0.0416257734088	-0.288502869609
bracelet	0.286461856214	0.948650194904	0.135213463017	0.0508773418329	-0.0960749674985	-0.144546776943	0.0360236014214	-0.321001322635	-0.372555527664	0.119324707367	0.149085595714	0.0756343692369	-0.265041518758	0.292325088386	-0.558942498085	0.15893539997	0.477789099393	-0.547374489626	0.21726213221	0.570348167018	0.779018856653	-0.307848464096	-0.467460094964	0.160194367966	-0.180110132245	0.156289877061	-0.136397225154	0.24688021702	-0.433399378286	0.363062997533	0.386430552394	0.032744976766	-0.437383199958	0.324697837358	0.560301069682	0.146604159593	0.411406978354	-0.365269272353	-0.521931357486	0.527266355622	-0.271701644237	-0.32472185955	-0.294025947909	0.0976063488714	-0.242990973282	0.22774387857	0.291371969855	-0.0511240488818	-0.229534024789	0.201478863714
bread	0.620815470502	0.0874283079887	-0.707671571858	0.168439195405	0.227107330978	0.263690703592	-0.122246285514	-0.131837319238	-0.0458273843677	-0.686565136288	0.312792229069	-0.816993053787	0.544075116085	0.277184512578	0.419332344006	0.519370186476	0.201876115001	-0.022173996867	0.536075088058	0.245707298145	-0.156181936734	0.306871440477	0.633804305196	0.355175695081	0.101083619311	-0.0092677361102	-0.42608807727	0.384967735924	-0.0472507117235	-0.307335193618	0.0330402926172	-0.224660380881	0.143572615495	-0.232742356273	-0.0291794028193	0.0761891369264	0.415732481616	-0.0365612364753	-0.0885063956195	0.100868270464	-0.294228141752	0.281185562191	-0.212037674679	-0.0972354789805	-0.0926233418929	0.184449936858	0.180995114373	0.0445800549636	0.186361388189	0.252683397301
brick	0.176485992046	0.303265665991	-0.0139358438302	0.0534776921099	0.474340671485	-0.0517687946904	0.148996326424	0.179518952751	-0.0629644364459	0.0921288141625	0.105608661038	-0.217153726633	-0.0972129970222	-0.25275935538	0.222812059631	-0.0996125066227	0.132795945952	-0.185687029658	-0.160290721015	0.190102307336	0.0241508169167	0.52149248486	-0.303796744057	-0.796403306352	-0.159147666313	-0.319779437471	-0.277329699943	-0.390577373502	0.116809343572	-0.5537107052	-0.164713839062	0.168975254888	-0.424102026124	0.121044155858	-0.0083984641215	0.315319982134	0.126671581499	-0.00619141150385	0.0781344872722	-0.362753180577	-0.380921463475	-0.118384792173	-0.134915171384	0.0283774664801	0.30297174035	-0.0107381459087	-0.228869771576	0.037834094359	0.0236531115181	0.166407005892
bridge	0.900538792767	1.2983637379	0.50993821043	-0.190168252664	0.00839010739099	0.30269996443	0.220088241551	0.821022230821	0.344986466875	-0.242181762765	-0.601057254079	0.132683829664	-0.0776748186618	0.363070710002	-0.27142567328	-0.160520770065	-0.245611917478	-0.0863357514232	-0.17379057069	0.181746432234	0.178435401031	0.254305951689	-0.146377438422	0.580153463067	-0.213618698148	-0.0440180423966	0.0963356245292	0.153009880504	0.127098662737	0.0308355330743	0.13046327381	0.203678797542	0.444805050486	0.20834516641	-0.312557569082	0.0700383975229	0.0444634922715	0.188596253613	0.10020087626	0.0850344088585	0.0884707145676	-0.00755630287039	-0.0286300217093	-0.153159165994	-0.0732897667737	-0.141277734887	-0.0812530225914	-0.175519713709	0.0400467211462	-0.0558898931109
broccoli	0.540338723184	0.389549890371	-1.269143046	0.758790665969	0.146688078646	0.844834314065	-0.813274510052	-0.394065594967	0.246101385535	-1.26099565359	0.455774454828	0.0952805716647	0.0361534263906	-0.0401645096977	0.145517797761	-0.488028508007	-0.0676586235573	0.0987868715803	-0.351708203637	-0.218878016371	-0.0377485813278	-0.0596758493799	0.100011035045	-0.110802952187	0.0334322500714	-0.0296907636124	-0.16007973662	0.128009697037	-0.0729142226998	0.0352213388094	0.036055403378	-0.0642079043675	-0.0912424189883	0.245891928414	0.0126720586548	-0.0143290532355	0.0990983983874	-0.113777757171	-0.130739021628	-0.123039904714	0.424738216951	-0.0837777833468	0.21785820498	0.0979388929834	-0.183637619792	-0.145917289876	-0.0193121999352	0.181669154263	0.00540518115769	0.0517399910593
broom	0.252788901043	0.893104684169	0.351411653557	-0.175084821408	0.406356539923	0.228041576602	-0.241328004297	-0.039068417315	-0.259013839827	-0.286127263995	-1.00920574949	0.520967669264	-0.119806866391	-0.00661701293656	0.357680341484	0.562571940033	-0.24006616009	0.0296459545955	0.141423533306	-0.292719294014	-0.338408846548	0.217828174494	0.0516612734656	0.118724109749	0.284970648534	-0.217261570562	0.0601264151745	-0.0580203748579	-0.0204522064853	0.19170622576	0.125884099863	0.400126176614	0.238781396712	-0.166155096687	0.272967665331	0.216301596829	0.201856068636	-0.00581659382863	0.161223621973	-0.145066499222	0.095477779267	-0.0939364331157	0.0145182079006	-0.175546131812	-0.179168869204	0.023809699683	0.0101044078395	-0.0750967697397	-0.17356656203	-0.103315285552
brush	0.233097988497	1.01012455083	0.501877852733	-0.170497502366	-0.228270086954	-0.207427177659	-0.284107925313	-0.307067658361	-0.538020790355	-0.0636275246741	0.0598629088557	0.115497504856	0.0486898001807	0.207403870551	0.0949693928174	0.0413372730387	-0.35445046455	-0.30017135333	-0.138925672861	-0.293091358362	-0.406333913957	0.168957977547	0.245051194712	0.188610011383	-0.0178060483997	-0.22829422024	-0.0947670114995	0.00540300339815	-0.0913717854749	0.218350660617	0.0849231456849	0.353291941994	0.302157463311	-0.214192985835	0.25866965802	0.258639034507	0.270730849846	-0.055784989409	0.0951589412009	-0.192199298258	0.101994963752	-0.0423788820569	0.0858040995884	0.0391409803446	-0.13268554314	-0.0884804187072	0.217567217167	-0.228038669268	-0.241363543116	0.0752760222595
bucket	0.318165965133	1.21235213734	0.301307862469	0.00211287326902	-0.23472199748	-0.257292190599	-0.0625111539848	-0.492637148505	-0.906529278892	0.0210176150942	0.0815281420571	0.00229139733028	-0.310881391612	0.0691979454348	0.0537908603097	0.0168076032511	0.0443687577849	-0.581829879677	-0.0414253861109	-0.209511800883	-0.130665658383	-0.284416104771	0.0866646835774	0.137626898408	0.0482143902735	-0.118594265016	-0.0994333221838	-0.0630493039017	-0.13983155873	0.20253680743	0.232848523575	0.0860282343827	0.043482994013	-0.421732259387	0.173173472781	0.146355285479	0.119325306512	-0.00162396619156	0.154766293638	-0.199349892252	0.143343483282	0.0493423708835	-0.122206042268	-0.0547976843669	-0.116867949681	-0.193082790769	0.101117471755	-0.241424334956	0.195134627797	-0.0998748435981
buckle	0.494983344478	0.94601276534	0.240220508861	0.0132671098948	-0.378928965936	-0.797108800787	-0.048363424076	0.322017433172	-0.215451874445	-0.227194018052	0.169255648034	-0.0633525027197	-0.235042114568	0.295928576426	-0.149310694796	-0.229351478955	-0.095840041537	-0.0902251760272	-0.231412004014	-0.0900852424179	-0.041356243199	0.231849886701	0.216009070942	0.400310772106	-0.350122224088	-0.2535254114	0.109582522171	-0.0416227288005	-0.23041929371	0.123775986174	-0.178949558074	-0.103884228477	-0.203645623366	0.111223543157	0.254287316795	-0.0917792093777	0.205638622195	-0.0700632663103	0.0554347348676	-0.0279176584525	0.0931986148936	-0.0919363389304	0.02366979876	-0.143920752997	0.0847175571702	0.0258457823121	-0.154543410707	0.121206060955	-0.0193975944026	-0.0990204480531
budgie	1.54148269583	-0.270377975194	0.885663586997	1.47386187259	0.449275723653	-0.867353566205	0.014805991418	0.165062996494	0.221671970421	-0.282983748852	0.179170346999	0.668452439812	-0.471437254505	-0.543728775026	0.0612331014857	-0.770643584902	0.560852729964	0.340454405581	-0.119239958984	0.472212515473	-0.51792895554	0.542708901016	0.298670990568	-0.316922304886	0.32810069255	-0.276652211236	-0.663939591465	0.193139604333	0.500619479086	0.281421586206	0.0352205004129	0.0487335804832	0.228087584301	0.141320837398	0.326657822082	0.346884940718	-0.333191072853	0.227152677272	-0.291638675284	0.745811123777	0.257160153815	-0.446532303279	0.362986078993	0.329254606486	0.275188962097	0.0533025768046	-0.322637306126	-0.448629576854	0.611604956246	0.190977152094
buffalo	1.71512380169	-0.439430668529	-0.561162419346	-1.15356488661	-0.0158784493455	0.726912059583	0.247881375966	-0.31051440266	-0.21871488741	-0.0224536962749	0.0683784228159	-0.320798572378	0.0470048383836	1.11615384499	0.667567462606	-0.456063147582	0.172594121097	-0.183412588469	0.561739279211	-0.104720297225	-0.0211917742162	0.486502256022	0.00165491628988	-0.0721090512071	-0.433099653114	0.332569275736	0.0359963951346	-0.232645102053	0.508555734178	0.339745610453	0.172664450298	0.00388644752684	-0.103547931618	0.0483947454796	-0.00658986624826	-0.229589263344	-0.142115554441	0.35947642192	-0.0806672462007	-0.0567412450623	0.177231146159	-0.0679447765607	0.10447334607	0.0271956021955	-0.048043073074	-0.0694505068294	-0.0375476117667	-0.177851670353	-0.0672837183738	-0.332616277625
buggy	0.285309897261	1.01460352847	0.570973833202	-0.227254373363	-0.386823857559	0.177492972694	0.0382533304733	0.1395716541	-0.0803442090769	-0.00955284341367	0.909440516828	0.629296977671	0.229667617557	0.0869078825047	0.166048353449	0.472908451956	-0.360734603584	-0.48891994041	-0.142397961179	-0.00449254341519	-0.31904563665	-0.326668978538	0.222109731557	0.0239983496355	0.155762645942	0.0599549367016	-0.0680533310301	-0.102638708245	0.299000413792	-0.0858801914837	0.318888531274	-0.070388159163	-0.0358584551148	-0.204301794612	-0.14940858754	0.40957452774	0.0784175554963	-0.0146869185325	-0.0108748256442	-0.0470477135711	0.279429167108	0.196891667604	-0.096413342188	0.218827996908	-0.0365933623243	-0.225772034285	0.444433664331	-0.300213907934	0.215005274323	-0.248724307517
building	0.552646219759	0.994592992092	0.654745535422	-0.311174003493	-0.236988149909	0.854044991303	0.490673618212	0.717182705143	-0.140821908801	-0.188404938677	-0.245670676774	-0.0833465657908	0.328624124249	0.0268204901594	0.0795595310705	-0.442029804472	-0.248155373352	0.175688514818	-0.419318131746	0.318092583723	0.190824119426	-0.158108422282	-0.116746661866	0.2406416475	-0.412433224376	0.254376879542	-0.441296407829	0.269467591938	0.0435240776018	0.600681113849	0.184849633557	0.114268385455	0.153662556546	0.417431938301	0.0378898158159	0.479046094965	0.00638044271971	-0.518832097854	0.545896203823	-0.118259436903	-0.322895913683	0.564483978988	0.394516674575	0.212825363925	0.0636923883219	-0.456784092399	0.420679156419	0.0149123831885	-0.374884043412	0.194838716197
bull	0.951498929358	-0.169230321428	0.099874505941	-0.713427336695	-0.0426147588361	0.609926992409	0.129910134981	-0.248758798067	0.174815274301	0.469963602778	-0.0542156044534	-0.283351702531	-0.349279399968	0.147765593916	0.222528486019	-0.359243316038	-0.0141764696656	0.0265437802184	-0.215912992527	0.0630295552695	-0.105716193764	0.0372809799281	0.0997630548438	0.260466058029	-0.0993932489065	0.154197221609	0.0843382126024	-0.0156439269426	0.463540079078	0.0715444677468	0.13124314057	-0.191392532962	-0.13599950923	-0.052684749592	0.0561601950968	-0.3038232413	-0.120519035803	0.231243783885	-0.019514930528	0.008400499618	-0.0740093869733	0.0225909873379	-0.0372672844856	0.0786331047552	-0.141752580472	-0.262583711825	-0.283540618758	-0.00133003262783	-0.381263522624	-0.358950249943
bullet	0.599760945186	0.959025678765	0.275693719701	-0.134680458886	-0.516576639669	-0.766333338257	-0.115372860177	0.183909675077	0.633790809085	-0.0166808277832	0.469034989949	-0.064896472362	-0.0496766084063	0.113242147684	0.200747619419	-0.177105116618	0.281463582626	0.116984298592	-0.0384997517031	0.0212191306389	0.295649658329	0.0474646443571	-0.062702657169	0.258928967066	-0.460301145438	0.0255186025688	0.288521344771	0.145581473704	-0.28832144712	0.180183566828	-0.190187404863	0.269509122334	0.146873801491	-0.0582526440755	-0.205177719813	-0.100077267475	-0.120381485754	0.00821067543375	0.159661465297	-0.0598641486883	0.0199156027642	0.020971119266	0.313307079884	-0.215122663227	-0.203892500927	0.179840165263	-0.0918535658922	0.124487949818	0.378787211685	0.372392360893
bungalow	0.33383011352	0.21374366395	-0.116210171974	0.123279839058	-0.18804588857	-0.542029307182	0.192096463622	0.686213793922	0.286965047102	-0.223419135759	-0.148982621856	-0.115469457884	-0.198790328526	0.0320129128308	0.124021489026	-0.163235687542	-0.11102160027	0.14201611692	-0.187140774435	0.16972702979	0.132353378084	0.00734336017026	-0.0459343195743	0.220962092974	0.118543758643	0.142514910676	0.0315567154084	-0.0632927271233	0.137450756786	0.475180614527	0.334096180399	0.0895843209841	0.0893909338676	0.428094230084	0.00289056247031	0.282042183623	0.0867579922622	-0.244427025371	0.307009580189	-0.000866226433715	-0.0979263697769	0.440933225065	0.290575223915	-0.258723055626	-0.0662260242341	-0.191355549668	-0.0169825264484	-0.0365675252296	-0.358086338359	0.00494806464576
bureau	0.415593589088	0.46421993237	0.387695611332	-0.246303476004	0.0286030881898	0.973671593297	0.563124518428	0.615898137184	-0.0747494750699	-0.147531390647	-0.681848672872	-0.345162239031	0.424534564806	-0.464787979431	0.285377330514	-0.493065630725	-0.136000948289	0.0929683957812	-0.00934286073753	0.25359716888	0.432433011515	0.0832725365888	-0.0926886856387	-0.392460720807	-0.000836898485646	-0.472039600011	-0.0669292201426	-0.26150279257	-0.196276020576	0.0879535762498	-0.0211286700054	-0.225066722211	-0.405530777519	-0.317516955451	-0.198060557999	0.0311435812804	0.0685069719335	0.202475169822	-0.30509323417	-0.0970115487793	0.195903396862	-0.363881787194	-0.149430911826	-0.0167601499203	0.0369192136091	0.276151840871	-0.277698120059	0.0274028329822	-0.220158947675	0.194962060185
bus	0.516265233482	0.43092946756	0.415619676452	-0.108056770011	-0.179073223885	1.1763922343	0.851534063248	0.704960224961	0.417788572695	0.23934470502	1.46535718731	0.521087453813	-0.304050780326	-0.420983379328	0.136433758134	0.316864156947	-0.107155410723	0.266445234696	0.326993211318	0.148188211949	-0.312895371926	-0.0544560659788	0.245862276108	-0.140361529387	0.511259473042	0.058979580586	-0.0495849365715	-0.0258842334617	0.170664128073	0.706173586708	0.299691570693	-0.577551967845	-0.0631993280384	0.0913701576731	0.394242226355	0.586226124602	0.0951189200512	0.357236640755	0.394544064953	-0.0829814964718	-0.512939088666	0.0817954062897	0.301120557501	0.496629610253	0.314771306264	-0.00253793034703	0.227384240082	0.327379234718	-0.0305094134132	-0.220815875382
butterfly	0.815007468704	0.0379441593176	0.396601650359	0.748807844049	0.445130097403	-0.850987742485	0.262686917779	0.611492399773	0.217349838042	-0.192311437374	0.131512672643	-0.0709797808455	-0.566540930727	-0.0165350243372	0.28271259971	-0.231392197704	0.0526382532613	-0.0981544552026	-0.0895925262365	-0.330982224236	0.018775547075	0.543134105062	-0.226152160862	-0.548875847577	0.0685401113318	0.171951644941	-0.12013006915	0.616812142517	0.156424518721	-0.00903589775477	-0.678789201789	0.103348783354	0.167750683807	-0.311378608932	-0.181074404318	-0.0597454855247	-0.131075616128	0.0746142161669	-0.427975696397	0.109942112616	0.00773994668925	0.107629597657	-0.107647793797	0.00466147349461	-0.150350324439	-0.217369290671	0.138452248494	0.237970581129	-0.752080251345	-0.0131398609872
buzzard	1.56131668767	-0.754452041865	1.43021985673	1.16901635953	0.0983637585344	0.507436872372	0.373225683264	-0.307764044269	0.117807177744	0.071697712028	-0.114729234775	-0.165217111764	-0.146091203801	-0.0400478808293	-0.304410250645	-0.168678809262	-0.256244255655	-0.180935674804	-0.090386171888	-0.379949288939	-0.088329392678	-0.145252934812	-0.262139604434	0.0391734539398	0.209154938996	-0.259801522199	-0.133144430404	0.37318052333	-0.0364839417847	-0.0265049102806	0.0426211097969	0.146126941577	-0.308469435709	0.0351318097058	-0.0877517828487	-0.251263106433	-0.163778064282	-0.154282770018	0.0526491409508	-0.132847510645	0.0590158299228	0.000212546458861	0.330979848617	-0.21827515258	-0.266431231892	0.222092374373	-0.0577195806171	-0.206845836048	0.432036090857	0.22511860456
cabbage	0.750036310671	0.595121111194	-1.38480851656	0.86557352588	0.267028290323	0.899986525837	-0.645968167517	-0.69387858946	-0.0769445878613	-1.64977852514	0.517865036599	-0.445859540596	-0.295388441791	-0.323496572898	-0.122743571639	-0.0934530538226	0.276605116475	-0.179424260076	-0.460692730076	0.36314101446	0.0226937746657	-0.694117671077	0.175735240537	-0.193244234944	-0.0680664739013	0.175572682916	0.179911461153	0.0754738784287	-0.0990250407346	0.320185053104	-0.190733775231	0.0763216170269	0.315362076258	-0.0158667244899	0.110762693881	0.0429101114868	-0.317315650728	-0.00477849558451	-0.140886328154	-0.044514359018	-0.0182527970813	-0.0422654939481	-0.0992401625684	-0.060997723257	0.0266164000268	0.160653444748	-0.138694223167	-0.0529482039418	-0.0755667481768	-0.170684446466
cabin	0.398664434292	0.433173216555	0.0043016269593	0.038310113629	-0.142072759519	-0.344296970607	0.278205128275	0.829408091013	0.181975266351	-0.407623447853	-0.615080018667	0.08131954125	0.122852597965	-0.109019699201	0.316900251647	-0.00508835254485	0.103323038706	0.201615748986	-0.135690151863	-0.0493358980038	0.159860049506	-0.122291999038	0.0536022762712	0.0536933019263	0.093253560479	-0.0158312547514	0.120740061591	0.00575988143286	0.126877147997	0.110003916234	0.173551654478	0.0995833541391	0.143446741056	0.302816094895	0.0469099126622	0.0135830511886	-0.0161942383761	-0.0310953738248	-0.0175775497804	0.057003909596	-0.0224650927049	0.104643362593	0.0104223573034	-0.133039563758	-0.116660043662	0.0266090611543	-0.173827489592	-0.0681985028293	-0.138606589136	-0.113707558171
cabinet	0.171559776299	0.524267045324	0.274638740344	-0.157429574483	-0.0271668703104	0.377816231386	0.335386386174	0.458727450156	-0.520385566025	-0.417319698741	-0.647152970755	-0.102132953383	0.44537415705	-0.578564130066	0.43281125582	-0.163582229511	-0.319249682523	1.00551866447	0.1334380093	0.250133014363	0.507291340641	-0.202366403913	-0.195957259648	-0.367343767186	-0.0413191051847	-0.105542798121	-0.131402225061	-0.106585264723	-0.0792664473847	0.180022887683	-0.12285590176	-0.412512819131	-0.607732465421	-0.515563401895	-0.241160817932	-0.0984929756302	-0.0898795291715	0.082935064965	0.0646042216356	0.118831678368	0.0632842339739	-0.186801259487	0.191331704373	0.451060369518	0.142118283316	0.421935337182	0.141535102683	0.043975866244	-0.284747542375	0.10634816993
cage	0.459930014626	0.786285010425	0.181533724473	0.026344061144	-0.415312862378	-0.697856580463	-0.00514469728792	0.395779978064	0.0202680188038	-0.18023843363	0.209049183982	-0.0571753198747	-0.0128881371383	0.284619021416	-0.169999695139	-0.260617405332	-0.124137757832	-0.0804065883037	-0.233892023753	0.0583303285326	0.0944984960341	-0.021560884789	0.0648037063664	0.249934505125	-0.295278759989	-0.0971226413876	-0.0524236050781	0.0506948190391	-0.0345638203699	0.0526202917896	0.242426022997	-0.00860773473016	-0.00282204984294	-0.0976629157536	-0.189437083419	0.063972831589	-0.0324949483322	0.0669118514676	0.0442879605345	-0.020663669615	0.198651338498	0.170394552625	-0.232515013911	-0.143242758798	-0.202223077564	-0.127203118075	-0.00986917262404	-0.241314214183	0.216270689492	-0.202866965348
cake	0.360760094185	0.210827065629	-0.80072112773	0.485239922688	-0.0863546335294	0.238829139929	-0.198076066548	0.00494005023241	-0.0890545718119	0.0965878528401	0.164949642657	-0.130481804875	0.540905190912	0.154796363106	0.341684784902	0.20410211125	0.135781077042	-0.00489448624169	0.163719167024	-0.447248141718	0.0643622308483	0.585492099851	-0.401670684603	0.454569511906	0.251988531495	0.0768069377792	-0.811762822992	0.0405183531584	-0.230749642597	-0.309164640318	0.241109101677	-0.411759139875	-0.137026861623	0.148802173403	0.0231061855738	-0.129665961072	0.0553839051108	0.0895618736322	0.145169436534	-0.111830323132	0.581177293392	-0.0159970019122	0.310223440782	0.174958161932	-0.344675696533	-0.340907915612	-0.0582888574653	0.120872873512	-0.0723138785864	0.0130417486857
calf	1.42763839829	-0.22132368415	-0.724029633642	-0.539430357647	-0.201214579688	-0.588978430897	-0.143200526737	0.129733735289	0.0143322210948	-0.369649564327	0.0507953597323	0.0987242703327	0.364135342669	-0.180802549066	0.0205177479854	0.173747911784	0.0709119964633	-0.0397429235258	-0.222792740355	-0.20135507781	0.108445658371	0.448897921503	-0.442451734928	0.400006261738	-0.0936841660157	0.174085688775	-0.0846011780306	-0.625482138749	0.410476460552	0.569415936242	-0.0253531228935	-0.590600037096	0.298025832345	-0.0398275322021	-0.180100248215	-0.109004732732	0.0829321710866	-0.283972604958	-0.31196406786	-0.420489609693	-0.409585966437	-0.262391447256	-0.136706441829	-0.292282117743	0.0866363607624	-0.0937259382714	-0.15838643957	-0.0705747233541	-0.0675228558641	0.0441720823355
camel	1.28397829768	-0.277941087374	0.00927791464768	-0.94907368774	-0.0131429991586	0.555252617539	0.609347640045	0.0256401261558	0.0193618998896	-0.032231668591	0.265036107721	0.204414862213	-0.129185990355	0.152099720112	0.119254715191	-0.310676464624	-0.117110895672	-0.362937204679	0.532993711628	0.119559814851	-0.508098497529	-0.16146373563	0.0388453018706	0.192279748403	-0.138643390654	0.124238374356	0.203729870682	-0.0950195566697	0.301739202553	-0.388617086529	0.203325743741	-0.280563539329	0.0237995838585	-0.0761678954483	0.0786882737753	-0.358906817568	0.101723414374	0.00566337774128	-0.0364843133284	-0.0734725145082	0.0681497597335	-0.0724831780653	-0.249418142833	0.326396081073	-0.390755695638	-0.00241276055127	0.247466517097	0.18435450357	-0.131677824039	0.0693032926621
camisole	0.244239662602	0.152781978623	-0.0881478232469	0.00711169713264	1.55288205118	-0.298875535218	0.226212558561	0.044995998385	-0.0284483926623	0.0502623071141	0.523112913278	-0.790868652156	0.979903429488	-0.203152758859	-0.0138135157687	0.47336181392	-0.105570461616	0.0701997570587	-0.248569520237	0.386393521965	0.247557521474	-0.174997097425	1.03837357012	0.277755349162	0.0380300729786	0.187383025729	0.339289124181	0.462791976272	-0.222222866482	-0.0870807042642	0.932340155011	0.418108461544	-0.0545713382111	-0.431149048713	0.216576419016	-0.47694583528	0.0262005885527	-0.136360663946	-0.411200671754	-0.267787811831	-0.251681356418	-0.723512398169	0.434180912196	-0.541026433727	-0.0122145463073	-0.059733762869	0.593333585387	-0.272701028011	-0.128477715584	-0.56367753076
canary	1.70237093394	-0.688825260587	1.02485938424	1.47505447295	-0.0694473551545	-0.886837462558	0.242466343296	0.0593775092849	0.241802038373	-0.392086413785	-0.12522661924	0.585092401349	0.114851055228	-0.425302398317	-0.0224285348969	-0.452256043583	0.0172700350894	0.0402029475857	0.320554014659	0.189990815654	-0.265857115178	0.0549711424334	-0.0420035284304	0.0269684929496	0.335334037156	-0.146802920669	0.000845829809163	0.525958209827	-0.0612239944927	0.218950019854	0.185353779537	-0.311089391498	-0.0240440380592	0.261190374913	0.222616346038	0.548222154352	-0.187308434694	0.641656448628	0.060082262548	0.536974601277	-0.0148188671001	-0.592807934165	-0.0864478029799	0.238299954405	-0.0191373755089	-0.214192284896	-0.141939224226	-0.215848324578	0.492434962394	0.0409564394633
candle	0.0652128556528	0.169708939886	0.0522360244323	0.0141063034127	0.584427999428	-0.213768728413	0.066984016238	0.0687336863038	-0.226424876383	0.0507171714072	0.17630385053	-0.059708806529	-0.19477115643	-0.107766186972	0.196237524916	-0.067134580337	0.11697058491	-0.100999758109	-0.273484626316	0.0602401637559	-0.0635058664152	0.433779575174	0.111723733294	-0.44586662134	-0.134875983461	-0.057692439946	-0.0103842707189	0.0795268783826	0.0580951679515	-0.0888027438337	-0.0566659722445	-0.298474797304	0.00739137395006	0.180423411156	-0.301194326115	-0.203669354386	-0.491447668847	-0.217424113724	-0.285629734461	0.165037779632	-0.242015999358	0.638174889686	0.110535081002	0.390606662553	0.0820829132655	-0.0370139979789	-0.141256310736	0.352120085282	0.160054682624	0.148326246343
cannon	0.714718815987	1.0633867834	0.859305025664	-0.284245098972	-0.342831022021	0.669897001184	0.119321175203	-0.128066106811	0.82369026659	0.520336035982	0.738871695907	-0.766275874279	0.0862985199535	-0.299686470402	-0.357417040636	-0.22602026298	0.225167534115	-0.169385287365	0.0517286524449	-0.378527037484	-0.145387140976	0.00492605016802	-0.178277679731	-0.413978426328	-0.280156356507	-0.703164894149	-0.215980261085	-0.306447745741	0.194478833595	0.0743355897669	0.438222582483	0.186448140874	-0.0331505205483	0.0711640632534	-0.199234912218	0.37913445665	0.143456102951	0.0602117177214	-0.27268554025	-0.224715855983	0.340127733811	-0.128318478004	-0.0199589011866	-0.196435701351	0.26531585154	0.34248867012	-0.0483556517601	0.216711474227	0.524708193536	-0.0537312650445
canoe	0.251492048047	0.688001391597	0.281838358226	-0.177611078542	0.462253141728	0.556790895331	0.0721905835934	0.473571180083	0.276319102759	-0.291089789081	-0.616937420431	1.0029265569	-0.0852508040083	-0.0422615403321	0.187428898771	0.919200455113	0.122580453478	0.14218643068	0.262516828135	0.0706174244199	0.0372520133899	-0.0240264082467	-0.229458076655	0.392341320411	-0.0031625412048	-0.242034751087	0.348788130023	0.0644486526438	0.0409186613414	-0.241070174193	0.148938282665	-0.149261175884	0.373025508417	0.65100025647	0.281046995678	-0.912402761178	-0.052518330876	0.349691616766	-0.257676187335	-0.275921966654	0.248226955907	-0.0370316067101	-0.449022647579	0.868105952828	0.357509095163	0.289672746139	0.263899087052	-0.419257817836	-0.0218971586272	0.262936458366
cantaloupe	0.450510924873	0.762142565633	-1.39050110544	1.07325471634	-0.261924286556	0.0397170429715	1.08613479444	-0.659852115571	-0.223766944304	1.35385078514	-0.375370544244	0.336165098739	0.291930713983	-0.0130755771063	-0.0852530520322	0.185212426467	0.0386602458577	0.0489735163614	-0.000370940310694	0.107147132203	-0.0686684427899	-0.183630582468	-0.0492242493762	-0.0717869288348	-0.0434420483507	-0.0598196008544	0.0470514102419	0.0594434891276	-0.170966931534	-0.195851387956	-0.0606079522987	-0.0304969901956	0.182489001427	0.0417719889549	-0.002253694237	-0.0657926107782	0.0956895903161	-0.331246625113	0.195786842406	-0.0195639959829	0.563687830263	0.0214624900034	0.432801089639	0.383384068768	-0.329575089427	-0.145702839156	-0.0792919777448	0.201583418504	-0.046818142165	-0.245608365436
cape	0.244168014951	0.305774602856	0.115434999035	-0.0184603550563	1.07838079115	-0.0241537527752	-0.125080613939	-0.0747071695938	0.499780736899	0.117359717576	-0.163572615198	-0.10269861979	-0.0201404292313	0.327814385296	-0.51764354374	0.462273920366	-0.390710552601	0.156599371116	0.208087204264	-0.377868959461	0.00214040652243	-0.387107143592	-0.302859226129	0.0927134770151	-0.010008755975	-0.196203948778	-0.075447848817	-0.193368636325	0.191263728702	0.225877920504	-0.0666218031593	0.0853990255941	-0.0574365399933	-0.0512733998306	-0.177723783828	8.20000603384e-05	0.0584797309411	0.0328851552991	0.259853347802	0.216661499613	0.294562138594	-0.094201967627	-0.0771276107925	-0.0547291231036	0.045450213509	0.108737477346	0.0538516577684	-0.0984835766239	0.132616272352	-0.193397276904
car	0.326234442766	0.454628784093	0.265880510966	-0.230129674017	0.335204948079	0.483895490205	0.726786409098	0.721878645046	0.226626884981	0.0589186414519	1.71846021003	1.00221363652	-0.485236878745	-0.381783170195	0.548506310668	0.968637345012	0.0301427528794	0.148360660193	0.209924378158	0.353260832262	0.184950451057	-0.0497627222954	-0.033351262782	-0.521306200053	0.385549595449	0.431240983882	-0.043766574721	-0.00232625006584	-0.0691412819397	0.463104098573	0.026845222978	-0.311019065863	-0.59061087665	0.052591820814	0.182912377957	0.570387503971	0.282790579773	-0.555069387251	0.257855631395	0.0467099318573	-0.0562971103086	0.555391964737	0.428818959428	0.250660041556	0.334742867767	0.251497904453	-0.297617584518	0.465175186697	-0.0942497439618	0.0325027116922
caribou	1.85908423007	-0.594085732903	-0.273609883904	-1.71417200429	-0.0278640878387	0.378689694461	0.803465558979	-0.545021046267	-0.0607060369045	-0.139736239852	0.172339556257	0.0614839134626	0.0561245770207	0.674970521199	0.483296420321	-0.517561806624	0.100511978545	-0.204861765143	0.697153369172	-0.208286157436	0.096298613303	0.28684520354	-0.116477700362	-0.169717248009	-0.224199174804	0.471776619825	0.442081130665	0.0239350456747	-0.474498681548	-0.056219906911	-0.0177052925652	0.244533410689	0.23109778765	-0.108240322736	0.0103880007	0.193139195378	-0.218156449919	0.149997995774	0.208307351546	0.717041109103	0.606115340938	0.168274873694	0.222157642572	-0.14274488139	0.901036951583	-0.0999305343081	-0.119492804843	-0.282052901173	-0.148949371985	-0.159935136475
carpet	0.158690434039	0.198176639295	0.000487917506671	0.0374829739324	0.947654773677	-0.308658266998	0.203902655092	0.185866520462	-0.183462859939	0.0692344782008	0.207898205277	-0.102231418527	-0.0292621572556	-0.244985765427	0.333859436276	-0.197711783336	0.244640429444	-0.047474028036	-0.169575058026	0.00527064886003	0.121742269703	0.56264335842	0.184967636986	-0.281166683985	0.0848819732019	-0.260253665146	-0.519211890293	0.46806838646	0.472875682115	0.191639640634	-0.850207081968	0.0311467982994	0.0792785585437	-0.307851010949	-0.137577397982	0.041690100681	-0.212303657035	-0.310233754328	-0.482149065366	0.202896278006	-0.0929497891185	0.687549883038	-0.0950374896904	0.648034422404	-0.275428307374	0.629750582395	0.317352135254	-0.193353237933	0.0770974169021	-0.671801796487
carrot	0.324904203462	0.56989918757	-0.67868126058	0.45556867528	0.501458825393	0.716959204177	-0.632788571502	-0.646123073886	0.59519013821	-1.25609643847	0.0752342392729	0.280516849058	-0.42236969982	0.331297013584	-0.0420223586983	-0.249766519666	-0.0988972021515	0.114764628663	-0.522133452898	0.300969951511	0.106539523692	-0.335600998548	-0.315900635663	-0.187578020763	0.177603460032	-0.721072866485	1.51029921094	0.181982694756	0.216427581237	-0.0751592458317	-0.251476983405	-0.119262080311	0.217060237451	-0.004003852826	-0.102084132834	-0.00308019808196	0.517393019616	-0.359853889603	0.410492423924	0.109268988213	-0.0652612732522	0.0234266418972	0.340961270408	0.413171355903	-0.340499039451	0.0796246824377	0.140485171405	0.258266652881	0.447365512221	-0.27473594809
cart	0.536039379156	1.0028227331	0.680172376404	-0.321219624912	-0.269594235638	0.862457712778	0.440549651072	0.574725909521	-0.0750083158708	-0.0838261938423	0.264636908236	0.366409850435	0.294078464034	0.0326942147866	0.133131889083	0.117465122579	-0.0858559284093	-0.274639555268	-0.281843209622	-0.060992236317	-0.0796007112084	-0.351667675578	0.0822703667701	0.100482690469	-0.239858660175	0.0499853311932	-0.153821819267	0.0535180200358	0.261631156706	-0.292575676197	0.178897035133	-0.0201196059933	-0.188200590991	-0.106131905548	-0.259490549865	0.326117382998	0.0920175638655	0.0449341718376	-0.154281135795	0.227176875318	0.157550837002	0.140494742019	-0.048386623293	-0.242407667726	0.0766993130924	-0.117035373905	-0.0410883876471	0.112064059921	0.360569243928	-0.420584287192
cat	1.62239182412	-0.791205187121	-0.286009764087	-1.34014839592	-0.028600223639	-0.511878720642	0.189430340641	-0.677166389173	-0.145948698362	-0.133337206508	-0.158657890753	0.575744656066	0.298746879448	-0.7503976069	-0.426354464129	-0.234215941924	0.00698794109594	-0.048124169114	-0.424837602259	0.00934383171522	-0.26684182945	-0.105586884949	-0.480997432184	0.138964090978	0.437585924022	-0.375430103544	-0.253397920688	0.397017654588	-0.346520956634	-0.178025252435	0.150756062918	0.0795705560811	-0.160271732238	0.0640835394011	0.0367898220889	0.279317847966	0.355369087379	-0.0952362774675	-0.0889298168031	0.300832884429	-0.101724326516	0.0797309225885	-0.121263728099	0.695334369053	0.494731649913	-0.0284959911477	0.118753984606	0.122587816466	0.358395749579	-0.493764835399
catapult	0.423397119162	0.559345572551	0.461321855374	-0.249997983244	-0.0665959547307	0.907620651736	0.323454032267	0.376974380051	0.395194938546	0.130431985385	-0.272199029395	-0.113647627313	0.104909513193	-0.409135806472	0.509967809619	-0.0725399571061	0.247688310874	-0.079240296417	-0.0573540177707	-0.111517868424	-0.112019068843	-0.202766637031	-0.108019629429	0.0655130524081	-0.124549882637	0.132049596008	0.017277286508	0.0305190899042	0.0814951984078	-0.092585172504	0.0758254203457	0.138380034585	-0.0883188416487	0.160664929679	-0.26028257759	0.0325877313375	0.0814594720203	0.0680887682288	-0.204841945097	0.00381873636648	0.118327524283	-0.0477003308067	0.0158371233969	-0.294593946622	0.0599735982473	-0.031568627758	-0.00999455288053	0.14886704668	0.453056604391	-0.190278025419
caterpillar	0.712959309087	0.553467819732	-0.239179723173	0.176295622571	0.861303895848	-0.605327088825	-0.0632247354418	0.47813184041	0.552576789075	-0.301594440999	-0.23552356992	0.329604335025	-1.03853691345	0.0880172517262	-0.13169488218	-0.183367495673	-0.179436980245	0.0137579555698	0.0915989827995	0.00550082431184	0.044554484467	0.715779950767	0.177616314922	-0.479615927488	-0.155287431023	0.231448543447	-0.320931914597	0.157025169062	0.523368153026	0.191160448705	-0.380518237407	0.269173223239	0.151336396175	-0.212928480402	-0.155718008062	-0.151979397079	-0.164988233177	0.307842643634	-0.230061729542	-0.0617832811103	0.295138107456	0.242079867585	0.0462930948119	0.04784974993	-0.308310616687	0.253731887352	0.0893560420059	0.194582836354	-0.172951843618	0.131026523261
catfish	0.620938000968	-0.0777901428605	-0.652022745723	0.0394682776502	-0.0774243722788	0.353547703194	-1.44737156561	0.987582711644	-0.559358291996	0.697054304912	0.127302374273	-0.151490445481	0.184646932766	-0.0832694947303	-0.0117251806036	0.219717349116	0.123293728149	0.0148191471661	0.111461189734	-0.182666112077	0.0146695020374	-0.211801970615	-0.0728632416731	-0.119573563391	0.111240755081	-0.293931993927	0.278207677715	0.419442636221	-0.22689209849	0.141644966442	-0.177999273972	-0.307186978546	0.349718111951	-0.134396319853	-0.124785673629	0.291553521598	-0.254873297589	-0.28398189465	-0.0509902253607	0.0268395034808	0.125557414545	-0.140506238245	-0.138069662713	-0.103144520137	0.302884666674	0.0260214389287	-0.00832485286048	0.0240317044745	0.089363289279	0.076838802496
cathedral	0.302410874353	0.11380360798	0.208492630495	-0.119650382686	0.000161476196363	0.731169015074	0.400351168392	0.341814897019	0.0568149680425	0.154927382953	0.0620528645639	-0.32469236277	-0.209675088776	0.00207046561362	-0.0762702396671	-0.44360650605	-0.287221902503	-0.238017905397	-0.181112352698	0.109669591418	-0.0700112847742	0.240475552916	-0.081492188707	0.434349175387	0.125904520472	0.198814020875	0.0149905285057	0.0316787779478	0.086126250856	0.41437970659	0.114252508945	0.15462347535	0.321531750972	0.262854841969	-0.00108981445299	0.367347633283	0.0837152727753	-0.130981696894	0.0448173156479	-0.171622817307	-0.344109874249	0.300926661691	0.457616631259	0.0799113547675	0.0936592254422	-0.984545699891	0.561306543945	-0.167648431767	0.116612739178	-0.084709982199
cauliflower	0.6138861555	0.357843517653	-1.25254752228	0.771084468055	0.170350154287	0.87259587224	-0.670627519414	-0.471520614074	0.150121352508	-1.50454548508	0.609360001303	-0.515462962173	0.291718482973	0.0271486968022	0.231933699479	0.111271582954	0.0421447280577	0.144676357013	-0.672198633867	0.0876938877067	-0.116844870846	-0.105054194464	-0.0717743590818	-0.0376660287067	0.0597302142069	-0.239048411081	0.476576028811	0.140697137587	-0.106470477299	-0.0934115143636	-0.168813127885	0.0833275339405	0.159171913681	0.171804987643	-0.00492563001175	0.115596976962	0.214760608172	-0.145466671965	-0.0159834246576	-0.00827272617921	0.218545207129	-0.170648667547	0.163824699321	0.27452653801	-0.3849167391	-0.222362270008	-0.083943292222	0.264454173087	0.0169085204439	-0.0761351967006
cedar	0.177394478607	0.147340683462	-0.292514704856	0.13381287123	0.132318989241	0.353664814018	-0.201033525993	-0.0666290095019	0.137946660704	-0.455403921552	-0.0340576538102	0.135384318621	-0.274891583257	-0.303183011775	-0.245871501347	-0.386869946553	-0.253515506534	0.00679312365391	0.0157061653486	0.261826290054	-0.229221302895	-0.237402403128	0.691771797446	-0.17296820702	-0.671630840301	0.510990628943	-0.835593382579	0.0745060335698	-0.166011423998	0.0490049584922	-0.30396766551	0.456386580114	0.187068324479	0.551341876417	0.368436724835	0.304394304756	-1.75166402783	-1.07512905541	0.298612933052	-0.471229975483	0.271698319117	-0.605466235555	-0.614923436831	0.108521296591	0.353795873416	0.334837375123	0.31979907269	0.406905868161	-0.14440605816	-0.27985242095
celery	0.641791544164	0.643024690564	-1.28070735045	0.760709728983	0.529157496665	1.0031757217	-1.0291803777	-0.521792967998	0.507476400741	-1.30126970103	0.174909343003	0.422128369373	-0.205793372518	0.0616766995668	-0.119611026338	-0.293292297446	-0.200596962256	0.114041316165	-0.204739515819	-0.0939733493521	0.100833767999	0.12613363904	-0.0529453885539	-0.0179192375711	0.0378404311629	-0.157056955979	-0.0141412557148	0.0034591296163	0.0495379269674	-0.00221148453623	0.0132969118859	0.180270652061	-0.137110898114	0.185521612234	-0.117277445784	-0.0141475408506	-0.0968087650183	-0.071456289868	0.0919719628505	-0.100783536307	0.389276035188	-0.122936095025	0.172495051901	0.0844060895284	0.0107835055422	-0.119711700112	0.0491786158127	0.0988546240992	-0.0244580927903	-0.00667257666574
cellar	0.0456853926891	0.0918854675412	0.0356107204193	-0.0139758843723	-0.0198705922035	0.122451303007	0.164734589116	0.202746391269	-0.109797932258	-0.0990471354779	-0.171891473733	-0.245897493859	0.0625261720251	-0.219671790903	0.126440604975	-0.17428411276	-0.213205399136	0.46305588991	0.0272343898192	0.417600567219	0.255059473962	-0.00884366267503	-0.198312845987	-0.209291241422	-0.107730165057	-0.173261995929	-0.208178518649	-0.214309412301	-0.226178092531	0.273210841892	-0.296429463936	-0.329230073261	-0.46203585016	-0.845888936232	-0.0523258644479	-0.0669948825859	-0.0308384204575	0.105145244638	0.244547885687	-0.0724062951886	0.125542170537	-0.221949221882	0.197095597246	0.360929892934	0.06721685389	0.315723244458	0.487356458061	-0.281448649679	-0.236959540447	0.252653633733
cello	0.378870018183	0.409516866088	0.352989863208	-0.195406102926	0.0182428009806	0.877280614308	0.459320587523	0.525726366825	-0.0523793691648	-0.114855019209	-0.629451447659	-0.121655971949	0.260624952538	0.101970941641	-0.273964469869	-0.223478080272	0.566041835443	0.115480437521	-0.232255814312	-0.256126346951	-0.273441374261	0.0207970539044	0.13072457514	-0.0269688218633	0.375528734449	0.365492421785	0.0911289270143	0.0195852383114	-0.00287303675988	-0.0453204911885	-0.0338603516615	0.0301997936353	-0.0340089729805	0.0283386825271	-0.0358982142626	-0.0856584514974	-0.0017214629284	-0.0218875282714	-0.228052999588	-0.0458190547467	-0.0214130281207	-0.00955413858965	0.0251606794776	-0.153103876062	-0.0156686254474	-0.0910507314991	-0.0684292875318	0.0871913278876	0.108114469316	0.0025925599806
certificate	0.0148549196732	0.0446109227433	0.0204177285503	-0.00798526193115	0.00854038112282	0.0388732732685	0.0349158745612	0.0250380924247	-0.0719799280446	-0.0283978850052	-0.0466496282595	-0.0623270734124	-0.0140958715334	-0.0542720705537	0.0223791281153	-0.0224972316104	-0.0365598959692	0.0569940848818	-0.00298905474839	0.0994168393953	0.0401836403939	0.0517764286629	-0.0127045585244	-0.0194843294433	-0.100161880481	-0.132096396647	-0.0617130689878	-0.0643102292065	-0.145302773948	0.0247692542391	-0.0721741531238	-0.0812226522379	-0.0989198579546	-0.207213830038	0.0599908716464	-0.0920561925942	0.0333663962091	0.0705592879502	0.00458235811663	0.00523805778454	0.0968631433561	-0.0767960826991	-0.0957905306715	-0.0090579060555	-0.039586039454	-0.0854576595363	-0.0175835325894	-0.0727443205259	0.00466789128826	0.027595493521
chain	0.282022669682	0.92364262466	0.370350102385	-0.159991283737	0.156516319987	-0.0827395139764	-0.382731632596	-0.167114238315	0.14337019172	-0.0175799516332	-0.031090597713	0.309758019461	0.010073013874	0.589565917855	-0.775122035213	0.0701843633202	-0.0544407616959	-0.1472795633	0.0456589235439	0.334362679356	0.263059599336	0.406461179839	-0.0620484347924	0.337518921678	-0.35642105042	-0.12599928186	0.110140862351	0.0604525510616	-0.0819118067353	0.0473420425152	-0.23132639152	-0.24023979953	-0.357096174506	0.157090747723	-0.181582942871	0.021466151701	0.130306766381	-0.219699283549	0.0521687307397	0.220286144122	0.0908871377749	-0.203012691913	-0.15152018256	0.0581932905011	-0.0849791993559	0.142493756966	0.0784732819585	0.147807604036	-0.116879322645	-0.0429090535272
chair	0.49536252748	0.178186795064	0.0348242537131	-0.560149784891	0.247918038648	0.00938749714187	0.477578000957	0.18768384621	-0.134929592624	-0.541739269926	-0.587145726502	0.353526124613	1.10861935636	-1.04730066355	0.0760378585324	-0.275673644436	0.0852903811898	-0.365740123755	0.450104060982	-0.576976228804	0.931068101824	-0.086432467734	0.471637937134	-0.188892530875	-0.00637675344317	-0.241365070741	0.718753764347	0.0240131935545	0.161072831561	-0.293327360322	-0.00999492232973	0.0113169101562	0.0328982797059	0.27519899881	0.262555510333	0.248639060268	-0.118219835721	-0.0278471723162	0.204403859643	0.372940627571	-0.0427591170998	-0.182880548177	-0.095269159923	-0.0925210469124	-0.233481242763	-0.212783907598	-0.165020470583	-0.149518619956	-0.165665797255	-0.0365844942135
chandelier	0.0918687536745	0.253717002951	0.0954728878059	-0.0476222982215	0.0208661626562	0.0466229861165	0.0100622184131	-0.0602562840701	-0.112968039076	0.0691735361003	0.191626321978	-0.262192389021	-0.148384543002	-0.210202561544	-0.227192065651	-0.0576111795682	-0.0517201914489	0.251101620823	0.421448411059	0.4762210321	0.340554533891	0.46805335678	-0.149266471397	-0.567275108693	0.275375868199	-0.254685604902	-0.0199729429035	-0.406322713348	-0.392967322266	0.268599785156	-0.029680336197	-0.199618045062	-0.648350141616	0.844282979568	0.299693297403	-0.121326512412	0.390999972438	-0.683168477293	-0.510982573279	0.0469724767494	0.268341433221	0.249442575478	-0.947428332412	-0.381267392459	-0.331153620021	-0.336560636109	-0.161117307963	-0.245722108783	0.110046638496	-0.408165252378
chapel	0.0128482369018	0.0127498350737	0.0189122937299	-0.010319228901	-0.00376110248829	0.101142387963	0.0565043053221	0.0527680035844	0.0106571055474	0.0324322361222	0.0454508233893	-0.0576224194621	-0.0516086783817	-0.0115843767836	-0.0156879767411	-0.103952335718	-0.0892673936845	-0.0767309859078	-0.0328148921429	0.0442622617986	-0.0383892562781	0.0868503798604	-0.0252021010643	0.149117014041	0.0856896410666	0.0654380636375	0.0154159222184	-0.0073223988989	0.0373025793947	0.217413395846	0.0790880817	0.0518776511006	0.12873139451	0.125219343058	0.0336901853365	0.259398982094	0.0650189566561	-0.054596382221	-0.0432024874535	-0.10902762351	-0.267829368269	0.206673146406	0.28150324421	0.0650473270708	0.0727392609989	-0.892121443602	0.516581196098	-0.090506719979	0.223925808959	-0.184568047111
cheese	0.633547959227	0.25444213058	-0.907814789851	0.54466280239	0.180760114096	0.305018200421	-0.0835719446947	-0.0429127126892	-0.080970435982	-0.177780415837	0.345909882509	-0.80748520703	0.718967212973	-0.146763927366	0.250306602013	0.902761770643	0.142628068324	-0.0945448906215	0.173659230633	-0.151196925318	0.213252965993	0.649510227452	0.470186086187	0.214623534256	0.208056054774	-0.00200112419071	-0.966724261517	0.651679884859	-0.0926851296377	-0.277487198378	-0.209088132869	-0.541315643186	0.0612444985991	0.631120952747	0.087141037496	0.287920751693	0.328484459026	0.668685513662	0.4681053063	-0.275905031839	-0.0138662591485	-0.190249345932	0.332926043404	0.0859350369846	-0.208199176598	0.140303475871	0.377146992645	0.0528396492402	0.377930105988	-0.02814856617
cheetah	1.21611976819	-0.473709735189	-0.308626543124	-1.11339466825	-0.0779720823233	0.000819435299763	0.316029711166	-0.631260323904	-0.0566380584143	0.181673629592	0.205670867417	0.436037891595	-0.125202231153	0.662911809461	0.400949110681	0.124105981629	0.125079871675	0.362591475168	-0.216931769667	-0.397089443425	0.745193027144	0.0527817074575	0.255396908811	-0.644816083076	-0.136457048361	0.13838927976	0.0697373225945	0.0910020825007	-0.00501825857262	0.640161126599	-0.182248423929	-0.0157842166343	-0.213019985237	0.45880071375	0.208856965134	0.0186029877064	-0.346359907496	0.730167977609	0.260027447344	-0.233546214305	-0.144412236403	-0.308850782204	0.281123990384	-0.152965454453	-0.623756418705	0.23181484601	0.0250183001803	-0.13675402195	0.20650934285	0.0625300475252
cherry	0.625565049884	0.740795175321	-1.00995256146	0.821902686105	-0.345238215493	-0.576647820223	0.911051387349	0.0699455362559	0.0225165510605	0.6940540491	-0.263337982317	0.0928322524376	-0.125657543534	0.0257020532796	-0.0411452275586	0.0750072334697	0.0648960556802	-0.0669856640009	-0.068539251083	0.133878605126	0.0597643576976	-0.123763271037	-0.19760791905	0.064418832098	0.0687267038676	0.0155240456559	0.110925221166	-0.362025032338	0.166423025667	-0.25011203763	0.108108526063	0.402453383986	-0.126810830385	-0.155777312972	0.125977354301	-0.0366089875673	-0.295597370809	-0.00704791883849	0.134103084899	0.132811398378	-0.114694886867	-0.181561154221	-0.0930913534532	0.181497546373	-0.0409200439584	-0.132189260932	-0.138801340564	0.0640298254993	-0.0709022611641	-0.00384684299091
chickadee	2.16256062282	-0.838270630872	1.04954297371	1.41268910198	-0.0999722434661	-0.645808288237	0.105791281013	0.00232304492791	0.318561010665	-0.220753530683	-0.260506210915	-0.0841010179789	-0.206345568809	0.683328294509	0.207450553066	0.245213349982	-0.0839124365219	0.27987134035	0.443404255122	-0.189294675921	0.0623226714945	-0.337385873105	0.431160302084	-0.372458753976	-0.215912700818	-0.018972926867	-0.0588843510675	-0.189775275778	0.257901548613	0.0969580772438	0.300279840868	-0.526422305775	-0.001733439245	0.0054488135496	0.220445799453	0.306746684155	0.114900577332	0.0229567643446	-0.024954435672	0.129550319271	-0.168821561727	-0.25468627153	-0.259816038733	0.176589808303	0.103930157381	-0.0910264494247	-0.0453897101416	-0.0814322294032	0.277724894697	0.0753540752319
chicken	2.14943413016	-1.07067503641	0.961779398441	1.22945625774	-0.00417095702581	-0.00483965533627	-0.430732362381	-0.547965565146	-0.253937296777	-0.199147167762	0.23608471078	0.512607825818	0.803603869655	-0.5643304548	-0.108223843699	-0.143291752984	0.452102026558	-0.0200569556723	0.332022180382	-0.145130326101	-0.377737221249	0.328268519069	-0.582249596625	0.30107605379	-0.0134542825732	-0.0908400152638	-0.102656828196	-0.342460435086	0.171476474095	0.17286907888	0.21943190297	-0.35915775501	0.118171087399	0.00389709261353	0.0800466441337	-0.139617943218	0.0199550524619	-0.232653693442	0.220898813363	-0.134144113162	-0.399845813832	0.21558734996	-0.0330938595593	-0.0352563677874	0.0274221004098	0.347330397181	0.159515354778	0.143120656811	-0.343979322147	-0.111650578383
chimp	1.1901298865	-0.562563867105	-0.214798361087	-0.974046708079	-0.027917536638	-0.193110670456	0.207018955324	-0.57448888131	-0.0413305105053	-0.0540359565654	-0.192491694442	0.0628677978599	-0.169950752741	0.436953975163	0.126610024076	-0.0439243509818	0.181917540422	0.244242436512	-0.00760839805664	0.645873640732	-0.893964592322	-0.369236743645	-0.0410869838263	0.166338433395	0.178197842175	-0.781328476521	-0.352224156955	0.728231403211	0.487311532887	-0.387564367073	0.421242570085	-0.331347082404	-0.609192129768	0.0396345003697	0.0512720572261	-0.037365189312	-0.202168409935	-0.267294185452	0.310496098805	0.0709529174222	0.291474349729	0.142727788096	-0.037324433637	-0.0695757054772	-0.128261653092	0.0569899433907	0.155062651388	0.113337300052	-0.338550213614	0.278194701837
chipmunk	1.6085940828	-0.301794674712	-0.495120050081	-0.956052193062	-0.161948178843	-0.714842859578	0.366432074799	0.0311555083547	0.162348399933	-0.377157734873	0.153672453175	-0.241893887657	-0.336234927611	0.655336441399	0.332563864073	0.629407953995	0.20675428942	0.441146220128	0.0415806781211	0.741560662279	-0.218637224932	-0.0790624080233	0.406886805023	-0.132374482507	-0.0330808441669	0.0220766373235	0.0103879236469	0.0410049876629	0.0155959755179	0.137652046825	-0.1450415132	0.384251561594	0.0663139355013	-0.147783509608	-0.25698504282	-0.166472258342	-0.080600471656	0.0260640950154	-0.04106240935	-0.560785528782	0.0573463132782	-0.0534106650163	0.0474743396586	-0.0692769334564	-0.761291756115	0.0375549399618	-0.125473513314	0.308313069819	0.114556623188	0.48211251485
chisel	0.207442581068	0.922548366214	0.482539827391	-0.174268552013	-0.331396922299	-0.24193731605	-0.422075868321	-0.383479306702	-0.0833581565301	0.0664086592024	0.0640432999696	0.0278343005384	0.445807427028	0.297921176068	0.168550081428	-0.0117211814746	-0.544882504716	-0.553317102504	-0.221779021088	0.123221173639	-0.261105112752	0.0271366924022	0.0986681487655	-0.261987997522	0.370433193227	0.206304085974	-0.0890126088405	0.0318239236806	-0.0147402782366	0.128332788242	-0.172392902532	-0.0262363139656	0.0488720030023	-0.181239279626	0.254405063788	-0.0115669512303	-0.011558269482	-0.101842571362	0.0747534412734	0.00474371838149	0.0264459030561	0.0103616476159	-0.0130141363565	0.0838276156084	-0.0952664069072	-0.0122481302354	0.102052777255	-0.205943563542	0.0205981168251	0.116068423217
church	0.286000988629	0.0733827341082	0.186039369948	-0.110033302204	0.00905581058303	0.7027198398	0.363883440052	0.261762160169	0.0428770222158	0.176847860309	0.054389339634	-0.337803452243	-0.21219985791	0.000501767870031	-0.0703853684736	-0.440456088054	-0.285173365585	-0.281918422382	-0.144999963538	0.0535855200714	-0.0934646924423	0.227079539628	-0.0832023634213	0.401136854081	0.134754570468	0.16148219002	0.0621233949174	0.021435582858	0.0735006886839	0.29049857616	0.0842445684457	0.134137334084	0.289770346882	0.0959158082063	-0.00290945697886	0.319940118707	0.0326774909351	-0.00857140978113	-0.0945272614322	-0.123366624727	-0.373360703175	0.19444096705	0.413443896486	0.0289763614388	0.0989299899572	-1.0931007176	0.575964954099	-0.0822533582644	0.347369614773	-0.166171869477
cigar	0.587912862721	0.308222242542	0.0693905129894	-0.278439332884	0.475404699174	0.764510527023	0.194483650592	0.0933412503833	0.317685920383	-0.0118181979192	-0.260556292583	-0.189796490479	-0.515696614026	0.437652584831	-0.196599618323	0.0412140731155	-0.174966053985	-0.232883498907	0.753923017502	0.489215009254	-0.0587716698685	0.277628569189	-0.119767367875	0.385891529641	0.00242510123049	0.0933848893454	-0.0733933154531	0.116568580987	-0.247064845858	0.0824078458421	0.0299736221661	0.0592322829679	0.18185562306	-0.0660887865998	0.046929100189	0.195752052569	-0.073845784048	-0.522100466276	-0.14796244017	0.364810225947	-0.140365113338	-0.136144809683	-0.315735207615	0.0114890400322	-0.250058627432	0.24448713856	-0.300110290758	0.130820232852	0.150421272757	-0.138192698595
cigarette	0.270669828434	0.255848328123	-0.253051241317	0.182723444711	0.0993084700135	0.0683224987941	0.219329114727	-0.239328294575	-0.388845812421	-0.1183908055	0.0182676217548	-0.610519438956	-0.191151992408	-0.26860513916	-0.254754464134	0.608087377525	0.368262437963	-0.330957655075	0.0408197632423	0.556323973703	0.128963925983	-0.390428786432	-0.0589187255865	0.185343912409	0.0111981259973	0.281273312283	-0.0805618787181	-0.00929051891627	-0.221914351512	0.182026249894	-0.171929798647	0.105058486437	0.428755675197	-0.219362899875	0.131962509184	0.105918461604	-0.464502495715	0.0628292842425	0.0337499175231	0.156134729538	-0.159786843343	-0.0684550947079	-0.164158838361	0.0236022051201	-0.149071932061	0.197646058077	-0.275696078114	-0.0172178727014	0.0645086643423	-0.24526328045
clam	0.830466004483	-0.165052974557	-0.552356746732	-0.0989013633397	-0.0365571587831	0.232505714656	-0.794452587793	0.414241131512	-0.324351346134	0.278319473006	0.0858754265869	-0.200151842323	0.128152627408	0.0236088017566	0.101520935558	0.117158729401	0.101361404668	-0.174878520267	0.167455248912	-0.178883296108	-0.0368484252771	0.173191468602	-0.280628861237	-0.193120475943	-0.11322779835	0.0219034286175	-0.311824452684	-0.11154613121	0.143361748977	-0.47669744472	-0.0585116646562	-0.0222327467827	-0.297940163024	0.341972148308	0.0116937485306	-0.10338311848	0.404784315346	0.0147691280376	0.313377601043	-0.164818139401	-0.669880809626	-0.0511500831426	0.107794122876	0.0208661566543	-0.0976362720699	0.156513234257	0.140649023188	-0.267402601039	-0.0642435737727	-0.187209609089
