Concept	0	1	2	3	4	5	6	7	8	9	10	11	12	13	14	15	16	17	18	19	20	21	22	23	24	25	26	27	28	29	30	31	32	33	34	35	36	37	38	39	40	41	42	43	44	45	46	47	48	49	50	51	52	53	54	55	56	57	58	59	60	61	62	63	64	65	66	67	68	69	70	71	72	73	74	75	76	77	78	79	80	81	82	83	84	85	86	87	88	89	90	91	92	93	94	95	96	97	98	99	100	101	102	103	104	105	106	107	108	109	110	111	112	113	114	115	116	117	118	119	120	121	122	123	124	125	126	127	128	129	130	131	132	133	134	135	136	137	138	139	140	141	142	143	144	145	146	147	148	149	150	151	152	153	154	155	156	157	158	159	160	161	162	163	164	165	166	167	168	169	170	171	172	173	174	175	176	177	178	179	180	181	182	183	184	185	186	187	188	189	190	191	192	193	194	195	196	197	198	199	200	201	202	203	204	205	206	207	208	209	210	211	212	213	214	215	216	217	218	219	220	221	222	223	224	225	226	227	228	229	230	231	232	233	234	235	236	237	238	239	240	241	242	243	244	245	246	247	248	249	250	251	252	253	254	255	256	257	258	259	260	261	262	263	264	265	266	267	268	269	270	271	272	273	274	275	276	277	278	279	280	281	282	283	284	285	286	287	288	289	290	291	292	293	294	295	296	297	298	299
accordion	-0.0947961405029	0.207220990404	-0.17103578197	0.0129432299348	-0.0646685163021	-0.119728823816	0.0623651144506	-0.0925944076861	-0.107243499214	0.0291271662727	0.119452183464	-0.0269425619121	-0.292522675532	0.122308158252	-0.675410554707	0.201378500885	0.916909378981	-0.502330858437	-0.0321992001083	-0.239316448759	-0.471606817607	0.206747679609	0.217790626786	0.267991330218	-0.500862344584	-0.236597574156	-0.132497219762	-0.218968652268	0.0528059819959	-0.0205830299925	-0.0137373541614	-0.0233012381281	-0.0204054888314	-0.0623123274286	0.229196840074	-0.0728951248052	0.0454075585699	0.0434323587815	-0.257588358626	0.129907131642	-0.0310902095415	0.01353249133	0.144615251152	-0.025269121781	0.0475789398938	-0.101026222088	-0.0489531228246	0.0767997402204	-0.0926758937928	0.0645746903851	-0.0100165935567	0.173001017481	0.118157359757	0.0378842888942	-0.00646723466504	-0.147517737538	0.169473482348	-0.132529301578	-0.0480249688265	0.12775987193	0.00878932668011	-0.00791204936574	0.0578664214802	-0.173319315723	-0.041207384709	-0.0619876810983	0.175991148594	-0.145400977259	0.152568995396	-0.0110084543435	0.0239861190235	0.0912830802847	-0.0979538137052	0.035788974721	0.0117026988329	-0.022657840279	0.00314883898673	0.150306795648	0.17842395229	0.112479307201	0.102407710185	-0.0356139070838	-0.0965484350927	-0.136221818131	0.0747110836649	0.0283158617278	0.0126700603923	-0.20779823807	-0.133540546887	0.0493694780774	-0.00338649881119	-0.0437170763629	-0.132609168532	0.0824650090684	-0.0899969662205	-0.374199745309	-0.122777458659	-0.215760385107	0.136407117814	0.255921476576	-0.128635635679	-0.0444270891706	0.149839872999	0.0143266504188	-0.00206336618035	0.101420934708	-0.00619703564534	-0.170597537627	0.170288847407	-0.134030539007	-0.0617692953775	-0.15673269442	0.0614366223651	0.0292040195084	0.0242722100459	-0.0810790963182	0.0512968578363	0.0132526471093	-0.193494441321	-0.10468885823	0.106234816164	-0.039970131649	0.172227337376	-0.0799071594196	-0.175690493889	0.0344852210096	0.0872635703316	0.0685510407214	0.138526893616	0.0612725325231	-0.0589113875004	-0.0504220221629	-0.0977234569304	-0.263302476027	-0.292831360821	0.122409402154	0.210680907939	0.263932669316	-0.0386110640983	0.182565119867	0.00445939329115	0.109693165111	-0.0101552422579	0.13381620655	-0.0402111026471	0.0806011572342	0.0783247412706	-0.482064334033	0.244490376828	-0.0702931388493	0.0344990775198	-0.20364990656	0.128991021465	-0.0543925264475	-0.305462704307	0.209675504239	-0.0100194724174	-0.320048759298	0.0511475471567	0.125999724474	0.154358445672	-0.00755225607515	-0.0420892001649	-0.0415468127663	0.177917244671	-0.0317519179323	-0.137046568033	-0.0571503372416	0.17796128598	0.074530202093	0.0330617570828	0.00597059524851	-0.207837204174	-0.136478397881	-0.179200554075	0.150092919741	0.113198307208	0.0404928369229	-0.180024247179	-0.0646816481723	0.104967624387	0.00457529715305	-0.0536502746334	-0.10459926216	-0.172141862992	0.0678990539176	0.235680450078	0.101903681461	0.136672701942	0.0896692415029	-0.136844908965	0.00553434402606	-0.0638923745828	-0.197395681903	0.0100797874087	-0.102369671239	-0.0164289390501	-0.0755979127476	-0.00866882367962	0.266519646164	0.0300798837618	-0.0982721603409	0.0547494552131	0.123729381395	-0.0351357107105	-0.000946294836143	0.168250581751	-0.132350687921	0.0286442104592	0.326800043459	0.107620194769	-0.108267331517	-0.111692848314	-0.142950622644	0.0764106089744	-0.217599732574	0.0813401766148	-0.0488778345414	-0.0821976247866	0.00316594544769	-0.144152096833	-0.192272243414	0.194343199426	-0.299702694867	0.0793102207392	-0.0415622318307	-0.145142280361	-0.19935169145	-0.0685777972205	0.332790919756	-0.00461176174801	-0.0529204494747	-0.124688404452	-0.00566238889993	0.123835952595	0.186261122712	0.0298262302735	0.272085922841	-0.0651105713772	-0.0113611684683	-0.0761136938973	-0.0191294883111	0.0599068019333	-0.0192422448309	0.0606110296864	-0.0658911545785	-0.00755097789962	0.0777688394036	0.0253952995237	0.111826880366	-0.0407926428634	0.097591856728	0.0094388586371	0.0690683120215	0.133444899364	-0.134219724913	0.00831182066575	-0.100595867257	0.0998826965026	-0.0190508305298	-0.0199024900766	0.06368268405	0.0319581112213	0.219620466981	0.0557766242262	-0.0132225826431	0.0235692859622	-0.036516170785	-0.103964900307	0.0486793555399	-0.0604566935069	0.0118411536591	0.0611788082968	-0.0304060042258	-0.0896588619009	0.0684584239838	-0.0217794471565	-0.16715829121	0.0595146436033	0.0993609292146	0.0936537531967	0.11341645203	-0.0159291634501	-0.0469922784035	-0.0810529251378	-0.030782387059	0.0537270949828	0.0903272099055	-0.0301979822386	0.134356896707	-0.135726519754	-0.0628440426813	0.00710865519826	0.0962940192948	-0.0922304250105	0.0776337586235	-0.0444869135782	0.00251532816326	0.123624134807	0.0609029685833
airplane	-0.924833515446	0.497126010481	-1.00200120236	-0.158175545088	0.306840823416	-0.620806523261	0.485133639787	-0.201808977054	-0.10401488347	0.0609365566105	1.09464046809	0.425778524267	0.0799518651971	0.272921418839	-0.0163812208703	-0.0445640563607	-0.15413719817	0.225726802375	0.242525975716	-0.202813696985	0.212593270754	-0.016854533508	-0.0877002883876	-0.0650648349351	0.0453742993942	-0.0850517909345	-0.0405094202983	0.657296178872	0.549865946855	0.0673355415917	-0.476607555182	0.167473726906	-0.266748717538	-0.162902072303	-0.317119606783	-0.400298121801	0.131582432655	-0.039289357682	0.0268654394181	0.381501143341	-0.115929284999	-0.109699070697	-0.0515418570286	-0.170304246743	-0.0735651799311	-0.189481457218	-0.259590770426	-0.161890266633	-0.452938882906	-0.059523003001	-0.319747605793	-0.223942752148	0.00436691674215	-0.261689100295	-0.128633222776	0.108192075294	-0.0628860301563	0.304420408758	0.000601901646195	-0.0836713369767	0.0684063680057	-0.209001533566	0.00688588138145	0.241854418623	-0.167039156165	-0.165743015307	0.0130152448129	-0.286716051028	0.0387141578398	0.282836482728	0.018580559544	0.130056572434	0.566746273205	0.0785136575193	-0.0995109158021	0.17372851355	0.274840000303	-0.128509887394	0.10790018441	-0.213764549971	0.0209290976444	0.00948097443796	0.0865500962905	0.0361252098122	0.0837081762207	0.162365464239	-0.0319965681515	-0.0246386700408	-0.107245069864	0.371885987868	-0.119053566243	-0.269535595147	0.157192350729	0.0449170084203	-0.281219431218	-0.227921204585	0.0763450710001	0.17421886545	-0.1361466976	-0.224513083293	0.0758452298465	-0.16831181283	-0.112362728306	-0.0498346652976	-0.29764996443	-0.181855378931	-0.0692902989542	-0.283944296714	0.0705681077156	0.186170638058	-0.0930678155814	-0.308605487574	-0.0274884500455	-0.077322287966	-0.227466324397	-0.113325558877	-0.124427531479	-0.0479047908035	0.0596027479603	0.191186429004	-0.127075275795	0.0962403853671	-0.0315046250148	-0.0583860937604	-0.0263860883516	-0.173033279368	0.0255106455163	0.0367295381312	0.111959295498	-0.114052847822	0.0954812074567	-0.119242401417	0.0793542778705	-0.158524569462	-0.0784305997099	-0.151977438704	0.154382797753	0.0961991839162	0.00954847967378	0.03921543285	0.163799804619	-0.121144480487	-0.0159584796836	-0.0242827197775	-0.117715131049	0.0380981833565	-0.0836714489143	-0.0167655495951	0.114803973158	-0.0989180043536	-0.092254366822	-0.179275680121	0.0175474190993	0.052718561942	0.442716898723	-0.0623469067356	-0.195206637101	0.0491904448629	0.0504484585439	0.0961816620287	0.219482702942	0.0985648083948	0.232917318066	-0.0191537179233	-0.00941912662098	0.111479766552	-0.029147077718	0.170848773908	0.112782446708	-0.0252931527328	-0.207619485119	-0.146145920265	-0.0287410631835	-0.056683618618	0.0357252368179	0.176839207916	-0.125851275409	-0.056700977936	0.255708534967	-0.0178440878673	-0.141899781983	-0.212561037983	0.0925120569611	-0.101873499143	0.122743587229	-0.173588653434	-0.269852477666	-0.158185920726	-0.183833720683	-0.0498564718353	-0.0689949717187	-0.0936005499905	-0.14368048564	-0.0334709203147	-0.0236114054777	0.0744766390315	0.150968510342	0.00582269182784	0.0675145426112	0.0088403654202	-0.0256218463337	-0.0642061319217	0.148687230013	0.00436112953574	0.0297925065555	-0.0823521731003	-0.026298544244	-0.0209684287717	0.0763453943585	-0.141236984107	0.00160448570271	-0.207980150369	0.0442448268893	0.0607237208733	0.173029917494	-0.154454841517	0.0775781576503	0.0360656397306	0.0908331667753	0.00585613389479	0.362693457603	-0.0123045081872	-0.0557920480765	0.201158588667	0.144442256216	-0.194664549897	0.015124881523	-0.13808976891	0.0468554339083	-0.0396694144651	-0.0742390798693	-0.0115865076234	0.12540493826	0.148731652994	0.185312819141	0.0261988353407	0.0383851143785	0.140479395968	-0.0501300605862	0.0877831663549	0.217709391508	-0.213682734492	0.0164269370391	0.0970452578412	0.0370911116675	-0.154629779152	0.0431131149429	0.156905323581	-0.0760304048722	-0.175159458355	-0.0324949350319	0.100822863116	-0.083344720276	0.059403174922	-0.261494531749	-0.207942728198	-0.031419683294	-0.0337955092136	0.0446128662578	-0.0712881545038	0.0791216007422	0.0332426243625	0.126495471789	-0.22583306601	-0.0728106066008	0.0417267499624	0.103457907039	0.0914024921621	0.05767446675	-0.0671863251435	-0.0280945455159	-0.112155350042	0.266062697916	-0.0706476145554	0.226426879151	0.0379737245966	0.113872162498	0.0136738798217	0.157309036843	0.0688797209333	0.111602529156	0.0520325653654	0.0381960299703	0.0113645923208	-0.133113992099	-0.0192940853343	0.00709501042185	0.0746911614474	0.0135385220491	-0.0467338127604	0.0851571468436	-0.205756439667	0.0378692893831	0.121968813625	-0.140607156879	-0.141958960284	-0.211603420448	0.10461092818	-0.125036772463	-0.0571218377975
alligator	-1.19550968627	0.0160398019634	0.44522066307	0.644422939042	-0.365524920555	-0.297804804024	-1.47057116902	-0.0904222652618	-0.249035235672	0.769094720847	-0.48600189657	0.703208671677	0.82795105501	-0.508529567332	-0.564233241905	-0.129226784872	-0.261384842336	-0.427874957798	-0.259920930246	0.280360368293	0.347014120134	-0.311633057224	0.813566157966	-0.0365183544886	0.0173906102087	-0.156088606039	0.373889086488	-0.289952978045	0.0625724088354	0.252524472419	-0.0805765020658	-0.150543724916	-0.192983662506	-0.408526871784	-0.166420503314	-0.0860041560911	-0.28140270496	0.0189067691447	0.131029087973	0.0501379828311	-0.333526811497	0.0066721917711	0.217563453903	-0.102889728239	0.128530237884	-0.505287405312	-0.0780918873375	0.0988250288775	-0.300832319615	-0.209553054229	-0.0273982607905	0.107188310661	-0.0711834616999	-0.149388261221	0.0296402592392	0.141577437021	0.102778243457	0.0385367391039	-0.210932360532	0.0972918679196	0.367587856379	-0.247593306116	0.0466476918347	0.193563180862	0.346640553094	0.131922965884	-0.0379143895242	-0.238481299424	0.116190083462	0.000442567076544	0.034833539503	0.346508782115	0.0933562087437	-0.0891993277445	0.0679873685483	-0.157790772395	0.156933820817	-0.0643660558321	-0.0335552223864	-0.141605121282	-0.28745823254	-0.288187339735	0.193035668277	0.0918629961874	-0.165709848863	-0.158770714338	0.00847540217283	0.0612221786836	0.106121016911	0.293076510325	0.212749758117	-0.104640172069	0.0669086366459	0.16728243974	0.393127770936	0.00795887381305	0.0288728901193	-0.100367479671	0.255473719569	-0.284768384667	0.176390350962	-0.437998415261	0.0606283016555	0.0507010098194	0.00746778619214	0.166409793355	0.0309363503431	-0.00974321508629	-0.0667957601161	0.099389001944	0.163087955336	0.2659034071	-0.204993410436	0.0961341458486	-0.130732100025	0.107048131674	0.0276032342088	0.147258921251	-0.311770320231	-0.127601645374	0.102790446174	-0.0768769890934	0.15329387692	0.2190562423	-0.10897636226	0.0483331671121	-0.156944539858	0.120668004749	-0.173337677884	-0.128351630572	-0.286066212545	-0.181510141048	0.0310738850667	-0.065858242819	-0.168659982192	-0.111189310152	0.17418734176	-0.176443628281	0.0628260402824	0.0240261149993	0.0403509668608	-0.0987925444865	-0.168465042543	-0.162585242978	0.0529739197657	-0.0917220244026	0.00873088555152	-0.209780246018	-0.0712004553187	-0.0289372434479	-0.146958665368	-0.149941230686	0.0422191856205	0.0025956209715	-0.0206763391128	-0.140981951941	-0.0489776332442	-0.0066060681673	0.0914883365898	-0.0368146874748	0.0208989573804	-0.0513984781445	0.117866847599	0.208834336337	-0.0250413797582	-0.122552184822	0.199087114029	0.0538397897894	-0.101890648579	0.20327903826	-0.079226429929	0.103932413705	-0.0735934396387	0.0867002207048	-0.149547624627	-0.0618142672711	-0.0449344460471	-0.0445279515448	0.0631519018549	0.0329556270216	0.252654004336	0.031718411586	0.0920210329451	0.122800774899	0.146491360243	0.0598571340767	-0.160420232836	0.168130473761	0.0551310956333	0.0162636603023	-0.169245193279	0.0725419223425	-0.100047217016	0.0176284605652	0.0794002025409	-0.189332856688	0.170729846599	-0.156620637759	0.061135548586	0.258507219018	0.0661471877993	-0.159861180698	-0.27792369553	0.175611593115	0.210063139623	-0.054182072938	-0.385336492971	0.0477979337514	-0.0460613174826	0.0820314555786	0.117009023145	0.154485652779	0.104062353902	-0.140604428405	-0.222790712592	-0.0204883809746	-0.150494404032	-0.134820701934	0.142440663301	-0.0719124459291	-0.00245521072156	-0.0266176329776	-0.117451245426	-0.0454637850695	-0.0733948951415	0.0203093255752	0.156266761615	-0.0376235383335	-0.0464921882249	-0.00931449720813	0.267515232715	0.0413574061813	0.172416598204	0.0501768019772	-0.12908681526	-0.0740652377056	-0.165647039856	-0.0112221083003	-0.0233407749499	-0.0956547910805	-0.30835066059	0.0250447137498	-0.017874413939	-0.294846834524	-0.177827985008	0.0151043222597	0.0590107259586	-0.0110705642941	-0.0963707572314	-0.0195192772233	0.00968404815856	0.0668734039469	-0.110616461799	0.0882081146641	0.174460821094	-0.0321716141286	0.11302650977	0.0454658583565	-0.0182666166897	-0.0306499816362	0.107257352017	0.0972845854929	0.079533489328	0.0920166984244	0.19418034884	-0.061144180781	0.116975609416	-0.141174543368	0.155682835847	-0.0101209843305	0.000806181506558	-0.118844016485	-0.158120659316	-0.103114387565	0.181999385718	-0.00158213911986	-0.028758655512	0.0563387739961	-0.0255147011277	0.00910531811709	0.075365404322	-0.0297759642641	0.0112384124251	0.00213957051731	-0.0294737266872	-0.12747459905	-0.0269195069219	-0.0375080152308	0.0431978322638	0.168131171634	-0.00904396426986	-0.112137947608	-0.0198381053207	0.0757318746763	0.109791310849	-0.0455385193267	0.123920378027	0.0735192374762	-0.00751202149172	0.0370519765841
ambulance	-0.715301779194	0.356597675903	-0.16968710258	0.131033829075	0.103696572109	-0.949289681938	0.804933577647	-0.33636647961	-0.290644521783	0.13408636191	1.25974326872	-0.00430940720076	0.126082841013	-0.374874497877	-0.0308312885817	-0.843878800142	0.112774848713	-0.143126974588	-0.120383590716	0.214293227444	-0.270634618483	0.162577470935	0.177342344883	-0.04711355719	-0.354360005924	-0.00892173925302	-0.394473225595	-0.365749844078	0.136867687632	0.277959960174	-0.224433804	0.690876486295	-0.350185084224	-0.136188544101	0.212789791692	0.0748497987976	0.323170906712	0.0599790034353	-0.354843503129	-0.259363934087	-0.343805573076	-0.14823316692	-0.131733858999	-0.217256068297	-0.241725186929	0.403265224729	-0.282352065014	0.168951718874	0.0175540182479	0.217119851357	0.292584805028	-0.0206462339567	-0.474603389033	-0.101441408439	-0.681401546004	0.0226458500471	0.421216576519	0.0708648689627	0.269804004161	-0.337668908702	0.60888757541	-0.231032941791	0.184501713387	-0.307649409801	0.441690804883	0.315359762038	0.00605204328913	-0.0462000875357	-0.148635297726	-0.146464050053	-0.226137709231	-0.374981022066	-0.152451986145	0.058050938682	0.0462170524271	0.488630153049	-0.0136379302166	0.0986144381668	-0.142795400494	0.280990094259	-0.132316235551	0.0655890138997	-0.370136912157	0.116445817338	0.454086609126	0.174650904053	0.0297101716374	-0.439962401623	0.349135418223	0.0884907123048	0.689058989329	0.333503072752	0.779483526657	-0.208742129034	-0.00215095327132	-0.207033716396	0.169204006157	0.28679768342	0.478432352614	0.0257027573751	-0.248414706637	-0.0726177043355	0.185022681585	0.472754974907	0.510884814524	0.0449258299871	-0.0231484914112	-0.13882924045	0.359339389239	0.0306804714997	0.252051538123	-0.235236859254	-0.385828573312	-0.63568006312	-0.180535599697	-0.21443680832	-0.393372897259	0.0466183249759	-0.0237681092993	-0.154899661386	0.0906911199411	0.150605086696	-0.336205685358	-0.123187059247	-0.0654119264936	-0.121934028606	-0.053124171177	0.316729608858	-0.200388098121	0.0209155193182	0.15613840296	0.301732300433	0.253998579506	-0.417930608646	0.202683981554	-0.0856668578762	-0.0665044532446	-0.253640638169	0.0927623644366	0.136919972623	-0.235881386014	0.184682601998	0.355322314165	-0.187488504524	0.143415872963	0.223175107618	0.0580788457311	-0.528740532981	-0.209038498922	-0.404587835096	-0.168483994269	0.566734492285	0.462722547826	-0.101167879966	-0.219368909739	0.445120913775	0.214505619151	0.250879306334	-0.0189744749968	-0.188763744717	-0.0552385066822	0.00323568692876	0.0337846384709	0.228834246281	0.0184078763501	0.0675190379578	0.0284373999287	0.314633990145	-0.139796925605	-0.194241576505	-0.208672346526	0.0919996489274	-0.143735346901	0.242466972202	-0.011996151921	-0.0295818348801	0.133443930016	0.421819735695	0.265790017851	0.00895366786696	-0.165892443917	0.204174221585	0.0833207709689	0.139582656409	-0.249622526347	-0.109974469496	0.25587767729	0.105932383874	-0.0437595242407	0.150918184412	-0.477940137047	-0.0848257969429	0.197800981866	-0.0279934569902	0.0331629682721	-0.0996333908622	-0.0295779349159	-0.302126027881	-0.124912030317	-0.276467493085	-0.216760380837	0.125808611632	-0.149185284993	-0.152235241972	-0.0508740768563	-0.0696984495998	-0.0620773835063	0.0595044931679	0.261929356053	-0.168659908118	-0.128741724219	-0.251847488828	-0.0643063374845	0.0429510319478	0.273996608822	0.137844158411	0.017176100693	0.0358393047691	0.140267851738	-0.134390807815	0.065312543991	-0.0549353307016	-0.0359392307211	0.119722810195	-0.0712233697985	0.0299186989203	0.12011139291	-0.00440956811085	-0.120277521358	-0.220377524283	0.103759946266	0.00599312648526	-0.0266202263513	-0.1928991222	-0.124689972718	0.00684218267951	-0.0359464407034	0.114378327298	0.0162437191734	-0.0585614297796	0.215002977349	0.147088577881	0.0631227452591	-0.0439215552116	0.13615578303	0.0350158798121	0.00316839318969	0.00615199725985	0.0270577904578	0.00130080249122	-0.0511994389487	-0.149319173561	0.100078218436	0.0631351808485	0.196179219396	-0.041198688587	0.084491140536	0.0162393969104	-0.0486509976223	-0.0356102766588	0.0200052683858	0.0419996770422	0.007576863688	0.0043699452671	-0.0257491189491	-0.000458461484989	0.02778272016	0.0773143623004	-0.0318832277069	-0.0815550384343	0.00237693428079	-0.0695824867182	0.0470924209643	0.0122228726262	0.0421464758543	-0.0177810167534	0.00590142414096	0.0781354984644	0.0114530680707	-0.0751103235041	-0.0529918526108	-0.0212210717681	0.0213165832928	-0.0478482660858	0.0306973475182	-0.0640562558927	0.0594802423637	-0.107278000018	0.00645374396579	0.0387915003531	0.0625038230832	-0.0669942328574	0.0282692084989	-0.0530159031774	-0.0696280229996	-0.0379056772364	-0.0335805340842	0.0388103011805	-0.00914601275968	0.0286787124654
anchor	-0.438417506283	0.709750028786	-0.513489361479	0.224032002315	0.224920376251	-0.527685841206	0.157933384434	-0.0561047807773	0.0176877112847	0.209512023707	0.295004604948	-0.376926338529	-0.135858574645	0.158530788589	-0.310586982669	0.563424491941	-0.204510558485	0.450305951231	-0.118452478627	0.198858271245	0.116746348804	0.242424572502	-0.0745695357554	0.0340134342091	0.228065788674	0.317790036136	0.111255786206	-0.080278494269	0.052840994843	0.113222998212	0.0427542715238	0.01347282289	0.0137073911625	0.0309366322906	-0.190490757071	0.263676032413	-0.158296291086	0.146459588395	0.39519848288	0.223975457137	0.198590042143	-0.125148321509	-0.00145055424353	0.279302061459	0.0457846264214	0.0302196666868	-0.355357421998	0.142057945177	0.0575528020603	0.100311790606	0.0385363263279	-0.158397372382	-0.227203741647	0.0317650509355	0.0592276943901	-0.113844696217	-0.163795005349	0.180817495937	-0.306821411376	-0.352202969036	-0.0651843794223	-0.0132491769057	0.042818780055	0.124516700764	-0.00716278480608	-0.0517056310002	-0.212336512828	-0.094850483971	0.167989961358	0.168073389205	-0.244172398854	0.11454495719	0.0799163519862	-0.0179725919421	-0.109517195388	0.290585572455	0.169724834996	0.0179065711714	0.176926824749	-0.0435826598489	-0.0515631251649	-0.184924365076	0.283490182313	-0.0327994396967	0.024534985887	-0.111223086628	0.0186400416374	-0.339005525969	-0.147365113471	0.11594003925	0.223819165569	-0.0146525583714	-0.0204486262455	0.127957925962	0.092947025194	0.0603216658798	-0.0138400126623	0.0893866211189	-0.165704846884	0.122903514104	0.113242055297	0.0609934321316	0.201895519476	-0.203122220213	0.155275707208	-0.290582147651	-0.165388509508	0.178748157005	0.205525150259	0.0397632147342	0.100635959428	0.106821976152	-0.199186436843	0.352660917219	0.104023610555	-0.0980752722072	0.108597453741	0.00656057953562	0.203337633973	0.0210017694455	0.249230214504	-0.11568671758	0.135615512487	-0.369761018699	-0.237945754556	0.151872514133	-0.156389344875	-0.237254111687	-0.40471121676	0.333025734526	0.220996925546	0.464521077847	-0.162526680124	-0.408635450981	-0.0489062633383	0.0173092037382	-0.105622229872	-0.0875168196509	-0.218570205648	-0.182973068823	0.00782663415952	-0.162085938808	-0.29542013233	-0.121104187893	0.123637290642	-0.380123721864	-0.819654302659	-0.0484450935612	-0.024730402004	-0.0454130423276	-0.262857356629	0.201026363749	-0.441707306241	0.357528134514	-0.406422458528	0.710677814051	-0.157968052037	0.672317717601	-0.408268696614	0.0838610359912	-0.244424505169	0.088152716877	0.439778944886	0.512696213465	-0.0381675720667	0.575519252471	0.123956468899	-0.274606348303	-0.00705592810516	0.00361025721062	0.360068803929	-0.0683449493296	-0.245061635802	-0.66301753936	-0.250002123826	-0.689425046596	0.172566082445	-0.0438344956926	-0.282945963277	-0.0863486462121	0.175427941042	-0.506884745516	0.636821834124	-0.567000874544	-0.139404551858	-0.191444129566	0.0334818497333	-0.148756634725	-0.0617876300726	0.326743155355	-0.312918155647	0.284174460744	0.140798220041	-0.463198009315	-0.203031565743	0.436596636187	0.248153961331	0.0927674890282	0.00559656170721	0.0867153331313	0.333157907993	0.0370420162209	0.131628561172	0.0516940309471	0.0755553659452	0.0774815564543	0.0935838447869	0.0802617789243	-0.109571681113	-0.0191390943978	0.0675668721429	0.1198965599	0.00369331023868	0.0438033212901	-0.0992436288653	-0.269048218669	-0.209433506572	-0.112665951269	0.141016403428	-0.0110207790928	0.0491573071618	-0.0061813564979	-0.0652038278849	-0.0241324998682	-0.0431970660622	0.141713814146	0.0968703264277	0.13322633336	-0.0362668634652	0.175720613156	0.0916903401898	-0.0166961113878	-0.0354470731386	-0.100473598377	-0.0171597727854	0.0320317896154	0.131114066545	-0.124282819984	0.119859742261	0.0315519702972	0.0440064782037	-0.0427251394535	-0.0993088658857	0.0794226009991	0.00343698836083	0.049267545982	0.0533103121925	0.0714959157405	0.0449078593839	0.109494844047	-0.107839644128	-0.0282801724661	0.111507081402	-0.0566098052505	0.107656325849	0.0250736667604	0.015002608135	0.110402838374	-0.00180421139786	-0.0574332674276	0.0433405375406	0.0310445210448	0.0252252652938	-0.0669914995613	0.0345003684167	0.0518332644847	-0.0400859834398	-0.0730281433551	0.0785477929919	-0.0410210930851	-0.0117382307273	0.029706690484	0.00602482386609	-0.0404717307424	0.0429077773038	0.00029660102049	-0.0253049307235	0.00762870477692	-0.0558710941401	0.034504385115	-0.0165145526453	-0.0364766259476	-0.0159662766157	0.049549668039	0.040183630474	0.101959221482	0.00805881624938	-0.0188984067238	0.00228934165026	0.0725221648295	0.013979345001	-0.0122237118754	0.0519709251079	0.00376432549635	0.0151985412107	-0.034868009666	-0.0231998795589	0.0017240240187	0.041566472879	-0.0207649363532
ant	-0.582135090977	0.249418827287	0.147871717782	-0.224440969923	0.121764375257	0.636672490475	0.263895509965	-0.620456414107	-0.634147426389	-0.204368211265	-0.0938738467881	-0.451522878333	0.444388394964	0.10282353682	-0.38535711739	-0.238076384969	-0.475704398838	0.0383275548285	-0.036267024562	-0.746078669426	0.0296644756773	0.0226637042213	-0.351972842768	0.253351447077	0.0211721994329	0.0919363756616	-0.0603795118689	-0.18858706516	-0.459562916979	0.0792903851009	0.0749321684336	0.404693389124	0.316606016407	-0.295427384783	0.0379810661043	-0.182731933692	0.247667330315	-0.106101906844	0.0431625496675	-0.0774917519252	-0.244492123864	-0.0899617900571	0.444511657729	0.0479191428432	-0.0544930342273	-0.0163464067199	0.0223155820134	0.286836672147	-0.150734173096	0.0962643169379	0.113791024936	-0.0285300701775	-0.270703586267	-0.112767863987	-0.264594313229	0.0280505464273	0.0532320921596	-0.101598617288	0.187434342605	-0.159685624638	0.151420182	0.220399775115	0.00429356275819	-0.0679389371138	0.160699078202	-0.130925229627	-0.266203065422	-0.00806693606534	-0.182801129725	0.101992511108	-0.0927177240457	-0.230594026997	0.0106336409938	-0.202535764187	0.132101373119	-0.172722109223	-0.224906326888	-0.0429286395556	-0.0349865617085	0.290990801198	-0.140172132323	0.14357915776	-0.193682687807	-0.4472146116	0.174395344765	0.0921268569049	-0.0422981493759	0.059717288776	0.0134903710829	-0.307771974132	0.254727284578	-0.0245285458899	0.161192517689	0.228868491206	0.156747748905	-0.286098956193	0.377150750349	0.17355359572	-0.0842245567881	0.329367119923	0.116942510655	0.273498684638	-0.138089863606	0.146126575979	-0.340716189068	-0.428082642647	0.386303971339	0.164371968522	0.154344956911	0.000140051028183	-0.165822164429	0.0400003665097	0.27648662262	-0.0963719840134	0.163480919793	-0.0111993928306	-0.122339795667	0.0453842687024	-0.0671917297427	-0.131784540346	-0.23685440846	-0.541880088166	0.00338204750686	0.137177171359	-0.376024176416	0.0196049841895	-0.189261924427	-0.136950177773	0.0757952369099	0.103963318775	0.129277446346	0.0679111099918	0.0848154475051	0.143742788003	-0.273020434643	0.0200805140414	0.0305284069721	0.162663442567	0.1803602406	-0.106694847271	0.0592468156314	-0.0833556051962	-0.0796636610398	-0.0160616544229	-0.102527301176	-0.102947745428	0.0961003065642	0.106096382119	-0.065612032216	0.0582975602437	-0.281970626024	-0.123707806353	0.075150371834	0.315640180125	0.202093449847	-0.270621450836	0.125652420648	-0.00868083300416	0.0180273778469	0.0356322919797	-0.0700444405255	-0.087353212152	-0.0898777841174	0.0554624971459	0.0708256505539	0.0872251582871	0.0789076402059	-0.108709807252	0.237508692817	0.00367228207466	0.0901254799174	0.138125596599	-0.0496402145581	-0.0787802954656	0.065960018394	-0.0401715635206	-0.0921334274754	0.222925456596	0.125860534886	0.0031251773103	0.226447373432	0.126861407547	0.0639371557899	0.0323572652919	-0.089751100144	0.113891190749	-0.269664223363	0.312485105186	0.039460927647	0.170780730297	-0.119479600318	0.007090677983	0.00276952382087	-0.093818796795	-0.0452116907212	-0.211884586735	0.0560378274012	-0.0541232429824	-0.0541259548741	-0.07407753867	0.000880086195562	-0.221407782318	0.00293262622989	0.00117101237958	-0.0645851189021	0.185006425471	-0.17533182079	-0.00683658644073	-0.0594244196541	-0.15451386865	0.114642385642	0.165565430896	0.0153334749782	-0.0942886190767	-0.0370445864361	-0.0731359562948	-0.133697750443	-0.179347696736	-0.0353052417836	0.027495274619	-0.209486166451	0.0732160973779	-0.0303443637888	-0.0544138300884	0.0302495293862	0.195401646352	0.0457348643263	-0.014512497106	-0.143545912374	-0.00734061817094	-0.144158477286	-0.0215564901634	0.0707114558858	0.130329798463	-0.170208751045	0.0434836839942	-0.0562006770623	-0.0701447776309	-0.0176676638107	0.0808667631108	0.0124521116389	0.178689332805	-0.00140844550144	-0.0146422785697	-0.113702410448	0.136954068769	-0.183940221558	0.0286810320239	-0.080429944791	-0.0804140912519	-0.0480892715515	-0.021528582796	0.00557778292174	0.120084999873	-0.120584805434	-0.226180692744	0.049799617285	0.00514816241406	0.0941709020488	-0.0338191557544	-0.02243426453	-0.125796839607	-0.138823149946	0.00956364192344	0.0142871764505	0.17341825571	-0.224097375647	-0.0713245203715	-0.107992548335	-0.0715132589695	-0.16639884358	-0.059390735161	0.00397992703632	-0.0611112246116	-0.0300570490468	-0.173199057256	-0.148737628726	-0.0535875407824	0.0545318312978	0.0574780182549	-0.0928170844745	0.0323014529649	-0.0866178423802	-0.0970638102068	-0.111073899867	-0.0631989803597	0.0595556477786	0.077238988575	-0.029356424077	-0.18845485303	-0.0195791738132	-9.90423552328e-05	0.0473381443798	-0.0892655278234	0.0788139223749	-0.0108460241567	-0.159158470079	-0.0746136901356	0.131311150159	-0.154174655095
apartment	-0.344602353011	0.222771678356	0.112224601423	-0.123551677451	0.197190734542	0.538893645191	0.234525041075	-0.761149082627	-0.319374230665	-0.220485995236	-0.0873320326841	-0.140880725576	0.259833075129	0.0324512165929	0.131944612316	0.196768677319	-0.169040700348	-0.160540543881	-0.218450889277	0.231467960681	0.155103242695	0.0451020714599	-0.0767392810094	-0.279481399593	-0.189038053949	-0.214735110367	-0.0521931714919	-0.0967002712007	-0.117596817754	-0.820259624173	0.478755087397	0.0642336434464	-0.179644297362	0.65386157182	0.0890328004879	0.512028338186	-0.236087170618	-0.459965136848	-0.598600581001	0.168781402762	-0.242298846552	0.761358213683	-0.551575908736	0.0412458130899	0.0398334082047	-0.528021963689	0.176319729109	0.120877678643	-0.49044183879	-0.343438675124	-0.536108886736	0.241473530782	-0.459347455725	0.301509420781	0.145930310845	0.308204642432	-0.25846187577	0.150998962983	-0.900090845791	-0.423686116511	-0.110282317506	0.268144502621	0.406916982314	-0.428482465893	0.456957295756	-0.721169048499	-0.150036864972	-0.031914679057	-0.0588261594607	-0.163407049039	-0.0240625277927	0.0344965056107	-0.00353324410023	0.0986670279092	-0.15940608652	-0.00374170831486	0.124100935744	0.00901979129362	0.228447204806	-0.0212381574347	0.0668689871551	-0.130722798795	-0.262343533763	0.133183232503	0.0259207626936	0.31739347844	0.483572248078	-0.00861277396869	-0.133262826212	0.334659706995	-0.276422801409	-0.230616895142	0.0589366996124	0.854531473762	-0.33095387409	-0.0741036467011	0.416356833644	0.410245559232	0.69709320779	0.0987965023282	-1.05673182045	-0.218969953627	0.111066416198	-0.00461578866256	0.710633546684	-0.40579497957	0.0814494399077	-0.0194060331694	0.192948595266	0.174953483154	-0.291120453814	0.373577351478	0.431591884222	-0.234916102756	-0.147403559677	0.356447318023	-0.161040647388	0.0365038192777	-0.181285734249	0.108893962552	-0.261033651351	0.081904315715	0.107812562608	0.470708233325	0.253008880777	0.169563626413	0.287573620568	-0.111144273116	-0.596706132721	-0.189941891394	0.373258930729	0.243543842202	-0.183471455554	0.216750032642	0.430246059194	0.251415795411	0.158890290807	0.314630778052	-0.322471009837	0.0856353941851	-0.20765237838	0.198153692659	0.317499042894	0.0333848836815	-0.144473667205	-0.127831915423	-0.0565086172263	-0.245784084066	-0.244013610297	0.0779253207367	0.235789700211	-0.0747147912909	-0.328894501644	-0.145056900036	0.264984493837	-0.355315341219	-0.0937271171118	-0.104706700313	0.18692091983	-0.132223742802	0.000127164514044	0.0252342834148	0.375947894915	0.0391497660836	0.0268464770546	-0.130545955184	-0.103639400404	0.0572418006409	-0.0707795471949	0.197721888944	0.218868270729	0.0391623306571	-0.185229067299	0.049238392136	0.143185306586	-0.114753166986	0.211380375041	-0.0345609621536	-0.028737608859	-0.120612689267	-0.117458815055	-0.0976059763564	0.0938531456665	-0.195601175205	0.18892924242	-0.0998540073946	-0.209933188061	0.00530570803099	0.165749553474	0.0475016164832	-0.0414495457888	0.0829315912983	0.178952409779	-0.119255266133	0.123647638749	-0.0681462973321	-0.12958749932	-0.0243060423037	-0.049511213412	-0.018426436836	0.157142543545	-0.0344338963409	0.0347432188397	0.0286100747366	0.0194150461732	0.234402344093	-0.0229344208673	-0.0112298906678	0.0810862662134	-0.107546140288	-0.118970407647	-0.056837585774	-0.0258395608138	-0.100849030878	0.121138941477	0.115203779852	0.0178820545911	-0.0849672926946	0.162203789817	0.0166370308204	-0.174555591004	0.00549591729112	-0.00950709735067	0.161364685241	0.0215361040912	0.149169941717	-0.117259789249	0.0728784388788	-0.0845866958486	0.0628152692181	-0.0650100578416	0.101489464626	0.155458822989	0.0111461660907	0.19636793892	-0.0206193063511	-0.0428346356384	0.0775183150184	-0.0552576221339	-0.0467434187029	-0.0338717173122	-0.0183520843663	-0.0440748746808	0.0287774752615	-0.102231200516	0.116800993121	0.018723232769	0.0768390770197	-0.0633314014587	-0.066353709007	-0.149241567303	-0.0674306088493	0.0774585683835	0.0270619070488	-0.00832130363321	0.090253647146	-0.0615843871374	-0.0997635919544	0.200460293461	0.0263506617287	0.167776549501	0.124520017833	0.038338694944	-0.0038048667416	-0.0210575901078	-0.233314039497	0.126164868313	-0.0775305728084	-0.104729228687	-0.132651271737	-0.0512557368908	-0.0419714545642	0.0783861715982	0.0722819220314	-0.140716917155	0.00278977538959	-0.0216230524501	-0.0502874255806	0.00100489482137	-0.0527219550613	0.0278089151977	0.014585067104	0.044693283067	0.0483100570844	-0.0714451800551	0.0836887819038	-0.0506915419832	0.004280820705	-0.0139652844934	0.0178164166875	-0.0444409317056	0.161465355282	-0.0681189763252	-0.000983692314866	-0.00277722694714	0.0296107346091	0.0709711234349	-0.0426903824398	0.0516224354059	-0.0124390082407
apple	-0.606339789212	0.908484445475	1.64750940514	-1.27836510828	0.187530909211	-0.252705560282	0.987233683593	0.835223234761	-0.0454076181783	0.888820539022	-0.272401370329	0.749922810743	0.0314023318865	-0.206251988006	-0.248324625763	0.222929400334	-0.250839575855	-0.162291756218	-0.0942181061412	0.0570447397397	-0.243267870353	-0.387683322804	0.394221052602	0.508571994724	0.389993305008	-0.118046522438	-0.108033718597	0.0096857666846	-0.0029063887678	-0.133434716246	-0.0807115959327	0.322411156316	0.35042147813	0.00769805661519	0.151864056913	0.130318466348	0.118659003052	0.273820314349	0.15392158174	-0.176280020445	-0.601522933119	-0.114754238246	0.290645870219	0.136760485433	0.190853372085	-0.164270750252	-0.105201298948	-0.0414700260827	0.0259515859013	0.342860881822	0.051869438259	-0.185711210191	-0.239035040261	-0.0843688382129	0.150057061478	0.495140149617	0.0228803349388	0.158821485621	-0.0919712574412	0.0598249785685	-0.194505586389	-0.0374141811333	-0.0876822815104	-0.212228350324	-0.0283137945191	-0.0727781610193	-0.163663498191	0.106498281242	-0.0738397147552	-0.372961605626	0.0573942824316	0.337771691663	0.154910835835	0.225993897178	-0.344416762393	-0.180795886613	-0.0693168444001	0.209991933086	-0.068479483722	-0.0638063395178	-0.0450900348061	0.0917542437176	0.140433906471	0.160402121536	-0.377314850605	-0.0740694655325	-0.254730957575	-0.170456252626	0.10510752164	-0.315557643266	-0.0297969066139	0.0525389937505	0.50472961235	0.163477087392	-0.306758552145	-0.337542195057	0.158812582767	-0.310319968586	-0.399180206786	0.331104786807	0.00381988975071	-0.301415219564	0.225485622541	0.114118719063	0.316748299321	-0.365916943196	0.177839899278	0.220550474093	-0.33440464074	-0.277910843165	0.0390275906486	0.0175022538918	-0.148125625329	-0.388344264196	0.366453821018	0.0984681656108	-0.290684794692	0.160477691831	0.159508475529	0.0582654211571	-0.0727590126892	-0.122331124478	0.0342614510907	0.00593430000877	0.136372616562	0.0899767773485	-0.00327944829348	-0.0165625499256	0.340102942408	-0.226076310091	0.2265688106	0.285241996292	0.178955001745	0.183454847277	0.121386536676	-0.0631813482386	0.0595813577453	0.163808242483	0.147620216262	0.0695487567364	0.0830060365324	-0.111492971087	0.0624298639063	-0.0074949425779	0.254217073935	-0.0200204135936	0.0697787252288	-0.0709266497134	0.384010356428	-0.114658537257	-0.0694566301901	0.0229661137563	-0.0424431766109	0.393190371249	0.0699052272479	0.136746150287	-0.0595334967039	0.0382480907947	0.0745112796276	-0.071649275967	0.0542574620876	-0.0158186538614	-0.113668577861	-0.165728424753	0.0966163059048	-0.127820283655	0.0351509784896	0.0735161346374	0.115366772512	0.0359768430407	0.0649542297648	0.164155607988	-0.229045161409	-0.0331786531251	-0.112766153106	0.0121632994187	-0.101431950043	-0.290606669617	0.132579295508	-0.135708795325	-0.0801223293186	-0.113560065729	0.0232896169123	-0.0193732068205	-0.103452338175	-0.239205028045	-0.0277355713562	-0.0938584944047	0.0401550310879	-0.14427180671	0.0305362835848	-0.0458361701613	-0.0713094677618	0.201318678656	-0.0367086808849	-0.10898257451	0.211031101002	0.0533587726853	0.138880828152	-0.115908642269	0.217876741396	0.0307570894209	-0.0139909899638	0.0625879181118	0.197504192177	0.097233474288	-0.0658696190286	-0.027643468562	-0.24230785318	0.0901991189312	0.122559874068	-0.0332209650655	0.038075589624	0.137456687426	0.105918003332	-0.0097950096558	-0.230655109432	-0.287977306646	-0.449435191843	0.0980495402982	-0.0930342084716	-0.175030532643	0.0588794836345	0.0532652312861	0.0745948306171	0.0718697521978	0.014988650784	0.0446976743001	0.315807301788	-0.0748391921147	0.0337946588201	0.206083526268	-0.0682127853294	-0.163079422687	-0.19396444871	-0.107688277226	-0.165224624958	0.0482281135463	-0.172703229665	-0.279648894519	0.308990478714	-0.0522292864238	-0.306244373799	0.0982021171426	-0.150373140267	-0.080494885731	0.118353421365	0.010077802343	-0.139268149593	-0.00395532214277	0.0780448966755	0.00274565147895	-0.0085949837249	-0.0313034677229	0.025835902524	-0.0497288323783	0.343112058204	-0.13849403721	-0.0696135429188	-0.171515241203	0.0729981248985	0.0702594531028	0.0298774510458	0.0265150373387	-0.172374381045	-0.114929301614	-0.0263803155046	0.0880544833061	0.0712480582189	-0.0293707270562	-0.0951334369716	0.128759553322	0.0699416202887	0.141310193857	0.0162925850019	0.0534783073846	-0.0525769145484	0.0024784469661	-0.129545227681	-0.20637243021	0.0708837853226	0.196167744266	0.00986907833804	0.0228537002078	0.0355278762431	0.112355666222	-0.154249727108	-0.0102198945859	0.00977127555301	-0.0627973701905	-0.138345491061	0.0483504762792	0.0155157956176	-0.0228802525261	-0.018416209956	0.0471844205259	-0.326624574695	0.0745822314164	0.0348811115598	0.0621241674945
apron	-0.136066546357	0.391840189368	-0.0898778556562	0.0555383621865	-0.877446139506	-0.0500835429336	-0.199174986563	0.0907153614652	-0.135235729479	0.0432881101023	-0.241314008792	0.198909782709	0.0183622359395	0.285725893396	-0.386756009373	-0.328089288162	-0.152679235448	-0.282253871903	0.209490613927	0.169798448955	0.121236119538	0.101694387777	-0.122588520817	-0.202685779666	-0.150387146033	-0.178610356987	-0.14433743237	0.155473315189	-0.117388388576	0.0564384041174	0.428080448067	0.184705600849	-0.0570829885944	-0.142356643677	-0.159271609155	-0.127163202424	-0.0418896565435	-0.0253181147533	0.157334595544	-0.0390234047042	0.0198871504942	-0.356993586195	-0.485008157871	0.326839707503	-0.0288743560732	0.0884538451198	0.269234428996	0.197179870096	0.105968687441	-0.283984950842	-0.0771518645397	-0.263958232564	0.182320720139	0.214973317362	-0.027206812446	0.309569344089	-0.066372914017	0.0112958650263	0.110308438742	-0.132632451933	0.217974735085	-0.0809082808751	-0.124378662181	-0.353188144752	0.0129819037689	0.291913197657	-0.217723458686	0.542565138226	0.187623077627	0.31662177389	0.161905592604	0.181483996689	0.262015704216	0.252323786904	0.184055369185	-0.471984555652	0.532373087663	-0.481075183861	0.678695543104	0.278854695904	-0.452866422789	0.435133337188	0.126631274812	-0.262558635846	-0.161394500519	-0.0121991459807	-0.139570935256	-0.189097082656	-0.119799014187	0.212504827514	0.162414844424	-0.138986757975	0.0444497784251	-0.330936781927	-0.00226893433381	-0.514525669669	-0.162725242362	0.16517088846	-0.0765589162128	0.322292950225	-0.0517509307006	0.370335247963	0.0210875009677	-0.0912841942445	0.83521621769	0.39977963208	-0.110565184731	-0.0337574281777	-0.196377344762	0.32036247772	-0.316894381397	0.139671159102	0.0181186273319	-0.153268553837	0.104461914157	0.244055790572	-0.0852436881894	-0.239619331689	-0.0995795580889	0.288931870635	-0.228588716961	-0.0101019272596	-0.32133105689	-0.0565729253693	0.255859801905	0.153896913719	0.0377431828925	0.153651813017	0.0717090636918	-0.0651884952923	-0.0143592670964	-0.0150783946874	-0.241865620308	-0.0925583031922	-0.0804999665152	-0.0718848727565	-0.33597880107	0.175671990623	0.103039011464	-0.0100299277579	0.0184444878994	-0.050090182474	-0.325154872418	0.0663126626956	0.17717487863	-0.322964009204	-0.102714646725	0.258165455169	-0.0949312189912	0.0533535394433	-0.045008840319	0.132039741156	0.0294902934929	-0.177408353311	0.154067458089	-0.0926540132125	0.132757249928	-0.0998762505199	-0.0153538000492	0.130736017803	0.0368526522818	0.101904669851	0.0275507246327	0.170949769204	-0.241764546141	-0.0697342501469	0.216797544997	0.00233110306845	-0.146764268151	-0.0543786350033	0.0140753438265	-0.297390243168	0.059626984864	-0.247788227187	0.0947523345955	0.142729756961	0.327259505427	0.0557066195955	-0.0156298931999	0.0800233020044	0.126819583511	-0.276920897127	-0.13831903006	0.32834656319	0.0572812750194	-0.0760409254997	0.102775862151	0.100325497843	-0.364549740373	-0.186828821731	0.123158376498	0.19396813691	0.025233118803	0.129504504351	0.0422086655265	0.0749292244194	0.0719870301841	-0.266179347074	-0.252835316319	-0.0117389573846	-0.149495279736	0.0218095808966	0.035941239826	-0.0804230284739	0.289357121097	-0.242180587945	-0.0795166272845	0.102560518287	0.025609592349	-0.00749030148355	0.0773176078022	-0.117810741601	-0.194984302394	-0.130331905374	-0.248976291873	0.0143011635504	0.0386173222201	-0.00338356442991	-0.193371562567	-0.0414200174925	0.0144500832692	-0.0598999782839	-0.177233114546	-0.0849098440636	-0.132870690698	0.0272030538818	-0.0506428146574	0.0247590052628	0.00119796967855	-0.0150146568346	-0.0448051386585	0.036823836234	-0.206161779906	0.104046492568	-0.0275999132828	0.205133409857	-0.207159323691	0.0157856573123	-0.240659902542	0.131083276274	0.0161769572541	-0.0296937188996	0.140612682635	0.353535995856	-0.0304891421483	0.00506858517106	-0.156724505622	0.0674191643426	0.358777753006	0.188566163193	0.0623750486392	-0.00290034885069	0.226505915411	0.0242576483274	-0.134969887015	-0.290804193014	0.195388669188	0.00375216303382	-0.213634474571	0.149531272553	0.381322026138	0.151835450734	0.185490513831	0.128844793035	-0.162122806772	-0.178614017348	0.0418083961195	-0.0663534966916	-0.227477324923	0.0868223670999	0.121768194478	0.0928935244008	-0.137611230207	0.0177775079226	0.0809823779094	-0.10524393878	-0.164912476934	-0.133598922302	0.118142191814	0.00140331964896	0.0974794463205	-0.125288322693	-0.0565660507191	-0.0373806829162	-0.0788192347354	0.0855290874614	0.0751186638539	-0.172561820546	0.10353976579	0.0411247198076	-0.0237023642887	0.0784970609227	0.135791713646	0.0286321017602	-0.00549015382216	-0.123691652761	0.15392239765	0.0303014179551	0.125228506542	0.0436971693779
armour	-0.2076023992	0.743788311459	-0.376873627379	0.150668045642	0.194947653215	0.147913385549	-0.148777522681	0.0961718062083	0.0337869151403	0.0237125030366	0.252235554494	-0.106275620133	-0.282943551619	0.302918282847	-0.372633693483	0.265364235715	-0.0102382792046	0.238585097313	-0.0475474366398	0.224971832849	0.159020740969	0.139195684112	0.0287448611927	0.106777746689	0.35068411636	0.357277782548	0.1042235507	-0.200088959442	0.117454731614	0.0941703564261	-0.239570030576	-0.208648778399	0.542261630736	0.325836935863	-0.1229040212	0.175191913643	-0.224141738017	-0.130445129757	0.303297735823	0.292124858693	0.195535894212	-0.134929051167	0.1000601022	0.173835657976	0.0224635750457	0.0741147468079	-0.314270675464	0.206586922076	-0.079182887479	0.0815007181654	0.166604372427	-0.166989856178	-0.0959052044098	0.165465244942	-0.139285921218	0.0420851076686	-0.232192363297	0.0740932176781	0.228375542919	-0.576792491825	0.421941596494	-0.0642694260378	0.105636721658	0.251907087431	0.210018076149	-0.276986415366	-0.533264485879	0.290698950356	0.142207349131	-0.00923923658929	-0.0779558891713	-0.255576780778	0.51807382373	0.0231881932476	0.165829556595	-0.390715016293	-0.197538597592	-0.198126742183	0.530270372961	0.374385000173	-0.0340079286159	0.0395960039576	-0.080435541739	-0.179754268928	-0.398323177669	-0.177985950061	0.0108778681455	0.171306237351	-0.0193080038484	-0.214288508443	0.376668880131	-0.0534942537663	-0.109482842755	0.100300870773	0.0657326533388	-0.115416751579	-0.0661258642165	0.227730691257	-0.239040710992	0.18618875885	-0.0537731054897	-0.173884785157	-0.0922772761795	0.222473350769	0.229633234061	0.132067313327	0.0390388344607	-0.066203794548	0.0543583286877	0.183857643242	-0.309260438368	-0.123293624653	-0.257629539794	-0.0457017816505	0.0130361444414	0.110264476824	0.254589405498	-0.0130355087832	0.177461266355	-0.378951685163	-0.0746603463614	0.00338495562684	0.0209713888002	0.127720777839	0.0215965267123	-0.16602765311	0.0597082622058	0.0828194879616	0.172701086075	-0.0427247558885	0.119869080522	-0.028534278326	-0.138218438586	-0.0570237122088	-0.0752885525662	0.0910740761188	0.065174658516	0.0298147335621	0.0973672568185	0.161901445448	-0.0740713142923	-0.0321794742637	-0.0189763863228	0.0299181455419	-0.163620945483	0.09596766102	-0.0316052703343	0.0980848552531	0.00124219365802	0.00485096114967	-0.259305156313	0.0213339453888	-0.0219101685476	-0.0496866872373	-0.0187762234478	-0.35134573342	0.0602043871018	-0.00366515948896	0.0413751751308	0.0703970248361	0.11647975857	-0.239608489313	-0.0149633093626	0.0119348971478	0.0713824582567	-0.0776900588818	0.0171797367508	0.144276963318	-0.0342970475245	0.0808190800611	-0.0556996722238	-0.0215850243438	0.00326950708769	-0.0725411273893	0.0105157404189	-0.0132744660157	0.06395648136	0.14911305924	0.0695776609875	-0.027428380087	0.0302714618172	0.0166681865222	0.0833107301508	0.0472982813453	-0.173221893361	-0.0439560657443	-0.0887243824917	0.169905943108	0.112211667258	0.144731429903	0.0839447108121	-0.10353148109	-0.0243086330172	-0.123282710129	-0.0784885090066	0.00407768177932	-0.216572791364	-0.169457809876	-0.114116281527	0.24387992772	0.0500713730556	0.0143144519308	0.0692504768767	0.124638339174	-0.201131193398	0.218423746622	-0.230212820101	-0.185609584666	-0.101314435556	0.0348054253224	-0.194581985923	-0.0410221590589	-0.00533876810564	0.051044524627	0.126546528001	-0.200261746551	0.109126530139	0.22876737535	-0.261518772115	0.0146113589561	-0.120583093092	0.0461947838024	-0.0818070645737	0.0614055782994	-0.00930931385359	-0.0311172932767	0.248118429239	0.182884372951	0.0358502414434	0.0791641914106	-0.172504242902	0.079626135087	0.0608029058821	-0.0716179384752	-0.236478831	-0.0777872556931	-0.0418291044627	-0.197303640184	0.0804569345953	0.00728768875274	-0.102015667103	0.0049919461148	-0.0051927124127	-0.144217009448	0.0385082395264	0.0366809552568	0.0950514523262	-0.208314847342	-0.0940212987726	-0.0347974878469	-0.250915525897	-0.00359239211158	-0.0877509454125	-0.0221242325788	0.0994723960101	0.146583580045	-0.100652988117	0.0237926115123	-0.0284172014029	0.00884769782951	0.0106764634087	-0.0739612368542	-0.0310403746656	0.0291204604255	-0.297814440738	0.142241015529	-0.0356381417909	0.0263579322296	-0.0816558206372	-0.112579762977	0.00813687060649	-0.0330617473322	0.00071605337351	0.157064843892	0.0549642513669	0.15960726312	0.073139335942	0.0595484303883	0.02360834942	0.0501657684438	0.0363526444281	0.0993541608707	0.171913019306	-0.196501308458	-0.287494569517	0.00890528825913	0.104853079674	0.349009612841	-0.0264362765796	0.0114019469425	0.223059439886	-0.205684622744	-0.123927279464	0.16824999095	-0.271722202234	0.0386607688061	0.0435044029507	0.0311301014163	-0.0310402549156	0.179946343857
ashtray	-0.19815050187	0.477195185279	0.13170442308	-0.13783728912	-0.0975841259057	0.101723972848	0.197432403186	0.203445241916	0.817053911152	-0.0532388082429	-0.104426111114	-0.197803262841	0.670915441001	-0.326091979653	0.028618781423	-0.0465935635703	0.363096150605	0.203687992536	0.215975700296	-0.200721340604	-0.00882877087892	-0.214165155819	-0.149531244108	-0.182568206754	-0.0472992263788	0.225549525272	0.166258241586	-0.125357094721	0.413552711103	-0.428347718613	-0.22381593597	-0.00229537096548	0.0391701783132	-0.285632001834	0.197973882692	-0.0703950420309	0.33949616646	-0.306088694559	-0.179133470767	0.235432634344	-0.186407334234	-0.0993394309583	0.246461306633	0.0717694478408	-0.119795018826	0.278363215343	0.19362653453	-0.123981525882	0.0399374430381	-0.524287202492	0.714517365464	0.275636005271	0.174144154333	0.376634617662	0.584114770824	0.173092785125	0.374035404074	0.29397070372	-0.150800526105	-0.0547608539937	0.0268606701737	-0.34989379784	-0.0276784272918	-0.0643938818265	-0.132514554235	0.0752274347021	0.00986555911428	0.0293809359568	0.137965199007	0.027409458681	-0.0100364749812	0.00525831198211	0.0685273120293	-0.109471266921	0.0229114916714	0.222735328571	0.228100211564	0.193922719854	0.0982964835302	0.251970875952	0.0451243299452	-0.140786118497	-0.0521955662507	-0.0884243589997	-0.295889587087	0.217292548017	-0.0748176253638	0.0343983405552	-0.0302787212429	-0.187682404979	-0.0241426731935	0.240128155407	-0.0541549718237	-0.136960249239	-0.061147083575	-0.00896594841603	0.237111400244	0.00168883696244	-0.15610555696	0.066298133746	-0.123482456311	-0.22134263153	0.14602840749	-0.197502546617	0.0943161255354	-0.129120760532	-0.0499999421711	-0.00844769685694	-0.0338771930728	0.13830411652	-0.0270892311675	0.0975678140894	0.156331125667	-0.0171424168749	-0.0451300633316	0.0802856067803	-0.00617981271788	-0.0607648720189	0.152581129707	-0.0829459717173	-0.0391087456958	-0.0948760995108	0.0186333421516	0.0241208997726	0.0942928628607	-0.0984880010628	-0.0959242907953	-0.147721458817	-0.0573656977731	-0.0113828529275	0.0460340575231	0.024241383723	-0.102662267554	-0.0114047135133	-0.0216742989044	0.0499427314996	-0.10179937038	-0.0676948994784	-0.251885610946	-0.0103114021784	0.0824186114473	0.0306280052071	-0.148076451745	-0.0993222714775	-0.00373455762606	-0.0807802406097	-0.0754478095344	0.0478034146415	0.0264896256942	0.242112599945	0.110458639895	0.0955225868124	0.199952538257	-0.360673662987	0.0824370010478	0.105658301896	-0.0574905114951	0.12991494729	0.00036658432041	-0.0657762448065	0.0763897760887	-0.205412091771	-0.0444243141688	-0.0842071583534	-0.172277673754	0.0318441791135	0.189829943118	-0.0235403021617	-0.0849962873574	-0.0197318217564	0.0826850611472	0.25031794871	-0.0634282775201	0.133271599962	0.195241781842	-0.0638546024511	-0.0970758334985	-0.237184670884	0.0114085020938	-0.228354508118	-0.0132307214154	0.23349576792	0.0649527687259	-0.217496405488	0.0969332740097	0.0221527567026	-0.0626179830567	0.285124764744	0.0125931939336	0.00280202293535	0.105375555384	0.0160265883935	-0.137002970714	-0.0259801869913	-0.0269638508544	0.0497541580959	-0.0585431590898	-0.0684256927796	-0.074893210554	0.0679742704103	-0.0918518034772	-0.130982980063	-0.0740720610956	0.108215837141	-0.174999939931	-0.0573514871596	-0.0142077428671	-0.0084997749439	0.0414754800208	0.19409415073	0.159127582719	-0.0468500282811	-0.036300090011	0.15900442074	-0.0890710491268	0.0113606099882	-0.046697128065	-0.0663878810076	0.0492843746188	-0.00568570285388	0.20948417078	-0.223658834574	0.00230386964218	-0.109070041824	0.0842618443811	0.00524193397986	0.0228147418184	-0.00333023745039	-0.388404460202	-0.184595480202	0.0274149983728	-0.0909093003442	-0.163971824874	0.0367033414767	-0.103144900433	-0.0516623541785	-0.176304269005	0.203312333981	0.0346672135966	-0.0321814747244	-0.00878542271638	-0.0486556408996	0.150406531113	0.0743569198126	0.130828924697	0.105762941747	0.0748115409685	-0.0668081240781	0.00380403236232	-0.0898897307339	-0.120933649145	-0.112878435777	-0.264973659986	0.119728177788	0.0576860429894	-0.169955762179	0.0086053085843	0.111690371901	0.0273871294684	-0.184441958725	-0.144697265644	0.247578690969	-0.219908785207	-0.0330105102284	-0.284254935669	-0.113650251597	-0.20620894772	-0.281994076868	0.00990090449211	-0.11846690782	0.0187353567679	-0.250490920058	-0.0918941321762	0.125476564623	-0.0120199801883	0.118221945427	-0.0890560502512	0.135357504944	0.0644678841111	-0.130090332017	0.136054075796	0.0265923125178	-0.326609980709	-0.0113580924665	-0.0483156449009	0.00280819880684	0.269976956416	0.15354032812	0.0917098045621	0.385032127641	0.258096909226	-0.125093958527	-0.106756955828	-0.0861415258982	0.362424853733	-0.0763047908244	-0.466599789516	0.0861358184449	-0.140099397717	-0.0971961665171
asparagus	-0.514003155404	0.488574215436	0.87417934514	-0.495946027855	-0.498039400338	-0.743921446014	-0.911100384711	0.365421830201	-0.413326554573	-1.06018635189	0.0936505886587	0.347438391936	0.24831351563	0.0544772283461	-0.140527300542	0.180705731546	-0.126376575238	-0.0634585029198	-0.0138528217985	-0.0250854483468	0.0838157364495	0.0978307085854	0.00173841925549	-0.0264379812186	-0.0246322465815	0.086828490184	-0.0732474523095	0.0493043793592	-0.0394400750464	-0.184439604813	0.0433699419971	-0.129090538536	-0.0374744845166	-0.0187036577324	-0.148241777033	-0.0329405078904	-0.0669971157483	0.191291920125	0.0182260527034	0.0218812738191	0.122881408537	0.202515396245	-0.144630602234	0.160621764656	0.0442190394963	0.146135649995	0.00381841078673	-0.10666120462	-0.145062484975	-0.00638384588806	0.0713810721705	0.0651853544385	0.114910953999	0.034835065993	0.0242537684175	-0.00703375390969	-0.131651393753	-0.0280149102239	0.0119834237314	0.0333238494631	0.0234914325247	-0.0900138561276	0.0863957621472	0.0481627803336	-0.125593882251	0.0116236565624	0.0743430223712	-0.158353023452	0.167728894921	0.0382039807409	0.0780850591671	-0.229748841871	-0.182937996167	-0.154779199806	0.227639747749	0.128668527906	-0.0207637248491	-0.219711405886	0.208588751813	-0.00611084814839	-0.0193841025679	0.158825448632	0.0341299019559	0.226200904737	0.161358959491	0.158185015137	-0.0453780896055	0.0849375888106	0.11276125209	-0.071258327839	0.218056329447	-0.200703345991	0.189647322273	0.0439581953553	0.10249124132	-0.00894213901855	-0.0687758885652	-0.0335236754592	0.121048832289	0.0380561218158	-0.0193348830125	-0.108527639276	0.0374869659761	-0.0983437377023	-0.0709926252184	0.131769652005	0.0311715264678	-0.0208490569784	0.0649308698901	0.131954415652	-0.0873671058621	0.157011916347	-0.0164260771913	0.0290523599421	-0.0722029166699	-0.0713893045581	-0.119874525209	-0.0231226759081	0.178955000903	0.0724962650317	0.113764994311	-0.038322441892	0.095024064784	-0.055812649281	0.0229730636056	0.0352957274046	-0.0701105594715	-0.0410249136987	0.00551147578935	0.141626643413	-0.012042153	-0.0807542272532	-0.00940188729777	-0.0151172577396	0.0672813626355	-0.280258432266	0.042785853475	0.0432079793804	-0.0467903397463	0.0209112451854	-0.0916822445543	0.0919725203187	0.0832034751947	0.252611479319	-0.0499972212502	-0.073212236842	-0.051609113365	0.0156781509438	-0.224839736706	0.0319750261154	-0.0813738529693	-0.0566517085771	-0.0541590544705	-0.0119949439592	-0.0727740561281	-0.0635145521698	-0.0162671359145	-0.097341091707	0.141726770303	0.00128519868576	0.0275966259902	-0.00653017597733	0.132684431619	-0.224745686342	0.0441772873213	0.0785757394674	0.16041601069	-0.063049367159	0.179387158566	-0.00351873573319	-0.0550068370484	0.156993983548	-0.161713178558	-0.0170327384163	-0.244908351713	-0.0634647883674	-0.113525392731	0.0596877749872	0.0751793778755	-0.105265244408	0.0152079615852	0.215337611456	0.0192747052803	0.0339511986787	-0.00230821077195	0.0826558052482	-0.0854541899194	-0.00348787496423	-0.0840882542952	-0.0301400670827	9.22072200992e-05	0.0923547319039	0.027750562664	0.0679046668825	0.119007111506	-0.0740250718893	-0.0419742229054	0.0801270363728	-0.18755087949	-0.0646807370665	0.0759707727029	0.120328417654	0.0841278159116	-0.0805718306658	0.0211257688225	-0.154019179072	0.124023765671	0.00345105486453	-0.0930790945537	0.116063474148	0.0769690271419	-0.0144747111109	0.0194184603185	0.0671362911096	-0.1507268931	-0.0867375664659	-0.00924807726347	0.00795539372811	-0.0660743468454	0.149061677716	-0.0112912513342	0.172387763446	-0.111077636873	-0.0024664498121	-0.0146479057203	-0.164784883083	-0.0999120979493	-0.0572494381038	-0.106168568329	0.0467269569773	-0.05973334017	-0.0860405405854	-0.134210524284	-0.0510043175301	0.0237690428552	-0.183170415351	0.0756213628785	-0.125054084523	0.128719760914	-0.0473196005976	0.0328875163168	0.13575965149	-0.0530923776364	0.105226280376	0.0482613228244	-0.0691196154902	-0.0435960551668	-0.0480798479334	-0.00075707801057	-0.0438811310882	-0.0970892180038	-0.0700497898393	-0.00549721397813	-0.14895750012	0.0118182689825	-0.193371067148	0.0701125310366	-0.0657709051684	0.0482884472796	-0.000842097485538	-0.0289653871591	-0.00796441821484	0.128265612892	0.0545123188863	-0.0147388092369	-0.0767849977983	-0.0479145382859	0.059237511522	-0.0610398533877	0.0213332556804	0.0908089759992	0.0166452012972	0.104775138923	-0.03875587466	-0.00525397863766	0.0158273026458	0.0618136346707	-0.0238552499944	-0.0729568987227	-0.0435385236282	-0.158871377573	0.0049716810447	-0.105533919979	-0.0899639762506	-0.0574089974566	0.0953022635217	0.0269213100872	-0.033537873049	-0.0584380120702	0.126437416633	-0.0338544391997	-0.00288318284136	0.0213296998307	-0.0613915626255	-0.139854298113	-0.0298839385588	0.210241787201	0.00538062749085	0.0573927806342	-0.0586037565253
avocado	-0.565383821732	0.423050685677	1.29129160589	-0.778200342631	-0.12435310214	-0.444145191217	-0.20749528657	0.286223168969	-0.114898291601	-0.115007883342	0.185737759062	0.212076223832	-0.450374843738	-0.161129830818	0.0943325531526	0.187124257403	-0.153361849386	-0.0709364841466	-0.00713445792805	-0.319033266735	0.115041405374	0.356569801232	0.468734498741	-0.167497463976	-0.0697246757007	-0.0147349789742	0.563831489358	0.136813615756	-0.0677197217095	-0.126726478019	0.0689865382172	0.143391078601	0.258730930146	0.0205536345411	-0.0960467593762	-0.273080029129	-0.0632318883002	0.0158971155571	0.209837030066	0.0912864783051	0.361443387459	0.266459007545	-0.186498263627	-0.0408100122842	0.145774861178	0.0491827904243	0.0210504266237	-0.0412182231388	-0.0580223393061	0.186797435422	0.083613063271	0.0509837429595	-0.125911197609	-0.22634830768	0.0281507020655	-0.00915265922087	0.246141910489	0.0840659527348	0.0555494955695	-0.266527195066	-0.0102505793241	0.057687413739	-0.02774986651	-0.132232971604	-0.19683343608	-0.0401351331999	0.206809410193	-0.051986005408	0.0951262359654	-0.0586974844098	0.180779800984	-0.13857083474	0.0719188962818	-0.0339146697242	0.276825695881	-0.0117206613783	0.284487737211	-0.266537100064	0.145090772149	-0.197237013931	0.14232370797	-0.152036836844	-0.115158654851	-0.0548776313455	0.252379815924	-0.0464820675971	0.305567377105	0.0781088803873	0.129286827143	0.00342388033451	-0.0103416079527	0.103663117634	-0.208608382162	-0.00379717924388	0.180410854623	0.102349228079	-0.146655038199	0.168484395066	-0.00109928814688	-0.0385110452364	-0.0380156077135	0.0273425972029	0.0665298681858	-0.138120005764	-0.0844535259928	0.0526731727814	0.00732543078361	-0.112798182707	0.0202165096521	-0.0723756088989	0.000142319761643	-0.0424813293947	0.0857641762923	0.14555570857	-0.0648487349465	0.0465565610126	0.0630712335051	-0.0852457690553	0.0455092918951	-0.0627355233846	0.0267226469431	-0.0258510031507	0.0426450184609	0.00179670499899	0.0464367608434	0.117688121143	-0.0214508348894	0.0484965590518	-0.00712260360103	0.0771403363103	-0.0350017997586	0.000135484588402	-0.000146108897992	0.0107689768834	0.0879916663215	-0.0671917986211	0.177327321052	0.117998189337	0.00190252986627	-0.128300903777	0.021632221552	0.0866882074991	0.113687037432	0.0240146770059	-0.0381242615466	0.0881537713799	0.000110081541964	-0.0205058520365	0.131348147179	-0.138471395506	-0.014658943196	0.00482798472495	0.0108908689118	-0.0924760165087	0.044599093051	-0.0519471452224	0.206015243876	0.0732732506734	-0.125462580006	0.0353379863781	0.0141659632118	0.0638084167919	-0.140115865341	0.0274623879974	0.0429263833773	0.0519128067501	0.105917983383	0.0203228486578	0.0238603011213	0.045747379337	-0.0331855750455	-0.00454424553279	0.0768807903876	-0.00821784362654	0.134989387818	-0.0881863202316	-0.018413494806	0.0766044515659	-0.0135398552936	0.00179218907057	-0.0290667956253	0.0634972652095	-0.0510319174057	-0.0347169755474	0.0656204637634	-0.037149591553	-0.104179935927	0.0255728450277	0.0691942128927	0.08153086932	0.0532567745936	-0.01780451117	0.0367085914515	-0.0415629995557	-0.037645246571	-0.0173352505901	-0.0718681143618	0.0533540223047	-0.0228725213904	0.0385062362307	-0.0918023541422	-0.0422722814176	0.0451393835578	0.00522086467982	-0.026511090141	0.0220222843613	0.0889216131399	0.161916321367	0.0450047124677	-0.0812917130354	-0.0449588125815	0.0526223244978	-0.0818278783156	-0.047398060017	-0.0645066796395	-0.00250552828729	0.156195085859	0.115862817013	0.173102566244	0.11820614756	0.0182109910647	0.158151925773	-0.0745297083436	-0.0549409884591	0.0354902133031	0.055045363453	-0.0776407762541	0.0487634743242	-0.145719331685	0.0480250229129	-0.0814424728108	-0.0168458796585	-0.00285927498153	-0.0115509091842	0.0330006628136	0.0776655667124	0.0260812473991	-0.00597015881981	0.082694014444	0.0754828967566	0.0908617814481	-0.150793652396	0.0315540605468	0.00954176227564	0.0503360434291	-0.00315097029465	0.0300182497907	-0.0156493455839	0.0590268038273	0.0467454252617	0.131482961711	0.0353114412814	0.0161206775346	-0.00246949371246	-0.0687748013304	0.163084497052	0.104236723087	-0.157498024048	-0.00112972317027	-0.112420983109	-0.0280110568269	0.0578978692069	-0.0767601961414	0.0011981961154	0.119087502696	0.188983616216	0.068203968404	-0.121206696394	0.00597058914222	0.0373115543801	-0.10365500809	-0.0520190568055	-0.17719793469	-0.0397355356176	-0.0812545220881	0.0562481793212	-0.0402298109205	0.0115940785512	0.0971240760302	-0.048988362998	-0.0535034082586	-0.189856137336	0.163711500375	-0.0250406053403	-0.105275728239	-0.0770719454702	0.0719028772658	0.106615511315	0.00837657242125	0.0578400073955	0.0818065133691	0.072731812636	-0.0655164917292	0.0484262261727	0.0323625523162	-0.0997022084736	-0.00850245868585	0.149195725428	0.0392374536117	-0.0823835198914
axe	-0.263009684036	0.912656118935	-0.504994915438	0.279883257386	0.269564883944	0.140581689292	-0.823654983842	0.800258450548	-1.0058117705	0.586281205202	-0.357333543719	-0.502256105776	-0.280288951066	-0.534163363917	1.13127640907	0.0369219609358	-0.362431120491	0.580646309428	-0.0256516807205	0.339868712428	-0.405999001634	0.134469631445	0.131478881794	0.613208162278	-1.06568822069	-0.493708618005	-0.213838821982	-0.372402169377	0.140539718377	-0.0692554862208	-0.382971186307	-0.29086501485	0.312999742328	-0.0413012576204	0.500047929857	-0.207480107707	0.108133613817	-0.0898345594608	0.0491618359401	0.2646296447	0.0350406551198	-0.0684531083724	0.0195852595401	0.171712446125	0.0958272122864	-0.0300091484331	-0.159259288511	-0.0427768423601	-0.131339088752	-0.143808454799	0.178564716049	-0.0708616481803	-0.338033203355	0.0303021841651	0.00569734164354	-0.0804999416961	-0.0987441454427	-0.141446928724	-0.410041662594	-0.211622906704	-0.114668450591	0.379498826021	0.00511619197128	-0.00719266231465	-0.00843830379751	0.0332602573203	0.13786955171	0.225470213727	0.0682613722082	0.308413158559	-0.374909981017	0.165181850398	-0.000608912812467	0.105086361895	0.194362816975	0.0845932218061	0.256113988284	0.162352182461	0.110126501745	0.0381070660186	0.0436536783997	0.0160350672076	-0.0146557451102	0.162240573661	-0.141647664735	0.11551218082	0.0562456639747	-0.181552978024	0.0176827092817	-0.0702197444672	0.187869465326	0.0159496602618	0.154514335783	-0.0441985732354	0.0403809902267	0.203230735374	0.00531932208507	-0.0762045692342	-0.173008375455	0.0807204442122	0.148749728875	0.1163078122	0.0235225981244	-0.136408035071	-0.0550088560545	0.0113405381161	0.00545570395106	-0.0643411465335	-0.0581812133816	0.0497207333381	-0.0577484686744	-0.160154193124	-0.0478018338229	-0.0357474974835	-0.0726716147711	0.0756958982336	-0.0268150838772	-0.154265050678	0.0840232726933	-0.0699302938014	0.0294810537612	-0.165635343626	-0.0465843960174	0.029024839033	0.1441786799	-0.219317493233	0.227773011584	-0.0895130598525	-0.074811046978	0.00976370484933	-0.00761211683339	-0.0965008033248	-0.155225849166	-0.115393100516	-0.0553408198895	0.0222714471407	0.03289766861	0.112811597692	0.0369463479283	0.117047786976	-0.0415584860005	-0.0292970857417	0.0121026155967	-0.00759314721379	-0.00282960275331	0.17022483213	0.0587179245832	0.288354940466	-0.00409314387441	0.0121309338495	-0.102491216501	0.11446556327	-0.0594209298787	-0.0894834645469	0.302895686542	-0.128782206049	-0.0607402538549	0.0429237639287	-0.0393435879958	-0.0268050154281	-0.0418133568913	0.0787935713234	-0.173601211071	-0.0707157284007	-0.0319895039468	0.173264195095	0.0668121624842	-0.164485805825	-0.0128877439433	0.322860547978	0.0553444657735	0.0245350529244	-0.185655829658	-0.0534913464639	-0.0308464955926	0.0853658142745	-0.0518854479613	0.0716540368606	0.218321813875	-0.04292007018	-0.166612664341	-0.0964819513291	0.305131250397	0.230587622651	-0.0361796660024	-0.141011854823	0.181383106439	0.154470893914	0.270482759645	0.166259772145	-0.0734611378758	0.211234345605	-0.172534069447	0.0764840290041	-0.0896692027302	0.149457365085	-0.0429164019716	0.0833772373894	0.130435404572	0.0479366964642	0.0143663394764	-0.243815821139	-0.246409635512	-0.188921650859	0.0607153213368	-0.100160091048	0.0688641159532	-0.214097821902	0.164063758602	0.0406026522033	-0.0112742093419	-0.00592395311942	0.0643497551105	-0.101486510222	-0.0980766479748	0.133619266734	-0.109782742042	0.112280898507	-0.0348164815718	0.126671892049	-0.052894499352	0.0835023127452	0.162708433355	-0.0467104203393	0.0102822133693	-0.00986539244616	0.0815874244434	-0.341179346339	0.186366893684	0.109644570568	0.114904210953	-0.163313837496	-0.0401376176735	0.0296470382125	0.00272126192239	-0.191894690153	-0.0831005157149	-0.0334436387	-0.0805834684294	-0.0799815065188	0.246009660308	-0.00213222897631	0.0295941853335	-0.0709686176094	-0.074368606157	-0.198003827352	-0.530080963947	-0.166141084548	-0.106441692897	-0.0907921026849	0.0805698645816	-0.107353601329	0.19762159809	0.137780117008	-0.102593306961	0.115396631782	-0.109948954993	-0.143110932166	0.0145884272308	0.116730416711	-0.167499530341	0.305977265068	0.0279164586037	-0.0589828771142	-0.0788074233644	0.0135197885946	0.094074697804	-0.0102754999557	-0.0504091883824	-0.233501529081	0.196697936145	-0.0110129775624	-0.225694258274	0.0860698676144	-0.100651215288	0.214481179087	0.0143137264891	-0.248163749688	0.00064225661694	-0.101354142609	-0.00753490544132	-0.0808503950737	0.11211106567	-0.335571866076	-0.0526470781986	0.0180602286353	-0.0120544093686	0.00269806802956	0.122900550421	-0.121344384061	0.087772547768	0.00331877354265	-0.0130829746337	-0.0109771992697	0.0506929004177	-0.186060013454	-0.0225699847945	0.125769771127	0.0887750422293	0.194343235354
bag	-0.137288694283	0.46387601455	-0.165539980997	0.0174308996503	-0.795299069703	0.314556666735	0.128418025507	-0.0497343156641	0.807107911842	-0.0374227659428	0.190372334293	-0.0559309366913	0.538488523187	-0.296934621047	0.45281758858	0.018642287058	0.081031720078	0.160160429238	-0.370049811458	-0.380365487108	-0.467679511785	0.510176052631	0.435426513645	0.180884545241	0.409907173124	0.488797902768	-0.184539442053	-0.184937557464	0.672163266514	-0.0735973900905	0.314216246333	-0.429893371357	0.399128319202	-0.163459185936	-0.109245223154	-0.365176440984	0.21462741208	-0.118977399171	0.0677909115606	-0.0332100188065	0.0408893877687	0.35615306481	-0.137474787428	-0.0920418383433	-0.0210651197615	-0.387714536319	0.142672837732	0.115287159305	0.412033517779	-0.353119472651	-0.297742197215	0.0111681508172	0.302795576249	-0.201864700692	-0.161586430761	0.386637098519	-0.00413045430492	-0.596819210306	-0.187492367301	0.315283063942	-0.0474366681428	0.103288275868	0.271747296592	-0.692362892893	-0.0261389764431	-0.0110218902563	-0.0580064263217	0.235467578781	-0.127692945351	0.186884237943	-0.26919665049	-0.255347489163	0.155455918167	-0.0742171644174	-0.192642861895	-0.154160712389	-0.24539104056	0.137222012305	-0.0544522892665	-0.461996056537	-0.119644939825	-0.0363088745284	0.0146371436477	0.198528870203	0.222442895159	0.0461650828542	0.0660670625201	-0.240188323412	0.117326667164	-0.189220619852	0.102292231368	-0.210451507388	-0.114596389783	0.00335855719983	0.146947913353	-0.156850707919	0.183673915003	0.153712471659	-0.0546370197421	0.0316766684229	0.303837728033	-0.0605886636378	-0.0246518307173	0.0828653654626	0.00212276580216	0.115275318568	-0.150642562513	0.111180457334	0.19914167143	-0.146729190022	0.0339315267821	0.0143312267888	0.0138310874767	0.0458520136868	-0.102092344534	0.0119644872032	0.135223722652	-0.130069881318	0.0378298393851	-0.101974643529	0.0169309892163	0.0962892561833	-0.084073802789	0.0839449602149	0.0255091794295	-0.0478732154224	-0.235870787078	0.20631274833	0.077779625596	-0.0848951795079	0.133139400956	2.47409215889e-05	0.0722093131461	0.0670852870751	-0.0961917546843	-0.0887599259285	0.25706419116	-0.116225357517	-0.13918395032	-0.04169682649	-0.0466284571369	-0.203942040993	0.312714655011	-0.0445849966369	-0.149692076883	0.226314245845	-0.0247647792921	0.144041383703	0.0154520438219	0.0170452788038	-0.0923874908733	0.191063423554	0.137738781825	0.0329668912386	-0.140093966571	0.191305128661	-0.0927634126931	0.00385658778202	-0.0485181350878	0.125455403508	-0.0227849114876	0.0787917849157	0.175587489079	-0.186600360594	-0.121162191445	-0.110823824458	-0.0605102840611	-0.131316055947	0.2599465408	0.098291230745	0.0689541850306	0.131446081847	0.159372807185	-0.0965128946248	0.0228265476309	-0.022862169538	-0.0509550929252	0.0652973720353	0.0786047957075	-0.00849373305292	0.112630451153	-0.0434479354462	-0.0118377366994	-0.0185422981507	0.0159026451127	-0.0576573811521	-0.0051408726593	0.0166545817375	-0.0915664355461	-0.136244159332	-0.0654226613314	-0.150281872707	0.042546927504	-0.156271229259	-0.168872530686	0.0455781027964	0.0543001140371	-0.119953255319	-0.00576350580637	-0.0160981299425	0.0843208305996	0.11736684256	-0.0723893869875	-0.0680145758966	0.0980475643819	0.0926768773096	0.0758675190286	0.0955598205526	-0.0557257851576	-0.0305237128126	0.0530618807608	-0.00463367508371	0.0284330984898	-0.00125172775214	0.0598023312693	0.0439268380717	0.0713417058996	0.0697559432162	0.031312712537	-0.0578105908084	-0.0802880402247	-0.0741198807529	0.0593260901979	0.0897073854331	0.114411177438	0.036999444817	0.199363807451	-0.085539067126	-0.154477062341	0.042441924875	0.0608510843923	-0.116980433455	-6.69468474132e-05	0.00606067489962	0.0528390838842	-0.0970483740552	-0.0273233014012	0.106069921193	-0.0741108149927	-0.0212112201614	-0.0171444223529	0.0145168891117	0.0810775565892	0.0294810448229	-0.0736095176247	-0.188007888211	-0.123338801829	-0.105818974801	-0.0463792158585	-0.0279982868416	-0.0493400158062	-0.120057640456	-0.0524962775305	-0.00326609731676	-0.0504001716752	-0.00548820220496	0.0568131552985	-0.0249624723337	-0.0666632452624	0.0880821956084	0.00620241352729	0.124046967334	0.00211135307545	-0.0191852689471	0.116146664831	-0.127023734186	-0.044427072757	-0.0887913992413	0.0305334983601	0.0879164824282	0.0188375975451	0.0622865399617	-0.0939835351307	0.0163303729632	-0.0458269528112	-0.111024182423	0.0352874025182	0.0493594141785	0.0216942798039	-0.0141782656509	-0.103254456144	0.0720261000723	0.121039032956	0.0458865771302	0.0731912746106	-0.0834516736396	-0.188650834379	0.0305633378734	0.115434013645	-0.0685304538033	-0.0170821379892	-0.0679360758107	0.0261697997445	0.0227388484411	-0.0393723317437	-0.0397739786945	0.190610670243	0.0207854959888	0.165597014957	-0.0937836238763
bagpipe	-0.0782174707591	0.162897395742	-0.146197772738	0.000927076568427	0.0687452696477	-0.103851649742	0.0316259526507	-0.0316654303604	-0.0932904548309	0.0329059167146	0.147762937651	-0.0175049324474	-0.165017494514	0.0466351027731	-0.517773538206	0.162874283082	0.741083489839	-0.382608181884	0.0330531203158	-0.143810509297	-0.341881858203	0.241669017107	0.207436252953	0.181904062877	-0.398316524875	-0.0729168070421	-0.0649090216775	-0.17076850643	-0.000152148135482	-0.0702978154493	-0.0266287661552	0.0246063875053	-0.066472182693	0.00170635322571	0.076745307379	-0.0327586938519	0.0565473778598	0.00788268771535	-0.0878172199044	-0.0281991954267	-0.138773618699	-0.0665731489684	0.01482636494	-0.180143103362	0.0327977178484	0.0892005159163	0.0668026701841	-0.0385507077119	-0.148267742856	-0.0699127593366	0.102116485614	0.172967150291	-0.12663269449	-0.0173175314716	-0.105310446477	0.0162861181137	0.002279167603	-0.151579523515	0.0777857958361	0.243775098954	-0.0406942346676	0.0496849353422	0.175545496872	-0.028178250326	0.00834388573383	-0.0473002263662	0.0804587858304	0.0587370529295	-0.121426270028	-0.117264424653	0.00416142218564	0.0213003198105	-0.0658408389898	0.0650249608417	0.100780516292	-0.0649174356564	-0.0382810923244	0.0729804592444	0.102315639708	0.138178077744	0.0223755364396	0.0810737878186	-0.101927564398	0.0576364651603	0.00353087124109	-0.0639976693728	0.0857520110858	-0.143200046673	0.00387886897979	0.16569427089	-0.0651143255543	0.00348738406826	-0.127546346693	0.0358354569131	-0.0606274795289	-0.21400320188	-0.0841511382422	-0.0820158544382	0.0663638175977	0.0178991646154	-0.0549079407284	0.00816983475701	-0.0482462290026	-0.0235307470635	0.0505623605392	0.0474031891329	0.023575813716	-0.0567883070597	0.143955542716	-0.141042965616	0.148117529202	-0.0109180216684	0.100628555572	-0.0104839442301	0.112513388326	0.0709045520673	-0.054777590704	-0.100369825138	-0.0961357417233	0.13971197183	0.09682072717	-0.0473198026146	0.129353363329	-0.200519880241	-0.0543707732941	0.0294089130824	0.0872710911723	0.0346931990542	0.0647835382229	0.0832096691887	-0.0354690970684	0.0967605066291	-0.182723805264	-0.0849033089137	-0.29321153393	-0.0884615198496	-0.0216728066924	0.24027350281	-0.0751832258355	0.112228864978	-0.110657931031	0.0171647170758	-0.143803036555	0.16339792617	-0.0214886446718	-0.018322133439	-0.0574387407021	-0.422074475179	0.189627316678	-0.00154889001652	0.0320121289789	-0.220584782875	0.205054969286	0.0591820165731	-0.397564221911	0.0199460356941	-0.0525341340329	-0.0224447351304	0.230531336463	0.122962363582	0.201010988716	0.271629201203	0.029282754792	0.10365005072	-0.296279794838	-0.0695111595785	0.376710177783	-0.498859010864	-0.233097617027	-0.0637876812389	-0.0467830700247	0.309143118097	0.0113469630541	-0.261525426815	0.348957843943	0.478557165868	-0.433452408064	0.443140364725	-0.238446808411	0.103506326013	-0.0337507028554	-0.130270781674	0.0180443054077	-0.0449028161517	0.18974472221	-0.192363998481	0.182299008008	-0.134508119285	0.119636389973	0.148314577292	-0.141519587081	-0.193869265389	0.370622677512	-0.218462790933	0.0824855071518	-0.212197978797	-0.266864903552	-0.090404858802	0.364559469309	-0.0757783233931	0.255472893929	0.128273188047	0.0374819700979	0.271740541346	-0.112821988762	-0.145346876928	-0.0815846984438	-0.231865149343	0.050243035588	0.400439297727	0.109002879061	-0.0331540200449	0.0279574504262	-0.312781547742	0.153693450321	-0.0700704586101	-0.0199927172802	0.00381881986279	0.0168253020511	0.320364614764	-0.255797349125	-0.0149795640641	-0.0748008467323	-0.307177374663	0.13136974469	-0.15847888622	-0.148673215098	-0.127973684248	-0.162194817165	-0.0375317453301	0.0244932663171	-0.136425653275	0.207169264427	0.111618032553	-0.00696216170872	-0.123243912445	-0.171237527787	0.00777987943879	0.0798962290273	-0.0427989572507	0.0655683890412	-0.0500890788142	-0.0809293610523	0.158770992955	-0.145920157759	0.0157355218619	-0.0532675475156	-0.247458274051	-0.00282596426318	0.120998168077	-0.0744173235675	-0.0981243323783	-0.0763337679826	-0.102859379651	-0.0618405014797	0.140458283158	-0.000990805315347	0.0478678070682	-0.0773869506989	-0.131497510476	0.042486516919	-0.170166313023	-0.0585757355825	-0.16373188989	0.0135280235397	-0.0816755045652	-0.0520544525008	0.0398602184513	0.122222034039	0.0200367281111	0.0914797653251	0.0614223442131	-0.108168707565	0.218138092812	-0.0529528123774	-0.0777734042125	-0.0101641130896	0.0680949833763	-0.0865916314867	0.139255623132	-0.0248788775768	-0.0227857767643	0.0307660888382	-0.032716627549	-0.0976123523351	-0.104213802863	-0.0375517822125	0.12013841349	0.0176849494468	0.191965394319	-0.234227933385	-0.157384025913	-0.129909718986	0.0718726756935	-0.136901478289	-0.116166907867	-0.0117811086204	0.0199922492944	-0.121540098216	0.05836319353
ball	-0.197840724	0.445173503699	0.143140302784	-0.180931047926	-0.498949727566	0.22216462696	0.277662466001	0.0596217347275	0.410191876958	0.130801603575	0.042770813785	-0.193023683711	0.550267093366	-0.232277647318	0.192312605559	-0.0207416199582	0.686917551783	0.532284628854	0.0171362839383	0.210488861583	0.178719855149	-0.137336762693	-0.328707489169	0.592755894436	-0.000436627440815	-0.152785735831	0.302471537338	0.0130147280669	-0.365275363515	0.43394395724	-0.260228462405	-0.216990662141	-0.0870035398845	0.223889143122	0.0544283057646	-0.0109410527246	-0.05761137373	-0.00933650602217	-0.143038347125	0.267641199619	-0.287240194489	0.0179216611788	-0.203898384521	-0.0118286808226	0.349424207296	0.00161909262234	0.119949644623	-0.12001025542	-0.0806936119926	0.105826344784	-0.0416775935476	0.0753742420905	0.0454630117549	0.029475879388	0.13504212402	0.120981142687	-0.0635105502648	-0.0333360513849	0.0901059056287	0.0268515885026	0.236031712726	-0.106629974287	-0.118142275994	-0.100669897417	-0.206985659846	0.182256694118	-0.000668044476945	0.0234757968674	-0.298949249601	-0.099370327727	-0.0476276705822	0.0454759681685	-0.173406476924	-0.100794667331	0.0644632355668	-0.103682860574	0.109415903359	-0.255355678599	-0.0962922084435	-0.473439785518	-0.0509604227019	0.0271798705441	0.00712253715163	-0.0108363106788	-0.0035011084923	0.00261933381351	-0.0803618040875	0.349228498993	-0.0116580106299	-0.0987733287049	-0.102527886418	-0.00238946066497	0.0642418443916	-0.13554522074	0.132159128651	-0.144458409978	-0.100870503979	0.14256832442	0.136390566937	-0.497819655423	-0.373945004168	0.218532437874	-0.0422257102064	0.0518247266911	0.319867489407	-0.0518368698276	-0.0562930374948	0.429631220222	-0.0627339680789	-0.138006163802	-0.105999201325	-0.0417207080175	0.103413230456	-0.0192235691567	0.227154344077	-0.338428148355	0.051019867853	0.0811372796096	0.0488837731657	-0.259210095985	0.166573828379	-0.0228068894259	0.00735947194381	-0.0724776523159	-0.146971771154	0.00835766742092	-0.257772954549	-0.0754683817234	-0.1544616786	-0.0231335163207	0.148441410945	-0.0745748557989	0.0922037160003	-0.100190325649	-0.0491036039912	0.0313647764605	0.0796481777158	0.0842607345677	-0.0821876260076	0.24211341626	0.152121891804	0.0327441649862	-0.00233900080189	0.106482786216	-0.105792462544	0.0262267070099	0.10131419017	0.125719573178	0.00233887880718	-0.0631129604035	-0.0496175519024	-0.153754231642	-0.0211021117876	0.165330590563	0.00303341890878	0.0866101121137	0.0570561821026	-0.0367113120406	0.0827805515518	0.020094203447	-0.0776913785937	0.0983556613386	-0.0021499107525	-0.0436310663395	0.0636308988274	0.0255749172911	0.00965771705088	0.0366457984688	0.0710052935441	-0.00290959580127	0.0387526838743	0.0189040058535	0.0284897019201	0.0560825791471	-0.0485276459514	0.0550247425927	-0.0393381505109	0.0133012507021	-0.0125594486908	-0.0968718173808	0.0908859342306	-0.035963126355	-0.00870460816865	-0.0320194916979	0.131938703337	-0.0800701173064	0.0668575832868	-0.13320757241	0.0760387613893	-0.00960118339517	0.0124516633288	0.0810059414195	-0.190358346566	0.0142030105564	-0.0253076879188	-0.0204067064448	0.133314387907	-0.0369235374696	0.112145327808	0.0954897765282	0.0911029013176	0.0173796191353	0.113449456775	-0.0209518646833	-0.185851531266	-0.0311830341896	-0.017507333482	-0.00812036583204	0.0254810276263	-0.0200994003626	0.177101828401	-0.144624386165	0.0532542133633	-0.00403524402566	0.132642029339	-0.10177755324	-0.0228116690566	-0.0133495621287	-0.0541938367516	0.0583483190627	0.0463380591134	-0.00362398508195	-0.077562456352	0.0340233947198	0.0116476920444	0.0703630584942	0.0195420271584	-0.0278400510805	-0.0084757762922	-0.0840908215674	0.0215086931418	0.0746377435912	-0.0127097975401	0.124223552915	0.0727717405527	-0.0949173513539	-0.0703039826374	-0.0233591670206	0.034138613088	-0.0355737743966	0.00921187277198	-0.0204055524645	0.177283922455	-0.111794959109	0.0665820728808	0.0639627479482	0.0178519285311	0.009784786683	0.209708251993	0.14153129533	-0.0816122070413	-0.0512534524277	0.0392122276504	0.0289725529011	0.0170311605611	-0.011257652725	-0.0241547042445	-0.116378144184	-0.0111057865675	0.13365211332	0.106170410103	-0.0374977978268	0.0595201128362	-0.0362987946696	0.0251446347218	0.0594654052661	-0.0358746574627	0.0659263418501	-0.0983477717597	-0.0666576487798	0.0108131946096	0.0709615939017	-0.046856099663	-0.0957704464853	-0.117598482163	-0.0381589932598	-0.00362634443735	-0.104322041473	0.0441267683663	0.0561956753742	-0.0612636055566	0.0633135307917	0.237089718603	-0.110870511233	0.0821717108523	0.0253016797699	-0.00487637582527	-0.00315680410374	0.00338526505183	0.0653020379836	-0.0531307031729	-0.112792006543	0.0290849888523	0.0571643526183	-0.0122489792617	-0.0460458505137	-0.0173534374856	0.0535275294619	0.0951972983004	-0.03143961195
balloon	-0.508468756441	0.678245458965	-0.137091356711	-0.0766027456164	-0.702802570987	-0.318534490593	0.628774250429	-0.109495653093	0.857858920592	0.208364213126	0.0618702861451	-0.167011900843	1.14308390609	-0.30583345245	0.286257522522	0.30604990884	0.628116002011	0.582089850834	-0.261062815918	-0.274681828949	-0.24300650436	0.293630353502	-0.212649996797	-0.0748660059278	0.0319803504969	0.152835885357	0.132854286526	0.041960685169	-0.474981572838	0.000880656104518	-0.639257262505	-0.0419275207101	-0.468319886991	-0.255331274904	0.717191724785	-0.17159361273	-0.0756171616077	0.0654604081978	0.594794249383	-0.299473609098	0.17842163563	0.0390035832357	-0.208399921496	-0.00346828429534	0.197306871144	-0.090070388816	0.0425803119748	0.101573334256	-0.408142660591	0.289800364398	-0.0664121952766	0.168826659359	0.0132364747005	0.33506185467	0.119569619496	-0.04950439195	-0.052625847697	0.00296613227504	-0.328113734925	-0.0424892632915	-0.435401624434	-0.0604627436494	0.277075445446	0.335956072879	0.012559674282	-0.000840530990947	0.266177793231	0.278731466004	-0.213044333594	-0.264039606357	-0.210199380104	-0.0229675579892	-0.273797340673	0.259362138908	-0.0907868329935	-0.177488884097	-0.0700314315334	0.382517552478	0.487082485273	0.295499338215	-0.173394454449	0.128821808366	0.0030290867995	0.0207708690713	0.0305516873941	-0.0599908149006	0.284063216471	-0.347818334688	0.43019725271	0.451943794672	0.219527246974	0.253568232814	-0.26352217895	0.345280889862	-0.501988076249	-0.00967953765008	-0.382460989362	-0.525101894054	0.0420885394713	0.138508420482	-0.0519897246076	-0.0393599602752	-0.308627187373	0.0245538078856	-0.341021834793	0.329729534189	-0.235495949841	0.068881378523	0.219092532612	-0.183526903208	0.231842986076	-0.138046300933	0.274656366783	-0.449447158608	0.205157904834	-0.170205766549	0.276664876679	-0.292105552592	-0.530645666173	-0.0226100796829	-0.329941259685	0.0114276885633	0.379067591101	-0.411899149144	-0.30844379352	-0.0565416691572	0.12694769651	0.137399053313	0.301718431973	-0.000919136924732	0.168248166176	-0.0541859672415	-0.573797036814	-0.260258980123	-0.28891119444	-0.256749516319	0.0796669759441	0.354117283363	0.0592623715363	-0.143295131885	-0.194573454449	-0.00160739038454	-0.00325638511157	0.139615664073	0.145446598471	0.372551315466	-0.225723274976	-0.567409805248	0.295928484992	0.147204923371	0.27846072341	-0.22232790685	0.0490904688837	-0.231707791905	-0.25723373682	-0.257740152064	-0.259826798094	0.00219726750939	0.186981887726	0.0527026857841	0.442974925443	-0.0648525511931	-0.134126510911	0.16651259628	0.08906836123	-0.0281762115672	0.43721915582	-0.120259313913	0.282340528904	0.421419213529	0.0469070731821	-0.293140790409	-0.0970426753654	-0.11527067819	0.23904887253	-0.193842487774	-0.0867192386203	-0.0583655640347	0.110988261198	0.0283448111966	0.00102937093926	0.0577076145222	0.0276546658636	0.269040097076	-0.129714783285	0.0637120926251	-0.00534386863094	0.181076278645	-0.411633860098	-0.212333640475	0.182055461949	0.333784688197	0.113171514627	0.123699968923	-0.0685062600681	0.0518666280311	0.105889099636	-0.291444682003	0.0273378569804	-0.0777275449636	0.0201586877977	-0.060293399194	0.0801829664433	-0.0878432538276	0.0584005020044	0.254393814858	-0.018627724989	0.306100118585	0.136792972732	-0.0419908679582	-0.225838128537	0.0961199422818	-0.19250308838	0.568437667504	-0.110951192954	-0.0929810364427	-0.187898806975	-0.0235465459951	0.190258595729	-0.286526696585	0.14999435842	0.0870694800668	0.0939992240128	0.252804772995	-0.0823316659366	0.268980721723	0.17444137587	0.138261176278	0.050770926626	-0.191904906983	-0.019498948826	0.0471369117246	-0.114321608757	-0.0454224578538	-0.113487890494	0.0465990557305	-0.031599626336	-0.301770439147	0.0466072530706	-0.00527379588187	0.0153597885446	-0.0708338711391	-0.108480359199	-0.0242339738756	-0.00579043598762	0.252606673942	-0.0967566185808	0.0383185206617	-0.0428789548028	-0.121731559388	0.077259152378	-0.0974528947708	-0.108121291341	-0.00804164132159	-0.0878716302222	-0.0473923080909	-0.0542400343707	-0.155726188812	0.0671216008805	0.0495798037951	-0.00480066175753	-0.0640258023302	0.104473637208	-0.0178458609901	-0.0267689037221	0.0647931755928	-0.0880978131192	-0.0249540407562	-0.0181314896304	-0.083495303967	0.0719419295248	-0.126363254241	0.00361075527937	0.063868069133	-0.0805748169115	-0.162921364988	-0.0657410498199	0.0221629587217	-0.0864222704403	0.0631873435713	-0.0742953442399	0.0237003561428	0.0689960789525	0.00880216611183	0.0954272312104	-0.0794795203041	0.00956731074146	0.040520061918	-0.0569160360667	-0.115558983268	0.0670552540284	0.107625364668	-0.0145685528126	-0.0130846811594	-0.0409254676238	0.0132655406408	0.0058388955828	-0.1056354977	0.0220284353083	-0.0169029005107
banana	-0.786442378199	0.908348434459	1.40799784363	-0.938563801385	-0.436255754827	-0.422871099641	0.0450403573454	0.555083854275	-0.0485856342389	0.424002397743	-0.265056359289	0.441689415676	-0.0900539903365	-0.0825703313703	-0.274460085422	-0.303088224772	0.0361509888931	0.113821133442	0.609921226308	-0.0553981188692	0.398498239565	0.339852042164	0.453240866285	-0.241737890805	-0.117261604285	-0.119930584894	0.757089595957	0.416336585695	-0.0673719389034	-0.366895421405	0.0401552716212	-0.357501695833	0.00993830269853	-0.0237109626114	-0.0872686203467	0.0414963526223	0.0811899904778	0.553855559814	-0.121981444148	0.128001603704	-0.0412178042816	0.105675534608	-0.00388571689673	0.171217108757	0.1033788831	0.107768096111	0.303538641622	-0.0452560389089	0.151852521795	0.129965533856	-0.112890006072	-0.105940628959	0.0103614552179	0.27225181033	-0.0615879381385	-0.0806812044848	0.232328064992	-0.0850056614177	-0.0104126636463	-0.0746492496116	-0.159457774233	0.0555854143604	0.224786907011	0.166205827888	-0.180046952975	-0.210704806559	-0.140484244196	0.140130559788	0.0938797633228	-0.124380539567	-0.140030641538	0.203179063372	-0.155212405172	0.103582991589	0.299514065899	0.431845911398	-0.392542115644	-0.311837773495	0.215578230083	0.0120502894759	-0.475699836638	0.111322659025	-0.159989684042	-0.263410095314	0.241962326677	0.20300381149	0.0898315789014	-0.0453847100382	-0.000795714727756	-0.11931743089	0.141489572771	-0.136874514147	-0.134202206968	0.0213844776215	0.268322044861	0.0284650148643	0.0354545995472	0.0557503622738	0.140636995572	-0.171657686416	-0.0986553525573	0.047901108945	0.106446314149	-0.316124585287	-0.189422531365	0.0589681152481	0.123068960296	-0.0168028624474	0.152709985333	0.133324174991	-0.0821433730096	-0.0288270627254	-0.0200910028606	0.229480971919	-0.244359982353	0.0117226267815	0.213203037103	0.0329665851331	0.0797870259644	0.142261233766	0.219256494916	0.177801600937	0.196417913436	-0.141725286243	0.172974843677	0.120248556515	0.170194460948	0.0100429749386	0.108894145379	-0.134898619629	-0.242796154104	0.0540587558364	0.179159797099	0.0677809673482	0.0767380898746	-0.112993792405	0.438863453035	-0.0141157735725	0.0135633636935	-0.0747563528311	0.0412953420239	0.0490004051668	0.184905080504	0.16427306036	0.111703680241	0.101680049511	-0.227923462671	0.0691124431843	-0.263088386292	0.010541256494	0.0287371448456	-0.108248339607	-0.0468857686191	-0.227602498234	-0.109331933044	-0.110347338157	0.279946900654	-0.082042054251	0.0795250437059	0.0233385213489	0.0220810324587	-0.0103639174684	-0.0655797260615	-0.0274236040516	0.14083090079	0.187422725087	0.192580726615	0.0549326215032	0.154987637923	-0.160512665782	-0.143284665245	0.0828751704417	0.0374236391539	-0.0370604355857	0.177681176667	-0.214522952364	-0.133396019338	0.0670297872086	-0.094903991455	-0.224426844556	-0.0501157294329	0.0742936798211	-0.260785098336	-0.0789395131937	-0.0392165475866	-0.0599159657432	-0.0233029862853	0.0590647281808	0.215011425676	0.0687633310625	0.0586181582034	0.121178336146	-0.193075230827	-0.104898515809	0.0517024416867	0.14291166246	0.113025109669	0.0458186407899	0.143251775084	-0.00513965479783	-0.025632923262	-0.0924555700649	0.0447637200916	-0.201623636615	0.00609433485342	0.108336434569	0.100225959082	0.166426124133	0.0345252437327	-0.0552145993051	-0.242570909002	-0.120959424478	0.0868286460874	-0.0626813171003	0.0274413106648	-0.0800734741294	-0.0886118437008	0.00283645993946	-0.186138604917	0.0955147173614	-0.0711597382324	0.197786565087	-0.178043683995	-0.0356406659858	0.152080980978	-0.0971540423728	0.0498008343978	-0.0661658605628	-0.279539025529	-0.276319628483	0.0163559005181	0.0712535181537	-0.121768532598	-0.251166107275	-0.0330628955472	0.0597723327812	-0.0444871111033	0.00780195435473	0.234979182142	0.0341634032187	0.274507663249	0.247296674519	-0.112358293566	0.309022142254	-0.234440319792	-0.187310229228	0.100549480968	-0.261940900616	-0.147577301518	0.127082218734	0.293111120427	-0.208309186784	0.00408438283186	-0.0781507688502	0.131778779894	-0.211777413507	-0.00737314173232	-0.343896812853	-0.144257216239	-0.101816852396	0.0491219527193	0.0720882967772	-0.0435785321341	-0.0523700791198	-0.0227257316987	0.0405215591645	-0.0592513746911	-0.0839433175233	0.00438473555922	-0.195648750472	-0.00687084021129	-0.107665226444	0.125752837865	-0.0902063981599	0.105440684995	0.00511481306869	-0.10616762798	-0.132133420508	-0.0371642608756	-0.194348723021	-0.0599352397868	0.117381405706	0.0200522243595	-0.0840063051163	-0.114518766808	0.114987513869	0.0234158937536	-0.0785187173125	-0.0548440365373	0.0827327759341	-0.053395031148	-0.0557869638225	-0.0456164910027	-0.0600591997893	-0.0325721556355	0.00110767408382	0.0572719281828	0.10655115672	0.00654579374391	0.00470809940591
banjo	-0.238503892854	0.648902677489	-0.069836603577	-0.0584166238045	-0.000303256497989	-0.37244717623	0.398999306095	-0.222166563023	0.37394494902	-0.226316250884	-0.842498362685	0.053615478789	-0.269589081726	0.149059708386	-0.644276255771	-0.0472178521549	1.4621802798	-0.1566890865	-0.144072872329	-0.224885971098	-0.112955787037	-0.392285735666	0.137882123268	0.289330088725	-0.729429821881	-0.66793601048	-0.130289630604	-0.081890611426	-0.00511792176372	0.0628175395441	-0.0293675888171	-0.124212183301	0.248212088369	-0.117587341456	-0.00902454273496	-0.193871031975	0.165719914765	-0.0191400306259	0.031130100806	0.0787536426554	-0.0298326888759	0.181981201879	-0.0723770809511	0.132549732207	-0.0769556249484	-0.0839528008522	0.075517083488	0.119702642399	0.103049710856	0.00463831583365	-0.0894901197592	-0.0923379125052	0.0652718192337	0.102261218019	0.0864612247637	0.213552184886	0.075418281688	-0.15619261975	-0.0284753444362	0.014326663606	-0.302798494346	-0.0650723044696	-0.138520127719	0.0459145954743	0.103920168641	0.104870408081	0.0983148216505	0.10281855739	0.0656833682909	0.41668758096	0.0926305117809	0.166993903001	-0.0303253997926	0.0304875006317	0.0111883122899	-0.129371281558	0.10841374677	-0.1536727825	-0.0334717549929	0.202508164619	0.0544116656638	-0.00818442097771	0.0584747573577	-0.193499041244	0.0993934263392	0.0886841891279	-0.0649028115894	-0.0240906447052	-0.0196914348133	0.109806090298	0.0384816220937	-0.0723006467741	-0.0994910542986	-0.0347613087502	0.100930786196	-0.200169198983	0.125352534549	-0.0673078100563	0.109292346642	0.150882745691	0.0208944972714	-0.204245080362	-0.0792489128089	0.00647829231317	0.149441112111	-0.150242640053	0.114529501994	-0.0305774892508	-0.0121778919091	0.050122285292	0.0790561460849	-0.0823137353122	-0.0698134345438	0.0342223411112	0.000255115057815	-0.0482060435148	0.109857056374	-0.000587055160285	0.0898989137907	0.0768840597592	0.0999970011813	-0.0729098016021	0.0331182500855	-0.00946022486785	0.0257297025618	0.0202734094598	0.0060346843625	-0.0636432384574	-0.0516974733686	-0.0537733735888	-0.0380312016891	0.0473615516998	-0.0294514295546	0.133621010747	0.01197535907	-0.13104266803	-0.12111902168	-0.0226291383225	0.0127825991078	0.0122253443607	-0.0792668828823	-0.0274074085264	-0.092749130353	0.0769250033533	0.00692696150142	-0.114954699486	0.00702517091539	0.0887111906906	-0.0589875228443	0.104681730209	-0.0367382345511	-0.00857503353301	0.0833056228141	0.199241190099	-0.00164746644969	-0.105397216934	0.026333559555	0.197395879591	0.0511152810922	-0.00836483849491	0.0589439104342	0.0194967641885	0.179300424651	0.0860790216705	-0.169989147326	-0.0543246966043	0.181257765847	-0.258126470646	-0.187078704223	-0.0534511589016	0.0163542809707	0.149289725651	0.0977553807049	-0.00979647074956	0.286269060947	0.154812619655	-0.312495000557	0.237102645453	-0.0443726494482	0.1012947291	-0.134237190344	-0.0715921314748	0.00947158597459	-0.00893658815745	0.277676901156	-0.142674014932	-0.158509040915	-0.129875471573	0.11173615978	0.0326341171684	-0.0232161879815	-0.17715713312	0.147871142582	-0.0425222322542	0.0110913966099	0.159363199436	-0.128407876909	0.184868314367	0.0447349890913	-0.0987564648033	-0.00411534850447	0.141081355709	-0.12703152724	-0.223319710922	0.00446582978169	-0.054772624161	0.00250114681422	-0.061279718803	0.212347893008	-0.221958311085	-0.00412236248587	0.167204160042	0.162254378772	0.0762271361607	-0.0489800667446	0.249253257492	0.143253748739	-0.023412744564	-0.132053462481	0.176206420142	0.232476443831	0.0354796917205	-0.235431910353	0.232671221428	-0.175747194324	0.100338830183	0.185063533927	0.228304409633	0.252132780195	-0.158093243853	-0.0801689983847	0.0663412159755	0.141025487731	-0.0377722456762	-0.141936518018	-0.17109102546	0.0407200166108	-0.135336841818	0.043170074347	-0.0187845130808	-0.0355561981554	0.00648172667057	-0.090695174427	-0.0334274094673	0.163256592332	-0.00857733601608	0.0850890997256	0.0289482902865	0.0233255294346	-0.125560610362	-0.0842450609429	0.0754662078034	0.221881060862	0.343451895593	0.0931942088875	0.00297116418685	-0.060096019624	0.0216335301598	0.139393998788	0.0101688635463	-0.178324826982	0.016188217216	0.0717510564031	0.251506159861	-0.0746897245834	0.247656989174	-0.0319148098135	0.177528030667	0.138208841313	0.0573535544573	-0.202603010555	-0.19552614451	0.139879952412	0.11299467078	0.101622914262	-0.0720183861217	-0.0937355015274	-0.0995198639076	0.0604965834798	-0.172725612957	-0.0744229211347	0.0988032647852	0.113766809694	-0.0417581680691	0.106888528001	0.140494011044	-0.116149171813	-0.0586540958988	-0.160955816462	0.138457495429	0.186114306107	-0.0505268082009	-0.012563143546	0.0262545993098	0.159344861416	0.158542833368	0.177404016711	-0.0698272014378	0.11783610361	-0.188278154959
