Concept	0	1	2	3	4	5	6	7	8	9	10	11	12	13	14	15	16	17	18	19	20	21	22	23	24	25	26	27	28	29	30	31	32	33	34	35	36	37	38	39	40	41	42	43	44	45	46	47	48	49
accordion	-0.0114589253193	0.0187121333851	-0.0291843412754	0.453251559795	0.140741992097	-0.223168343864	0.288129594067	-0.060891495387	0.00948106691956	-0.0637590879738	0.0340572210658	0.00899471456998	-0.00734132896207	0.039100509367	-0.0166965424158	-0.00807166995058	0.0102838990998	-0.0252941976348	-0.034199728195	0.0456998779972	0.0152808732927	0.0368966196016	0.0447215095225	0.0412609127331	0.0196332047008	0.000867557962764	-0.00719771818139	0.0196269022655	0.00685035794129	0.00598354980749	-0.0305867449603	-0.013629048994	-0.044937299728	0.0306215321486	0.00757812761227	-0.00441896849566	0.0338567599231	0.00901229601148	-0.0624041874964	-0.00982340409251	-0.0373279340163	-0.0191202435661	-0.0306876657583	-0.018775884669	0.0361479743005	-0.0253239581651	-0.0333452302599	-0.0661129660764	0.0679175840877	-0.0294806570022
airplane	-0.276246583339	-0.0479384056323	0.0274675623406	0.0634737639075	-0.0233064078796	0.0374524400486	-0.0446527999682	0.163840601747	-0.027726378297	-0.101665739446	0.0337617853577	0.034937965482	0.165623982234	0.085664722868	-0.100485300332	-0.0429292392805	-0.193310139251	0.066452261641	0.0943572957947	0.0450403104585	-0.0392773598366	-0.0277536152269	0.0638812845369	-0.0378582272142	0.212191246623	0.162880511554	0.144776564674	0.0288066582285	0.00255599533344	0.1089363818	0.0221489321956	0.194997992219	-0.0606623322905	-0.0747924867531	0.218947730458	0.000305608260909	0.00739957906792	0.05292284988	-0.0218499091148	0.124528307049	0.0621004851615	-0.000930441707302	0.0669996021908	-0.0978645228074	-0.00349714272731	0.106832537744	0.100951173629	0.0314123286958	-0.0438374472027	0.0142914745924
alligator	-0.0808506914263	0.243342714583	-0.215862684193	-0.0174608065767	0.0642479342781	0.0726398102043	-0.00307828169939	-0.0455536988827	0.0194932513294	-0.0322429885658	-0.00723460181077	0.0228646154198	0.040124905208	0.0857433914181	0.365597232466	-0.114804947206	0.0446057287531	-0.0329086722793	0.105988202682	0.199126883478	0.0300281379368	-0.0222997182112	-0.207320566876	-0.0683479913375	0.0611245023342	-0.0355787516181	-0.0320262490338	0.0638755082721	-0.052272576905	-0.0340578245303	-0.0296591663689	0.088412621931	0.010007796378	0.0381529151118	0.0228750929132	-0.0229833959104	-0.069794236255	-0.0738881768747	-0.0322119438395	0.0969516475986	0.0334945685035	0.11009176661	-0.139220396161	-0.120214953138	-0.0610480845662	-0.160384095487	0.201104285706	-0.173563532227	-0.0612277698738	-0.0465981211756
ambulance	-0.0278233198434	0.0457236469209	-0.0121466072399	0.0394086653576	-0.0392683299968	0.0390333221669	0.00248231781108	0.0964237547195	-0.0133604526383	-0.0596810833431	0.01982948695	0.0216614925015	-0.00905527956589	0.00380796224041	-0.0744773170475	0.00321255775952	-0.00748318559069	0.0141271731574	-0.0980203636726	0.00468827895277	0.0391123327221	0.0362412058795	-0.0379927817683	0.00104951394483	0.0710441268239	0.0691250142734	0.032289446166	-0.013880486284	-0.000392955731381	0.0246867610376	-0.00783345637725	0.0738940748958	-0.0278431268676	-0.031879606592	0.0588048899966	-0.00209785963827	-0.0347386445603	0.0231993755932	-0.00163218671721	0.0273098147798	-0.0095781882964	-0.00429606156293	-0.0280757546123	-0.0635298899679	-0.0109646580116	-0.0070901282782	-0.0162939120489	0.0269299391387	-0.0123338498394	0.00250888532108
anchor	-0.00735643968299	0.0118292041734	-0.0137745920972	0.0800314627944	-0.00606696111262	0.0199123831957	-0.0793884077522	-0.00863511595849	-0.0115651961876	0.00679724869334	-0.00267442461565	-0.026110617818	0.0145840541038	-0.0914176532595	-0.0312098751248	-0.0895117663197	-0.00293149696758	-0.00384966338963	0.00744542772732	-0.0144443534197	0.00556823590095	0.00601151670061	0.0497886420585	-0.0194982803609	0.0564859829556	-0.0789416772659	-0.0481444422417	0.00569985916689	0.0209442517152	-0.0122833026722	-0.0142156192719	0.0232418605577	-0.0114212497665	-0.118377589469	-0.0580394702682	0.00879858414922	0.0641171113245	-0.0612315857117	-0.0119449183323	0.019052251045	-0.0152658120852	-0.0314836269332	0.000480607895693	0.0222690059877	-0.0376896930962	-0.036515764836	0.00288327838427	-0.0486315310728	-0.0592672514264	0.00520894106718
ant	-0.0796071921172	0.0802802474217	-0.01821024105	0.0474681460306	-0.0565008611373	0.0462917368139	0.0046794118779	0.0025013908469	0.0171253701583	-0.024927306202	-0.0511378722947	0.00798142480887	0.468513243516	0.0330466221384	-0.131717115847	0.0653911350026	-0.122167275271	-0.0237763921832	-0.0463480710067	-0.0190291404315	0.0285461453967	-0.101640015579	-0.077728936337	0.123568610644	-0.0593654650012	-0.0844117967681	-0.14060255712	-0.135050669126	-0.0690285831716	-0.0669154469162	-0.0395590970568	-0.110960235548	0.0708960565009	0.104743891825	-0.0462216430297	-0.00933698140196	0.0320532662712	-0.00710972361537	-0.00965362724322	-0.0755753124888	0.0188671965384	-0.0873842892097	-0.0358614603314	0.0450215979971	-0.0449015871136	-0.0667655672917	-0.0339812094204	0.0693846170521	-0.035617724168	0.0206908922649
apartment	-0.00733775556229	0.0111299414719	-0.0059622562457	0.0144244852937	-0.00637762717386	0.00119944459984	-0.0108237310806	0.0252637724411	0.00247954558353	0.0137560164728	-0.032227187536	-0.0170204012039	0.0255624635431	0.000145887379144	0.0142549068824	0.0371172962757	-0.0185839805871	-0.000101851681989	-0.0414462624727	-0.0682929386079	0.00671004099677	-0.131201822672	0.0732943861663	-0.0738181284414	-0.029619048726	0.128963289661	-0.0760363114978	0.121899138513	-0.0780990910582	-0.138097554668	-0.242142522347	-0.0707440649583	-0.0528906327855	-0.0528925388959	0.0320628705543	-0.0110828120251	-0.116979681235	0.0544541129674	-0.0107541381218	0.0116510878656	-0.0271718634288	0.048334923065	0.00265033337065	0.0408952853001	0.0427664081878	-0.0228373671027	0.0849998383947	0.0483143078656	0.0295936958459	-0.0474102344584
apple	-0.0566326935714	0.537190239033	0.342922618135	-0.00386449218059	-0.262176902575	-0.130752347397	0.016172797099	-0.00688031248618	-0.0110855293231	-0.0224670294427	0.000273572050938	0.000865526827601	0.0110889712347	0.0222819173849	0.0285124319017	-0.0453970394998	0.0758960615034	-0.0101078379097	0.0448959193873	0.0173276886471	0.00700870442361	-0.0814176136459	-0.058681773032	0.138478445218	0.052466817702	0.00706128716111	-0.0252996647359	-0.100333394477	0.0213186897356	-0.0475514914257	-0.0445646486315	0.0891705165431	-0.0163069415576	-0.0480876538039	-0.0694202761228	0.00491499961087	0.0107411471065	0.0174325705223	-0.0113506244731	0.00425647561743	-0.0398851255797	-0.0445142418754	-0.0107873540849	-0.00167557318013	-0.0547360835308	0.0526824453485	0.00141165783743	0.0120806990144	0.0352827893354	0.0163095159695
apron	-0.00372254648174	0.0160138368018	-0.00988558025616	0.129853198329	0.0233886224326	-0.0125860623981	-0.0457050016341	-0.00626167947161	0.141888579381	0.119286508128	0.182550269298	0.186493459254	0.00588115928112	0.0593132182736	-0.012809609206	-0.0901206616122	0.0197986079932	0.0317766318321	-0.0200818776322	-0.103361448484	-0.0913902657195	-0.103609867518	-0.0923612172294	-0.0804236404684	-0.182784634428	-0.073101717979	0.0886534093731	-0.0324471731066	0.0884702378088	-0.135777473729	0.0476978488082	0.0943083125455	0.130349560141	-0.139565629168	0.0645675587902	-0.0560076891412	0.131689638119	0.0266764083743	0.15874020849	0.0454237582505	0.065078899068	-0.0540265833247	-0.0918505321052	0.0275064157825	0.00546283796417	0.0506301412916	0.153846977025	0.101883911395	-0.0912332305239	-0.155065508739
armour	-0.00416948431605	0.0119908539697	-0.0102142944384	0.0818579341615	-0.00156843908229	0.0165262798955	-0.0753764589728	-0.0138039604547	0.0417933076437	0.013285457119	0.0297188659691	-0.0153830116558	0.0305713157997	-0.0707602540213	-0.0195410872655	-0.04751304258	0.00171813290293	-0.00384017365078	0.0310858086047	-0.0735801639851	0.0466683002272	-0.0151608532664	0.0279085653505	-0.0821517961855	0.0652421478472	-0.115257048715	-0.0650226307966	0.00456277513792	0.0241841804866	-0.0974347362011	0.0256570815533	0.0285570892129	0.00830366146877	-0.158754682049	-0.0558883453905	-0.0560327208575	0.164613339865	-0.0501999279454	0.0429699713057	0.047146693189	0.028470591901	-0.0798165106208	-0.06596499292	-0.0199376493159	0.0514092966798	0.0636578553061	0.102001185523	-0.00259940418413	-0.179697860927	-0.146779322985
ashtray	-0.00502508017274	0.0247442816955	0.00113580385487	0.0260348715282	-0.00401355722739	0.00134029802621	-0.0335763183321	0.0168481852281	0.0190128529395	0.0592666635248	0.0394230935397	0.0312268266593	0.0313523702571	-0.0827232826656	0.0282404471068	0.128102998494	-0.0301373871579	0.013415562867	0.0149208425746	0.0528560528142	0.0622211076898	0.0602777069925	0.0296369550391	0.0460954928044	0.0263760983383	-0.00307762418134	0.0609294354471	-0.00852298898278	0.0555941576814	0.0202222495031	-0.0976567437692	0.0111427538307	-0.0126922229101	0.0338924468491	0.0611980337287	0.115352866112	0.0206579577346	0.0344171129729	0.0338269353818	-0.0748713761857	0.0149222611363	-0.012317757228	0.10810686988	-0.00572315904587	-0.0388809862108	-0.0459152470122	0.0400531997804	-0.143980836531	-0.164844197263	0.15528919007
asparagus	-0.0612944114657	0.500788922825	0.178120877638	-0.0357959880407	0.525308153845	0.342999237404	0.0513218698893	-0.000781300972352	0.000956167983032	-0.0132601764159	0.00848615101579	0.00129326475681	-0.0372054869694	0.0326563179224	0.0620411544286	-0.044777118506	-0.0497261153798	-0.0360704153471	0.0927215445699	0.0490003932686	-0.0591832761151	0.0105897840566	-0.0126479141979	-0.0586855177115	-0.00486931955903	-0.017231285303	-0.0177375918244	-0.00963085869215	0.00838010553783	-0.00397493180419	-0.00842007234847	-0.0305667867714	-0.000163879017864	0.000308388423091	-0.0232750221906	0.0085866702669	-0.013543521285	0.00875646644426	0.00813726087923	0.0308934589162	0.00213998096507	0.00856673098466	0.0202265627688	-0.00869020668167	0.0213300043258	-0.00422006233235	-0.00639132526862	0.0102896254247	0.013145768007	0.012025308293
avocado	-0.0623151406983	0.530030215636	0.258681849891	-0.0420306639105	0.0511697144229	0.0254338098666	0.0334331478312	-0.0179676939344	-0.0051111873673	-0.0193423804824	-0.00562643273707	-0.000133586889669	-0.0026710261017	0.0588522594861	0.144136829741	-0.0904525675029	0.0357588794242	0.0183454839467	0.103405639878	0.0335700815097	-0.0689984952872	0.0798786397777	-0.0126262533649	0.0368348232428	0.00463583782941	0.0769926225641	-0.0765687475769	-0.013807413893	0.0580451595584	-0.0478322117782	-0.0425093767997	0.0643398871791	-0.0263331912862	0.00368757055212	-0.0245100232928	0.00187920775053	0.0184990444477	-0.0465785752796	-0.000945730312793	-0.0260135111269	0.00254853836367	0.0745626455472	0.0199325833849	0.0671756493419	0.0375383118477	0.0467565348497	-0.0153297359371	0.0205458611174	0.0466196078431	0.022498019427
axe	-0.00513621386073	0.0193424572758	-0.0178536038382	0.160203493326	-0.00563877995302	0.0610185489625	-0.293254053003	-0.165882802509	-0.0727279389779	-0.054168181279	0.0493638846192	-0.227684024789	-0.0183641557506	0.0425162829038	-0.0506940054989	-0.107871163598	0.00661943581045	0.000551504113084	-0.00729107611429	0.0221926362317	0.00664835876705	0.0510707732134	-0.0197750129984	0.0590056808506	-0.0893064827521	0.0119625488421	0.134664055924	-0.00505716822098	0.0321941208792	0.0113624109206	-0.090720571836	-0.00173708601045	-0.0221698470474	0.0234278877673	0.0248248839845	0.00819793124241	-0.0506424414235	0.0184479009585	-0.0922635590743	-0.00254162709953	0.00288587235288	0.00857045904118	-0.0290068802035	0.0694273782576	0.0109722630626	0.031741439766	0.0156314908865	-0.0165118325586	0.00241917454613	-0.0309529860964
bag	-0.0046194804587	0.0159017904809	-0.00400173247134	0.0881877968803	-0.00922802574096	0.0261663016039	-0.118626910213	0.0706779913649	0.0695635851325	0.0992185751113	0.129155577968	-0.011354379152	0.00659684079489	-0.20740967391	0.0889515750078	0.240284609409	-0.0258651491595	-0.0226144042348	0.0571050223628	0.210129396796	0.0531378404201	0.125126111884	0.0362500911324	0.133510148307	0.0336115456977	0.0420060636767	-0.00104136672684	0.0104528191385	-0.113106651645	-0.0553413812485	0.061371330505	-0.0741924045997	-0.13685679055	0.0213060076896	-0.0173849193527	0.0612715304917	0.141462478602	-0.0189056264148	0.256214526077	0.218208399585	0.0198664945378	0.0241961233156	-0.150552162923	0.157896676513	0.0144677760174	0.0717477150449	0.0991553974661	0.151324930998	0.112291065141	-0.10629026253
bagpipe	-0.00791761691566	0.013246907976	-0.020537231235	0.323842322393	0.100942917418	-0.161805028846	0.207257491558	-0.0440058072928	-0.0203947409906	-0.0428396165915	0.0270128722821	0.0114786221482	-0.00516364061764	0.0267854959787	-0.00788737425489	-0.0122716409546	0.00922350602376	-0.022123129764	-0.00745439742468	0.024277284192	0.0298537247808	0.0258167010944	0.0483497286249	0.0330085676588	0.0470778573392	0.00162222226141	-0.000817320689822	0.00221530577364	-0.0078697078812	0.00920666855264	-0.0250052230113	-0.0201149475614	-0.023649513917	0.0122011770288	0.0246785989901	0.0213678866114	0.0384185337438	0.00232788953185	-0.0600643446219	0.0109996224315	-0.0568328572052	0.0338359248309	0.0188475529722	-0.0141629365146	0.00835197687701	-0.0254591534401	-0.0212457276812	-0.0108084736896	0.059401137	-0.0318414663683
ball	-0.00657191294704	0.0402953506068	0.0164048201596	0.0382259785698	-0.0185930141719	-0.00112401942826	-0.036469322302	0.0122494642753	0.030696214026	0.0218690639246	0.0123457800688	0.011955324351	0.0390886880092	-0.105296284852	0.00411616601844	0.117016532774	0.0391497632443	0.000955859102822	-0.0116294000614	-0.00462171159511	0.0407400472192	0.00543140395763	0.0559571035924	-0.0868798117839	0.0387076634027	-0.173540631762	0.0962183727184	0.0159824546914	0.165878472537	0.00284115846293	-0.0898108926138	0.136575540861	-0.00570168276147	0.0562909376934	-0.0283214052515	0.0203839517953	0.0232430371074	0.0533228534397	-0.0654248857183	-0.0434575603201	-0.0367823841277	0.0971890987213	-0.00957029272766	-0.0511579213132	0.0459349716692	0.0516465843524	0.037228943583	0.0700966282766	-0.00794828628175	0.0255985327056
balloon	-0.0112958083667	0.0246784432174	0.00192417137631	0.0551256652655	-0.00892850341753	-0.00337627651749	-0.0126474935434	0.033248553013	0.046689339326	0.0134238593657	0.0193606202411	0.00121235076753	-0.00286928502507	-0.0620739463773	0.0284809990923	0.0983697663346	-0.00271800791166	0.0102677996422	0.0208414436924	0.0184001359787	-0.00789921828631	-0.0401959982742	0.0183359613421	-0.0665035497133	0.0609710751129	-0.0180251725812	0.034017091803	-0.0703906710293	0.047110075291	0.125130670518	-0.0547943948756	0.00749682230042	0.0231379512524	0.0935103254168	0.00925967916431	-0.0546714420375	0.124189517937	0.00251133832799	-0.0513703903584	-0.0555277326875	-0.0350762423969	0.0565747681253	-0.06135209306	0.0769702786921	0.0248099273498	-0.0125604774543	0.0549171503734	0.00202211728968	0.0750019729764	-0.0604732151916
banana	-0.0681301351496	0.390520598494	0.226489018145	0.00127797597889	-0.202966174531	-0.132695367475	-0.00936951236333	-0.0115704166029	0.0329377043133	-0.0316332913435	-0.010518268611	-0.000160119540911	0.0284299907274	0.0521612578259	0.111621964884	-0.0605995815556	-0.0276254124334	0.0561153999164	0.0300752385321	-0.00225677503554	-0.0967936550667	0.154477363326	0.0776247104841	-0.124768313609	0.00942342042198	0.189644260197	0.0802940997114	-0.0764693837778	0.0244223651186	-0.132435093406	0.119823111055	-0.0130230020511	0.0333840971472	-0.00720197527086	-0.25299204712	0.074537921811	0.00247758038747	0.0680183760502	0.0115098294858	0.0322630319605	-0.0347465342638	0.029971286835	0.0407110178781	-0.0167291819036	0.0128855315737	0.00453179714907	0.00784370308651	-0.0495349212168	0.0223982958763	-0.0399414697368
banjo	-0.0147634535903	0.0401783301668	-0.0310790104595	0.582781488697	0.161995815897	-0.268885610991	0.327176886566	-0.0202595399286	-0.0208779982621	0.0221370498306	-0.0154709219204	-0.0332414080581	-0.0223845722384	-0.00670226051836	0.0270653969925	0.0528317472837	0.0197931319427	0.0068643763914	0.0174103655416	-0.0516584016818	-0.053718297631	-0.0553702177363	-0.0690037091146	-0.00543926825406	-0.15621010134	0.0156739323112	0.0947523440573	0.038201023037	0.0513057281729	0.0300936293691	0.0202881896326	0.135140374984	0.0208473206335	0.00113400545101	-0.0266865873566	-0.0228815361056	-0.0770412669071	0.00468688638906	0.138659624981	-0.0159792632533	0.103644151335	-0.0470338799523	-0.0220338548713	0.0654353800539	0.00746772315536	0.0273635568689	0.0270000793869	0.0439476673707	-0.0646082232404	0.0439164626775
banner	-0.0138099530261	0.0161019886915	-0.0121008156139	0.0407399914498	0.000479428980546	0.0206799490788	-0.0293593703082	0.0125106304908	0.0401452002548	0.0230459236274	0.0199226084349	0.00828124995766	0.00242675209611	-0.0588518916909	0.0453300320668	0.0636137998592	-0.00433318571229	0.0289997493785	0.0268063697595	0.0878549778135	0.00273855784967	0.0259358222601	0.00387385419659	-0.0113200008149	0.0438075923847	-0.0182823629033	0.0222475762121	-0.0746171527347	-0.0515345933631	-0.00146747589583	-0.0155434221777	-0.0685659022262	-0.0111613476014	0.0419349063864	-0.0510218453951	0.0582245349554	0.00456417241398	-0.00943971905098	0.087979469566	0.145426604624	0.0611825625913	0.0365719925396	-0.123761175136	0.0234820448937	0.00978660813559	0.0145979715225	0.0773229955746	0.197441109194	0.0471270666771	-0.0815118311434
barn	-0.0134807651087	0.0428516696263	-0.0113665976695	0.0858575478803	-0.0209949513582	0.0121220169895	-0.0347773618025	0.137088639206	0.0120175037399	0.191710512187	-0.244149167945	-0.0386099212009	-0.0263700410682	0.0497120195027	-0.0564708127566	-0.00710686661666	0.0291790180824	-0.013307122029	0.00533952983653	0.0421823043206	0.0514616111444	-0.0624814155637	-0.0292813480091	0.0710801491353	-0.00691363151612	0.0246792193991	0.00680385232665	-0.0666622812347	0.0170118596593	-0.0340180247978	-0.0312817034976	-0.0133128719921	0.018987923445	-0.0330669656116	0.0117577551931	0.00813655034259	0.00772158295613	0.016975543264	-0.016226348556	-0.0211842842707	0.0186719469222	0.0189607141177	0.00843373165069	-0.0251096120705	-0.0458396009448	0.00647161465817	-0.00216407689932	-0.0210221934049	-0.0142204323188	0.048252159072
barrel	-0.024240424461	0.0797003808407	-0.0173918315339	0.189544772578	-0.0411321974073	0.0258853306032	-0.0672053565837	0.175355486954	0.0253238299487	0.299002589727	-0.248312481931	-0.0428287049364	-0.0315636310606	-0.105357803915	0.0214321312092	0.131962681159	-0.0166656318494	0.0367465739157	0.0660590242081	0.0115141582457	-0.00884593230712	-0.050355618093	-0.0288719209595	-0.053518086275	-0.0842412135663	-0.000554414414994	0.0590943252136	-0.0224207292209	0.068821971878	0.0288231286145	-0.00987785138925	0.0561122167424	0.0339892206171	0.0454025288206	0.0621899526805	0.0625041786334	-0.00111879785576	-0.0302782949775	0.0185113099339	-0.0981975722831	-0.0135980009768	-0.0290192383609	0.0959368118618	-0.0563994690486	0.0129071016766	-0.0215476154768	-0.05895528846	-0.0810646649704	-0.0327654233722	0.0519278433184
basement	-0.00249828852592	0.009384647388	-0.00544011081184	0.0441976664291	-0.00838007126016	0.0089062193147	-0.0359298951227	0.105288211887	0.0123148120087	0.188121915388	-0.230309742434	-0.0114190404679	-0.0307119530567	0.102199690222	-0.0512614950628	-0.0608494230493	0.0120908462722	-0.0331803966664	-0.0177263111015	0.122782822693	0.113260063899	0.0627102906832	0.0487169663555	0.0158258190527	-0.00290522381714	-0.0505465890328	0.0345262246592	-0.0223331327687	0.047456174726	-0.0596276809315	-0.0342466135647	-0.0210528589273	0.0285359088719	-0.0304135424827	0.0483367253484	-0.047836252919	0.0152017752675	0.0224862709352	-0.0557651047389	0.0331826266069	0.031501071002	0.0568454070974	-0.025658551476	-0.0104309118864	-0.0331762079667	-0.0615841510723	0.104785042189	0.068640856934	0.0629190401961	0.0730877864159
basket	-0.00221147196981	0.0107191889738	-0.00564458786979	0.0786431784395	-0.00281943480984	0.0165759594386	-0.0946567992827	0.0176720129144	-0.00195393819692	0.0748448157133	0.0557857859738	-0.0375284131888	0.00142767026064	-0.11162959504	0.0478556466517	0.0699584187817	-0.0175567992471	0.00818081898198	0.0564425602183	0.0593855378906	-0.00709580777264	0.0134637579162	-0.0522654419532	0.0804211700794	-0.127148435743	0.0764641553171	0.0891068956485	-0.0255100353489	-0.0356047849232	-0.0392369139786	-0.0169998894558	-0.0876586552984	-0.0408622077615	-0.0289337736228	0.0706022746054	0.106303536463	0.0682488302894	-0.0279000011544	5.19549526346e-05	0.0662974651798	-0.0406543371044	-0.0182834650895	-0.00640972093453	-0.0238966870474	0.0169997029157	0.0270857316322	-0.08917288582	-0.0503189427808	-0.0290561353464	0.083572409252
bathtub	-0.0159440576486	0.0150810882433	-0.0114924123689	0.0252508729602	-0.00180856630516	0.0179078211476	-0.0109579392038	0.00779612303252	0.00992844356816	0.0286296476999	0.0201972327407	0.0213960138628	0.018638933294	-0.0255405156659	-0.0312964988089	0.0317953922415	0.0354375245016	0.0424278032848	-0.0838523662682	0.0144017889036	0.0334621445106	0.0874984867441	0.0227143751573	-0.052281111924	0.0274143812548	0.0111494561937	-0.00674514041662	0.0121000893421	-0.0338720276753	0.0466762149383	-0.0498127367175	0.0336867588359	-0.0508583119387	0.000582628962076	-0.102009439608	0.0154229621655	-0.0784322746261	-0.0620930290549	-0.0315248113607	0.0689897251766	0.00482198526926	0.0605131303813	-0.0787047452702	-0.0218668796141	-0.0270534981143	0.0530937272093	-0.00870987920155	-0.113909431113	-0.0653223639007	0.153423950039
baton	-0.00811857808804	0.0525467851206	0.0078386953664	0.097910472516	0.0040524872187	0.0129162647024	-0.0716669665284	0.0144093916472	0.0444556633258	0.0451260154294	-0.0098386987215	-0.0140577111923	0.00288645511848	-0.0764775213385	0.0546884723019	0.0493624471339	-0.00935704600366	0.0262515713489	0.0169644292159	0.0193266807279	-0.0408468831647	-0.0513957305137	-0.0551694768333	-0.0977644015589	0.0653021023646	-0.0530607043658	-0.00924248107634	-0.0555562128834	0.0271288539339	-0.0148076792491	0.019941747799	-0.0125768554158	0.0593320760473	0.0240799604613	0.0317150352275	0.0155030692675	-0.0378974697601	-0.0254305948899	-0.00881819430159	0.0630583852682	0.0380130285624	-0.0269848259312	0.0529604923889	-0.105719251636	0.0189649108955	-0.0714033378818	-0.00865486847695	0.037912272939	-0.0364022133276	0.0320451947719
bayonet	-0.00711140367412	0.0273985400784	-0.0189956130437	0.109628090537	0.0054680867987	0.0568723544754	-0.192865301366	-0.140886778361	-0.0377945012364	-0.140629574334	-0.0989549684556	0.041295611218	-0.0392522353167	0.127007836295	0.0216646364835	0.070601568769	0.0288428651699	0.0320420057506	0.00602122089767	0.0223349065544	-0.0192195740655	-0.00447717969019	-0.0388969484252	-0.0219262091917	0.00770331699266	-0.033840266677	0.0173228886879	-0.0202352491348	0.0103223497519	4.35192810137e-05	-0.0151466208377	0.0128408314535	0.00187583674247	0.0412145115455	0.00916889566567	0.000102573539388	-0.0444849756292	0.0205208856673	0.0581785537199	0.0256594267795	0.0386305335022	-0.0137684187193	0.0176599707334	-0.0254280465504	-0.0166954814523	-0.0651100380989	0.000233154220863	0.0532776991616	0.0816454012918	-0.0176125192476
bazooka	-0.0206681686183	0.0242985814603	-0.0348967460294	0.177483460803	-0.0127866880603	0.0686221888511	-0.235129849687	-0.144976740073	-0.101857781378	-0.26618022725	-0.269689442687	0.390026300116	-0.0621011814249	-0.168238390094	-0.00565671028725	-0.0663488399669	-0.0112791468023	-0.0219457970433	0.02757452776	0.00778279701973	0.012187356392	0.025308319789	0.0552572993585	0.0647462311379	-0.0113657481915	0.0508941627177	-0.0227611358121	0.0126773270177	-0.0525774227599	0.0220878608039	0.0217554268636	-0.0148264019547	0.0334887790429	-0.0200340745355	-0.00543675716967	-0.0374604644246	0.00741562233602	-0.0299317819378	-0.0260050515038	-0.0359060021221	0.0388879290438	0.0252691545316	-0.0242718041047	0.0535555801794	0.0253292620185	-0.0128396610388	0.058954553641	-0.0543662051087	-0.076061913278	-0.0200652851982
beans	-0.0652828569866	0.389567895759	0.12328563127	-0.0365453027865	0.348340866589	0.247882125201	0.0570073075482	0.0079426111344	-0.0250582171612	0.000883210301255	0.00202007088652	-0.00614730647222	-0.000292681136644	0.0273955627801	0.0090370234431	-0.00530930458504	-0.044960436935	-0.0349523837943	0.0614071915814	-0.0144611472426	-0.0309489536706	0.0511115588658	0.0967526247941	-0.0747730729007	-0.0484049381944	0.0719185421952	0.0216449746177	0.0060913662361	0.00848690652462	-0.0542340680659	0.0548756922391	0.00140064087028	-0.0102228852051	0.0024822593738	-0.0661223257094	0.0255619930602	0.0180234735872	0.0072780086377	-0.0161568762667	-0.0186576019535	0.00174022274682	0.0128559712852	0.0207182024423	0.0222566107873	0.0307050091831	-0.00561561517428	-0.0282081518385	-0.0348137491745	0.0124275110369	-0.0268768023972
bear	-0.17866046199	0.135941383344	-0.29022714836	0.0889189214628	-0.216625207612	0.262634140882	0.154687762107	-0.0700927931146	-0.0159772789701	0.00989952496925	-0.00210805920845	0.0204946151787	-0.0161418224788	-0.026368126251	-0.0904073880419	0.00135560764127	-0.0153180978288	0.0364975173221	-0.0817782835362	0.0619456777006	0.0909353151022	-0.00987485270901	-0.101275737897	0.00666594004344	-0.00484565636007	0.0398534585656	0.0494060894125	-0.106643769184	-0.136297726782	-0.0353429437793	-0.0105000992389	0.0536190784108	-0.0184214938635	-0.0306896780802	-0.0165486483413	-0.0852611318318	-0.0460729781123	-0.212881463847	0.10391175708	-0.120969342256	-0.164571854964	0.0670230768174	-0.0492467777681	-0.0682453292456	-0.0155104018225	-0.0671398841286	0.0161470188093	-0.0346280554386	0.0455073766723	-0.0271795954409
beaver	-0.0793010532774	0.131918846316	-0.276053717726	-0.0200844609705	-0.0849366435029	0.0566084177338	0.0581219347628	-0.0400949028802	-0.00401279762095	0.0158409159746	0.0155446277882	-0.00487637382956	-0.0304601865816	0.00641640799485	0.0192015623763	-0.0106907565296	0.00676872244013	0.0250051774931	0.0401070701604	0.0571167760002	0.0509967468458	-0.0301937825452	-0.0171576430655	-0.0780971833505	-0.0411931600248	-0.0494469207109	-0.0216060552031	0.0528662293163	-0.148336804203	-0.0745191971901	0.0592505617188	0.0902320513081	0.024849158859	0.093572336612	0.000982686203757	0.0458953805901	0.0378807980215	0.0540674502235	-0.118268582751	0.0133577326535	0.0638630640021	-0.030594990167	0.0113292983366	0.0569320144252	0.00167201681822	0.0291786976841	-0.049191411224	-0.0405872421939	-0.0385074711241	-0.0223684327465
bed	-0.0025488988131	0.0107855604712	-0.000891535909029	0.0153802605576	-0.0110544362211	0.00909252156871	-0.00857842805011	0.0132089453072	0.069906359197	0.0257475520907	-0.0456389583227	-0.0179638917356	-0.00589800711059	-0.0146287995285	0.0143623543161	-0.000335658220113	0.00874188442963	-0.0210463856915	-0.00807897324427	-0.115229114434	-0.1771811661	0.167751696825	-0.0467343889142	0.0622760148399	0.129892824726	-0.00105037495839	0.0838711915921	0.0717917653795	-0.120025817724	-0.105063226122	-0.0183103138295	0.023008493389	0.0979642814027	0.0830595436286	-0.0145180942912	-0.00826855477913	0.0445860469174	-0.0444007299913	-0.022120581305	-0.0305096373019	-0.0137724553199	0.0443532220996	0.0314450510183	0.00813561059439	-0.0203883095748	-0.00730380952347	0.0535740664501	0.0638361510595	0.025864478109	-0.0350642067528
bedroom	-0.00390282179679	0.00577479697564	-0.0035508814664	0.00828849060013	-0.00422719236403	0.00221521112464	-0.00505105351552	0.0135730122144	0.00360169999643	0.0192619596656	-0.0294546979732	-0.00435488977785	0.0210247040221	0.00851686226991	-0.00572220753857	0.0185931763398	-0.00112575081006	0.000752230432598	-0.0139319954666	-0.0210973290973	-0.0149776652023	0.00497112471105	0.0106901498272	-0.00144480762732	-1.48032788043e-05	0.00435454793038	-0.000504436122105	0.0381572537427	-0.0293628324864	-0.0224218237476	-0.0476256335249	-0.0305891699098	0.000588366228969	-0.0233667042142	0.0172098760432	-0.00111858501736	0.00239366650565	0.0180542070543	-0.0188052696157	-0.0161512660694	-0.0220420357478	0.0384853378141	-0.00589099395354	-0.0152566337226	-0.00490379638448	0.0134494488247	-0.00786171173766	-0.00696100076609	-0.00212525182273	0.0718581192937
beehive	-0.00625238540429	0.0122041317435	0.00231833106896	0.011854068762	-0.00902150383493	0.00402800119878	-0.0192642809096	-0.0118086775087	-0.00486299918935	-0.0233440791547	-0.0168292248932	0.0163917356456	-0.0014939218462	0.0183096007093	0.0115921237793	0.00434563414665	-0.0140161476049	0.00293032062289	-0.0035693938705	0.00318476025037	-0.00455904324573	0.0146397969405	0.013520431458	-0.0295696677624	-0.0121690835955	0.0183894771031	0.0268571537873	-0.00704651924351	0.00292434553048	-0.00445718231196	0.023766883273	-0.00659825979324	0.00215075293548	0.0188669526477	-0.0528532312975	0.0196029694162	-0.0123489944358	0.0207404340727	0.007723567004	0.00656221259564	-0.0229576034163	-0.00855812713948	-0.0117137595042	-0.00776270523856	0.0163739896993	-0.00692350627237	0.00331963395559	-0.0179560747684	0.000495353122385	-0.00456967271547
beetle	-0.220620073426	0.0272480192126	-0.0242953162723	0.0403529693886	-0.018775653684	0.039132257662	-0.00744832779544	0.0172724844094	0.0212214938157	-0.0319113983188	-0.0751131300201	0.0221993917187	0.735090526775	0.0364162633115	-0.163979675858	0.0401817731456	-0.038398215506	0.0507040430794	0.0523972328207	0.0204467838325	-0.0311561369337	0.0316705378722	-0.00970990509374	0.0468557642209	-0.087226985299	-0.105160245737	0.00506417956689	0.04898495138	-0.00396567282357	0.09604422515	0.00462394296196	-0.100542879346	0.026495181001	-0.0244111980191	-0.0353060457506	-0.0352642258567	0.00225000619811	-0.027420760254	-0.0107133825874	-0.0366569557536	-0.0333951849291	-0.00626290668379	-0.0507935147511	0.0248205421999	-0.0118981011943	-0.0128610510446	-0.0197547204642	0.0468862081125	-0.0114094475985	0.0233578763623
beets	-0.0407458691858	0.38654526768	0.183521807121	-0.0200966792588	0.273432188102	0.199749244204	0.0439678080546	0.0255930249219	-0.0286981082717	0.0209933583073	0.0282201104794	-0.00405860782464	-0.0872555115793	-0.071831397125	-0.283392638241	0.102528815824	-0.0155463136213	-0.116043492399	-0.0483276000238	-0.0544017348394	0.0420669854009	-0.191051023223	-0.041798451604	0.135701698136	0.0642254941214	-0.10112696776	0.0796598622365	-0.0218133343859	-0.102906597663	0.0531312652657	-0.03391470983	-0.022218628691	0.0308533629889	-0.00527746188906	0.00620602822888	-0.000572683157889	-0.0209836641481	0.0850823136422	-0.0109316778784	0.0357618055156	0.0233694983386	-0.0825278803868	-0.0354393663114	-0.0199843375876	-0.081507383848	-0.0258588450716	0.039527814621	0.0122823366317	-0.038629842191	0.0231187745051
belt	-0.00229253283933	0.0102899685586	-0.00425471393639	0.0374293090268	0.00855025957637	0.0101152087486	-0.0246191312533	-0.0120329884181	0.142300827901	-0.0141876609047	0.00989901046047	0.00315749624213	-0.000493923288011	-0.00342443850043	-0.0019791729067	0.00937784357159	-0.00250560619316	0.0208474600242	0.0770361691336	-0.091360713036	0.0631810989181	0.0409350544477	-0.0937686641256	-0.0836484854824	0.0948271295242	-0.0995952626923	0.0017666808336	-0.137002139486	-0.0128978836652	-0.128377621618	0.0826444441918	-0.0592852916885	-0.173082056823	-0.103162427237	0.0950233534733	-0.0853548098834	-0.0632135096945	0.116958003252	0.0124876439652	-0.0759832425712	0.0483619904452	0.0120234747481	-0.0544054547276	0.00427563585055	0.0516084814861	-0.00231402806751	0.00825368843023	-0.0524075056914	0.00559288104015	0.0195433793024
bench	-0.00933222947368	0.0280201341187	-0.0252315248426	0.103578741899	-0.00736050034295	0.030607790959	-0.0483358541636	0.0537505720631	0.0552244901622	0.0799169590912	-0.100183788988	-0.062007395682	0.0259405407209	-0.0915548787373	0.0703426683898	0.0391284498603	0.0134780734292	0.00561971691834	0.0132312175749	-0.198679140075	-0.236887903589	0.0402246655974	-0.0960614057187	-0.0262907817835	0.117208678008	-0.0662187244415	0.0372556692453	0.0800139026111	-0.0496602439505	0.0146760818178	-0.0145780128588	-0.00280678838169	0.0196322873247	-0.024118448073	-0.0267747266054	0.0208409256869	-0.0255870970256	-0.0244297097792	0.00918719280863	0.0637083453742	-0.0395511034452	-0.0406423790275	0.00623793272216	-0.0360835739571	-0.0295428612571	0.0222026968311	-0.0682173821314	-0.0688538491386	-0.00578815786233	0.0445525027544
bike	-0.0114772915535	0.019148788151	-0.0305853526914	0.0922754643334	-0.0523152550976	0.0675356387473	-0.0585666245396	0.387892871047	-0.0527350855522	-0.224183975292	0.102088034054	-0.0108055052427	-0.0327888861339	0.0380746694315	0.0150444460616	0.0105572965642	0.0291835823714	-0.0498922180636	-0.0383796786524	-0.037512879285	0.0119566082057	0.0477995694407	-0.00485103131398	0.0590170529669	-0.0536024304896	-0.101870045981	-0.0720861952164	0.0728042739185	0.0560583173329	0.00883794815562	0.0636953853075	-0.00827743488913	0.00732166947444	0.0193762855404	-0.00536837227628	0.0239669764122	-0.0181835893374	0.0481124959006	0.00346441341459	0.0521032782841	0.0280601306362	0.00014679943328	0.0566353621018	0.0267343927874	-0.00616009118895	0.0492332551704	0.0189960118444	-0.017032451812	0.0354937507433	-0.0623175777212
birch	-0.0264616098065	0.0557153782728	0.00802706822234	0.0151291385568	0.060704317794	0.0724924717224	0.0182240711101	0.0156348729736	0.00885811335391	0.0314343340298	-0.0369939551285	-0.0142187410051	0.00951442148233	-0.0632172299138	0.117786617624	0.00277682406319	0.00389644691774	0.483330898935	-0.361073265763	-0.128274399316	0.174143963694	-0.00545619240966	0.023698658553	0.152518847503	0.0356933157576	0.02960743979	0.0504311771744	0.00770240974556	-0.0578437460546	0.0308708822239	0.0796860122675	0.0179443148317	0.0068763798857	0.0290623111129	0.0498599377384	-0.00530601774048	-0.00966219590086	0.0252909561257	-0.00216885376926	0.0229849387851	-0.0174200607631	0.00392763000586	-0.062553294354	-0.042947147382	-0.0214104230997	-0.0313759030507	0.0201288493469	0.00639882993603	0.000940530618765	-0.0371406033875
biscuit	-0.0441709277678	0.191660666619	0.013257728092	-0.015226475947	0.0609324403668	-0.00775206261936	-0.0167148673117	0.0107600244909	-0.000628006833047	0.0244939100411	0.00657072568307	-0.00248575024314	0.0382950636773	-0.0702811773008	-0.120498929066	0.10785237397	0.118653822847	-0.0209205355119	-0.0399821245422	-0.045231777976	-0.0119392389017	0.0487919607602	0.0708876948142	-0.0657920466211	0.00809006385735	0.12459581136	0.0204864854299	-0.00401221487181	0.184876077542	-0.114324108807	0.062829328822	0.0194819530643	0.0215184856565	0.0946801425947	0.0604041664751	0.0139068487938	-0.00708557106114	-0.146232251158	-0.0179738028485	-0.0364553866332	0.114624653398	0.13080765666	0.110184311928	0.0647105293089	0.101011745874	-0.0620414193	-0.0371588589307	-0.0166016964996	-0.0501345571128	-0.0957218169053
bison	-0.127550491041	0.122042466208	-0.290804911402	0.0564542153325	-0.202490029077	0.217703550313	0.155973294493	-0.0449382513537	-0.0206332560504	0.0288339989924	0.0193858607114	-0.0107980231165	-0.126624091779	-0.038937826524	-0.162489971636	-0.0175192505426	0.00108123918064	0.241509506497	0.241381087129	0.0747829929481	-0.0741183238333	-0.041050208516	0.146075939702	-0.0401859589368	-0.0595901971148	-0.0526680633355	-0.0410598272627	-0.0419993042191	-0.0916017980832	-0.111126502812	-0.00731974108367	-0.0174415422222	0.0196657483167	0.0769910954277	-0.0448168203393	-0.013139359924	0.0191339484489	-0.0578299359429	-0.028259081745	-0.0657655244152	0.0160331870804	0.0249529555712	0.02625781476	0.0216933470175	-0.0137121686469	0.0279658835674	0.0223392594947	-0.0167335724143	-0.00835088563668	0.0209226321107
blackbird	-0.861723727248	-0.170736600471	0.117796528667	-0.0239972310502	0.0457034255858	-0.0445059522273	-0.0252721566544	-0.00330567807158	-0.00156033107449	-0.00293071417113	-0.00010355064651	0.00293164585142	0.0143449337308	0.00444333107754	-0.0148573144588	-0.0170240587331	-0.0323478295633	0.0154623336425	0.0422073698952	0.0157500217149	-0.0126405368892	-0.0139894830507	-0.0483802275443	0.0113137574195	0.00236588208237	-0.0109198663055	-0.0265091413935	0.0335863403375	0.0286671848094	-0.0384917766428	0.0249960748	-0.00856426737791	-0.00980848854243	0.0347885314145	0.0266273981534	-0.0236926449074	-0.0217536441456	0.00543546821743	-0.0218449311927	0.0092589667755	-0.0210264803688	-0.054275003868	-0.0144414483023	-0.0105646218489	-0.0557636008245	0.0575792384238	0.0327985267221	-0.0610717860371	0.0476066995525	-0.0112046744387
blender	-0.00823664450261	0.0127853745983	-0.0129431665159	0.0854821037122	0.00405077727932	0.00263442317246	-0.0946849542071	0.0298131640631	0.0132709240714	0.171474465384	0.135238444034	0.257952372062	0.00158729676499	0.135475429307	-0.0344931867992	-0.0950840571703	0.0438654056958	-0.0120825782422	-0.0599766574997	0.00132527217722	0.0191310463058	0.0361404024615	0.109642439395	-0.0262859860535	0.16696846487	-0.0187353869054	-0.0589733852735	0.00144962077504	-0.0729694130478	0.116293882976	-0.108629046035	-0.0707883026315	-0.1741378307	0.207637136586	-0.0725792921791	0.137021220187	-0.154621033695	0.00386071177643	0.115558297478	0.0462469984147	0.000625921757128	-0.027463228857	-0.0169091062029	0.0851725496323	0.0230504947986	0.0951107724995	-0.102959242713	-0.0538384680004	-0.0693782192663	0.0126111780289
blouse	-0.00591242366769	0.0114309202872	-0.00265028165378	0.0394511488174	0.00326896832233	0.0188793923712	-0.0295417583969	-0.00917096831679	0.485734705201	-0.0870730300164	-0.00586988903069	-0.00492618589696	-0.0341095503603	0.0168577242837	-0.017020780533	-0.00957864776678	0.0113234998025	-0.0111805047206	-0.223078736652	0.253614496035	-0.24361292845	-0.106684424137	0.122249480118	0.0719343349414	-0.0479651528972	-0.013110169615	-0.000509111712829	0.0629948756673	0.0152616542597	0.0113114842086	0.0508530056619	0.0489493857237	-0.101808277997	-0.052290532833	0.00749761354328	-0.0736281233398	0.04482747842	0.0364462490698	-0.0121788898177	-0.0574137550654	-0.00201442617687	0.0306368090027	0.0214540227051	0.051072870915	0.057347901408	0.0243723086393	-0.0327225245246	-0.10309269482	0.0244316810587	-0.00420077985059
blueberry	-0.0794218888882	0.334857965566	0.20211326499	0.00574662530324	-0.235981693368	-0.169179821453	-0.0264047010225	-0.011571457827	0.0264440789728	0.0130314231143	0.00640472540143	-0.00607171173496	-0.0336487489603	-0.0450365492095	-0.0354958386521	0.0800070896509	0.035387962294	-0.0377641996909	-0.0366128151571	-0.0273422354898	-0.0106933189174	-0.0623110476674	0.0636607643161	0.0460842030556	0.0329364621532	-0.0124878373578	-0.00247808957776	0.00686249584602	0.0607091174907	-0.0311770295443	-0.0175214870306	0.0469881095887	0.0349626736201	0.153184732365	0.0598817856356	-0.0249961948672	0.0342567488522	-0.0588548153851	-0.0852831589082	-0.00648832390142	0.197330157916	-0.0556567784149	-0.163104741747	-0.0959909955063	0.226898251019	-0.0812875232916	0.0223388771477	-0.026175396101	0.0298556482312	0.191761288935
bluejay	-0.664523498817	-0.125860027172	0.123406836475	-0.0232298167123	0.0195010848558	-0.0551046186264	-0.0301988818637	0.00127734307113	0.0219344785058	0.00669394733077	0.00473362229908	-0.0140744578843	-0.0518444874565	-0.00770015481651	0.015420724589	0.0255194397899	0.0192979608021	-0.0205664424697	0.0270600289098	-0.00472996066525	-0.0353254363548	-0.0688884974597	0.0607669355733	0.0389507220898	0.0341943739977	-0.0343183883736	0.0247833658828	0.0424183277607	0.040387743787	-0.0324504563676	0.0111518402614	0.0353654901289	0.0160730190656	0.110874874854	0.0209222100196	-0.0274381942223	0.0211862693759	-0.0220419068845	-0.0702170963502	0.0153040618739	0.149733667557	-0.0659962640249	-0.149450824673	-0.0785145040555	0.168243236004	-0.0408634055853	0.0311631992031	-0.0612834654534	0.0569258276983	0.170465286684
boat	-0.00997084885276	0.0168303243053	-0.014261333308	0.0741828681223	-0.0128343307754	0.0152462222153	-0.0387147268458	0.143383219972	-0.00436142902359	-0.00631719381031	-0.0407247878463	-0.0340812605248	0.00375361255299	-0.0236419140201	0.0392529852329	0.0496630629577	-0.0277338676551	0.043104666361	0.0422689127427	-0.0570913071242	-0.0638331358233	-0.123949929657	-0.0271731960961	-0.169648799985	0.0755820473856	0.126881610528	0.0652554722175	-0.135118725866	0.00665730655866	0.236096912037	-0.0562961586007	0.00896472981868	-0.0436514440732	0.129570868488	0.0332741943648	-0.0822037288492	0.267738731609	-0.00377127541903	-0.0240110324804	-0.0644418350107	-0.0300032696121	0.00845504923811	-0.0876971188984	0.19922430753	-0.0654403593624	0.0104668055297	-0.00949326695866	-0.0473596187914	0.117842920707	-0.0532075930774
bolts	-0.00828468373854	0.0163708454323	-0.00937095565351	0.0673240266954	-0.00553321869042	0.0139684741932	-0.0907458931715	-0.0215210352924	-0.0082919772969	0.0117366565296	0.0379896359157	-0.0858473719462	0.0354352229	-0.0628619445297	-0.00649714793751	-0.0466476852371	-0.0168320731722	-0.0332922769281	-0.0263569415763	-0.0205701574059	0.0260981259618	-0.0184903440011	0.097578379298	-0.0511680138448	0.0850686699198	-0.0399972637514	-0.14347119853	0.0279385770824	-0.0142235263476	-0.043702551181	0.0449454649247	0.0532742697244	0.060545230618	-0.0273155321809	0.00489840881777	0.00607485417546	0.133275171726	0.0637794003572	0.168193152988	-0.025027579296	-0.00354621633994	0.00889661770487	0.0248068098188	-0.076326382488	-0.0317722253957	-0.0734835394876	0.0178264845389	-0.0123021825068	0.0765911928165	0.027672969567
bomb	-0.00924480659464	0.0142219556896	-0.0174261574102	0.100770438654	-0.00477168160904	0.0434840369568	-0.153527789599	-0.108797204569	-0.0634870612979	-0.174599919859	-0.175891935018	0.217477241275	-0.0332107774798	-0.0435481137276	0.0145894220238	-0.00413463883339	0.00115442312438	-0.00263903729744	0.0186441659826	0.00208353096367	0.000799694466091	0.0192236059448	0.00718947252851	0.0225342232115	-0.00400203067762	-0.00359097274355	0.0481181728307	0.00475658682328	0.0110687542905	0.0201469063994	-0.0114434558578	0.0285432913387	0.0078943735463	-0.00376904828953	0.0112256665209	0.0107760716252	-0.0362375759548	-0.0166619748335	-0.0126188907107	0.0448381468689	0.0469942856554	-0.00311564567743	0.0120739381263	-0.00448843532597	0.0120890293076	-0.0478687448616	-0.0177833221126	-0.013105595972	0.040491450261	0.0102704401945
book	-0.000410870133854	0.000849880607677	-0.000975941227953	0.00502044052081	-0.000389216805182	0.00123302052507	-0.00352714885345	0.00607362524404	0.00364503697309	0.00990795992744	-0.00793293692641	-0.00107564905171	-0.000319260298096	-0.0180768877567	0.0104467017509	0.024819578766	-0.000578413372905	0.00431106613698	-0.00538426697163	0.0178763907463	0.00567118175731	0.0265952928383	0.00132509911102	0.00972713332416	0.0120717877619	-0.00179306984776	0.0104534894376	0.00458782102626	-0.00885844177116	0.0203496522642	0.00660087708633	-0.0235863431832	0.0062550760985	0.0311632129526	-0.0150053172185	0.0227999104083	0.000146482059086	-0.0194948238507	0.041143570051	0.0630314129357	-0.00239058594799	0.0248972038543	-0.0257891306166	0.00834684776304	0.0105511836838	0.0520016441692	0.0205799495968	0.06596123296	0.0702243010455	-0.0662137623833
bookcase	-0.00726093837704	0.0160435033131	-0.0173108958971	0.108471310905	-0.00567297542003	0.0142620644164	-0.054693867462	0.120193941647	0.013395493377	0.196485730867	-0.219334462381	-0.0490102940825	-0.0221785893279	0.0133678724012	0.00760532823272	-0.00108469611895	-0.0076720266177	0.0194521794937	0.00625323568657	-0.0304567692403	-0.0170668822823	-0.0107055586706	-0.0403969353496	0.0241428135231	0.00754732139757	0.0240085252203	-0.00485843028464	0.0334465910434	-0.0186539723819	0.0619791516064	0.0497969967939	-0.00228104050501	-0.00169677360659	-0.0130919516198	-0.0146413898976	0.00872345622378	0.011936141801	-0.0172767160868	0.0140201681934	-0.0352519629975	-0.0011273368828	-0.0106919480475	0.0232878905783	-0.040233483543	0.0230236763647	0.0300462971736	-0.0305745873785	0.0202980433935	-0.029779122123	0.0391271393526
boots	-0.0131572148237	0.0186081936305	-0.0129585994695	0.0479828442601	-0.000685110277543	0.0345048260627	-0.0318078691034	-0.0153294177264	0.396501288173	-0.066351331062	-0.0119246891029	0.00324989280775	-0.000485220553866	-0.0106627558794	-0.0283342433433	-0.0214780439795	-0.00795592786083	0.0151531579143	0.211400442806	-0.259739648055	0.258992822438	0.118985231324	-0.143563015377	-0.108987226566	0.038815543426	-0.0793681300313	0.0293006463629	-0.166323341707	-0.0092632537902	-0.103013517583	0.0471793001836	-0.0513480974422	-0.217870662352	-0.0451920905785	0.0901827439225	-0.0635496401995	-0.0151764726614	0.120023120709	0.0524775407721	-0.105699836949	0.0480628256689	-0.0183735590911	-0.0318717988509	0.0212991447819	0.0588713990429	-0.00538249355659	0.0217238518308	-0.0308797509814	-0.0257582776813	-0.0439556848915
bottle	-0.00879060278979	0.0355436821542	0.00942657344309	0.0530461748999	0.0137947458011	0.0267971588006	-0.0698459362144	0.0274454281184	0.0245091019	0.118813430293	0.125126965916	0.0651769970351	0.0204445323683	-0.17204520778	0.125209092392	0.231095529537	-0.00778635048214	0.00770771202281	0.0976363982705	0.194356352644	0.0533200080308	0.130124298103	0.0139639435554	0.144706054108	-0.0549334363247	0.049639432646	0.128141863188	-0.00634768449309	0.0162525363758	-0.0514705492816	-0.140538832793	-0.048612507361	-0.0622256012913	0.0133093082632	0.0470054050678	0.168922789919	0.107375665128	0.091815573112	0.130286832394	-0.075562607609	-0.0717701599195	-0.0979942409061	0.0820695604385	-0.0054889008089	-0.107431234925	-0.0157508282191	-0.0275843801114	-0.166679133084	-0.18452875089	0.0990014003408
bouquet	-0.0102768174325	-0.00119086389029	0.00299269795499	0.00112474038752	0.00042378110279	0.00129816204507	-0.00229905040788	0.000533710770257	0.0150008974392	-0.00197664433318	0.000781179979945	-0.00362537557618	0.00348785875081	-0.00744967818574	0.0201693969511	0.0196413037443	0.00746771378819	-0.00470537081514	-0.00446226062039	0.00382216006177	0.014269246482	-0.0180529870682	0.0328193480432	0.0050341205797	-0.00049525869232	-0.0238689795048	0.0277141431195	-0.0149497386399	0.014161244114	-0.00367757526827	0.00060570331758	-0.00237490582571	0.0217103918762	0.0185123446558	-0.00513885586157	0.032641222175	-0.0041194198391	-0.0204600828527	0.000411772477755	-0.0112253427778	-0.00898528915763	0.0537445410838	-0.0408675123724	0.00474129979646	-0.00797876707627	0.0193634577539	0.0384203688544	0.0959585657908	-0.0263011490098	0.0618510569715
bowl	-0.0061099930239	0.0464097237167	0.0201673885013	0.0808960699399	-0.0220375251085	0.00624613429611	-0.102954269008	0.0243293253955	0.0419078632294	0.174594090832	0.162127068418	0.116161849826	0.0073312825823	-0.121252802599	0.0531660931588	0.272014613816	-0.006911891087	0.00353475970015	0.0519611629018	0.126062218609	0.0763239790476	0.0884989584211	0.0537961249746	0.0390677420632	0.123537718518	0.0156891970221	-0.024715081242	0.0482886268845	-0.0059202975553	0.0827977107891	-0.013785325225	0.0505008419393	0.02852647573	0.0187217792624	-0.0855796895973	-0.142999996473	-0.211961478026	0.00427518480541	-0.0221775287749	-0.10312062365	0.122924249393	-0.116236805406	0.089565296524	0.0238901235336	-0.0374379136939	-0.0556320408309	-0.0481571858321	0.0664852566303	0.101137009507	-0.114139966985
box	-0.014721911351	0.0252465325723	-0.0235933645668	0.0875631702593	-0.021560115758	0.0238980562748	-0.0493790182218	0.150122688671	0.0145461337111	0.235286594082	-0.244975337065	-0.0249714482336	-0.0332368998587	0.0498864622345	-0.026032653857	0.0197258151949	-0.00660896981068	-0.0192168783053	0.0270807480841	0.104924561837	0.0663989936802	0.0575680642022	0.0300083657461	0.0419182576406	-0.0487866315213	-0.00526853376096	0.0407663407364	-0.0496571109477	0.0296260840449	-0.0610539969209	0.00973989561971	-0.00619226565041	0.0341879387413	0.0222898095461	0.0585684721501	0.0276560516067	0.102170365705	0.0044770143297	0.0372251114096	-0.0329118833061	0.0101373386249	-0.0257887601782	0.0078949482535	0.0377750130692	-0.0294857948141	-0.0252369873823	0.0273373074027	-0.0383680585796	-0.00905268092683	0.00963048544417
bra	-0.0139265535403	0.0103676977733	-0.00492537620077	0.0249115169273	0.0013801829421	0.0210202531882	-0.0161492778228	-0.00339556627629	0.190353039073	-0.0245108753109	0.00117033907854	0.00183700290646	-0.00371626578249	-0.0239241959542	-0.0131958539184	0.0168022611692	-0.00689310485186	0.0172837883555	-0.177722079341	0.150748742622	-0.152805163565	0.00735637353247	0.0145892470058	-0.000246960986644	-0.0256207818912	-0.0187696942786	-0.0191657767207	-0.0502048180827	-0.0101391187309	-0.0568745916696	0.0647615750215	0.00974789870676	-0.101957733049	-0.0763047195703	0.052510136003	-0.071124497555	-0.00637002709929	0.113729154332	0.0544876436357	-0.0524641870562	-0.063528926659	0.0874089660005	0.0208116324611	0.094926564993	-0.0662875320607	0.0516225667246	0.0419045354969	0.00563746030139	0.00668645442703	0.0200301404917
bracelet	-0.0027368379319	0.0167958453758	0.00341150835657	0.034808132995	-0.00400227816892	0.00241921091348	-0.0248819153552	0.00279629867214	0.0228107835703	0.00700986938529	0.0211723233719	-0.00105852486191	0.00903506395494	-0.038402438531	0.00501043500831	0.0320459486719	0.00159550782711	0.013930754697	-0.0017608321036	0.0330340904923	0.017038674008	-0.0180594890495	0.0184004153072	-0.101932955861	0.136091867363	-0.0503719090685	-0.0830872339855	-0.119672478972	0.0531788372654	-0.0354084092789	0.00545724314301	-0.00249216451567	0.415976891909	-0.165505201702	0.18543136808	0.100875686289	-0.166218725488	0.05785872775	0.0448907628712	-0.0512533205438	-0.0458373090103	-0.00680645788515	-0.178397106603	0.153573699973	0.152217248321	0.150206308273	-0.0900155549974	-0.120642644502	0.0240001721306	-0.009916504381
bread	-0.0340517260844	0.0776038452486	-0.0214029912698	-0.0035204975591	0.0271493089426	0.0319142237599	0.0148624922178	-0.00163402499737	0.0101421672478	0.0113672517667	-0.00229599345827	0.00131967657517	0.0120320728532	-0.0481415057777	-0.0911151314884	0.0447795388564	0.0571809228428	0.0483567173287	-0.125320205368	-0.0398531254887	0.00671032546765	0.128529613575	0.0164007798276	-0.0652631423587	-0.0233770758848	0.121771921729	-0.000881190865399	-0.0567564073813	0.0369608732152	-0.0616624486254	0.0651938672856	0.0632075451142	-0.00387309074884	0.0581288468366	0.00160699204576	0.00304568496974	-0.0199824510511	-0.0975861850044	-0.0173320026146	0.0105510511988	0.0367185145333	0.104043006319	0.026490560811	0.0201109357475	0.0292829553522	-0.0232366850087	-0.0332987895951	0.00277221688933	-0.0157835575075	-0.0314727987269
brick	-0.0112262919138	0.0609733241557	0.0113305629047	0.0412097064911	-0.0249386265397	0.00542879190066	-0.0396374922653	0.0171094726978	0.01533440634	0.011660855793	-0.0325537970491	-0.0272126355122	0.0871978302455	-0.131172864106	-0.0952909116388	-0.0435727236965	0.127276384848	-0.0334386964789	-0.0435669326337	-0.0239034976427	0.0473862555089	-0.0829936050542	0.01203695634	0.0530795334098	0.116438164516	-0.172583736626	0.0605493522061	-0.0376160219553	0.0740511353892	-0.0779476527891	-0.113609597277	0.115596750218	-0.0381595107	-0.137937421032	-0.13863470454	0.00619309289492	0.0244596638104	-0.0637854213551	-0.0706308866798	0.137652962021	-0.0513510489444	-0.071589152901	-0.0401853075641	0.0523667812015	-0.115738919245	-0.0128300586332	-0.0170751405763	-0.025812201901	-0.0423910930128	-0.0198965427814
bridge	-0.00964922017621	0.0150507816479	-0.0123698800392	0.0544431840808	-0.00190328857435	0.011585321524	-0.0336132151799	0.016800196951	0.00535825885615	0.0173936076152	-0.0119914397863	-0.0166252682714	0.00295044285762	-0.0348739913375	0.00511922778291	0.000654317396765	-0.0144618900682	0.0107264887009	0.00103022506861	-0.0167612830123	-0.0190045001063	-0.0488523931284	-0.00188596363402	-0.0336915401021	0.0313222544618	0.0157276098434	-0.0215636514492	0.00118121818382	-0.0198021655777	0.0169851765353	-0.0193410481804	-0.0173602245991	0.00481866049751	0.0209654197404	-0.00922949496803	-0.00289976632922	0.00557934961571	0.013674506718	0.0144084091386	0.00633282453301	0.00552962234195	0.0379864430593	0.0257983828464	-0.0244722960347	0.0145168212933	0.00498800619118	-0.00683964220079	-0.0302929979215	-0.000100265002869	0.00421307413471
broccoli	-0.0445610133687	0.40322948498	0.165883837949	-0.0442643085724	0.423621440411	0.283578988726	0.0634130377159	0.00730624790392	-0.0286885701119	0.00140664923031	0.00809712672508	0.00290221449046	-0.0318036750483	0.0326279592473	0.0648884933686	-0.036664468838	-0.0483371092747	0.00721478057911	0.0467170661485	0.0108697678361	-0.00552224640666	0.0353639793022	0.0265299887316	-0.0121786115364	-0.0275054624966	0.0125269532202	-0.015171661155	0.0495448512601	-0.0135394798425	0.0199583919572	0.00608070772066	0.0257033149247	-0.00717533994413	-0.0257534583936	-0.00507257699572	0.00315365651743	0.0365232432484	-0.00063093811715	-0.00438245046046	-0.0299360125961	-0.0287334288739	0.0254753690265	-0.0213955695017	0.00237185829618	0.0434664242496	0.0372516068514	-0.000324233976103	-0.0195107799077	0.040849836654	0.0176366481386
broom	-0.00470750345135	0.0228135320158	-0.010854648776	0.107823487738	0.00878318854621	0.0262575113205	-0.116120933587	0.00654865609167	0.0275799697173	0.0753858313367	0.0340235130316	-0.0560177511792	-0.000956786637712	-0.103424853747	0.0687542417667	0.00538892589754	-0.0335454867337	0.0212121166462	0.0371019944642	0.0122246697045	-0.0767631816085	-0.0505567819786	-0.134309739004	-0.0199046263664	-0.117598340798	0.0698074991711	0.090084076193	-0.104148153463	-0.0372034965641	-0.0391501249541	0.0199697225617	-0.114154530977	0.00416413159101	0.0290381811858	0.0813882559613	0.0237649174305	-0.0255704298379	0.020480485563	-0.110649982686	0.257764765426	-0.026728441032	0.0393150042875	-0.0787915743563	-0.0747229901919	0.11479607005	0.0281419387497	-0.0920128384053	0.110939956521	0.0170225856077	0.0232808756962
brush	-0.00230863863642	0.0104373422703	-0.00578428174769	0.0817151966456	-0.00123507002582	0.0209889827587	-0.11632007383	-0.014926683135	-0.00198500203935	0.0594449734556	0.0971234163823	-0.0363834931311	0.00457851995818	-0.109930252947	0.0417741682348	0.0107071408046	-0.033714051307	0.000421963136139	0.0410147944819	0.0359416444996	-0.028784587859	-0.00607435960074	-0.0812030629484	0.0455918879532	-0.0971796171341	0.092648149464	0.0774123200087	-0.078712515136	-0.0605393101434	-0.0293176732857	0.0279104882641	-0.104141550312	-0.00605394703867	-0.00336318265438	0.079758229346	0.00572643419792	0.0207480550132	0.0192925059915	-0.138988119777	0.259724798083	-0.020575615327	0.0793044310838	-0.100692628929	-0.0591677171404	0.118517483733	0.0462043747501	-0.093344284164	0.13108611585	0.030901337594	0.0553856989529
bucket	-0.00787511689977	0.0498796773968	0.00587020716085	0.179990582103	-0.0218905167142	0.0389413620751	-0.251466759014	0.0181549725341	-0.0026374274303	0.137228690703	0.24555419948	-0.0303074668693	0.00800187726271	-0.253647543305	0.0837540967055	0.197727350704	-0.0437043905326	-0.0168610239872	0.105463178272	0.152925222919	0.0587829247693	0.0992611077667	-0.0330789277603	0.154136111571	-0.0939912412723	0.0853202058079	0.0713808144168	-0.00364844159451	-0.0947872462885	-0.0878421188977	0.0455262932744	-0.126189969278	-0.0543621177109	-0.0549718990202	0.0978550096288	0.0876790560416	0.16853626573	-0.0786687305106	0.0473850296195	0.212413078387	-0.0298808257615	0.0418670458868	-0.0878544238551	0.0365211378334	0.0901625060526	0.0573372786471	-0.0660456011552	0.0272580251686	0.00678007014986	0.0890062500817
buckle	-0.00817401906368	0.0167316641848	-0.00764297321607	0.0726823865621	-0.00351421607381	0.0115488576006	-0.0881901388382	-0.0210105013828	-0.00770666583048	0.0238714454199	0.0464671340301	-0.0601994514405	0.024013817523	-0.0336333285109	0.00828904960448	0.0185763125465	-0.0147966041524	-0.030280926468	-0.00511621251702	-0.0186449671553	0.0246274659655	-0.0308028203828	0.0748142278359	-0.0244146436726	0.091853823899	-0.00046704526048	-0.155260683347	0.0346562978821	-0.0293560386656	-0.0255134402494	0.0857307804039	0.0274712010056	0.0372974532217	-0.0300698117237	0.0326872869238	-0.026452187971	0.148111621755	0.0202659692395	0.140676112513	-0.0319445693073	0.00153494736493	-0.00857619402747	0.012436679444	-0.102245500271	0.0053021534491	-0.0470464649209	0.00705952618345	0.00491104335131	0.00284812508673	0.0593986641352
budgie	-0.45422294382	-0.0491649523946	0.0643594365307	-0.00119348491617	0.0167412106686	0.00230481244862	-0.00835865912611	-0.0150491159865	0.0239157858401	0.00133132381003	0.00375536718376	-0.0118303891518	-0.0537281608225	0.0389426594399	0.287898993482	0.0223149700868	0.0155177250308	-0.270704336867	-0.0681504995898	-0.120872688348	0.065212777478	-0.0951518811922	0.338321243619	0.0167557084561	-0.0190055000303	-0.0390229791099	0.225627277115	-0.167913066984	-0.0495679277437	-0.0467723913887	0.058986740089	-0.116904405405	0.0677236839451	0.0678979075999	-0.109353787896	-0.0167814251936	-0.0239172257604	-0.0880227378343	0.0184106487706	-0.118714987244	-0.0161027636738	-0.0117275502429	-0.049144366596	-0.0158256432465	0.0370208704097	0.0689201328064	0.0363586324304	0.110932379598	-0.0391560534488	0.103027092717
buffalo	-0.1520335773	0.179973758938	-0.352968812182	0.0616857005122	-0.240617035987	0.277364861316	0.192564171382	-0.0600010649953	-0.023754332307	0.0387525433318	0.0234623356615	-0.0177211221206	-0.135872631395	-0.051018284773	-0.183298246687	-0.00407839894841	0.0161353538109	0.231273492234	0.23577095421	0.034353248792	-0.117131234634	-0.00789695193423	0.16032093522	-0.0277981064315	-0.0590971983318	-0.041572322597	-0.0640586008604	-0.0471074307993	-0.00100416240563	-0.0836970222799	-0.00452090708234	-0.0750520461747	0.026666063044	0.080076873617	-0.0559993222222	-0.00259529184995	0.00872516002694	-0.0371941038374	-0.0375810630554	-0.0331572485243	0.0541984237444	0.0198201510102	0.0457897411605	0.0294794040364	-0.0045270699613	0.0637931690191	0.0669990685336	-0.0249785568389	0.00107519890582	0.0373384323063
buggy	-0.00790513230784	0.0187676681656	-0.0181723752837	0.122631110993	-0.0392201274997	0.0583057022638	-0.123354186061	0.412324984599	-0.0542065299268	-0.202680592845	0.135490510388	-0.0388317302314	-0.0435741834162	-0.0153679717716	0.0218390596764	0.0107527551358	0.0325485741557	-0.0199828694149	0.00355883616344	-0.00727455041121	0.00552044044205	0.0500169373053	-0.0304298307219	0.0632903495618	-0.121309870033	-0.048560566495	-0.0325265230487	0.0257434893795	-0.0690353994724	-0.057250120452	0.0344298899446	-0.0577490149553	0.00117379833176	-0.00421249654225	0.00368409365619	0.0211292090897	-0.0138105615669	-0.0859551087901	0.0222743034126	0.00712906700753	0.0069219835453	0.0533521660111	-0.0129737619714	0.0170331270199	0.0147739563429	0.003816793591	-0.107737532421	-0.0547962505093	0.052404429691	0.00226260585303
building	-0.0121577848223	0.0169283087626	-0.0212791564312	0.0803358340951	-0.0125751707582	0.0245411625361	-0.0328599577686	0.108546141171	0.00357631233465	0.0750860644285	-0.108096444428	-0.0294998423578	-0.00238135458681	-0.0155956724876	0.0265620983807	-0.00068124341855	-0.0104085143832	0.133485084452	-0.0573195351537	-0.048155459472	0.0372349961002	-0.142543553588	0.0593208373733	-0.0512027641379	0.00464521955741	0.169580780563	-0.0342253546462	0.109421547691	-0.0849707494592	-0.069446667003	-0.234197063282	-0.135067078217	-0.030142070159	-0.142683220307	0.0135663684927	-0.0517667320264	-0.0829516375581	0.0226968607409	-0.023932602608	-0.0163286305302	0.0555345607404	0.0766491569756	-0.0117945529848	-0.0322483187996	0.0127611429888	-0.0558501224563	0.087153015595	0.112094058747	0.0102406427831	0.0707741575841
bull	-0.037477123809	0.0342994759168	-0.0878236859924	0.0344683611012	-0.0705115623014	0.0816935896883	0.0391083154161	-0.0186366327945	-0.0136166157702	-0.0055157881068	-0.00346788731557	0.00561756316324	-0.0430017677391	-0.000226093655171	-0.0444746402186	-0.0115956828898	0.00326812820178	0.0858888253235	0.0749553561297	0.0281100367287	-0.0229290125002	-0.00739499002632	0.041629957665	-0.00505347074478	-0.0287255052637	-0.0356716381319	-0.0261689848255	-0.0384770689976	-0.0262558626879	0.0203190702714	-0.0337086223371	-0.0616084126079	0.00818934033347	0.000417188780034	-0.0373613251082	0.00408304875258	-0.0111419033235	-0.00058959437757	0.0195484790043	-0.00876944532247	0.0959463129646	0.0079267310523	0.0680705676827	-0.000113996696233	0.0215741764218	0.0235804751182	0.0737764814596	-0.0297458585094	0.0259205139713	0.0619913187465
bullet	-0.0176528448206	0.0272344235789	-0.0294962374773	0.101505597548	-0.0271439228722	0.0570211139861	-0.136395685708	-0.0673387134985	-0.0550221571873	-0.122612149885	-0.103644440995	0.133569374498	-0.00516537920539	-0.0230485729351	-0.007268966217	0.0224369362181	-0.0448408140411	-0.0298477904557	0.000128789167843	-0.0197722523595	-0.00296773758389	-0.0431639775525	0.053351798252	0.0164472058701	0.0442707259809	0.0692774695314	-0.0237651877354	0.0471359719364	0.0372558954058	-0.0119445169811	0.0617588226467	0.0871360472141	-0.0206722142193	0.0110075954831	0.0810801739576	0.00966083961793	0.0282586505982	0.0729569025241	0.031631585749	0.00413998234199	0.0043113937041	-0.0169126936275	0.0220816842552	-0.0449684703304	-0.00527139345663	-0.004168607871	-0.0454754962001	0.096981619427	0.0370797393958	0.0280086980006
bungalow	-0.0125091116034	0.018978219066	-0.00940062929059	0.0211400952005	-0.0102413710284	-0.000834100777549	-0.0176476916998	0.0292093696672	0.00462442718222	0.0270120689597	-0.0559013024859	-0.0291363064126	0.0438342608542	-0.023936467103	0.0264376050791	0.0716447649007	-0.019479905965	-0.00840890285743	-0.0450078337495	-0.102203155585	0.0170334693574	-0.181655949207	0.0908855359396	-0.115860397502	-0.0481884718828	0.179933369045	-0.100479114978	0.164838109483	-0.0742830752553	-0.190246011791	-0.292413660623	-0.0826502280711	-0.0594922257485	-0.0604884022182	0.0470608826448	-0.0327154337573	-0.132440191416	0.0900608686785	-0.023654810448	0.0281614051461	-0.068683789401	0.0378590720414	0.0211130983515	0.0625460989728	0.0207881098399	-0.0223068268386	0.112003831963	0.0280340664653	0.0578037609464	-0.0392540786311
bureau	-0.00802142142145	0.0185299935964	-0.0215613644847	0.125348087233	-0.0140433944467	0.0212555808685	-0.0653153396083	0.187566349813	0.0254028984224	0.322858144434	-0.407288966484	-0.0737868213646	-0.0578101553782	0.0700417886017	-0.0221402569409	-0.0602630309561	0.00121113255035	-0.0543062793711	0.050362151782	0.0433168030233	-0.0335500627818	0.101305843651	-0.0358847472035	0.0830158696134	0.0137096990084	-0.0573470262159	0.0468392183734	-0.00373192737233	0.00673072894418	-0.0109758870307	0.0585460616029	0.0056810677973	0.0761132318534	-0.0228795890185	0.0145176724122	0.00956495948428	0.0677585203123	0.0253153794357	-0.0375209117926	0.0120964263201	-0.0403825840511	-0.0426247224999	0.0335796790585	-0.0411051271185	0.024013251565	0.0485761572057	-0.0612538372994	-0.0445724055463	-0.100629077289	-0.253695143936
bus	-0.0266976869053	0.0247334493269	-0.0164444561064	0.100563420772	-0.0508420945825	0.0544462188502	-0.0566673028354	0.4165480962	-0.0486452094938	-0.224658027492	0.0670388473615	0.0243099346727	-0.0142173068537	0.0997280556804	-0.0232424018176	-0.0650285614099	-0.0596284882097	0.0528615301644	-0.00618082423674	0.0319449068045	-0.00299669605229	0.0567828902774	0.101138654807	-0.102429491239	0.102545042542	0.189236558389	0.116040617782	-0.0482514354409	-0.0297314600002	0.00410397224966	-0.0643405761671	0.0353212366296	0.00831069029938	-0.118526950374	0.0333425183794	-0.0471043176616	0.028144986519	0.0536783982595	-0.0552726204748	-0.00259222158706	0.102301721733	-0.10308038707	-0.0196912958146	-0.0946539493152	-0.0511658440685	-0.0327117639182	0.00886584250709	0.0911131498262	-0.105648130027	0.0431011752905
butterfly	-0.216920395558	-0.0330640814317	0.041530519656	0.0127270654939	0.00747913896624	0.000858008018031	-0.0262932797703	0.0235788316961	0.0495247398906	-0.0260439973162	-0.0277022633871	0.00896302183194	0.376217098951	0.0590680266953	-0.0840574001257	0.0641562812773	-0.153311518943	0.0276770957662	0.0613110366962	0.0317483240391	-0.0492394731169	-0.0391161256983	0.0654847778622	0.0734767057108	-0.0354020544781	-0.0650715981941	0.018154230683	-0.00815326907136	-0.0482377582316	0.0471017533528	0.0133145181364	0.0715119370687	0.0201467427741	0.0358949271753	0.0109035929047	0.0373034193801	-0.0226218987474	0.0312926175924	-0.0135183261602	0.00579754437881	0.0450407940398	0.123582643001	-0.0712904020874	0.0199472500102	0.047153095202	-0.036470183232	0.0327685678657	0.0254664001831	0.00931497320824	0.0208286404449
buzzard	-0.619961076843	-0.120779381846	0.0764703616247	0.0117754336672	0.00759815339369	0.00986483722811	0.00913624871906	-0.00741130855833	0.000281339661169	-0.00288459181465	-0.00301337868745	0.0137189797495	0.000928813879209	-0.00737244443139	0.0366232484227	-0.0380344436877	-0.00814573424181	-0.0209993885996	-0.0286260946092	0.0262580982971	0.0397183478632	0.00282278216811	-0.114865591705	0.0239048802446	0.0189685440515	-0.0521920041301	-0.000986827768554	-0.0121560468606	0.0438810249662	0.0361170917559	-0.0891187629978	-0.145025195684	0.0124283087088	-0.0645332785702	-0.0434501424313	-0.0209576545805	0.0500582815764	-0.107822690181	0.0654437178738	-0.0787728456611	0.00622097996554	-0.00664485793588	0.202861109036	0.0294544058846	0.058896111135	0.0784333936035	-0.0308932668959	0.098799623254	-0.0618611669834	0.00185445403885
cabbage	-0.0436551630645	0.369123069512	0.151785237971	-0.0283558439951	0.397863635684	0.271656353682	0.0536460108097	0.0135297660601	-0.0170204018443	0.0212848895313	0.0118053968226	0.00691659106521	-0.0419655145047	-0.00835308525592	0.0419155125075	0.00938374932108	-0.0699663603185	0.0698873253923	-0.0251337695747	-0.017830181592	0.0384758949871	0.0170515559652	0.0254288667739	0.0323676997877	-0.00930369162279	-0.0316265453088	0.0013913824885	0.0329944242806	-0.0060560251494	0.0394644093626	-0.00986390895596	0.029316130352	0.00779718822595	-0.00876154684384	0.0162956372209	0.0015644773673	0.0149758259326	0.00661497599581	-0.013998476431	-0.0289344931422	-0.0305262583657	-0.00217844150318	0.00802791837243	-0.0130380465996	0.0095989004252	0.017527387695	0.0145545842997	-0.019000442868	0.0283207432233	0.0455744127111
cabin	-0.0100802196577	0.0199080178636	-0.0125823847163	0.0783611713853	-0.0041230715353	0.000134023047076	-0.0313780949086	0.0718153063271	0.00891530733047	0.086328379911	-0.109476091486	-0.0538712639796	0.0173452694946	-0.0524339458595	0.0592722855846	0.0667019448434	-0.0245638848117	-0.0143544815526	0.0142669885367	-0.125878862881	-0.0621514088694	-0.15502384974	-0.030148112725	-0.0750247090001	-0.0452279108995	0.107206090808	-0.0496265280179	0.0537975617287	-0.0180663414017	-0.0174383356104	-0.0540043863571	0.00203837049096	-0.0421160194982	0.0136819977344	0.0176652777064	0.0348435095834	-0.0370811898254	0.0167717013711	0.0331740581415	-0.010392668247	-0.0542530924604	-0.0269819496692	0.0187094216324	-0.00482576176196	-0.0153487392552	0.0269410387941	-0.0342611227169	-0.0571197534268	0.0379084481837	-0.025948525295
cabinet	-0.00827634826629	0.0295857406345	-0.0260249830078	0.218244967981	-0.0143937921215	0.028252966682	-0.140692676739	0.312130297079	0.0366824638577	0.506822563919	-0.478152463663	-0.0363010771335	-0.0767541117523	0.142503220258	-0.0327793453584	-0.0557215610205	-0.00124316128544	-0.0461269297945	0.0257470596424	0.0757433295655	0.0327366392569	0.0420703323436	-0.0145620857477	0.0553050940055	-0.0123236131846	0.0199898454735	-0.00542992853097	0.0126812392292	0.00538408536986	0.011771368699	0.0650897025823	0.000671699902792	-0.0107894338566	0.00281484540376	-0.00353507941456	-0.0259712854881	-0.0185380474767	0.0121668638055	-0.00306930424881	-0.0144477921823	-0.00223746959384	-0.0110188108041	0.000236664048913	0.0096891106295	0.0184188876838	0.0227066044528	-0.00269162016174	0.0154720811941	0.00342834376169	0.0153378110539
cage	-0.00668254955639	0.0133683779829	-0.00683859735614	0.0594548291757	-0.00421961288506	0.0082727135495	-0.0692970923339	0.000729458909387	-0.00756068619745	0.0319319818374	0.0363080061032	-0.0141017793311	0.0192718885649	-0.0605296411932	0.015871003134	0.0222438641836	-0.0210938680553	-0.0191197529843	0.00420861516275	-0.0113675637095	0.0104485589463	-0.0260470541868	0.0334135214682	0.0108436706742	0.0417908931173	0.0284211467515	-0.0723031065427	0.0079015742639	-0.0235431558283	-0.00751929996521	0.0463614447779	-0.00466489412948	-0.008823861901	-0.0565418593018	0.00548888277395	0.0866385108114	0.0754441401852	-0.0603463959867	0.0161042994051	-0.00911071129814	-0.0217822864209	-0.0229917915168	0.00352466030315	-0.0043183628351	-0.000202431458561	0.0212678980323	-0.00130901080706	-0.0483729939194	-0.0553930985109	0.0560714953965
cake	-0.0126068278006	0.0739947709709	0.0182273655959	-0.0112224526049	-0.00676295006523	-0.0237475614443	-0.0025917006112	0.00167918169148	0.000612496085108	0.00361371218482	0.0039336818795	0.00124100412688	0.00485964662524	-0.0228823945258	-0.0659366955877	0.0268678552121	0.0479956244436	-0.00519605747511	-0.0174397242462	-0.0184487271742	-0.010521833426	0.0170746809371	0.0233185269169	-0.0240733000013	0.0037861746948	0.0624047827239	0.0227946315996	0.000760530206956	0.0797064096983	-0.0197611600374	0.0415411438475	-0.00809489459979	0.0184536280503	0.0758656156804	0.0456793137342	0.00570350068496	-0.0132348512925	-0.101860573513	-0.0122983363641	-0.00783544540087	0.0644166841545	0.0908720020493	0.101071100904	0.0134902975147	0.0616691118243	-0.0151461575476	0.0027893114328	0.0312775060446	-0.0291341065214	-0.0536993247454
calf	-0.0524638925919	0.0633068155433	-0.101896192769	0.0152278771338	-0.0749777215362	0.0886870990068	0.0534028980627	-0.0274763914499	-0.00606464114555	0.014262226608	0.00690904846104	-0.017133999606	-0.0128155722559	-0.00919542746424	0.00461746170395	0.0249410146735	0.00589436397358	-0.0506335073361	-0.0591667012339	-0.0619837749358	-0.00429134447076	0.0450368808347	0.0189126878217	0.022083282119	-0.020808924961	0.0203966078893	-0.0908682065086	-0.00093925594033	0.0978591964651	0.0554774726365	-0.0256967865414	-0.0304616466435	-0.00539284155944	-0.0132808353106	0.0252800193846	0.0393029993842	0.0496114775761	0.0946573894703	-0.0202985134298	0.090770219816	0.106636830483	-0.0453731226272	0.0283004924422	-0.000416034259862	0.0100577630114	0.0204281581824	0.0953460203289	-0.0896592609979	0.0268236461011	-0.0146301983738
camel	-0.0438707369281	0.0365869843589	-0.0804800260754	0.0238164862776	-0.0661291754492	0.0845623272415	0.0450032772478	0.0139436057115	-0.00297178801707	-0.00796043018792	0.00749277362136	-0.00575155986434	0.00215372316952	0.000886478392028	0.0227063203872	-0.00586143914424	0.00594356123626	-0.00263546389568	-0.00497096229668	-0.0197099941801	-0.00577466343545	0.0166387681516	0.0210898519619	0.00440946236422	-0.0150963179992	-0.033549947981	-0.00258038335385	-0.0291429560299	0.0101876565753	0.0366255267761	-0.0126068076211	-0.03046218256	-0.00553014974888	0.0102540834576	-0.0153721819073	-0.00330412393207	0.0145465248334	0.0259204978768	-0.0376445325516	0.000903209420245	0.0800059462186	0.00176924325737	0.079625052366	0.0263616165426	-0.00454355909267	0.0149026015247	0.0259329610414	0.000604602418119	-0.0164013523929	-0.0322882818651
camisole	-0.0125186459565	0.017884324675	-0.00378482255204	0.0239810680676	0.00118993794785	0.0243918107396	-0.0129938104494	-0.00565072171761	0.276017387103	-0.0403330614537	-0.0114485004062	-0.00108209793921	-0.0239141866928	-0.0118795254402	-0.0146327069479	0.0139956269814	0.00829907974251	0.0202700729341	-0.237365493211	0.158325391323	-0.238824680809	0.028055407528	0.0295172761342	0.0111336133588	-0.0166871364269	-0.00667967984713	-0.00419096873213	-0.0349683556566	-0.0377111725218	-0.0780207025395	0.0814552093764	0.0388845838795	-0.0876410965886	-0.070950256546	0.0479494672359	-0.0916185037349	-0.0137548611324	0.103316684593	0.0304320334277	-0.0495806987192	-0.058319510478	0.136284682645	0.0498810985526	0.110574941327	-0.0619557151173	0.0418074604345	0.0406916381795	-0.0211951240854	0.0126350674475	0.0379544049241
canary	-0.545686139764	-0.0558109013797	0.105407312553	-0.0106199396774	-0.0185524811176	-0.026432802994	-0.0145827674991	0.000326597459011	0.00761219797602	-0.00161073022511	-0.00426953703315	-0.0260765631419	-0.00582649611806	0.0669363344857	0.233043147317	0.0131522732337	-0.0460522355606	-0.215713691555	-0.041031107955	-0.134153304764	0.0150540606163	-0.048766339756	0.336100993182	-0.0362785702461	-0.0327247853296	0.0717327215319	0.24582369728	-0.169816060827	-0.0603481878112	-0.099845392069	0.132979710975	-0.0879266020013	0.0586053618283	0.0047377614479	-0.219923422939	0.0255636346731	-0.0355800568499	0.0205186881818	0.0308132181994	-0.0712981630284	-0.0601009876924	-0.0471219249219	-0.0333386105309	-0.0344314693284	-0.0123223953322	0.0428748457814	0.0226106559897	0.000694114343381	-0.0197646955178	0.0191212574578
candle	-0.00116524275731	0.0015572557181	-0.000626157952939	0.00762681520832	-0.000688116320364	0.00296224872631	-0.0107784761802	0.00394553461433	0.0236107308103	0.00431919437498	0.0116356170139	-0.000175023158742	0.00879574159958	-0.0200329065069	0.0140984201666	0.0205758064115	-0.000103726665214	0.00960539733901	-0.00948779143499	0.0117096106614	-0.00101955698542	0.00550334949381	0.0266516597998	0.0138113581693	0.0134801872544	-0.0216280073011	0.00353375190501	0.00956682575865	-0.00890239799043	0.00786182540136	-0.0168138696114	0.0326952878342	-0.00220821725839	0.014066700941	-0.0118711798197	0.0300927367007	0.0158260009042	0.0346544024291	-0.000218312226646	-0.029756161531	0.00350273559427	0.00790823981043	-0.0264728424762	0.000290406436953	0.0262548183698	0.0304537945608	0.0422719345823	0.0125241119419	0.000315890240669	-0.0154962564811
cannon	-0.0342592442309	0.02067251438	-0.0290007862361	0.152978992061	-0.0203726438357	0.0606136520754	-0.153017078537	-0.00312976350776	-0.0643526660066	-0.20354031748	-0.153839712472	0.237510443881	0.00123240178048	-0.163011073197	-0.039024726911	-0.112233683224	-0.0161000208119	-0.0247941376528	-0.0216395234158	0.00953660677947	0.0269326715195	0.0430176181047	0.00107539373586	0.0353889558291	-0.0102182004726	-0.0376655221789	-0.0411479684393	-0.000634111216826	-0.0299940946627	-0.0281367833457	-0.0320465162446	-0.0607506970819	0.00951547298536	-0.062221517847	-0.0969771629982	-0.0374887070174	0.00834966603789	-0.121518515119	-0.0295232705071	-0.0542284788278	-0.0324042329663	-0.0162210544253	-0.00943404578159	0.0687304912738	-0.00793866445636	0.0215977922001	0.0248757957269	-0.0748247397777	-0.0786582202361	-0.0516259490373
canoe	-0.00346207558799	0.0110612538723	-0.00906309248657	0.0568078558541	-0.000363190589667	0.0115929404909	-0.0347600809264	0.0704222862446	0.00963052428451	0.00789878536925	-0.0440052524218	-0.029104528145	-0.00140955714277	-0.0268922818817	0.0416238466612	0.02402786363	-0.0243875032769	0.046758955558	0.0295303406393	-0.0308487165927	-0.0713365497343	-0.102853486769	-0.0725560511732	-0.149335881507	0.0297567336093	0.0659489345439	0.054954398133	-0.133527829226	0.0183462473522	0.174602622708	-0.0597759615873	-0.0267782136823	-0.00820649543675	0.0791860863408	0.00499914323992	-0.0677098780748	0.127658220581	-0.0191011150667	-0.0358764115627	-0.0228231392231	-0.044538983372	-0.00624788624563	-0.0375136177921	0.136013479329	-0.0334904298861	-0.0261393580365	-0.0301197087715	-0.0641208811917	0.061285703361	-0.016825565011
cantaloupe	-0.038314297188	0.422258810701	0.317096765991	0.00837129911329	-0.370749056884	-0.230464112361	-0.00916960311492	-0.0303264099197	0.00268289148085	0.00601993406424	0.00690451414551	0.0107569454773	-0.0694601911806	-0.0196028824593	-0.00121884119791	0.0177285032772	-0.0803402781142	0.0299927116163	-0.00658551466094	0.0287157851574	0.0102810770418	0.032932290696	-0.0166846446016	-0.0736909665175	-0.0351077936114	-0.103959889764	0.0120372295997	0.103157903261	-0.0208389683737	0.118259241375	-0.011828290741	-0.0377595555402	0.0172934046884	0.00281423756878	0.145577373141	-0.0177179048525	-0.0316043916703	-0.0499992031653	-0.00229228934172	-0.0218760278536	0.0259921233507	0.0267761306964	0.0143171388511	-0.00779043760856	0.0301681438697	-0.0300499593573	-0.00174872796882	0.0228600964159	-0.0353484559603	-0.00496472180678
cape	-0.0225124992954	0.0230919861852	-0.00870015925698	0.0526340522016	0.0120992046198	0.0347233400466	-0.0322729261746	-0.0209455939372	0.298988250718	-0.0677182047344	-0.0121249889855	0.0125290466508	0.0197278762909	0.00764738808999	-0.00686958149135	-0.0406966180031	-0.0339634121639	0.013153138931	-0.0320847950916	0.0694920896645	0.00288295164469	-0.0250878826652	-0.0967323758346	-0.0357836026469	-0.0225164504637	0.00163082796417	-0.0143718975283	-0.0597004372339	0.0253649990666	-0.0251838244652	-0.0143595647458	-0.0719318550458	0.0551805171691	0.04247550565	-0.0356450886588	0.0096578946068	-0.0434344146611	-0.0448433131096	0.0417956425832	0.0559722612154	-0.0466438569985	-0.0613945664434	0.049067574566	-0.0534671234017	-0.0573019193884	0.00801538163438	-0.0176026838883	0.0568818481418	-0.0142836549037	-0.0292076892386
car	-0.0191616254367	0.0261876988804	-0.031699569696	0.121579702387	-0.0658560146021	0.0866233856077	-0.0857201200774	0.549277119752	-0.0423749283986	-0.266120152977	0.0787540874396	0.00942441357414	-0.0364003536354	0.108088830048	-0.0244558787321	-0.0437629384836	-0.0187242826648	0.0219328299292	-0.0366199615532	0.0427251844814	0.0172382609037	0.0495457385555	0.0513706809554	-0.0583445895671	0.059722755928	0.0962970039535	0.064383490284	-0.00399588170968	0.0108730601589	-0.0446961345664	-0.0556661146801	0.054322740253	0.0284472532467	-0.0753074050351	0.0722615857837	-0.063441200787	-0.0456401974251	0.0158894785968	-0.040163613223	-0.0122145446509	0.0479629300796	-0.106770251952	-0.024265308514	-4.32000394369e-05	-0.000795745226423	-0.0802256409294	-0.00143257027956	0.0689008435499	-0.0550683410667	0.0733380854107
caribou	-0.117112735616	0.117124196159	-0.292511645681	0.0561996123889	-0.234517637004	0.258556805378	0.173919128951	-0.0562284836003	-0.0244378340048	0.0297999202213	0.0311968158995	-0.0118544473618	-0.132608599171	-0.021530626234	-0.156059743804	-0.00568821330082	-0.0378215189262	0.188315902649	0.25102036819	-0.00373192790596	-0.160063709052	-0.00163464457531	0.235674668044	0.0755325712165	-0.0444612314066	-0.024201465143	-0.0479253617047	-0.0826640756461	0.105472943167	-0.00575425382944	-0.000957647622286	-0.0256239305474	-0.0711736737024	-0.0111581815353	0.0492419665829	-0.0615068802088	-0.11174317844	-0.102353374751	0.121263668198	-0.0277672092776	-0.168632643098	0.02907058414	-0.108555867206	-0.112813708587	-0.0384872232906	-0.0621829822545	0.0123031375223	0.0363403300882	0.0015583108594	-0.0477126808365
carpet	-0.00925391299339	0.0106624311075	0.00183382283615	0.0128432188093	-0.00819615168696	0.00609618290749	-0.0105209754771	0.00333998096551	0.0987914838056	-0.00642580727031	-0.00872957802874	-0.0039046987579	0.0119828253749	-0.00131952562049	0.00956077952504	0.0243085131037	-0.00323790946665	-0.00923586099676	-0.000574128512886	-0.0353301911412	-0.0079874724656	0.0288096118822	0.0432518408571	0.00860424825168	0.0189849388463	0.0105489298759	0.0194002320212	0.0147307549103	-0.0245164263345	0.00647623503873	-0.00507776731902	-0.000410509574463	0.0272947737906	0.0369715728712	-0.016211595714	0.064865442892	0.000541391963052	-0.00185433559963	-0.0396203092534	-0.0179073594173	0.00835000694042	0.07666696198	-0.0290663140205	0.0369360209872	-0.0397933014531	0.00244113546388	0.0602205981436	0.0825078186185	0.0070365544603	0.0553733472171
carrot	-0.0271751158485	0.244276775589	0.126432806032	-0.0117819969496	0.21883468823	0.150519334639	0.021755133748	-0.00541503696269	-0.0148090069491	-0.000100006154862	0.011233973925	-0.0070906180876	-0.0987561399334	-0.0171198112089	-0.166193635645	0.057995909851	-0.142472239381	-0.0704160412555	-0.0348067917013	-0.018362208318	0.00570145749664	-0.0303596363225	0.00606560678091	-0.123257336916	-0.0283495280049	-0.143680925379	0.112617967687	0.150008000772	-0.11124229461	0.142625177604	0.0565923805889	-0.151436985236	0.0394392944138	-0.0152121668134	0.0722391718815	-0.00531352472231	-0.0171916096114	0.033410890755	0.0561331343857	0.0119628075549	0.0074365706112	-0.0197454638183	0.010478162101	-0.0341523207221	-0.0122218247554	-0.0875067617095	0.00986260592477	-0.0090730516443	-0.0642763070498	-0.073335040296
cart	-0.0119726961832	0.0260832483005	-0.0279943499385	0.156865781317	-0.0457122152842	0.0619624049158	-0.108018378143	0.523248821923	-0.0578822442124	-0.21259803031	0.0673470019861	-0.0575731422311	-0.0675905327607	-0.0147294197198	0.024518155815	0.0155878568614	0.0682553911245	-0.0105258380067	0.0086633396768	-0.0680633751794	-0.0210656919046	-0.0316015640061	-0.0843814920993	0.035736638714	-0.1602718885	-0.132504431889	-0.0964661430205	0.00582622274185	-0.0512406453301	-0.0160952295594	0.0525196045632	-0.0241248545169	0.0140501554756	0.0578543570706	-0.0790079712727	-0.0037361354945	-0.0787752256344	-0.101719647229	0.000773384093533	-0.0959441035295	-0.0781179327916	0.0813256399226	0.0321570849963	-0.00458148627519	0.0200905891692	-0.0336222003109	-0.0894211951202	-0.108326702806	0.0358048649789	-0.00836801344082
cat	-0.117075241872	0.0951224164228	-0.227062472819	0.0239022052158	-0.168169934209	0.182259494446	0.119810929428	-0.0677798596002	-0.00845328389994	0.0236364612965	0.0157438159656	-0.0139726685706	-0.0110697559256	0.0371774741804	0.159595633636	0.0167026021197	-0.0162977570876	-0.241720291214	-0.118038307853	-0.08033065444	0.0713419045236	-0.0461390101415	0.0690443591195	0.0781399780086	-0.0233550538322	-0.00810044879174	0.141054323381	-0.0959857935828	-0.0730298934289	0.0834720586451	0.0202466094235	-0.00449074385432	0.003928725015	-0.0892347649191	0.0177576586564	-0.0709399181857	-0.0578731184839	-0.123163446259	0.0566382360463	-0.0352355165087	-0.0781279156188	0.0322817992972	-0.0238275702397	-0.00233802784113	0.0112351871486	-0.0497027137914	-0.0206659048324	0.00332787127374	0.0103924764876	-0.0329087037168
catapult	-0.00868411553809	0.0136166344175	-0.0189355517977	0.0913405712983	-0.0121908366574	0.0296708391567	-0.0805787131867	0.0619852197044	-0.0287103547384	-0.0591552407769	-0.106651575042	0.0434280500245	-0.028120879011	-0.0510980790068	0.0202552415125	0.0266960821652	0.0200288393002	0.0284149487809	0.0357724911737	-0.0378815806449	-0.0471524275976	-0.0542365939615	-0.0405655016476	-0.026462749687	-0.091348115045	-0.0324409157857	-0.000818412525051	-0.00708338071107	0.0159252252127	0.0399010271899	0.00153035947196	0.0139649300767	-0.011330005092	-0.000607021464654	-0.0715499609136	0.0249243797106	-0.0580543553609	-0.0395984036263	0.0175998432286	0.0312933738717	-0.0283780586653	0.060754614685	0.0435646940834	-0.0237245897709	0.0161214387715	0.0230172619486	-0.0501029199001	-0.0685920810198	0.102321354133	0.016965825604
caterpillar	-0.0322259713971	0.0423263654683	-0.0127853560775	0.0201661359049	-0.00274081602869	0.038469545114	-0.00317189937492	-0.00216855928436	0.0297315942488	-0.00831537844886	-0.0219452996897	-0.00183070219013	0.232042417737	0.0347092831186	0.00590040606764	0.0326355015126	-0.0768002237508	0.0113428631413	0.0288813718965	0.014015365589	-0.0158744010738	-0.0200612943028	0.0234987775299	0.00101246879124	-0.0506291830284	-0.0600269779078	-0.059127535988	-0.00504194984844	-0.0221376781781	-0.0218088819651	-0.00990729528738	-0.0330723889556	0.0509306129346	0.0699577180362	-0.010047265927	0.0365426412388	0.0227217258466	0.0366023867986	-0.041839760886	-0.00922300611424	0.0523934134631	0.0168699015086	-0.0331476314791	0.0562486226458	0.0207446202087	-0.0911613592755	-0.0638306715108	0.117263971773	-0.0496849424912	0.0379861557575
catfish	-0.0940210264442	0.291229381162	-0.505816256791	-0.196692407599	0.185165972923	-0.40075587106	-0.158795090187	0.0421506334855	0.0063181053756	-0.0183606162471	-0.00167041408308	0.00507807861896	-0.047053474937	0.00249598028246	0.0128929441345	0.0032122844449	-0.162687360791	-0.0110121524882	-0.0246788714781	-0.00209504393707	0.0121922564327	0.00801304491155	-0.0324959595234	0.0258058276612	0.000873039486166	-0.0473961600916	0.0190360355111	0.00270116808213	-0.0132535165422	0.0101101604777	-0.0155490779213	0.0390082159258	0.00254745548942	-0.0232077610435	-0.0180292435176	-0.0138134466824	-0.00199684546171	-0.034093758778	-0.0125101771957	0.0119169075183	-0.0172806520678	-0.0123053920596	-0.0294874524834	0.0101536243699	-0.0271664830116	0.0245544622444	0.0081209515542	-0.000148341004884	-0.00034007507934	0.00135334687304
cathedral	-0.0133552910863	0.00875556829383	-0.0201298267406	0.0250023532379	-0.0141847614339	0.016232690301	0.00843067503393	0.0263889537361	-0.00320592957422	-0.000968173948399	-0.0103064912964	0.000832523966115	-0.0110563529729	-0.00877261771746	-0.0186696185713	-0.0111944759678	-0.00144429699934	0.0564161342933	0.0212719313022	0.0213015426627	-0.00236875662532	-0.0225536403631	0.0286487521382	-0.0119397369808	0.0129352512289	0.0425280460792	0.0267905735976	-0.0174585418666	-0.0427740155944	0.0112733490325	-0.16091741908	-0.110190060543	0.0141080351597	-0.118239483367	-0.0399766088552	-0.0321435463355	0.0451057922857	-0.0495456640985	0.0696157386537	-0.0880741733238	0.336846419677	0.25188087452	-0.118506526364	-0.173365196267	-0.246147303126	0.189766855088	-0.189889399546	-0.0354564655407	0.0199386269682	-0.0468106702472
cauliflower	-0.063594687823	0.330211630163	0.124233897971	-0.0291840234095	0.376806932674	0.26485425243	0.0662134330468	0.0135068707854	-0.0202124373906	0.0271389383703	0.0113506030627	-0.00163699033655	-0.0923797029744	-0.0597109770871	-0.220998172126	0.0824312050538	-0.0729699604253	0.0124627501339	-0.227514747125	-0.0554727691138	0.0500145009285	0.0886504468086	-0.00536966464903	-0.0820101124819	-0.0529979879918	0.0429303340145	0.0174704642384	0.0103234961558	-0.114730969735	0.071562558323	0.0605556768905	0.0141487625794	0.0043865626117	-0.00511189304241	0.00615441638357	0.00817754989762	0.00272766359893	0.0188726972552	-0.0112431517064	0.035412368332	-0.0363405705506	0.0236199597192	-0.0840046222368	-0.0643695334593	-0.00870475668952	0.0035913538106	0.0351069488078	-0.0437676936097	0.0148786522169	0.00524062488158
cedar	-0.0101507819013	0.0824368607097	0.0229803711049	0.00503929543464	0.0921323062721	0.0766057740678	0.012577481942	0.0184072455331	0.00504520989443	0.0223963584389	-0.0434653298717	-0.0178754682735	0.027390963033	-0.0329749117183	0.249504079368	-0.0539221752978	-0.00582468753454	0.588268965398	-0.268781427028	-0.159076479663	0.19741040608	-0.102488456174	0.0810017970019	0.272285622564	0.0788876370681	-0.0327921313636	0.0909644788566	0.050024689653	-0.019298091557	0.0196303445444	0.0904225934911	-0.0339166796726	0.025826506715	0.0359713233229	0.0562075331789	-0.00652513236456	0.00858203004114	0.0402341377543	-0.00346238477847	-0.00611586414602	0.013789080637	-0.0117653554674	0.00202558908046	0.00612780320671	0.00493458942857	-0.0159287076706	0.0213793264819	-0.0174686797572	-0.00976353396402	-0.0359507444642
celery	-0.0454600131637	0.415431853932	0.170095539095	-0.0364873479137	0.434207070865	0.291997141875	0.0571278164237	0.0054739643725	-0.0191444982065	-0.00148073348551	0.0066818718317	-0.000625036139531	-0.0284586602888	0.0212928510039	0.0425128594444	-0.0303380242688	-0.0329440817052	0.0131661927562	0.0516990685176	0.0122820102073	-0.00768037507509	-0.0164451291755	0.009636106961	0.006068341551	0.00364954521159	-0.0282496052754	0.00388979032338	0.0326684639501	0.025047324979	-0.00878048581855	0.00403315689901	0.00345947868507	-0.00248306855178	-0.025761061834	-0.00955771225625	-0.00698529993347	0.0233507313603	-0.00379839728438	0.000178586789635	-0.0161373967308	-0.0126655793624	-0.0122191195752	0.0177893778537	0.0166165519548	0.0139133504514	0.0458361144904	-0.016627932557	0.0143182915713	0.0247304660927	-0.00925600734215
cellar	-0.00233743206043	0.00881983669416	-0.00347097500306	0.039361465103	-0.00879901663059	0.00696977269199	-0.032345537173	0.0887944021392	0.0117579922338	0.176785910969	-0.200644023398	0.00148362477048	-0.0195154446299	0.101537818384	-0.0670173953046	-0.0612403250914	0.0162170778224	-0.0329639222569	-0.0266481275396	0.116456188578	0.110538267685	0.0830250215072	0.0525872057025	0.0132125517554	-0.000914756237035	-0.0857388669289	0.041102847527	-0.0291051888628	0.0463998022307	-0.0379806576302	-0.00755048388759	0.00284755851119	0.0183551920381	-0.0110183904137	0.0334752273751	-0.030043195546	0.0262872863637	0.0237815761786	-0.0469499872594	0.0282931606672	0.00758778051483	0.0544335973887	-0.0468733633444	0.00656472155549	-0.0119981890838	-0.0505081887624	0.088315121234	0.0812273030996	0.0739348540802	0.120467993983
cello	-0.019960822736	0.0310170145826	-0.0487904045603	0.505123104028	0.130424987153	-0.212208566085	0.283392485551	-0.00441373752983	-0.0215875931082	0.0127010417862	-0.027818853639	-0.0338896853379	-0.0223090789543	-0.00107401739924	0.00944763282898	0.018771308885	0.0149762710721	0.031226426214	0.0381181149234	-0.0355992398618	-0.0455713839967	-0.0598755978212	-0.0471929622116	-0.00389592750177	-0.108345951975	0.0177364635806	0.0695810502558	0.0152168448434	0.0083546044193	0.0314204662916	0.00374710848092	0.0761822021813	-0.00380050018192	-0.00512737720828	-0.0325105901112	-0.0194979633828	-0.0388525525944	-0.011609245351	0.0999008376592	-0.0147241089811	0.0660605680849	0.0012549872644	-0.00580006171882	0.035912112775	0.0191033527119	0.023658838178	0.0322186083876	0.010167696216	-0.0286197859546	0.0306130204785
certificate	-0.000146616916178	0.000471719943488	-0.000140718194364	0.00425723765254	-0.000473062654283	0.00168413405537	-0.005364981841	0.00341257095635	0.00147974821422	0.00871225597726	-0.00626642104316	-0.0013579706657	0.00107528223282	0.00111075490919	0.00703827777319	0.00330093058052	-0.00553159075108	0.00815202652595	0.00769008693161	0.0127449762892	0.00475208691143	0.00453013610504	0.000374540690499	-0.00311854454648	0.0142044935535	0.00378008381938	-0.00837428186822	-0.00173614293542	-0.00129523913296	0.00951029566243	0.00604165725266	0.00595128941244	0.00597096787721	0.00627384624156	-0.00537546049848	-0.0120270888066	0.0150385782586	-0.00715637400212	0.0137131743846	0.0205563104905	0.00446642101386	0.00468705387807	-0.0212347893979	0.0162221139423	0.00623924495114	0.00825285279451	-0.0055925695129	-0.0300343416225	0.00797418496971	0.0139616928289
chain	-0.00699859524301	0.0223525702959	-0.0174302769497	0.0986975179881	0.00658768157237	0.0182847114248	-0.0677598756499	-0.0246082050638	0.0459252164882	-0.00221007571561	0.0436028668498	-0.034817427586	0.0202372382022	-0.0320939551777	0.0149088524903	-0.0352031021224	-0.0265498728407	0.0157090904339	0.0121182306597	-0.00169982550455	0.0303838889218	-0.0371310098434	0.0327301055196	-0.0929641950748	0.13987021201	-0.081039999199	-0.156942874288	-0.0736549971491	0.00659601248487	-0.0444057395729	0.0523327237327	-0.0560514016863	0.315657901302	-0.0858859692201	0.0624153837092	0.0807351224174	0.00213792166143	0.0465119332051	0.0665070603075	0.00858871087034	0.00323675080138	0.00649960411083	-0.0141842729045	-0.00520531122032	0.0628381280591	0.0218999599517	0.0228600752638	-0.0503186950247	0.0210161406193	-0.00250374135474
chair	-0.0263174456971	0.0382687320118	-0.0717647146616	0.0831034779347	-0.0643830178014	0.0856437595183	0.0184717136531	0.0545745192109	0.0592662862459	0.0991129507762	-0.125737301831	-0.0671377851803	0.0123800482208	-0.0561456973679	0.0886004928578	0.0443732539624	0.00672647230466	-0.0610533553775	0.011368474309	-0.332713330807	-0.394671962527	0.201611548781	-0.106217696787	0.139327826529	0.145188808506	-0.0372702637697	0.0321094298378	0.11809179326	-0.0861642643015	0.0653579490042	-0.0599859322033	-0.0189691767289	0.0386028292306	-0.0295428674257	0.0211976393461	0.0114619900647	-0.0237964401721	0.023846925071	0.0154261560099	0.0159989553599	-0.0344218506415	-0.0643388749861	-0.0305268364512	-0.0138899858809	-0.0302101921004	0.0201991153358	-0.049574786918	-0.0512796441824	-0.00849466253229	0.0170958821803
chandelier	-0.00214574194575	0.00816100935592	-0.0045498320289	0.0216454017706	-0.00159749176903	0.00637993786896	-0.0225490735348	0.0139574222579	0.00759227056956	0.0196003143285	0.0184852580529	0.0298309456867	0.00955711224801	-0.00691719297615	0.00072391422703	-0.0172020065588	0.0144129325466	0.0120118507539	-0.010932873857	0.0293256428933	-0.0140544478649	0.0203004755233	0.0331653627625	-0.0271383276786	0.073184769341	-0.0162792331815	0.0351828344066	-0.0418844885639	-0.00962370504765	-0.00846875908554	-0.107381061145	-0.00547149993124	-0.0131677223014	0.00926609374618	-0.0362274238825	0.122914125121	-0.0499747442765	-0.00421627631695	0.0587533982964	0.0139982213314	0.0404401963265	-0.0356392645519	-0.0823044806893	0.0465992422167	0.0265239396327	0.0432570059953	-0.0566212677953	-0.0177923216216	-0.0625795593519	-0.027636956865
chapel	-0.000610940214225	0.000883300653325	-0.0015421496474	0.00423647713459	-0.00260655748321	0.00275621751773	-0.00140919571211	0.0159415632561	-0.0023498035805	-0.00489294454937	0.00163165410158	0.00165258502999	-0.00561646693213	-0.00104536706469	-0.00387064636897	-0.00416200611364	-0.00736762764091	0.0243392158345	0.006221220908	0.00954206850756	-0.00150334191416	0.00333188206346	0.0247991732324	-0.00167019064987	0.00745334231513	0.0390302636962	0.0282595106731	-0.0189255987529	-0.028861701181	0.00585240699561	-0.113682390176	-0.0772739095648	0.0125561342621	-0.116623795147	-0.0294076539503	-0.039142270088	0.0667751526878	-0.0482717201761	0.0660194075038	-0.0969896710086	0.403012255333	0.274764301732	-0.177013648801	-0.229401170525	-0.325664528089	0.233176734386	-0.299510606712	-0.0400458490263	0.0335784272008	-0.0775149676836
cheese	-0.0419556654186	0.13105151083	0.0226584679165	-0.0129844973377	-0.00823099715655	-0.0320596079917	-0.00590456827856	0.00329854184249	0.0128946790092	-0.0013405604636	-0.00582539967444	-0.00277847474439	0.0171381935405	-0.0332310215235	-0.0745998952893	0.0333723127188	0.0137437506198	0.0240033546507	-0.0859979280221	-0.0425318909976	-0.0200928170888	0.144373187166	0.0580016818288	-0.120909729112	-0.0140036658372	0.0998928787551	0.0880512215036	0.02942543799	0.0544398953309	-0.0453293474818	0.08506551566	-0.0337786785008	0.020084067618	0.0225964729641	-0.0457960007309	0.0272246885797	0.00183518339275	-0.0494821357522	0.00704189003727	0.00580800739618	-0.00952350247817	0.0956207227703	0.0228692204924	0.0240206261522	0.0452170950547	-0.0836677789005	0.00928289828224	-0.0494946583332	-0.0636839247702	-0.0967199924844
cheetah	-0.0709369779154	0.0700287862382	-0.148040342491	0.0416899818502	-0.157823323839	0.166763204264	0.0929576687844	-0.00969237139426	-0.0193862623643	-0.0201795938632	0.0346111913092	0.0261816679193	-0.0281895907408	0.0410339086527	-0.0336405276745	-0.0268069461271	-0.131149135401	-0.00487020308655	0.01175925337	0.0580981924224	0.021982061132	-0.0356220413247	-0.115808087877	-0.0241093810238	0.145058140436	0.125696012559	0.10982053387	0.201075518637	0.165814897829	-0.0888088883907	0.107340439255	0.0196093472795	-0.0197113015388	0.00643647304806	-0.0824866357832	0.0687008510683	0.0264750029967	0.106090099069	0.019879392663	-0.0330904905357	-0.056139618951	-0.0124681115827	-0.0466715871251	0.0172229378213	0.0176731125566	0.050311704875	-0.0749950388353	0.0666491601676	0.0326002082641	0.0815164237624
cherry	-0.0454084061415	0.396551893467	0.261725604059	0.0157115513783	-0.340351737899	-0.188120348341	-0.00993365805336	-0.00551340210684	-0.00180418197368	-0.00315918746976	0.00132395821424	-0.00241598829236	0.0126990567929	-0.0252743236975	-0.0803535073451	0.0316677950248	0.0625290811033	-0.0382735686649	-0.0393774259707	-0.022892213206	0.0412965436536	-0.117183037053	-0.0539746182295	0.115140964823	0.03804461076	-0.0351067650726	-0.0308792762655	-0.0789749266786	-0.00722565544454	-0.0291919946526	-0.0237609772497	0.047046223839	-0.0181412056708	0.0318425074814	0.0503924128149	-0.0351445532139	-0.0129266415157	-0.035044441927	0.00345257673172	-0.00809308787334	-0.0124267184637	-0.0440652447122	-0.00121597823636	0.0105059512447	-0.057309445653	0.0689044407624	0.0381975273649	0.0316495462794	-0.02167801392	0.0699638203883
chickadee	-0.769717227022	-0.0853486831522	0.0926599793231	-0.00498618161708	-0.0134611568309	-0.0210841621099	-0.0155988029835	-0.00473668074387	-0.00425062962638	0.00329251229322	-0.00837056889087	-0.0192937071163	0.0179471804916	0.0193416081056	0.0340258751608	0.0122858626076	-0.0415616269807	-0.0258790381299	0.00226043189199	-0.0376896629221	0.0111477098151	-0.0217716851413	0.0747169421658	-0.0618933723739	-0.0222932230479	0.0564540874901	0.0123435085445	-0.0183015363688	-0.0204552333694	-0.132735911559	0.0703389641885	-0.00669013021549	0.00571531509796	0.0472290057019	-0.0783077509461	0.0184733911373	0.00364561884748	0.0570556786348	-0.0145634040619	-0.0218683750897	-0.0399723046369	-0.074440100176	-0.0251569729273	-0.0101377818644	-0.0590315096524	0.0316571618988	-0.00494836417347	-0.0632863167382	0.0227064833061	-0.0185742869638
chicken	-0.556050149786	-0.0342297840009	-0.00329597355893	-0.0280203565714	0.0302069270093	-0.011149317009	0.00678190683959	-0.0161683375693	-0.00886340549066	0.0123099803319	0.011580158899	-0.00244728536978	-0.105720671067	-0.0302014038978	0.0109279021478	-0.00398738985311	0.119220156411	-0.02413365328	-0.0202838788354	-0.0370786148431	-0.031189379401	0.0678649423996	-0.0279669854042	0.0373511196328	-0.0256637109415	0.0231034013248	-0.120154463744	0.0182856286992	0.127395717397	0.0698102580828	-0.0225828219257	-0.0826198780279	-0.0166182052378	-0.0220587699316	0.0188592388292	-0.00182821306125	0.0377111443063	0.0797411637505	-0.0535686731602	0.0560244587901	0.0596153097724	-0.0563958091529	-0.0291212497993	0.0227719855428	-0.0278480670529	-0.0726475185144	-0.00142164005016	0.00539961784961	-0.00671887014414	-0.00838392377198
chimp	-0.0766776751353	0.0649648003085	-0.161149345484	0.0279471731254	-0.133437271452	0.150343769891	0.0954858797675	-0.0543053699238	-0.00722888183394	0.0157355400133	0.0160769575941	0.000418292652012	-0.0295941775469	0.00792105144581	0.0446730300724	0.00143830886029	-0.0291470701346	-0.0627343249189	-0.0559941832111	0.00497620920589	0.0815013127651	-0.0337212727965	-0.00714273630199	-0.0481640567344	-0.0121564937897	-0.0652456621082	0.0777088235032	-0.034485801899	-0.0507170342574	0.0244742160485	0.0104822581472	-0.0480098159827	0.0233368424979	-0.0264464054827	-0.0315956139394	-0.0162353702635	0.0184609273572	-0.00433935831124	0.0213945394532	-0.0279647861599	0.024614250591	0.0322049039525	0.121529392432	0.0118630619378	0.0729355668674	0.0558894882847	-0.0245999152235	0.0588734696775	0.124283278002	0.0396726588891
chipmunk	-0.0951971343522	0.0993454726633	-0.189291387887	0.0432050955077	-0.156931458181	0.179420539992	0.0984433516532	-0.0385173443408	-0.00834300231287	0.0128359354265	0.0151390869142	-0.00921740943812	0.0138747854281	0.0188369957328	-0.00853381052262	0.0438462917083	-0.0802030482597	-0.0491677646735	-0.109056704391	-0.00179123828687	0.10743343837	-0.0311976025349	-0.0110877220629	-0.109218947442	-0.0279575427941	0.0357084565125	-0.0287709735105	0.0891240504163	-0.040199831913	-0.128987894206	0.092167605792	0.114937117052	-0.0169589198068	0.117529733582	0.0841660330652	0.0626392399573	0.0595973579203	0.0888746963021	-0.146123152206	0.0517930323668	0.129707642043	-0.0356252344046	0.0819779520764	0.110289337475	-0.0254824597183	0.102432087352	-0.178078916436	0.0272479904363	0.0381087726146	0.00493399650285
